{"model_data": {"model": "SimpleRNN", "input_size": 3, "skip": 1, "output_size": 1, "unit_type": "LSTM", "num_layers": 1, "hidden_size": 20, "bias_fl": true}, "state_dict": {"rec.weight_ih_l0": [[0.44951188564300537, -0.3264254629611969, -0.1474103182554245], [-0.35955363512039185, -0.04960114508867264, 0.31027403473854065], [-0.12415754050016403, -0.22296766936779022, -0.10872026532888412], [0.10909614711999893, -0.2773263156414032, -0.07495809346437454], [0.3455051779747009, 0.08237337321043015, -0.08443094044923782], [0.09213805198669434, 0.5240751504898071, -0.023355022072792053], [0.1814384162425995, 0.1604894995689392, 0.5439460873603821], [-0.3070198595523834, -0.1296132504940033, 0.44534438848495483], [0.02790904976427555, 0.09863611310720444, -0.07185160368680954], [-0.08653296530246735, 0.5037896037101746, 0.6455251574516296], [-0.14159777760505676, -0.33682340383529663, 0.33301347494125366], [-0.047822255641222, 0.41879308223724365, 0.43424975872039795], [0.21303996443748474, 0.028159674257040024, -0.9337330460548401], [-0.16886544227600098, 0.512395441532135, 0.05025049299001694], [-0.32222986221313477, 0.17015983164310455, -0.011020751670002937], [0.12011384963989258, 0.10166751593351364, 0.6603937745094299], [-0.07489755004644394, -0.31305035948753357, 0.13853129744529724], [-0.11674753576517105, -0.4206933081150055, -0.27863559126853943], [-0.0010169094894081354, -0.47575607895851135, -0.05685384199023247], [0.2511732578277588, -0.5069660544395447, 0.07929103821516037], [0.010765506885945797, 0.3120298385620117, 0.05865227431058884], [0.032130248844623566, 0.34696418046951294, -0.27330300211906433], [-0.2513014078140259, 0.24050267040729523, 0.09123186022043228], [-0.11147917062044144, 0.09574390202760696, 0.0006063231849111617], [0.1951756626367569, 0.0101516954600811, -0.21206387877464294], [0.21077647805213928, 0.36045414209365845, -0.0891394317150116], [0.20462463796138763, 0.4938993752002716, -0.04800209775567055], [-0.06192274019122124, -0.023141544312238693, -0.27529916167259216], [0.047030843794345856, 0.21704088151454926, -0.04339848831295967], [0.043425433337688446, 0.2812773585319519, -0.3176264464855194], [0.06402228027582169, 0.09814270585775375, -0.13950960338115692], [0.037868764251470566, 0.4434968829154968, -0.3173080384731293], [-0.2714192867279053, 0.14078086614608765, 0.42395687103271484], [-0.17673420906066895, 0.5593831539154053, 0.10069398581981659], [-0.47306329011917114, 0.11424080282449722, -0.003255933290347457], [-0.35238292813301086, 0.5087286233901978, -0.14047372341156006], [0.05378193408250809, -0.11667907983064651, -0.09502264112234116], [-0.12215563654899597, 0.634872555732727, 0.331790030002594], [-0.030390076339244843, 0.5771356225013733, 0.2675536870956421], [-0.2184048891067505, 0.14738936722278595, -0.07680758833885193], [0.16089709103107452, 0.00552927004173398, -0.006060732062906027], [0.6046940088272095, -0.23315544426441193, -0.14771315455436707], [0.09259047359228134, 0.009973072446882725, -0.019787535071372986], [0.9928358197212219, 0.02104770764708519, 0.019143855199217796], [1.7541629076004028, 0.03239651396870613, 0.05385056883096695], [0.3326748311519623, 0.13753460347652435, 0.1659194678068161], [4.982857704162598, -0.40873318910598755, -0.18734973669052124], [0.019582752138376236, 0.0029536611400544643, -0.04408155754208565], [0.1333669275045395, 0.07614783197641373, -0.5539438724517822], [-10.599306106567383, 0.08742571622133255, -0.12654469907283783], [0.9581729173660278, 0.07786694169044495, -0.04592503607273102], [3.7328925132751465, -0.26157891750335693, -0.10987039655447006], [-0.07137676328420639, 0.12140873819589615, -0.1440051943063736], [0.18424740433692932, 0.33387354016304016, -0.03886599466204643], [-1.4444808959960938, -0.08017364144325256, -0.059996411204338074], [0.7095736861228943, 0.28604257106781006, 0.10292180627584457], [0.11049266904592514, 0.10236219316720963, 0.07728976756334305], [0.03356500342488289, 0.12973937392234802, 0.04026157036423683], [-0.030687693506479263, -0.005039665382355452, 0.007264403626322746], [0.30378109216690063, 0.09190843254327774, 0.03727886825799942], [0.3979088366031647, 0.7010260820388794, -0.09403956681489944], [-0.47357285022735596, -0.06085629761219025, -0.0004908213741146028], [-0.27652478218078613, 0.3184845447540283, 0.03816286474466324], [-0.1577133983373642, 0.22849206626415253, 0.13374681770801544], [0.27637603878974915, 0.2610032856464386, -0.1487399786710739], [-0.03304604813456535, -0.5925999879837036, -0.11210652440786362], [-0.037472743541002274, -0.1419501006603241, 0.1172463595867157], [-0.1900741010904312, 0.10235998034477234, -0.2629834711551666], [-0.04363269731402397, 0.334586501121521, -0.04533299058675766], [-0.10594848543405533, 0.2454545944929123, 0.3121311366558075], [0.019565118476748466, 0.4688366949558258, 0.20316657423973083], [-0.027974430471658707, 0.4459415674209595, 0.5306647419929504], [-0.226059690117836, 0.042887091636657715, -1.033257246017456], [0.42426806688308716, -0.1930370032787323, -0.15323184430599213], [-0.3867405354976654, 0.0019986459519714117, 0.6743020415306091], [0.08485754579305649, 0.3624156415462494, -0.48011514544487], [-0.08725011348724365, 0.3735376000404358, 0.29434263706207275], [-0.37979498505592346, 0.2817210555076599, 0.020291069522500038], [-0.04132397100329399, 0.13761724531650543, 0.05833420157432556], [0.10398511588573456, 0.2656524181365967, 0.4522784948348999]], "rec.weight_hh_l0": [[0.3078734278678894, -0.046682678163051605, 0.04111643508076668, 0.13914436101913452, -0.2791147828102112, -0.01036292314529419, 0.11480329185724258, -0.28758397698402405, -0.00746159115806222, 0.1654023379087448, 0.09663637727499008, 0.7162557244300842, -0.24656599760055542, 0.5806107521057129, -0.5131608247756958, 0.12893475592136383, 0.33567512035369873, 0.8472512364387512, 0.06476365029811859, 0.2588597536087036], [-1.0501657724380493, 0.2780172526836395, 0.8879798054695129, 0.10426909476518631, -0.2642819285392761, 0.06313399970531464, 0.14922049641609192, 0.19225239753723145, -0.6049083471298218, 0.0028875668067485094, -0.26717954874038696, 0.0391446128487587, -0.0268904659897089, -0.48176902532577515, -0.20465311408042908, -0.2696489095687866, -0.941257655620575, 0.35498160123825073, 0.07422247529029846, 0.41048935055732727], [0.4894629418849945, -0.5069800615310669, 0.16742895543575287, -0.07037369161844254, -0.8110727071762085, 0.04019522666931152, -0.2287566065788269, -0.22323642671108246, -0.2767335772514343, 1.4191257953643799, 0.5013992786407471, -0.9211797118186951, -0.004630659241229296, 0.43346133828163147, -0.08004922419786453, 0.41320616006851196, -0.1605634093284607, 0.6938426494598389, -0.13347870111465454, 0.03931819647550583], [0.017888015136122704, -0.03770921006798744, -0.19832837581634521, 0.24477775394916534, -0.14129650592803955, -0.06865344941616058, 0.21025405824184418, -0.17465701699256897, 0.20984144508838654, 0.06453419476747513, -0.0459272637963295, -0.04306889697909355, 0.014482887461781502, 0.07322341203689575, -0.3651697635650635, -0.23966491222381592, 0.10133232921361923, 0.11755441874265671, -0.1357065737247467, 0.03413351997733116], [-0.4248477518558502, 0.1506744623184204, 0.3374732434749603, -0.19988086819648743, 0.029177047312259674, -0.003845000872388482, 0.02781769447028637, -0.09983986616134644, -0.17420877516269684, -0.17120079696178436, 0.09113367646932602, 0.3065449595451355, -0.1417478770017624, -0.4901765286922455, 0.013086695224046707, 0.06123141944408417, -0.12291926145553589, -0.2698745131492615, 0.053827837109565735, -0.10010070353746414], [-0.3078213930130005, -0.04485969617962837, 0.2375411093235016, -0.1321668028831482, -0.14779695868492126, -0.03261617571115494, -0.024043183773756027, 0.22524197399616241, -0.04659993574023247, -0.1471012681722641, 0.45680150389671326, 0.1743544489145279, -0.14959287643432617, -0.06882371008396149, -0.2764129042625427, -0.4712966978549957, -0.14754799008369446, -0.25540414452552795, 0.1848658323287964, 0.5534288883209229], [-0.9047391414642334, 0.05092987045645714, 0.4823673963546753, 0.1074015200138092, -0.4662777781486511, 0.10406886786222458, 0.05457564815878868, 0.44644221663475037, -0.9503288269042969, 0.510603129863739, 0.04100441187620163, -0.5026281476020813, -0.20916648209095, -0.45336130261421204, -0.644352912902832, -0.22911784052848816, -0.9783119559288025, 0.4517472982406616, 0.4198893904685974, 0.2781566083431244], [-0.5881919264793396, -0.0562911257147789, 0.6588264107704163, 0.03213798254728317, -0.486178457736969, -0.18434728682041168, 0.12927043437957764, 0.05097309872508049, -0.12906596064567566, 0.974149227142334, 0.2134813368320465, -0.2701655924320221, -0.06714382767677307, -0.15600843727588654, -0.3093182444572449, 0.015916042029857635, -0.41946569085121155, 0.3813658356666565, -0.1534862518310547, -0.17883437871932983], [0.018003690987825394, 0.04184391722083092, 0.20182010531425476, -0.09276044368743896, 0.013790648430585861, -0.08153722435235977, 0.02665691450238228, 0.06438027322292328, 0.08864150941371918, -0.1968616396188736, -0.16986386477947235, 0.10840360820293427, -0.025054283440113068, -0.11229423433542252, -0.022769587114453316, -0.07383441925048828, -0.12174423784017563, -0.07825485616922379, -0.06138242036104202, 0.09778106212615967], [-0.4132608473300934, 0.002532458398491144, 0.514034628868103, 0.02429298125207424, -0.021242305636405945, 0.100766122341156, 0.019451869651675224, 0.06617190688848495, -0.41759636998176575, -0.33800676465034485, -0.1820615530014038, -0.03265592083334923, -0.06031997129321098, -0.7489562630653381, 0.0637061595916748, -0.0072420621290802956, -0.5553527474403381, -0.36947739124298096, 0.026008229702711105, 0.34431886672973633], [0.6620017290115356, -0.2782227098941803, -0.2713193893432617, -0.055549878627061844, 0.25798553228378296, -0.12253808975219727, -0.115391306579113, 0.09365139156579971, -0.34728002548217773, 0.05275989696383476, -0.13830307126045227, -0.09529982507228851, -0.062440842390060425, 0.28051045536994934, 0.24428915977478027, -0.15029333531856537, -0.3814409673213959, -0.3867088258266449, -1.0692487955093384, -0.3147187829017639], [-0.06206246837973595, -0.04303490370512009, 0.4608907699584961, -0.027843410149216652, 0.08182322233915329, 0.06049412488937378, -0.033176373690366745, -0.03894855082035065, -0.31191396713256836, -0.005521361716091633, -0.20213451981544495, -0.1601807326078415, -0.04065699502825737, -0.532703161239624, 0.24416488409042358, 0.06998428702354431, -0.2693496346473694, -0.3566318452358246, 0.14274552464485168, 0.297485888004303], [0.1519877016544342, -0.3964146673679352, -0.3315102159976959, 0.034154050052165985, -0.16796958446502686, -0.33494171500205994, -0.24620983004570007, 0.06715653091669083, -0.07538719475269318, 0.04533277079463005, -0.25014281272888184, 0.03754443675279617, 0.06206045299768448, 0.4672009348869324, -0.3504546582698822, 0.07658035308122635, 0.19261351227760315, 0.17341014742851257, -0.237751767039299, -0.00042132672388106585], [-0.42656832933425903, -0.007749424781650305, -0.08822266757488251, -0.032892271876335144, 0.008685672655701637, 0.08817778527736664, 0.004022493958473206, -0.0004906117101199925, 0.05676022917032242, -0.004226504359394312, -0.2778685986995697, -0.08806934952735901, -0.023849312216043472, -0.003957672044634819, 0.11513074487447739, 0.07051502913236618, -0.05004565045237541, 0.013799230568110943, 0.3635151982307434, 0.12648458778858185], [-0.04588274657726288, 0.012230323627591133, 0.061412613838911057, -0.12946167588233948, 0.04793042689561844, -0.21175244450569153, 0.07777021825313568, 0.10744985938072205, -0.03290219604969025, 0.06890403479337692, 0.1135733425617218, -0.26843732595443726, 0.2248210310935974, -0.5380645394325256, 0.11912009119987488, -0.33168646693229675, -0.31734341382980347, -0.1208198219537735, 0.054253336042165756, 0.13289949297904968], [-0.46012675762176514, -0.09460833668708801, 0.33578264713287354, 0.11563655734062195, -0.14912372827529907, -0.19224105775356293, -0.03697168081998825, 0.1236903965473175, -0.6021916270256042, 0.931884765625, -0.5384373664855957, -0.1222652867436409, -0.18119926750659943, -0.7117226123809814, -0.2241448014974594, -0.18586605787277222, -1.230021595954895, 0.33709293603897095, 0.06062876060605049, 0.3028544783592224], [-0.5058726668357849, 0.1331806182861328, 0.8591585159301758, -0.2158355414867401, 0.012562173418700695, 0.22904399037361145, -0.02125345729291439, 0.02852611243724823, -0.37937623262405396, 0.6087684631347656, -0.07816071808338165, -0.8787366151809692, -0.060011718422174454, -0.2734805643558502, 0.3335167467594147, 0.020411361008882523, -0.6725107431411743, 0.0003156448365189135, 0.14379823207855225, 0.3791455030441284], [-0.0641075000166893, -0.5925305485725403, -0.35279542207717896, 0.2837151288986206, -0.02945394068956375, 0.36277318000793457, -0.4374682605266571, -0.5950019955635071, -0.25948479771614075, 0.4257051944732666, 0.31434017419815063, -0.20370662212371826, 0.030703160911798477, 0.3478924632072449, -0.10151631385087967, 0.2585325837135315, 1.0281471014022827, 0.41833117604255676, -0.27315157651901245, 0.11235524713993073], [0.08501139283180237, 0.16419841349124908, -0.5101906061172485, 0.12359742820262909, -0.2913694381713867, 0.15751345455646515, 0.03137689828872681, -0.16829204559326172, 0.02664291299879551, 0.44399121403694153, 0.32907241582870483, -0.08701847493648529, 0.153657004237175, 0.5399857759475708, 0.08957866579294205, 0.03922612592577934, 0.2589503824710846, 0.5417613983154297, -0.007555053103715181, 0.024813037365674973], [-0.34246015548706055, -0.057432569563388824, 0.881411075592041, -0.04967501014471054, 0.019523005932569504, 0.0004020398191642016, -0.05720364302396774, 0.04433075338602066, -0.25695371627807617, -0.5726717710494995, -0.08429498970508575, 0.9593134522438049, -0.08021232485771179, -0.003172404132783413, -0.1035182997584343, -0.21273590624332428, -0.9169904589653015, 0.2680889070034027, 0.10907124727964401, 0.8573903441429138], [-0.053802575916051865, -0.4158390462398529, 0.3607499897480011, 0.14531363546848297, -0.05395834147930145, 0.014452858828008175, -0.12186750769615173, -0.1319449543952942, -0.0280881617218256, -0.16440115869045258, -0.015144795179367065, -0.026956943795084953, 0.02329813875257969, -0.6354725360870361, -0.2499489039182663, 0.23311369121074677, -0.7303091883659363, -0.34910786151885986, -0.02672281302511692, 0.031905319541692734], [0.23784461617469788, -0.18295085430145264, -0.3035725951194763, -0.07783495634794235, 0.2196495085954666, 0.247769296169281, -0.2917812466621399, 0.08745873719453812, 0.15298616886138916, -0.12517404556274414, 0.06691156327724457, -0.11484818160533905, -0.01056496798992157, 0.4176205098628998, 0.06166534125804901, 0.22887350618839264, 0.18435953557491302, 0.2146017998456955, -0.1540500372648239, 0.17893196642398834], [-0.6152476668357849, 0.25848808884620667, 0.2299218624830246, -0.19427503645420074, -0.05019950121641159, 0.04868967458605766, 0.15473642945289612, 0.3592730164527893, 0.3171061873435974, -0.5707098245620728, -0.22341474890708923, -0.044163256883621216, 0.034044209867715836, -0.2144840955734253, 0.5464912056922913, -0.4592372477054596, -0.950262188911438, -0.8839122653007507, -0.17960764467716217, -0.4798144996166229], [0.027397582307457924, -0.07636097073554993, 0.09340552240610123, 0.09041152149438858, -0.08433488756418228, 0.10939428955316544, 0.13627013564109802, -0.1796986609697342, -0.13489367067813873, -0.023540744557976723, 0.09183843433856964, 0.049413397908210754, -0.06913691014051437, -0.13038192689418793, 0.15330061316490173, 0.09717638790607452, 0.016071714460849762, -0.00978676788508892, 0.11733271181583405, -0.03059307299554348], [-0.263414591550827, 0.20382562279701233, 0.14822576940059662, -0.12480547279119492, -0.1455097496509552, 0.47431716322898865, -0.29935935139656067, -0.03652811422944069, -0.11378318071365356, 0.20962300896644592, -0.08358526974916458, -0.10582387447357178, -0.1894797682762146, 0.12484578788280487, 0.08163206279277802, -0.13234993815422058, -0.037167929112911224, 0.1705237179994583, 0.026847349479794502, 0.15096978843212128], [0.2665891945362091, -0.12390885502099991, -0.3572579622268677, -0.13706381618976593, 0.23537033796310425, 0.17205895483493805, -0.038497790694236755, -0.005200788378715515, 0.30130669474601746, -0.3396446406841278, 0.14580397307872772, -0.04160939157009125, 0.06498837471008301, -0.1270926147699356, -0.1413765549659729, 0.7059047818183899, 0.3219572901725769, 0.39601996541023254, -0.1221076175570488, -0.330206036567688], [0.38607358932495117, -0.24739515781402588, -0.4569907784461975, 0.052963193506002426, -0.5152978897094727, -0.1172194704413414, -0.7056253552436829, 0.010873446241021156, 0.22075533866882324, -0.07152164727449417, 0.02309304103255272, 0.35409003496170044, 0.05210272967815399, 0.3384001553058624, -0.1452055126428604, 0.39777788519859314, 0.4745974838733673, 0.04721592366695404, -0.35032784938812256, 0.011149784550070763], [-0.1112532988190651, -0.1352815330028534, -0.06222490593791008, 0.09488265961408615, 0.027498485520482063, 0.23229031264781952, -0.16969417035579681, -0.12225576490163803, 0.2804621756076813, 0.19716039299964905, -0.0028516901656985283, -0.1852659285068512, 0.02817586436867714, 0.16789664328098297, -0.2356385588645935, -0.1024107113480568, 0.0969252958893776, 0.038333710283041, -0.1879427433013916, -0.11545514315366745], [-0.027066964656114578, 0.0341494157910347, 0.3721638023853302, -0.13335205614566803, -0.11099828779697418, -0.16413013637065887, 0.002432862063869834, 0.10194677114486694, 0.05518690124154091, -0.1627514511346817, -0.3834683895111084, 0.04000423476099968, 0.04734114930033684, -0.352260947227478, -0.14883741736412048, -0.03868274390697479, -0.18234238028526306, -0.10744073987007141, -0.1974187046289444, 0.4236404001712799], [-1.0436795949935913, 0.07866843789815903, -0.28551578521728516, 0.08234056830406189, -0.4818805754184723, 0.0023843783419579268, -0.16909536719322205, 0.32663094997406006, 0.4011804461479187, -0.24383221566677094, 0.29640015959739685, -0.32131654024124146, -0.014510631561279297, 0.007763679604977369, -0.5350970029830933, -0.07477077096700668, -0.46324875950813293, 0.39631274342536926, 0.07247757166624069, 0.21833664178848267], [-0.03788723051548004, -0.12122946232557297, -0.10749604552984238, -0.014493831433355808, -0.06888213753700256, -0.12795411050319672, -0.02107210084795952, -0.29566511511802673, 0.010003817267715931, 0.06550709903240204, -0.269580602645874, 0.3119867742061615, -0.049258675426244736, 0.3058885633945465, -0.09880684316158295, 0.25866422057151794, 0.543282687664032, 0.1888994425535202, -0.026160694658756256, 0.4281185567378998], [-0.2529073655605316, -0.06739142537117004, 0.31386590003967285, -0.13867080211639404, -0.31716418266296387, 0.00801269244402647, 0.05125761032104492, 0.10673356801271439, 0.058622416108846664, -0.017014147713780403, -0.06485256552696228, -0.08982337266206741, -0.12945933640003204, 0.28721415996551514, -0.6678775548934937, 0.0898265689611435, -0.012148674577474594, 0.4789970815181732, -0.0974404588341713, 0.4774281680583954], [-0.03907816857099533, -0.14549441635608673, 0.005793252028524876, 0.08672618865966797, -0.12750686705112457, 0.09257650375366211, -0.09644635021686554, -0.05108484998345375, -0.0809810608625412, -0.1246967539191246, -0.016659939661622047, -0.2014697641134262, 0.03171404451131821, -0.503775417804718, 0.18504345417022705, 0.009743303060531616, -0.20727290213108063, -0.18947485089302063, 0.007781262509524822, -0.17717032134532928], [-0.32466891407966614, -0.0021823591087013483, 0.1722446233034134, -0.13370466232299805, 0.13382278382778168, 0.0397111177444458, 0.005671235732734203, 0.024953845888376236, 0.20947414636611938, -0.32448598742485046, -0.28631266951560974, -0.13622498512268066, -0.026518575847148895, -0.34163960814476013, 0.29041117429733276, -0.003229502122849226, -0.2769330143928528, -0.23359760642051697, 0.302651584148407, -0.04926832392811775], [-0.38924431800842285, -0.35866886377334595, 0.23862764239311218, -0.029459258541464806, -0.25642430782318115, -0.2235925793647766, 0.20937491953372955, -0.21180960536003113, -0.09829246997833252, -0.2708253264427185, 0.1731521040201187, -0.35578101873397827, 0.2012590914964676, -0.14452430605888367, 0.16189399361610413, 0.4473694860935211, 0.045062337070703506, 0.6285114884376526, -0.10962975025177002, -0.09170769155025482], [0.0004997978103347123, 0.01766807772219181, -0.20681224763393402, 0.05496756359934807, -0.0726519450545311, -0.08957865834236145, -0.049114834517240524, 0.2154116928577423, 0.26288118958473206, -0.41314831376075745, -1.0616568326950073, -0.12885083258152008, -0.05008992552757263, 0.31150877475738525, -0.33500146865844727, 0.944335401058197, -0.05050089955329895, 0.10145602375268936, -0.15571363270282745, -0.25412100553512573], [-0.7478694915771484, 0.06966712325811386, 0.3446747958660126, 0.18855799734592438, -0.21751433610916138, 0.05088640749454498, -0.09240647405385971, 0.29699715971946716, 0.002526463009417057, -0.3033877909183502, 0.10681663453578949, -0.060854293406009674, 0.21074798703193665, 0.24729497730731964, -0.0303894504904747, -0.12775510549545288, -0.4089423418045044, 0.47425276041030884, -0.27989616990089417, 0.1441664695739746], [0.1528131365776062, -0.05069691315293312, -0.020228680223226547, -0.12025272846221924, 0.19515912234783173, -0.12412828952074051, 0.06097446009516716, 0.08561461418867111, -0.08883695304393768, -0.539461076259613, -0.20434652268886566, -0.14957165718078613, -0.03816213831305504, -0.7307001948356628, 0.15105539560317993, -0.049235738813877106, -0.5709812641143799, -0.8033604025840759, -0.26888301968574524, 0.08952649682760239], [-0.0704125314950943, -0.12377098947763443, 0.5680515766143799, -0.11435204744338989, 0.18811377882957458, -0.09800498187541962, -0.0650353655219078, 0.00281611573882401, 0.0024095438420772552, -0.343512624502182, 0.16668173670768738, -0.033289991319179535, -0.04520845040678978, -0.6819663047790527, 0.2542519271373749, -0.15054449439048767, -0.7783152461051941, -0.7065766453742981, 0.14599691331386566, -0.17555354535579681], [-0.46593326330184937, 0.11097653955221176, 0.07839162647724152, -0.06763990223407745, -0.39387398958206177, 0.20497927069664001, 0.10028740763664246, 0.06873571872711182, 0.22832931578159332, 0.9633025527000427, 0.027944371104240417, -0.6573812961578369, 0.006840103305876255, -0.032479673624038696, -0.19110839068889618, 0.09056252241134644, -0.37797150015830994, 0.4956423342227936, -0.05954067036509514, 0.16732646524906158], [0.32540372014045715, -0.07926858216524124, -0.06519848108291626, 0.04202670603990555, 0.09634141623973846, 0.009210744872689247, 0.09122351557016373, 0.15049287676811218, -4.478877599467523e-06, -0.5582218170166016, 0.18943379819393158, -0.12035908550024033, -0.06940028816461563, -0.0019733677618205547, -0.23177571594715118, 0.045183178037405014, -0.35331156849861145, -0.2149868905544281, -0.06920458376407623, 0.030222682282328606], [-0.518246054649353, 0.03555653989315033, -0.02242945320904255, 0.20540058612823486, 0.4150402545928955, 0.31294557452201843, 1.0442662239074707, 0.480388343334198, 0.0980655625462532, -4.893807411193848, 0.2490546703338623, 1.5996233224868774, 0.014766186475753784, 0.07557681947946548, -0.5248185396194458, -0.3268333971500397, 0.03501719608902931, 0.3031986653804779, 0.24260790646076202, 1.3535447120666504], [0.08586044609546661, -0.04677625745534897, 0.08015234023332596, 0.13575778901576996, 0.30321213603019714, 0.09380518645048141, 0.23665215075016022, -0.05285443738102913, 0.00200267368927598, -0.5179808139801025, 0.08132661134004593, 0.3534536063671112, -0.06767837703227997, -0.10968030244112015, -0.2653779089450836, 0.019786667078733444, 0.08615225553512573, 0.3289419412612915, 0.007343060337007046, 0.2793205976486206], [-0.027379034087061882, -1.6152169704437256, -0.11156722903251648, 0.009773703292012215, -0.8202113509178162, 0.38617226481437683, 1.3710029125213623, 0.7273058295249939, -0.058432437479496, 0.002017863327637315, 0.07981591671705246, 0.051783692091703415, 0.22185437381267548, -0.033819835633039474, 0.7590329647064209, -0.3082585632801056, 0.2746047377586365, 0.08033666014671326, 0.12585030496120453, -0.000989372143521905], [0.059319380670785904, -0.24996837973594666, -0.35578224062919617, -0.1744527667760849, -0.4716446101665497, -0.04329754039645195, -0.21058860421180725, -0.3881540596485138, -0.021390266716480255, -0.30707746744155884, -0.08567696809768677, 0.12005311250686646, 0.1483769565820694, 0.030983177945017815, 0.490455687046051, 0.020201727747917175, -0.0280399601906538, -0.3100234866142273, 0.15084226429462433, -0.01813390851020813], [-0.24467378854751587, -0.2949436604976654, 0.0898948535323143, 0.4383403956890106, -0.09721317142248154, -0.7975268363952637, -1.6744242906570435, -0.2361084669828415, -0.08319304138422012, 0.1951482594013214, -0.15483102202415466, 0.2272278219461441, -0.23595063388347626, 0.3658179044723511, 0.4315541386604309, 0.1602206826210022, 0.17709223926067352, -0.09179159998893738, -0.02758791483938694, -0.12571944296360016], [-1.1127102375030518, -0.42831578850746155, -1.12844717502594, 0.14906048774719238, 0.47090041637420654, 0.5300813317298889, 2.0012757778167725, 0.38622474670410156, 0.08090247213840485, -7.38729190826416, 0.5943821668624878, 1.9509862661361694, 0.10424554347991943, 0.2033461183309555, -0.6149956583976746, -0.44729849696159363, -0.42931807041168213, 0.2899279296398163, 0.5406242609024048, 2.174891710281372], [-0.2513531446456909, 1.0577123165130615, -0.015368932858109474, 0.14968228340148926, 0.1281379610300064, -0.42258721590042114, -1.0272860527038574, -0.7369154095649719, 0.012173865921795368, -2.156280517578125, -0.0826568603515625, 1.061391830444336, 0.11401599645614624, 0.056064750999212265, -0.8738192319869995, 0.09402436017990112, -0.07279162108898163, -0.3678901195526123, 0.037187360227108, 0.3899727761745453], [-0.031974583864212036, 0.05428541824221611, -0.08160126209259033, -0.23724225163459778, -0.07108505070209503, 0.033712368458509445, 0.007177615072578192, 0.04994271323084831, -0.13815197348594666, -0.04588368162512779, 0.13551238179206848, 0.24982969462871552, 0.1513991355895996, 0.42228856682777405, -0.04337858781218529, 0.06876330077648163, 0.03361457213759422, 0.031216522678732872, 0.13909323513507843, -0.026422841474413872], [1.1049566268920898, -0.16573242843151093, 2.938202381134033, 0.04616766422986984, 0.007291228976100683, 0.114255890250206, 0.27822136878967285, 0.36982136964797974, 0.0037463970948010683, 0.1168425902724266, 0.11448754370212555, -0.2343486100435257, -0.08083552122116089, 0.08422774821519852, 0.06324274092912674, -0.009949290193617344, -0.05873144418001175, 0.37582889199256897, -0.28587499260902405, 0.17402704060077667], [-0.45743033289909363, -0.2932444214820862, -0.08630694448947906, -0.015036092139780521, -0.037578094750642776, -0.36614087224006653, -0.30081018805503845, 0.41581669449806213, -0.39817026257514954, 1.9019063711166382, 1.4067631959915161, -0.10076263546943665, -0.026337943971157074, -0.025225594639778137, -0.11848939210176468, -0.09111906588077545, 0.1741797775030136, -0.04011938348412514, -0.6004465222358704, -1.3810871839523315], [-0.7895551323890686, 0.11916927248239517, -0.5956628322601318, -0.1490483582019806, -0.05561593174934387, 0.05874607712030411, -0.048141960054636, 0.20139990746974945, -0.2490970343351364, 0.2150942087173462, 0.008035046979784966, -1.4357436895370483, 0.08976870775222778, 0.5833063721656799, 0.35059574246406555, 0.01941070891916752, 0.03918323293328285, -0.5382659435272217, 0.1835021674633026, 0.04641145467758179], [0.2801381051540375, 0.4851994514465332, -0.07296252995729446, 0.20518751442432404, -0.14528779685497284, -0.7999476194381714, 0.24078337848186493, -0.24536320567131042, -0.040176499634981155, 0.30311283469200134, 0.7658814787864685, 0.3612074553966522, 0.37582188844680786, -0.39987605810165405, 0.35791805386543274, -1.6441971063613892, 0.46577703952789307, 0.446392685174942, 0.0779738575220108, 0.17605175077915192], [0.07960234582424164, -0.09307550638914108, -0.1379123479127884, 0.044916413724422455, 0.1084708645939827, -0.03600621968507767, -0.08673331886529922, 0.16733627021312714, 0.0171832125633955, -0.21075424551963806, -0.02413901872932911, -0.08964744210243225, -0.05044267699122429, 0.38018834590911865, 0.16569490730762482, -0.09781643748283386, -0.13755875825881958, 0.13980160653591156, -0.41471540927886963, 0.1279144138097763], [0.2057543396949768, 0.10124079138040543, 0.09818567335605621, 0.1409147083759308, 0.7222163081169128, 0.23171760141849518, 0.2991828918457031, 0.3546569347381592, 0.06673756241798401, 0.11587322503328323, 0.056694988161325455, -0.1055411621928215, -0.08233601599931717, -0.09963815659284592, -0.07690627872943878, -0.14791277050971985, 0.1059986874461174, -0.03807295113801956, -0.11559581011533737, 0.0016638563247397542], [0.033693041652441025, -1.2294278144836426, -0.053816717118024826, 0.06587766855955124, -0.7172591686248779, -1.0538800954818726, -1.5822679996490479, -0.9223905801773071, -0.05309956893324852, 2.5316545963287354, -0.2088303416967392, -0.21035532653331757, -0.02297111228108406, 0.18738028407096863, 0.5390196442604065, 0.4158710539340973, 0.3291659355163574, -0.6546491980552673, -0.1012193113565445, -1.050498604774475], [0.5115343332290649, -0.20448720455169678, -0.21605506539344788, -0.14235590398311615, -0.054650161415338516, 0.014941330999135971, -0.01583884097635746, -0.16552655398845673, 0.06324946880340576, 2.412586212158203, -0.07632278650999069, -1.0039559602737427, -0.08216676861047745, 0.17816758155822754, 0.4534854292869568, 0.11171624064445496, -0.3927094638347626, -0.1753924936056137, -0.0925757884979248, -0.39148348569869995], [0.21372820436954498, 0.1109086200594902, -0.19138304889202118, 0.015357407741248608, 0.08341310918331146, -0.2088848203420639, 0.19469910860061646, 0.1705964058637619, -0.01676962710916996, 0.12985828518867493, -0.07526111602783203, -0.013584067113697529, -0.24874703586101532, -0.08681107312440872, 0.0712418332695961, 0.20744743943214417, -0.47499215602874756, 0.3212820291519165, -0.07903701812028885, -0.049597177654504776], [-0.09725534170866013, -0.2056882381439209, 0.10271147638559341, -0.022831987589597702, -0.09959099441766739, 0.014200416393578053, -0.3876754641532898, 0.267752468585968, -0.005067362450063229, 0.3871151804924011, -0.19591374695301056, -0.09317687153816223, -0.0449192114174366, -0.061095256358385086, 0.0511227548122406, 0.23794372379779816, 0.3083063066005707, -0.1130661591887474, 0.14890876412391663, -0.23014134168624878], [0.012375487945973873, 0.43510645627975464, 0.012324972078204155, -0.1585187166929245, 0.17246606945991516, 0.005458507686853409, -0.24122874438762665, 0.49415335059165955, -0.17450740933418274, 2.3806920051574707, 0.3457278907299042, -2.889298677444458, -0.0008407688583247364, -0.16527074575424194, 0.4341445565223694, 0.08665791153907776, -0.1799607276916504, -0.8324480056762695, -0.085340216755867, -0.30580583214759827], [0.21887356042861938, -0.17230695486068726, 0.8615491390228271, 0.10665937513113022, -0.1585732400417328, -0.23112377524375916, -0.11801666021347046, -0.09135656803846359, -0.2503422200679779, 0.03690281882882118, 0.13011692464351654, -0.3372521698474884, -0.13879667222499847, -0.342465341091156, 0.08069455623626709, 0.19346410036087036, -0.006364805158227682, -0.026583939790725708, 0.06471112370491028, 0.13624201714992523], [-0.490170419216156, 0.23446343839168549, 0.5147091746330261, -0.01990695670247078, -0.8789668083190918, -0.1140274778008461, -0.05153844878077507, 0.5458260178565979, -0.4946558475494385, -0.28307458758354187, -0.017493339255452156, -0.5374524593353271, -0.09566470235586166, -0.4565323293209076, -0.9981626868247986, 0.0772494375705719, -0.7030683159828186, 0.8372017741203308, 0.21586617827415466, 0.3631896674633026], [0.09583239257335663, 0.047424789518117905, -0.09979598224163055, -0.11702398210763931, 0.1044982373714447, -0.060856904834508896, -0.1613772213459015, -0.41640013456344604, -0.01631753146648407, -0.27429747581481934, -0.03677983582019806, 0.45413365960121155, 0.09844827651977539, -0.24288053810596466, 0.032026391476392746, -0.0350298248231411, 0.019674573093652725, -0.7540591359138489, 0.2815457284450531, -0.28305700421333313], [0.10271511971950531, -0.06164043769240379, -0.02894205041229725, 0.12558980286121368, -0.007302287500351667, 0.012277047149837017, -0.05379444733262062, -0.018679343163967133, 0.04978524148464203, -0.07012294232845306, -0.0016675328370183706, -0.041660375893116, -0.002374377567321062, -0.0662895068526268, -0.027518754824995995, -0.16775387525558472, -0.10094378888607025, -0.16750241816043854, 0.03560492768883705, 0.17708630859851837], [-0.38513293862342834, 0.40669530630111694, -0.07897941768169403, -0.2420669049024582, -0.17498840391635895, -0.051122792065143585, 0.06472530961036682, -0.2788131833076477, 0.14648564159870148, 0.053125232458114624, 0.05957987904548645, -0.26217570900917053, -0.12459681928157806, -0.23697854578495026, -0.014528544619679451, -0.11764106899499893, 0.0004571795288939029, -0.4012424349784851, -0.03471884876489639, 0.111766517162323], [0.07474518567323685, -0.38636335730552673, -0.04006097465753555, -0.03190658241510391, -0.3790004253387451, -0.1625872701406479, -0.18675567209720612, -0.09973935782909393, 0.3814544379711151, 0.03975432366132736, 0.1355002522468567, 0.10914705693721771, 0.07713016867637634, -0.483886182308197, -0.24054275453090668, -0.1430540531873703, 0.3751128017902374, -0.03484663367271423, -0.42085039615631104, 0.4624922573566437], [-0.31402096152305603, 0.13773056864738464, 0.2425268143415451, -0.12222133576869965, -0.4184947907924652, 0.13383643329143524, 0.5127056241035461, 0.1177312508225441, -0.503266453742981, -0.2813955247402191, -0.005726716481149197, -0.4689897298812866, -0.05864395573735237, -0.19414114952087402, -0.8421568274497986, -0.02306130714714527, -0.9775497317314148, 0.7501350045204163, 0.17629137635231018, 0.49559274315834045], [-0.2714539170265198, -0.4048430621623993, 0.2439751923084259, -0.07873018085956573, -0.34929171204566956, 0.10023858398199081, -0.19400380551815033, -0.16209611296653748, -0.16569902002811432, 0.19115592539310455, -0.20763824880123138, -0.5022965669631958, 0.06177015230059624, -0.4404296875, -0.2789921760559082, 0.16269931197166443, -0.5290104746818542, 0.19313572347164154, 0.05660334601998329, 0.3628522753715515], [-0.3176710307598114, 0.035869527608156204, 0.3107199966907501, -0.03766431286931038, 0.008365754038095474, 0.09409568458795547, 0.048624321818351746, 0.15304183959960938, 0.526845395565033, -0.552749514579773, -0.21314993500709534, -0.45995819568634033, -0.07815555483102798, -0.5218791961669922, -0.3122032582759857, 0.09582536667585373, -0.3037969768047333, 0.03229059278964996, -0.018978919833898544, -0.26123398542404175], [-0.6415877342224121, 0.009100259281694889, 0.9421553015708923, -0.02554157003760338, -0.0884351134300232, 0.10421503335237503, 0.03116074949502945, 0.07781103998422623, -0.30053412914276123, -0.7245566248893738, 0.09749491512775421, 0.05022084712982178, -0.0702749639749527, -0.896564781665802, -0.1768316924571991, 0.029904263094067574, -0.5272020697593689, -0.20381927490234375, -0.20742899179458618, 0.315956711769104], [-0.41238462924957275, -0.035833120346069336, 0.2216990888118744, -0.03270985931158066, -0.17870570719242096, -0.4739842712879181, -0.07784640789031982, 0.011864439584314823, -0.969070315361023, 1.1504802703857422, -0.13937653601169586, 0.27296942472457886, 0.03818655014038086, 0.13390685617923737, 0.44265317916870117, -0.30242830514907837, -0.5625317692756653, 0.026893284171819687, 0.04645676538348198, 0.5671488046646118], [0.0062237028032541275, -0.02963976375758648, 0.38174325227737427, -0.0057678245939314365, 0.1180354505777359, 0.04416121169924736, -0.00904898066073656, -0.020148690789937973, -0.3330264389514923, -0.11056635528802872, -0.21261268854141235, -0.12481879442930222, -0.03775812312960625, -0.5361104607582092, 0.26120322942733765, 0.017736701294779778, -0.29710057377815247, -0.4292239546775818, 0.030854482203722, 0.22369416058063507], [-0.5324178338050842, -0.17665408551692963, 0.3665103614330292, -0.014948777854442596, 0.11506392806768417, -0.14329949021339417, -0.08207032829523087, -0.10784171521663666, 0.48491209745407104, 0.08121269941329956, -0.06916522979736328, -0.04973434656858444, 0.14692285656929016, -0.3098773956298828, 0.24900944530963898, -0.06052229553461075, -0.08897615969181061, -0.07069019228219986, 0.26657697558403015, 0.11920584738254547], [-0.4263685643672943, -0.009268688969314098, 0.7826921939849854, -0.25802063941955566, -0.007609173655509949, -0.19367057085037231, 0.016075728461146355, -0.05297049134969711, -0.33775046467781067, -0.22091500461101532, 0.800908088684082, 0.6862805485725403, 0.01869823783636093, -0.09380326420068741, -0.004372860305011272, 0.08636489510536194, 0.0675470158457756, 0.051961831748485565, -0.02427850477397442, 0.1079903095960617], [-0.3349001109600067, -0.16895997524261475, -0.31993669271469116, 0.3211319148540497, 0.0009390536579303443, -0.01768212765455246, -0.10509498417377472, 0.03662074729800224, -0.28862428665161133, -0.4305459260940552, -0.4969783425331116, -0.14967632293701172, 0.2083449363708496, -0.5763782858848572, 0.20410481095314026, -0.23886838555335999, -0.3759627342224121, -0.2267109751701355, -0.11455423384904861, 0.4293861985206604], [0.5396662354469299, 0.1766240894794464, -0.2523166537284851, -0.3244602382183075, 0.6875665783882141, -0.25887420773506165, 0.15908336639404297, -0.12208791077136993, 0.7544900178909302, -0.47713547945022583, -0.8026033043861389, 0.026905259117484093, 0.15882515907287598, -0.22981682419776917, 1.0393108129501343, -0.0567399226129055, -0.14031480252742767, -0.534227728843689, 0.37129926681518555, -0.052569810301065445], [-0.18921297788619995, -0.03854317218065262, 0.35769638419151306, 0.006853261962532997, 0.10817251354455948, 0.13722099363803864, -0.07938247174024582, 0.1730721890926361, -0.06868893653154373, -0.18567897379398346, -0.12208154797554016, -0.22688299417495728, 0.010615600273013115, -0.331567645072937, 0.13399633765220642, -0.13178594410419464, -0.7185463309288025, -0.06267747282981873, 0.17022816836833954, 0.06925145536661148], [-0.031231654807925224, -0.08702237159013748, -0.4541860818862915, -0.2991184890270233, 0.2051663100719452, 0.11912163347005844, -0.07719939947128296, 0.058262139558792114, 0.34988588094711304, -0.1897290050983429, -0.024490833282470703, 0.049504272639751434, -0.014679578132927418, -0.33617809414863586, 0.33626362681388855, 0.33432093262672424, -0.1545201539993286, -0.45857954025268555, -0.2168908715248108, 0.060556069016456604], [-0.007897601462900639, 0.05653750151395798, 0.015530312433838844, 0.06634581834077835, 0.04856531322002411, -0.12462169677019119, 0.17980115115642548, 0.0047320532612502575, 0.05158237740397453, -0.46392250061035156, -0.3610091209411621, 0.14741633832454681, 0.1154281497001648, -0.17072807252407074, 0.13354626297950745, 0.0309206023812294, -0.11249089241027832, -0.18013647198677063, 0.2675621211528778, -0.09208966791629791], [0.20326249301433563, -0.03617005795240402, 0.18654821813106537, 0.057881325483322144, 0.3065572679042816, 0.15976914763450623, -0.023384787142276764, -0.06990673393011093, -0.4541902542114258, -0.2270950824022293, -0.2464524805545807, 0.24036332964897156, 0.062156226485967636, -0.2912784218788147, 0.26908138394355774, -0.04996691644191742, -0.18202467262744904, -0.42727386951446533, -0.0649074837565422, 0.3435059189796448]], "rec.bias_ih_l0": [-0.5250422954559326, 0.03114861622452736, -0.4045867323875427, 0.3131849467754364, 0.40175968408584595, 0.2768908143043518, -0.02281162329018116, 0.15337970852851868, 0.2024191915988922, 0.860633909702301, -0.006565156392753124, 0.6690677404403687, -0.8929463624954224, 0.0356716513633728, 0.430859237909317, -0.010497909970581532, 0.2032368779182434, -0.6583176851272583, -0.6736116409301758, 0.17840167880058289, 1.2752066850662231, -0.4440156817436218, 1.1806066036224365, 0.5184235572814941, 0.07462140172719955, -0.004862133879214525, -0.220303013920784, -0.49600622057914734, 0.43547430634498596, -0.30264797806739807, -0.3322262763977051, -0.3940575420856476, 1.003853678703308, 0.47265297174453735, 0.05078111216425896, -0.4580081105232239, -0.30014604330062866, 1.3863133192062378, 1.2745914459228516, 0.20770007371902466, -0.09792326390743256, -0.4434366226196289, 0.07656701654195786, 0.1040995791554451, 0.024908198043704033, 0.04901427403092384, -0.5040029287338257, -0.18480685353279114, 0.29665225744247437, -0.8716498613357544, 0.07380560785531998, 0.2615475058555603, 0.09302037209272385, -0.3367639482021332, 0.11898639053106308, 0.30913046002388, -0.1877511888742447, -0.13286064565181732, 0.04139815270900726, -0.03748171404004097, 0.4390941560268402, -0.33996808528900146, 0.8618099093437195, 0.3410957455635071, 0.4811120927333832, 0.599142849445343, -0.7067524790763855, 0.2995612621307373, 0.340348482131958, 0.7236520051956177, -0.016642272472381592, 0.7343509793281555, -0.08809573948383331, 0.570356011390686, 0.5113376975059509, 0.17715518176555634, 0.5934481620788574, 0.6611925959587097, 0.4113020896911621, 0.52962327003479], "rec.bias_hh_l0": [-0.5250422954559326, 0.03114861622452736, -0.4045867323875427, 0.3131849467754364, 0.40175968408584595, 0.2768908143043518, -0.02281162329018116, 0.15337970852851868, 0.2024191915988922, 0.860633909702301, -0.006565156392753124, 0.6690677404403687, -0.8929463624954224, 0.0356716513633728, 0.430859237909317, -0.010497909970581532, 0.2032368779182434, -0.6583176851272583, -0.6736116409301758, 0.17840167880058289, 1.2752066850662231, -0.4440156817436218, 1.1806066036224365, 0.5184236764907837, 0.07462140172719955, -0.004862133879214525, -0.220303013920784, -0.49600622057914734, 0.43547430634498596, -0.30264797806739807, -0.3322262763977051, -0.3940575420856476, 1.003853678703308, 0.47265297174453735, 0.05078111216425896, -0.4580081105232239, -0.30014604330062866, 1.3863133192062378, 1.2745914459228516, 0.20770007371902466, -0.13100501894950867, -0.444257527589798, 0.07661230117082596, -0.05729350075125694, 0.024424031376838684, 0.049476705491542816, -0.4991086423397064, -0.19205309450626373, 0.29664918780326843, -0.869231641292572, 0.07380566000938416, 0.2614976763725281, 0.1036795824766159, -0.3367655873298645, 0.12609922885894775, 0.3080315589904785, -0.18794994056224823, -0.12546180188655853, 0.0690058022737503, -0.03746552765369415, 0.4390941560268402, -0.33979660272598267, 0.8618109226226807, 0.3410957455635071, 0.4811120927333832, 0.599142849445343, -0.7067949175834656, 0.2995612621307373, 0.340348482131958, 0.7236520051956177, -0.016642272472381592, 0.7343509793281555, -0.08809573948383331, 0.570356011390686, 0.5113376975059509, 0.17715518176555634, 0.5934481620788574, 0.6611925959587097, 0.4113020896911621, 0.52962327003479], "lin.weight": [[-0.040915146470069885, -1.8837566375732422, -0.10742571949958801, -0.5867437720298767, -0.7965620756149292, 0.5852509140968323, 1.761557698249817, 1.0219005346298218, -0.052132878452539444, -0.024759627878665924, 0.08413473516702652, -8.992714720079675e-05, 0.4001442492008209, -0.04982350021600723, 0.7926660776138306, -0.27668917179107666, 0.32752659916877747, 0.13161276280879974, 0.1338340789079666, 0.01811354048550129]], "lin.bias": [0.07898035645484924]}}