{"model_data": {"model": "SimpleRNN", "input_size": 3, "skip": 1, "output_size": 1, "unit_type": "LSTM", "num_layers": 1, "hidden_size": 20, "bias_fl": true}, "state_dict": {"rec.weight_ih_l0": [[0.44287681579589844, -0.32775938510894775, -0.14943216741085052], [-0.3608153462409973, -0.04617992416024208, 0.31159573793411255], [-0.11898843944072723, -0.22417539358139038, -0.11364850401878357], [0.11201273649930954, -0.2737876772880554, -0.07585208863019943], [0.34791913628578186, 0.08564157038927078, -0.08808174729347229], [0.09599561989307404, 0.5231925249099731, -0.023023873567581177], [0.1821482628583908, 0.1588234305381775, 0.5455601215362549], [-0.30699747800827026, -0.13093781471252441, 0.44695180654525757], [0.033347178250551224, 0.10021717101335526, -0.07151070237159729], [-0.08345072716474533, 0.5043237805366516, 0.6454084515571594], [-0.13926850259304047, -0.33846139907836914, 0.33332768082618713], [-0.04859524592757225, 0.42241132259368896, 0.43605419993400574], [0.21977470815181732, 0.024733642116189003, -0.9333505630493164], [-0.16655157506465912, 0.5101743340492249, 0.04272584617137909], [-0.32371366024017334, 0.17104272544384003, -0.01166149415075779], [0.12352842092514038, 0.10411293059587479, 0.6593882441520691], [-0.07637333124876022, -0.3110235333442688, 0.1393243372440338], [-0.11827939748764038, -0.42148759961128235, -0.28042569756507874], [-0.0020705540664494038, -0.4777061641216278, -0.0586051419377327], [0.24848930537700653, -0.5087286233901978, 0.0830545499920845], [0.002791260601952672, 0.31268325448036194, 0.06049557402729988], [0.028840919956564903, 0.34719616174697876, -0.27247196435928345], [-0.24394911527633667, 0.24233290553092957, 0.08816789835691452], [-0.11162477731704712, 0.09619784355163574, 0.000662357488181442], [0.19637595117092133, 0.012430413626134396, -0.21261362731456757], [0.21198779344558716, 0.3616405129432678, -0.08782114833593369], [0.20484797656536102, 0.4947381317615509, -0.04671573266386986], [-0.059578366577625275, -0.02058553509414196, -0.27896174788475037], [0.050343096256256104, 0.21797366440296173, -0.04185903072357178], [0.04789971187710762, 0.2815007269382477, -0.3169752359390259], [0.06413750350475311, 0.09851855784654617, -0.14069771766662598], [0.03657715395092964, 0.44217589497566223, -0.3150036633014679], [-0.2705780267715454, 0.14297641813755035, 0.4268978238105774], [-0.17324762046337128, 0.5573475360870361, 0.09751047939062119], [-0.47463929653167725, 0.11511577665805817, -0.004881992004811764], [-0.34497591853141785, 0.5140745639801025, -0.1464226394891739], [0.05177638679742813, -0.11585809290409088, -0.0923612117767334], [-0.12264052778482437, 0.6349456906318665, 0.3333999812602997], [-0.035891108214855194, 0.5788552761077881, 0.2675546407699585], [-0.21173450350761414, 0.14867618680000305, -0.07128018140792847], [0.1650359034538269, 0.005714654456824064, -0.008437292650341988], [0.5938922762870789, -0.23441088199615479, -0.1477343887090683], [0.09484317153692245, 0.009850447997450829, -0.021694395691156387], [0.9952568411827087, 0.020620018243789673, 0.018636152148246765], [1.7554481029510498, 0.03113616071641445, 0.05031130835413933], [0.3282358944416046, 0.1373496651649475, 0.1664583683013916], [4.988089084625244, -0.4077220857143402, -0.1858128011226654], [0.01700705476105213, 0.0021978614386171103, -0.04373975470662117], [0.13358323276042938, 0.07465784251689911, -0.5582992434501648], [-10.614043235778809, 0.08718851208686829, -0.12901774048805237], [0.9595987200737, 0.07920853793621063, -0.04681258648633957], [3.742210626602173, -0.2588616907596588, -0.11420649290084839], [-0.0715969130396843, 0.12219356000423431, -0.14139842987060547], [0.18057018518447876, 0.33417341113090515, -0.03712708503007889], [-1.4489905834197998, -0.0798032134771347, -0.06029684469103813], [0.7084700465202332, 0.28681522607803345, 0.10533326864242554], [0.1091199666261673, 0.10169731080532074, 0.07340160012245178], [0.03460681438446045, 0.13025106489658356, 0.04076272249221802], [-0.030666878446936607, -0.005069098901003599, 0.007652727421373129], [0.30496999621391296, 0.09002067893743515, 0.041932281106710434], [0.4004150927066803, 0.7036479115486145, -0.09280665218830109], [-0.47560280561447144, -0.060206085443496704, -0.0009625863749533892], [-0.28459736704826355, 0.31873819231987, 0.03596552461385727], [-0.15762832760810852, 0.22639122605323792, 0.13354511559009552], [0.2804204225540161, 0.2646036446094513, -0.1559067666530609], [-0.024624887853860855, -0.5959482789039612, -0.11715823411941528], [-0.03680841997265816, -0.14144884049892426, 0.11829063296318054], [-0.19278369843959808, 0.09997628629207611, -0.26349547505378723], [-0.039080627262592316, 0.3335808217525482, -0.04624392092227936], [-0.09840699285268784, 0.24642062187194824, 0.31190526485443115], [0.021680139005184174, 0.47338372468948364, 0.20109261572360992], [-0.029734758660197258, 0.4489707946777344, 0.5323543548583984], [-0.22793807089328766, 0.045929040759801865, -1.0329018831253052], [0.42605653405189514, -0.1951356679201126, -0.15045836567878723], [-0.38813307881355286, 0.003357628360390663, 0.6722128391265869], [0.08221880346536636, 0.36468592286109924, -0.4809577465057373], [-0.08838674426078796, 0.37581098079681396, 0.2951047420501709], [-0.37837040424346924, 0.2831422686576843, 0.0218794047832489], [-0.04673122987151146, 0.13571697473526, 0.05556388199329376], [0.10535600781440735, 0.2653786242008209, 0.455346018075943]], "rec.weight_hh_l0": [[0.30787745118141174, -0.04853181168437004, 0.04067316651344299, 0.1362939327955246, -0.27668240666389465, -0.007314222399145365, 0.11363005638122559, -0.28505727648735046, -0.008095073513686657, 0.16621799767017365, 0.09801685810089111, 0.7211183905601501, -0.24999253451824188, 0.5806679725646973, -0.5119799375534058, 0.13579601049423218, 0.3378346562385559, 0.8435065746307373, 0.0717165470123291, 0.2582159638404846], [-1.0504989624023438, 0.2802332043647766, 0.8882592916488647, 0.10518038272857666, -0.2629565894603729, 0.06447238475084305, 0.1499185562133789, 0.19557103514671326, -0.6063515543937683, 0.0032413892913609743, -0.2681645452976227, 0.041539207100868225, -0.02453126199543476, -0.4817480146884918, -0.2037026435136795, -0.27092909812927246, -0.9441853761672974, 0.35353556275367737, 0.07977140694856644, 0.4138241410255432], [0.49904489517211914, -0.5075720548629761, 0.1666150689125061, -0.0750393196940422, -0.8066807985305786, 0.039832405745983124, -0.23193016648292542, -0.2189401239156723, -0.2753143012523651, 1.4197810888290405, 0.49967771768569946, -0.9212104678153992, 8.146045001922175e-05, 0.43471771478652954, -0.08054494857788086, 0.4170040488243103, -0.15888698399066925, 0.6933969259262085, -0.13517943024635315, 0.03842901065945625], [0.011977311223745346, -0.03891654685139656, -0.1982177048921585, 0.2466706931591034, -0.14451763033866882, -0.06244954839348793, 0.20683151483535767, -0.17039021849632263, 0.2097986340522766, 0.06676682084798813, -0.04419607296586037, -0.0403774194419384, 0.01829947903752327, 0.07396593689918518, -0.36635348200798035, -0.2378315031528473, 0.1004762053489685, 0.11618242412805557, -0.13999824225902557, 0.03588466718792915], [-0.4250643253326416, 0.1519300490617752, 0.3405430316925049, -0.19629092514514923, 0.02751021459698677, -0.003964380826801062, 0.02608807198703289, -0.09764628857374191, -0.17373187839984894, -0.1700579673051834, 0.09152187407016754, 0.30669596791267395, -0.14061419665813446, -0.4870862066745758, 0.012339667417109013, 0.059003762900829315, -0.12371018528938293, -0.268239825963974, 0.054564572870731354, -0.10033834725618362], [-0.3081657588481903, -0.046245917677879333, 0.23954728245735168, -0.12591621279716492, -0.1510256677865982, -0.03137770667672157, -0.024637652561068535, 0.22571194171905518, -0.046411626040935516, -0.14606836438179016, 0.4572991728782654, 0.1825704127550125, -0.15444409847259521, -0.06708037108182907, -0.279694527387619, -0.4683533310890198, -0.14685475826263428, -0.2547532916069031, 0.18289197981357574, 0.5563817620277405], [-0.9035621285438538, 0.04827984422445297, 0.48238980770111084, 0.1032705008983612, -0.4665369987487793, 0.10102677345275879, 0.052396051585674286, 0.4459439516067505, -0.9488614797592163, 0.5081837177276611, 0.040670376271009445, -0.5031018257141113, -0.20406576991081238, -0.4555504322052002, -0.645289957523346, -0.22687356173992157, -0.9784645438194275, 0.44930559396743774, 0.41935569047927856, 0.27793750166893005], [-0.5888674855232239, -0.05729527398943901, 0.6597285866737366, 0.03352872282266617, -0.48519107699394226, -0.18392711877822876, 0.12736012041568756, 0.053010400384664536, -0.13171976804733276, 0.9742797017097473, 0.21426960825920105, -0.2702576220035553, -0.07012610882520676, -0.15570002794265747, -0.3096431791782379, 0.015682093799114227, -0.42053696513175964, 0.3806164562702179, -0.15335771441459656, -0.1767902672290802], [0.021482495591044426, 0.0376228503882885, 0.19924330711364746, -0.08567948639392853, 0.01670016348361969, -0.0739026740193367, 0.02293292246758938, 0.05047056823968887, 0.08214849978685379, -0.19239875674247742, -0.17228159308433533, 0.11215321719646454, -0.019772818312048912, -0.10973083227872849, -0.01950627937912941, -0.058897942304611206, -0.11625120788812637, -0.07669271528720856, -0.06299668550491333, 0.10219694674015045], [-0.4152601361274719, 0.004621231462806463, 0.5184600949287415, 0.02555748075246811, -0.0227045975625515, 0.10340893268585205, 0.02367248199880123, 0.06816285848617554, -0.41683250665664673, -0.3379240334033966, -0.18100495636463165, -0.029918447136878967, -0.06290805339813232, -0.746592104434967, 0.06136518344283104, -0.00518304668366909, -0.556498646736145, -0.36877676844596863, 0.0234089195728302, 0.3487640619277954], [0.6639562845230103, -0.2795332074165344, -0.27340054512023926, -0.049594614654779434, 0.25794050097465515, -0.12093470245599747, -0.11656166613101959, 0.0895991176366806, -0.3483567237854004, 0.050765637308359146, -0.13973000645637512, -0.09646858274936676, -0.05935350060462952, 0.281088262796402, 0.24456778168678284, -0.15089569985866547, -0.3798072636127472, -0.3840987980365753, -1.0728795528411865, -0.31545186042785645], [-0.06082380563020706, -0.033871136605739594, 0.45839834213256836, -0.02033526636660099, 0.08545806258916855, 0.06438883394002914, -0.02516329288482666, -0.03599250689148903, -0.31458625197410583, -0.006521790754050016, -0.1995900720357895, -0.1506768763065338, -0.037751149386167526, -0.5292848944664001, 0.24842847883701324, 0.058050792664289474, -0.26343879103660583, -0.3599238693714142, 0.13857409358024597, 0.29371896386146545], [0.15391941368579865, -0.3988465666770935, -0.3313359320163727, 0.027465248480439186, -0.17058710753917694, -0.33583807945251465, -0.24644173681735992, 0.061305973678827286, -0.07376760989427567, 0.04743194207549095, -0.24996672570705414, 0.03460092097520828, 0.0585685670375824, 0.4674297273159027, -0.35628071427345276, 0.07971935719251633, 0.19571320712566376, 0.17801202833652496, -0.23535828292369843, -0.0010875747539103031], [-0.4275941848754883, -0.010023213922977448, -0.08836899697780609, -0.03751199692487717, 0.008304470218718052, 0.081061951816082, -0.0031940846238285303, 1.4677625586045906e-05, 0.05911659449338913, -0.003291483037173748, -0.27491071820259094, -0.08525994420051575, -0.02127285674214363, -0.004430221859365702, 0.1131928488612175, 0.0719313994050026, -0.04900539666414261, 0.014580156654119492, 0.3640195429325104, 0.1273660957813263], [-0.04593532532453537, 0.010443512350320816, 0.06072072684764862, -0.13094177842140198, 0.046869970858097076, -0.21079188585281372, 0.07832557708024979, 0.10518050193786621, -0.029126785695552826, 0.06833462417125702, 0.11311587691307068, -0.26961779594421387, 0.222561776638031, -0.5378637909889221, 0.11795409023761749, -0.33102014660835266, -0.31662747263908386, -0.12149038910865784, 0.05248860642313957, 0.13431669771671295], [-0.46168220043182373, -0.09914690256118774, 0.33917683362960815, 0.11390313506126404, -0.1487552374601364, -0.19161033630371094, -0.03968282416462898, 0.1231355220079422, -0.6026667952537537, 0.930248498916626, -0.5403162240982056, -0.11831769347190857, -0.1867363005876541, -0.7120112180709839, -0.22354434430599213, -0.18597686290740967, -1.231317400932312, 0.3362215757369995, 0.06398876756429672, 0.30385464429855347], [-0.5051393508911133, 0.13205109536647797, 0.8604329824447632, -0.2170466184616089, 0.011408424004912376, 0.22958068549633026, -0.02283920720219612, 0.02894286997616291, -0.3791187107563019, 0.6102705001831055, -0.07843391597270966, -0.8831785917282104, -0.059921424835920334, -0.2724617123603821, 0.33242636919021606, 0.022078314796090126, -0.673169732093811, 0.0008153924136422575, 0.14576317369937897, 0.38046225905418396], [-0.06506146490573883, -0.597665011882782, -0.3508963882923126, 0.2790152132511139, -0.029333358630537987, 0.36339667439460754, -0.4447520673274994, -0.593677818775177, -0.2554720938205719, 0.4289131462574005, 0.3166561722755432, -0.20942990481853485, 0.03924427926540375, 0.34832820296287537, -0.10236907750368118, 0.2599840760231018, 1.0265635251998901, 0.41899022459983826, -0.2656667232513428, 0.11557327210903168], [0.08341061323881149, 0.16739577054977417, -0.5106709599494934, 0.12239635735750198, -0.2905062139034271, 0.15813587605953217, 0.031879253685474396, -0.16843664646148682, 0.02691819705069065, 0.44588544964790344, 0.3277662396430969, -0.08551494032144547, 0.15491461753845215, 0.5421183109283447, 0.0926528200507164, 0.039484601467847824, 0.2610306441783905, 0.5419633388519287, -0.009292328730225563, 0.023799490183591843], [-0.3407803475856781, -0.05643359571695328, 0.8784546256065369, -0.04260833188891411, 0.020596535876393318, 0.005972191225737333, -0.0579022653400898, 0.04712348431348801, -0.2612716853618622, -0.5729804635047913, -0.08374820649623871, 0.9648880958557129, -0.080562524497509, -0.0023820907808840275, -0.10364457964897156, -0.21247343719005585, -0.918128490447998, 0.2671273946762085, 0.10988511145114899, 0.8562231063842773], [-0.05487079918384552, -0.4231606423854828, 0.3629055917263031, 0.14546512067317963, -0.05478302761912346, 0.01770658604800701, -0.12624990940093994, -0.1289721429347992, -0.03084973245859146, -0.15981313586235046, -0.014512665569782257, -0.02922084927558899, 0.021565556526184082, -0.6360417604446411, -0.25260311365127563, 0.24002373218536377, -0.7323760390281677, -0.34992194175720215, -0.020084775984287262, 0.03387860208749771], [0.235032856464386, -0.18393708765506744, -0.3024980127811432, -0.0808621197938919, 0.2200162261724472, 0.24771736562252045, -0.2936822175979614, 0.08663112670183182, 0.14967381954193115, -0.12487872689962387, 0.06744623184204102, -0.11771724373102188, -0.01145085133612156, 0.4155658185482025, 0.061606038361787796, 0.22909227013587952, 0.18388889729976654, 0.21434764564037323, -0.15211451053619385, 0.18175043165683746], [-0.6133138537406921, 0.2557782232761383, 0.23460733890533447, -0.1964329183101654, -0.047451283782720566, 0.047707367688417435, 0.1505085676908493, 0.36098843812942505, 0.3192921280860901, -0.5702100992202759, -0.22384098172187805, -0.04079195857048035, 0.03708287701010704, -0.2133423238992691, 0.5469631552696228, -0.4567609429359436, -0.9525365233421326, -0.8855293393135071, -0.1832255721092224, -0.4743463695049286], [0.02341100201010704, -0.0759466215968132, 0.09220518916845322, 0.09391190856695175, -0.08836156129837036, 0.11516150832176208, 0.13361063599586487, -0.17677661776542664, -0.13398496806621552, -0.020621607080101967, 0.0948970839381218, 0.055095478892326355, -0.06693422794342041, -0.130376398563385, 0.15198351442813873, 0.09561588615179062, 0.01480280701071024, -0.009827334433794022, 0.11281797289848328, -0.033672042191028595], [-0.26705142855644226, 0.20435264706611633, 0.14910630881786346, -0.12312683463096619, -0.14928555488586426, 0.4752841293811798, -0.30191728472709656, -0.032382458448410034, -0.11137222498655319, 0.21101076900959015, -0.08349161595106125, -0.10720460116863251, -0.18492986261844635, 0.1271648406982422, 0.08048202842473984, -0.13342157006263733, -0.03866460174322128, 0.17219994962215424, 0.027677271515130997, 0.1512082815170288], [0.2641783356666565, -0.12473385781049728, -0.3576711118221283, -0.13853169977664948, 0.23294971883296967, 0.17145806550979614, -0.035715386271476746, -0.007295959163457155, 0.30001300573349, -0.33766356110572815, 0.1444326490163803, -0.03942425921559334, 0.05876712128520012, -0.12876486778259277, -0.14376986026763916, 0.709723949432373, 0.32191047072410583, 0.39573216438293457, -0.12596653401851654, -0.32638245820999146], [0.3872210383415222, -0.24617883563041687, -0.45679500699043274, 0.05818110704421997, -0.5136002898216248, -0.11196458339691162, -0.7074981331825256, 0.016717879101634026, 0.22130414843559265, -0.07064580917358398, 0.02091563679277897, 0.3597429096698761, 0.05164702609181404, 0.3393319845199585, -0.1431025266647339, 0.3954015374183655, 0.47520944476127625, 0.04568423703312874, -0.3442011773586273, 0.011226970702409744], [-0.11650634557008743, -0.13555556535720825, -0.059706516563892365, 0.08884546160697937, 0.0258303452283144, 0.22768902778625488, -0.16992329061031342, -0.11794386059045792, 0.2867589592933655, 0.19567961990833282, -0.0021081306040287018, -0.18434499204158783, 0.02051057666540146, 0.1672135889530182, -0.2375013381242752, -0.10388410091400146, 0.09534865617752075, 0.04049309343099594, -0.1808214783668518, -0.11615040898323059], [-0.022573145106434822, 0.030281489714980125, 0.36726996302604675, -0.12739266455173492, -0.10616202652454376, -0.15754765272140503, -0.0007714283419772983, 0.09013479202985764, 0.048327814787626266, -0.15898501873016357, -0.38658052682876587, 0.04538838565349579, 0.048735979944467545, -0.3474714457988739, -0.1436966061592102, -0.029949573799967766, -0.17720526456832886, -0.10684476792812347, -0.20261552929878235, 0.425709068775177], [-1.048843502998352, 0.080293670296669, -0.27920785546302795, 0.07496058195829391, -0.48365887999534607, 0.0028379946015775204, -0.17277829349040985, 0.3298121690750122, 0.40119311213493347, -0.24141861498355865, 0.2973267734050751, -0.32466554641723633, -0.018564647063612938, 0.007245724089443684, -0.5347276329994202, -0.07838939875364304, -0.46671557426452637, 0.3968982398509979, 0.07002454251050949, 0.22155550122261047], [-0.03863222524523735, -0.12348634004592896, -0.10826864838600159, -0.01295775081962347, -0.06966707855463028, -0.12685415148735046, -0.02446448989212513, -0.2972540855407715, 0.009779796004295349, 0.061004627496004105, -0.26785168051719666, 0.31143784523010254, -0.047836899757385254, 0.30541887879371643, -0.1002923995256424, 0.2565661072731018, 0.5435147285461426, 0.19095975160598755, -0.022932812571525574, 0.42692193388938904], [-0.24570497870445251, -0.06206841021776199, 0.31046611070632935, -0.14843477308750153, -0.31317055225372314, 0.009139509871602058, 0.05630636215209961, 0.11598750948905945, 0.06202446669340134, -0.013100055046379566, -0.061832476407289505, -0.09515941143035889, -0.13223692774772644, 0.29206329584121704, -0.668592631816864, 0.08899585157632828, -0.007379435934126377, 0.47931236028671265, -0.10509975254535675, 0.47329920530319214], [-0.03980351239442825, -0.14976419508457184, 0.0073014432564377785, 0.08367874473333359, -0.12916216254234314, 0.09704948961734772, -0.09439986199140549, -0.055708322674036026, -0.0808330625295639, -0.12446114420890808, -0.01556855533272028, -0.20567402243614197, 0.029186325147747993, -0.5039392709732056, 0.18002483248710632, 0.01884489692747593, -0.2069147527217865, -0.18709175288677216, 0.010849742218852043, -0.1759503334760666], [-0.32480284571647644, -0.00534253753721714, 0.17266833782196045, -0.13680018484592438, 0.13400153815746307, 0.038384635001420975, -0.0015057435957714915, 0.024926913902163506, 0.2107016146183014, -0.32428285479545593, -0.28389543294906616, -0.13190096616744995, -0.026792623102664948, -0.3417007327079773, 0.28856590390205383, -0.00226470991037786, -0.2763732671737671, -0.23360763490200043, 0.30172982811927795, -0.04962141811847687], [-0.39519819617271423, -0.36029911041259766, 0.23986199498176575, -0.032909784466028214, -0.26092982292175293, -0.2239203304052353, 0.20945678651332855, -0.21223635971546173, -0.0932641327381134, -0.27036184072494507, 0.17470894753932953, -0.35946789383888245, 0.1942501813173294, -0.14528542757034302, 0.15838901698589325, 0.4474925696849823, 0.04330462962388992, 0.6279405355453491, -0.10999646037817001, -0.0892522782087326], [-0.005130713805556297, 0.011718141846358776, -0.2011415809392929, 0.046068526804447174, -0.07487385720014572, -0.09119773656129837, -0.05293729528784752, 0.2167503386735916, 0.2711043357849121, -0.4145980775356293, -1.0592694282531738, -0.1256231665611267, -0.0511753223836422, 0.30938318371772766, -0.34003105759620667, 0.9476131796836853, -0.053729020059108734, 0.10330290347337723, -0.14453236758708954, -0.25085678696632385], [-0.7472384572029114, 0.06676240265369415, 0.3444020450115204, 0.18824675679206848, -0.2180182784795761, 0.04880174249410629, -0.09343481063842773, 0.2959424555301666, 0.001419809297658503, -0.3051507771015167, 0.10690168291330338, -0.06334938108921051, 0.21010251343250275, 0.2466391921043396, -0.03189757093787193, -0.12804868817329407, -0.4098445475101471, 0.4765530228614807, -0.2780051827430725, 0.144200399518013], [0.14888393878936768, -0.057352226227521896, -0.017367586493492126, -0.12245821207761765, 0.19489693641662598, -0.12228892743587494, 0.0517718531191349, 0.08083805441856384, -0.08655456453561783, -0.5395179986953735, -0.20360170304775238, -0.15064696967601776, -0.027144134044647217, -0.7327603101730347, 0.15022382140159607, -0.04718145355582237, -0.5752843022346497, -0.8047344088554382, -0.26626771688461304, 0.09384102374315262], [-0.0726422667503357, -0.11979268491268158, 0.5696670413017273, -0.11493302881717682, 0.1873224973678589, -0.10443286597728729, -0.05988997220993042, 0.014707612805068493, 0.005758519750088453, -0.3433258831501007, 0.1656050682067871, -0.03268653526902199, -0.04514192417263985, -0.6812846660614014, 0.2554113268852234, -0.15447786450386047, -0.7819046378135681, -0.70939040184021, 0.14491814374923706, -0.17715254426002502], [-0.4676085114479065, 0.11292198300361633, 0.07999083399772644, -0.0686514601111412, -0.39336422085762024, 0.20799852907657623, 0.10289106518030167, 0.07567915320396423, 0.22905601561069489, 0.9692781567573547, 0.02853160910308361, -0.6510229706764221, 0.0025825013872236013, -0.031802136451005936, -0.19251477718353271, 0.09162302315235138, -0.3785304129123688, 0.4909404218196869, -0.05908767133951187, 0.16892927885055542], [0.32626447081565857, -0.07925573736429214, -0.0653715655207634, 0.04015101119875908, 0.09685312956571579, 0.006769777275621891, 0.09222753345966339, 0.15582191944122314, 0.0023235883563756943, -0.5626824498176575, 0.1901210993528366, -0.12385963648557663, -0.07045295834541321, -0.0019307726761326194, -0.2312992364168167, 0.041509006172418594, -0.35309696197509766, -0.21395666897296906, -0.06963498890399933, 0.02987993322312832], [-0.518301784992218, 0.03480276092886925, -0.021946873515844345, 0.20442317426204681, 0.41637828946113586, 0.3122820556163788, 1.0436955690383911, 0.48433712124824524, 0.09601541608572006, -4.8922648429870605, 0.24824588000774384, 1.6048563718795776, 0.015090149827301502, 0.07568636536598206, -0.5240262746810913, -0.3268461227416992, 0.03428889065980911, 0.3027169108390808, 0.24242843687534332, 1.3543918132781982], [0.08825288712978363, -0.04665863513946533, 0.07910002768039703, 0.13698768615722656, 0.30341652035713196, 0.08944056183099747, 0.23407688736915588, -0.05202721431851387, 0.0018269801512360573, -0.5181105136871338, 0.08146276324987411, 0.3540266752243042, -0.06065789610147476, -0.1101803258061409, -0.2652173936367035, 0.018659867346286774, 0.08657429367303848, 0.32837316393852234, 0.007991082035005093, 0.2821153700351715], [-0.02754908613860607, -1.6195957660675049, -0.1119302362203598, 0.007095858920365572, -0.8214662075042725, 0.39094042778015137, 1.3754231929779053, 0.729690670967102, -0.05825774371623993, 0.0017532119527459145, 0.07962805032730103, 0.05300449952483177, 0.22160755097866058, -0.034115348011255264, 0.7606316208839417, -0.30890896916389465, 0.2751060426235199, 0.08084403723478317, 0.12632255256175995, -0.0008643910405226052], [0.05818873271346092, -0.2523671090602875, -0.3567086458206177, -0.17419345676898956, -0.47111114859580994, -0.04022228717803955, -0.20973993837833405, -0.38910719752311707, -0.017335284501314163, -0.3081064224243164, -0.08729542791843414, 0.12022002041339874, 0.1459369957447052, 0.031152546405792236, 0.490350604057312, 0.019924789667129517, -0.027912858873605728, -0.30918145179748535, 0.14738845825195312, -0.018327640369534492], [-0.24475663900375366, -0.2947612404823303, 0.08948143571615219, 0.4416046142578125, -0.09379579871892929, -0.7944989800453186, -1.673539638519287, -0.23555442690849304, -0.08458300679922104, 0.19585135579109192, -0.15354914963245392, 0.22819912433624268, -0.23417392373085022, 0.3663393259048462, 0.43385523557662964, 0.15908882021903992, 0.17767514288425446, -0.09311792999505997, -0.028379732742905617, -0.12545935809612274], [-1.11172616481781, -0.42815351486206055, -1.12939453125, 0.1498737335205078, 0.4697127938270569, 0.5290865302085876, 2.0013630390167236, 0.38884079456329346, 0.08081244677305222, -7.3925652503967285, 0.5947774648666382, 1.9525208473205566, 0.1027025580406189, 0.20365552604198456, -0.6155378222465515, -0.4471016824245453, -0.43019065260887146, 0.29054975509643555, 0.5415719747543335, 2.1726467609405518], [-0.2508050799369812, 1.0578500032424927, -0.015830764546990395, 0.15122540295124054, 0.131158247590065, -0.4219209849834442, -1.0301927328109741, -0.7350794076919556, 0.01031707413494587, -2.1559414863586426, -0.08303161710500717, 1.066222906112671, 0.11401547491550446, 0.05658276006579399, -0.873124897480011, 0.09562262147665024, -0.07255620509386063, -0.3688114285469055, 0.038580071181058884, 0.39018169045448303], [-0.03412828966975212, 0.05806729942560196, -0.08215309679508209, -0.2453811764717102, -0.06963272392749786, 0.034687142819166183, 0.006161883939057589, 0.04815319553017616, -0.1412050426006317, -0.04420360177755356, 0.13745011389255524, 0.25381094217300415, 0.14683757722377777, 0.42399969696998596, -0.040279362350702286, 0.06782004237174988, 0.035151511430740356, 0.03226228058338165, 0.13439124822616577, -0.028081882745027542], [1.1042382717132568, -0.16609631478786469, 2.937788248062134, 0.044984154403209686, 0.008715120144188404, 0.11385650932788849, 0.27800336480140686, 0.36996135115623474, 0.0029878325294703245, 0.11810678243637085, 0.11227880418300629, -0.2370108962059021, -0.07905243337154388, 0.08384234458208084, 0.0630612000823021, -0.011261604726314545, -0.057956695556640625, 0.3732869029045105, -0.284240186214447, 0.17409458756446838], [-0.45811083912849426, -0.2932993471622467, -0.08294780552387238, -0.016264431178569794, -0.039481692016124725, -0.3643437623977661, -0.30402451753616333, 0.4247938394546509, -0.4000374674797058, 1.9040589332580566, 1.407680630683899, -0.09811766445636749, -0.03538554161787033, -0.026750857010483742, -0.12124504148960114, -0.09044717997312546, 0.17343899607658386, -0.04031166434288025, -0.6002532243728638, -1.3796658515930176], [-0.7915729284286499, 0.11865547299385071, -0.5943699479103088, -0.14815479516983032, -0.060008928179740906, 0.055992111563682556, -0.04928883910179138, 0.19771774113178253, -0.24644850194454193, 0.21566683053970337, 0.0070443046279251575, -1.4396982192993164, 0.08930832147598267, 0.5823283791542053, 0.3474538028240204, 0.01874382421374321, 0.0375162772834301, -0.5347322225570679, 0.1842304915189743, 0.04812240228056908], [0.27800118923187256, 0.4902782440185547, -0.07220242917537689, 0.2045106589794159, -0.14573030173778534, -0.8064201474189758, 0.245620459318161, -0.24586845934391022, -0.03956691920757294, 0.3039589822292328, 0.7670700550079346, 0.3605176508426666, 0.37611889839172363, -0.40129244327545166, 0.3556618392467499, -1.647461175918579, 0.4640302062034607, 0.4449768662452698, 0.07786962389945984, 0.17611360549926758], [0.08019524812698364, -0.09024912863969803, -0.1406402587890625, 0.04511960968375206, 0.10828138887882233, -0.03484243527054787, -0.08080308139324188, 0.1667441427707672, 0.015792449936270714, -0.21152301132678986, -0.025009484961628914, -0.0961986631155014, -0.0539761558175087, 0.3795374929904938, 0.16729237139225006, -0.09852133691310883, -0.13700610399246216, 0.140578031539917, -0.4168509542942047, 0.12812231481075287], [0.20387132465839386, 0.10169022530317307, 0.09862925112247467, 0.14125630259513855, 0.7217411398887634, 0.23327627778053284, 0.2985105812549591, 0.35278090834617615, 0.06825631111860275, 0.11609388887882233, 0.05719735473394394, -0.10434198379516602, -0.08506301790475845, -0.09957404434680939, -0.07564705610275269, -0.14692609012126923, 0.10532587021589279, -0.0391734316945076, -0.11553395539522171, 0.0025647860020399094], [0.03408379852771759, -1.233904242515564, -0.05416806787252426, 0.06775540113449097, -0.7197504639625549, -1.0553333759307861, -1.5857707262039185, -0.9207653999328613, -0.05371647700667381, 2.531359910964966, -0.21001210808753967, -0.21375742554664612, -0.025218987837433815, 0.18785642087459564, 0.5365381240844727, 0.4165772795677185, 0.3314771056175232, -0.6522042751312256, -0.10141950845718384, -1.0510928630828857], [0.5117439031600952, -0.20238915085792542, -0.21766439080238342, -0.14148591458797455, -0.054247334599494934, 0.013923926278948784, -0.01473054476082325, -0.16155482828617096, 0.06413901597261429, 2.4125447273254395, -0.07440510392189026, -0.9999391436576843, -0.08086640387773514, 0.17907333374023438, 0.45342880487442017, 0.11026214063167572, -0.3927653729915619, -0.17529785633087158, -0.0948801189661026, -0.3915826976299286], [0.21406853199005127, 0.11039163172245026, -0.19143959879875183, 0.012144424021244049, 0.08299488574266434, -0.2089201658964157, 0.1941293627023697, 0.16957128047943115, -0.015155341476202011, 0.12923146784305573, -0.07654476165771484, -0.016825882717967033, -0.25522148609161377, -0.08778518438339233, 0.06945919245481491, 0.2129034847021103, -0.4753360152244568, 0.32247427105903625, -0.07802832126617432, -0.04988319054245949], [-0.09715908765792847, -0.20466624200344086, 0.10265345871448517, -0.02207738719880581, -0.09934604167938232, 0.015109723433852196, -0.3919796347618103, 0.2661173939704895, -0.004554749000817537, 0.39017897844314575, -0.19656355679035187, -0.0918734148144722, -0.044784002006053925, -0.06059920787811279, 0.052055008709430695, 0.2432142049074173, 0.307942658662796, -0.11333977431058884, 0.14952094852924347, -0.23126298189163208], [0.01372602954506874, 0.4380849301815033, 0.010004246607422829, -0.15742924809455872, 0.17484354972839355, 0.007075005676597357, -0.24212011694908142, 0.49992653727531433, -0.17955242097377777, 2.383183717727661, 0.346885085105896, -2.882965326309204, -0.0004160459211561829, -0.16373194754123688, 0.43795761466026306, 0.0860876813530922, -0.1793130487203598, -0.8362499475479126, -0.08671554923057556, -0.3074395954608917], [0.2182861566543579, -0.17011336982250214, 0.8641064763069153, 0.10942267626523972, -0.16148334741592407, -0.23045071959495544, -0.11675085872411728, -0.09427483379840851, -0.25074538588523865, 0.04184560477733612, 0.13171504437923431, -0.33217015862464905, -0.13793274760246277, -0.3433881998062134, 0.08360641449689865, 0.19450418651103973, -0.005557429976761341, -0.027820415794849396, 0.066678985953331, 0.14108239114284515], [-0.4944950342178345, 0.2370927482843399, 0.5178332328796387, -0.020600158721208572, -0.8770614266395569, -0.1138613373041153, -0.048871591687202454, 0.5484031438827515, -0.4963850677013397, -0.28219184279441833, -0.018109839409589767, -0.5375273823738098, -0.09658470749855042, -0.4579307734966278, -0.9982616305351257, 0.07670696824789047, -0.7052879333496094, 0.8354881405830383, 0.2199130803346634, 0.36553195118904114], [0.0964493677020073, 0.04721544310450554, -0.10203138738870621, -0.1167960837483406, 0.10504057258367538, -0.061237506568431854, -0.16118988394737244, -0.4160170257091522, -0.015662267804145813, -0.27452352643013, -0.036680206656455994, 0.4547724723815918, 0.10019984096288681, -0.23813046514987946, 0.030754631385207176, -0.037236329168081284, 0.02095123939216137, -0.7572503685951233, 0.2835499942302704, -0.2826366424560547], [0.09933657199144363, -0.06339383125305176, -0.032642122358083725, 0.1276785135269165, -0.010702790692448616, 0.012643184512853622, -0.0555729866027832, -0.015360177494585514, 0.04959789291024208, -0.0691908746957779, 0.001992090605199337, -0.043986886739730835, 0.0014730675611644983, -0.06489512324333191, -0.028636502102017403, -0.17117257416248322, -0.10276935249567032, -0.16696619987487793, 0.03154771029949188, 0.1767384111881256], [-0.3858006000518799, 0.40639829635620117, -0.07794541120529175, -0.2437264770269394, -0.17579706013202667, -0.056095097213983536, 0.05985982343554497, -0.27679604291915894, 0.1493801325559616, 0.056443870067596436, 0.06152551621198654, -0.26215967535972595, -0.12616582214832306, -0.23208017647266388, -0.01514526642858982, -0.11940103024244308, 0.0026312610134482384, -0.4005882441997528, -0.031107217073440552, 0.10983305424451828], [0.07092439383268356, -0.387493371963501, -0.039137646555900574, -0.0301629900932312, -0.38283950090408325, -0.16282132267951965, -0.18568597733974457, -0.10000483691692352, 0.38438957929611206, 0.04468890279531479, 0.13711638748645782, 0.11434728652238846, 0.06949687749147415, -0.48296919465065, -0.24479003250598907, -0.13953502476215363, 0.3752557635307312, -0.03330017253756523, -0.4242006242275238, 0.46311450004577637], [-0.313880980014801, 0.13662950694561005, 0.2422325760126114, -0.12223873287439346, -0.41954874992370605, 0.13266624510288239, 0.5128397345542908, 0.11878840625286102, -0.503621518611908, -0.2796533703804016, -0.0061120400205254555, -0.4685938358306885, -0.05403609946370125, -0.1947362720966339, -0.8439323306083679, -0.024970274418592453, -0.9795851707458496, 0.7498180270195007, 0.17636021971702576, 0.497376948595047], [-0.27368804812431335, -0.40427929162979126, 0.24129782617092133, -0.08180830627679825, -0.348832905292511, 0.09777016937732697, -0.1957608312368393, -0.16019678115844727, -0.16595301032066345, 0.1916530579328537, -0.20821911096572876, -0.5018184781074524, 0.06083272397518158, -0.44104960560798645, -0.2775260806083679, 0.16314387321472168, -0.5278229117393494, 0.19191817939281464, 0.06012437492609024, 0.36353087425231934], [-0.32230687141418457, 0.035073865205049515, 0.3131070137023926, -0.02965458668768406, 0.009192057885229588, 0.09963562339544296, 0.04499633610248566, 0.15408006310462952, 0.531705379486084, -0.5573009848594666, -0.21420270204544067, -0.4608229696750641, -0.0720071941614151, -0.5239837765693665, -0.3127700090408325, 0.09891115874052048, -0.30179616808891296, 0.03412427380681038, -0.010602925904095173, -0.2639180123806], [-0.6408060193061829, 0.009396595880389214, 0.9483700394630432, -0.024096734821796417, -0.08868908137083054, 0.10630407929420471, 0.034204695373773575, 0.08151275664567947, -0.29971805214881897, -0.7226127982139587, 0.09706639498472214, 0.05194472149014473, -0.07191260904073715, -0.8925028443336487, -0.17818105220794678, 0.03135000541806221, -0.5291895270347595, -0.20369663834571838, -0.21079829335212708, 0.31736546754837036], [-0.41236066818237305, -0.041644759476184845, 0.2203824669122696, -0.03544341027736664, -0.17892985045909882, -0.4704747498035431, -0.08315189182758331, 0.011263788677752018, -0.9676493406295776, 1.1505722999572754, -0.13635927438735962, 0.26851147413253784, 0.03501995652914047, 0.13398674130439758, 0.4395773112773895, -0.3024488091468811, -0.5620272755622864, 0.02843325212597847, 0.04522518813610077, 0.5660092830657959], [0.005513335578143597, -0.0215007234364748, 0.37950605154037476, 3.14897442876827e-05, 0.12077831476926804, 0.04756810888648033, -0.003435017541050911, -0.017236709594726562, -0.33600401878356934, -0.10948775708675385, -0.2079170048236847, -0.1166224405169487, -0.03482333943247795, -0.5334721803665161, 0.26406848430633545, 0.004642714746296406, -0.2921900749206543, -0.432102233171463, 0.026975378394126892, 0.21983109414577484], [-0.5298058390617371, -0.17709748446941376, 0.3672308921813965, -0.018230143934488297, 0.11464876681566238, -0.14305321872234344, -0.08136139810085297, -0.10869274288415909, 0.48568814992904663, 0.07763639092445374, -0.06868600100278854, -0.05362780764698982, 0.14463551342487335, -0.3114193081855774, 0.24737964570522308, -0.05715484544634819, -0.08939486742019653, -0.07114151120185852, 0.26812872290611267, 0.1202656477689743], [-0.4267040491104126, -0.010493027046322823, 0.782708466053009, -0.2565343976020813, -0.008258422836661339, -0.19244569540023804, 0.01599165052175522, -0.052370309829711914, -0.3407697081565857, -0.2204088419675827, 0.7996891736984253, 0.6882722973823547, 0.0173378624022007, -0.09313676506280899, -0.007099609822034836, 0.0865975171327591, 0.06834442168474197, 0.05251319333910942, -0.023265909403562546, 0.11020903289318085], [-0.3378462493419647, -0.17399992048740387, -0.3196870982646942, 0.31721556186676025, -0.0034215643536299467, -0.02247258834540844, -0.10751260817050934, 0.03445924445986748, -0.2838388979434967, -0.43149620294570923, -0.49185821413993835, -0.16021624207496643, 0.20285403728485107, -0.5782821178436279, 0.20216067135334015, -0.23917558789253235, -0.37771889567375183, -0.22679230570793152, -0.11442280560731888, 0.4315934181213379], [0.5347484350204468, 0.17268899083137512, -0.2491101175546646, -0.3310631215572357, 0.6818693280220032, -0.2645450532436371, 0.15762609243392944, -0.12316668033599854, 0.7622725963592529, -0.4744059443473816, -0.802577018737793, 0.02323126420378685, 0.1595742553472519, -0.23246653378009796, 1.0369254350662231, -0.054181165993213654, -0.1427365243434906, -0.5321632623672485, 0.37236616015434265, -0.045574627816677094], [-0.18840089440345764, -0.04028260335326195, 0.35744544863700867, 0.0022657683584839106, 0.10617392510175705, 0.13705825805664062, -0.08076545596122742, 0.17080731689929962, -0.0677926316857338, -0.18394175171852112, -0.12343691289424896, -0.23302729427814484, 0.0056832944974303246, -0.3321402668952942, 0.1326836347579956, -0.13112474977970123, -0.7179120182991028, -0.062209270894527435, 0.17151714861392975, 0.07101011276245117], [-0.031484853476285934, -0.08517743647098541, -0.4542785584926605, -0.2987467646598816, 0.20309807360172272, 0.11482495069503784, -0.0730767548084259, 0.05612417683005333, 0.3496849536895752, -0.19079352915287018, -0.024793144315481186, 0.04530221223831177, -0.015867630019783974, -0.3339821398258209, 0.33281201124191284, 0.3349500894546509, -0.15555548667907715, -0.45694056153297424, -0.21850372850894928, 0.05837269872426987], [-0.004607778042554855, 0.05848283693194389, 0.012717967852950096, 0.0734439268708229, 0.051347412168979645, -0.12560996413230896, 0.18076305091381073, 0.004646252375096083, 0.049695633351802826, -0.4610911011695862, -0.36457011103630066, 0.14968422055244446, 0.12807536125183105, -0.16761168837547302, 0.13817931711673737, 0.03222573548555374, -0.11066266894340515, -0.18273776769638062, 0.26430457830429077, -0.09390345215797424], [0.20714318752288818, -0.03584488481283188, 0.18448738753795624, 0.05748873949050903, 0.3095146417617798, 0.15960314869880676, -0.02261163480579853, -0.07299219071865082, -0.45308947563171387, -0.22661547362804413, -0.24550862610340118, 0.24371711909770966, 0.063135527074337, -0.2888518273830414, 0.27328693866729736, -0.049027539789676666, -0.18022926151752472, -0.4315076470375061, -0.07429434359073639, 0.34311217069625854]], "rec.bias_ih_l0": [-0.5283594727516174, 0.0321524515748024, -0.40911826491355896, 0.31277981400489807, 0.3993397355079651, 0.27617910504341125, -0.021575825288891792, 0.15269677340984344, 0.19952474534511566, 0.8597730398178101, -0.007775538135319948, 0.6672346591949463, -0.8950015902519226, 0.03513264283537865, 0.4316619634628296, -0.010634244419634342, 0.20306496322155, -0.6607125997543335, -0.676601231098175, 0.17756056785583496, 1.2760075330734253, -0.4428240954875946, 1.181593418121338, 0.5193056464195251, 0.07457572221755981, -0.003979682922363281, -0.22145020961761475, -0.4968877136707306, 0.43175721168518066, -0.30204343795776367, -0.3329644203186035, -0.3977058529853821, 1.0050418376922607, 0.47293075919151306, 0.05270804464817047, -0.45775651931762695, -0.29949212074279785, 1.3886291980743408, 1.2770085334777832, 0.20734381675720215, -0.09776505827903748, -0.4437902867794037, 0.07595235854387283, 0.10465272516012192, 0.02524677850306034, 0.047807224094867706, -0.5041292309761047, -0.18543389439582825, 0.2953134775161743, -0.8704823851585388, 0.07468735426664352, 0.26287052035331726, 0.0937427282333374, -0.33669307827949524, 0.11868537962436676, 0.3089081943035126, -0.18889519572257996, -0.13300545513629913, 0.04163205251097679, -0.03901585936546326, 0.4393124282360077, -0.33996304869651794, 0.861078679561615, 0.3409680426120758, 0.47791537642478943, 0.5978766679763794, -0.7067462801933289, 0.3003460764884949, 0.3391450047492981, 0.7229669690132141, -0.017790408805012703, 0.732302725315094, -0.0877227708697319, 0.5689787268638611, 0.5128195285797119, 0.17971138656139374, 0.5935872197151184, 0.6600914597511292, 0.4086609184741974, 0.5272870063781738], "rec.bias_hh_l0": [-0.5283594727516174, 0.0321524515748024, -0.40911826491355896, 0.31277981400489807, 0.3993397355079651, 0.27617910504341125, -0.021575825288891792, 0.15269677340984344, 0.19952474534511566, 0.8597730398178101, -0.007775538135319948, 0.6672346591949463, -0.8950015902519226, 0.03513264283537865, 0.4316619634628296, -0.010634244419634342, 0.20306496322155, -0.6607125997543335, -0.676601231098175, 0.17756056785583496, 1.2760075330734253, -0.4428240954875946, 1.181593418121338, 0.5193057656288147, 0.07457572221755981, -0.003979682922363281, -0.22145020961761475, -0.4968877136707306, 0.43175721168518066, -0.30204343795776367, -0.3329644203186035, -0.3977058529853821, 1.0050418376922607, 0.47293075919151306, 0.05270804464817047, -0.45775651931762695, -0.29949212074279785, 1.3886291980743408, 1.2770085334777832, 0.20734381675720215, -0.13089029490947723, -0.44461268186569214, 0.0759977251291275, -0.0567825622856617, 0.024760454893112183, 0.048270661383867264, -0.4992159903049469, -0.1926892101764679, 0.295310378074646, -0.8680508136749268, 0.0746874064207077, 0.26282039284706116, 0.10442880541086197, -0.33669471740722656, 0.1258125752210617, 0.30780598521232605, -0.18909461796283722, -0.12559522688388824, 0.06926053762435913, -0.03899962827563286, 0.4393124282360077, -0.33979031443595886, 0.8610796928405762, 0.3409680426120758, 0.47791537642478943, 0.5978766679763794, -0.7067890167236328, 0.3003460764884949, 0.3391450047492981, 0.7229669690132141, -0.017790408805012703, 0.732302725315094, -0.0877227708697319, 0.5689787268638611, 0.5128195285797119, 0.17971138656139374, 0.5935872197151184, 0.6600914597511292, 0.4086609184741974, 0.5272870063781738], "lin.weight": [[-0.04110373929142952, -1.8794949054718018, -0.10755649954080582, -0.5866128206253052, -0.7953669428825378, 0.5841816663742065, 1.7581630945205688, 1.0200384855270386, -0.051996033638715744, -0.025178495794534683, 0.08416347205638885, -0.0006310286116786301, 0.4007558226585388, -0.049754053354263306, 0.791560173034668, -0.27552899718284607, 0.32664260268211365, 0.1313008964061737, 0.1334678679704666, 0.018078556284308434]], "lin.bias": [0.07903992384672165]}}