{"model_data": {"model": "SimpleRNN", "input_size": 1, "skip": 1, "output_size": 1, "unit_type": "LSTM", "num_layers": 1, "hidden_size": 20, "bias_fl": true}, "state_dict": {"rec.weight_ih_l0": [[-0.01720222271978855], [-0.0014347678516060114], [-0.12644413113594055], [0.02045493572950363], [-0.010872782208025455], [-0.023022297769784927], [-0.033115487545728683], [-0.0002706994127947837], [0.0212031789124012], [-0.043194737285375595], [-0.07767245918512344], [0.00879100151360035], [-0.0002690077817533165], [-0.006407022010535002], [-0.03101365827023983], [-0.025075890123844147], [0.03551962226629257], [0.18826189637184143], [-0.05750051885843277], [-0.01799948327243328], [-0.04895065724849701], [-0.003941398113965988], [0.08613462746143341], [0.005425376817584038], [-0.022221459075808525], [-0.03976122662425041], [0.39797666668891907], [2.0823237719014287e-05], [-0.16188770532608032], [-0.08502721041440964], [-0.19596035778522491], [0.005670467857271433], [-0.0001290252839680761], [-0.006656257901340723], [0.010302695445716381], [-0.05046085640788078], [-0.022138845175504684], [-0.10853355377912521], [0.3731503188610077], [-0.039610981941223145], [-0.15133926272392273], [-0.005616149865090847], [0.8272237181663513], [-0.11107750982046127], [-0.02262135036289692], [-0.04455779865384102], [-2.1778907775878906], [-0.032996032387018204], [-2.1230616569519043], [0.11825037002563477], [0.11884454637765884], [0.26364606618881226], [-0.022982943803071976], [-0.015737995505332947], [0.9964938759803772], [-0.048554614186286926], [-0.4097175896167755], [-0.4986375570297241], [-4.950622081756592], [0.03874669596552849], [-0.14967069029808044], [-0.10153695940971375], [0.018802987411618233], [0.03562907129526138], [-0.07325703650712967], [-0.04239174351096153], [0.007954398170113564], [-0.0006191591965034604], [-0.00056242267601192], [-0.06835484504699707], [-0.11186570674180984], [0.056232575327157974], [-0.00047274731332436204], [-0.1856400966644287], [-0.038361597806215286], [-0.08626336604356766], [0.09021443128585815], [-0.08055394142866135], [-0.5172789096832275], [-0.007877884432673454]], "rec.weight_hh_l0": [[0.08365049213171005, 0.08241433650255203, -0.003255193354561925, -0.010416403412818909, 0.07173151522874832, 0.06002923101186752, -0.05428700894117355, 8.804539538687095e-05, -0.0021277260966598988, -0.00522587588056922, 0.007820690050721169, -0.028978876769542694, -0.0003123456262983382, 0.07895585149526596, -0.02620568685233593, 0.08336951583623886, -0.0009529804228805006, 0.02902558259665966, -0.03190556541085243, -0.09002020955085754], [0.07446747273206711, 0.07777584344148636, 0.01036645844578743, -0.006897328421473503, 0.06623101234436035, 0.05471153184771538, -0.058035530149936676, 0.0009542269981466234, -0.009180426597595215, 0.00011514760262798518, 0.006472752429544926, -0.015871547162532806, 0.0005792388110421598, 0.07171055674552917, -0.019314974546432495, 0.07599090039730072, -0.0006499885348603129, 0.00281917373649776, -0.029318716377019882, -0.08265414834022522], [-0.7024322152137756, -0.5504629611968994, -0.013973989523947239, -0.0740329697728157, -0.441129207611084, -0.34811025857925415, 0.12937557697296143, 0.007028704974800348, 0.1592632234096527, -0.08597058057785034, -0.1740712970495224, 0.3470593988895416, 0.0021659876219928265, -0.6381731629371643, 0.12439835071563721, -0.4970024526119232, -0.0752977803349495, 0.05787805840373039, 0.2799147069454193, 0.5978826880455017], [0.04003770649433136, 0.0432548001408577, -0.0011217939900234342, -0.00409766286611557, 0.03966808319091797, 0.033065278083086014, -0.01216183602809906, 0.000568073708564043, -0.039100538939237595, 0.004275632090866566, 0.024810468778014183, -0.006816657725721598, 0.000521432957611978, 0.041597507894039154, 0.007329646963626146, 0.04265756160020828, 0.0028449525125324726, -0.0013354638358578086, -0.05954323336482048, -0.04668945446610451], [0.0702979564666748, 0.07339193671941757, 0.006736213807016611, -0.006270912010222673, 0.06185159087181091, 0.04989141225814819, -0.04449427127838135, 0.001054637017659843, 0.0002762239018920809, -0.0012518742587417364, 0.0037617289926856756, -0.015092052519321442, 0.0004782206378877163, 0.06986967474222183, -0.018608400598168373, 0.07106970250606537, 0.0022868129890412092, 0.008490217849612236, -0.013284427113831043, -0.07684637606143951], [0.06812870502471924, 0.066818967461586, 0.005513825453817844, 0.005246083252131939, 0.054793260991573334, 0.04170772805809975, -0.03803969919681549, -3.755180659936741e-05, 0.015361767262220383, -0.004785471595823765, 0.004493800923228264, -0.01275989506393671, 4.091192749910988e-05, 0.06559941172599792, -0.009155847132205963, 0.06337335705757141, 0.015112237073481083, 0.0023342950735241175, 0.001670057768933475, -0.06892470270395279], [0.2921416461467743, 0.29954832792282104, 0.00015422656724695116, 0.033158499747514725, 0.26625603437423706, 0.2215891033411026, -0.22996211051940918, 6.965253123780712e-05, 0.23301205039024353, 0.034136511385440826, 0.05792635679244995, -0.09651266038417816, 0.0011464805575087667, 0.2909311056137085, -0.08274704217910767, 0.2724754512310028, 0.05183687433600426, -0.04867100343108177, 0.1945337951183319, -0.30815017223358154], [-0.000607429479714483, -0.0007854902651160955, 0.0005958221154287457, 0.0005327702965587378, -0.0003704199625644833, 3.62793798558414e-05, 0.0011956230737268925, -4.101870217709802e-05, -5.396858978201635e-05, 0.0002204199117841199, 0.0006354672368615866, -0.0005047087324783206, -3.260544326622039e-05, -0.0004949573194608092, 0.00032712469692341983, -0.0007114721811376512, 0.0004776270070578903, -0.00028860842576250434, 0.000596758327446878, 0.0010078606428578496], [0.2228926569223404, 0.24925212562084198, 0.07505002617835999, -0.005967289209365845, 0.22835399210453033, 0.19947099685668945, -0.4217398464679718, 0.0033347629941999912, 0.10195563733577728, -0.01968815177679062, 0.02074529230594635, -0.033159077167510986, 0.0038644657470285892, 0.23766985535621643, -0.12409189343452454, 0.24072310328483582, 0.0366060733795166, -0.0059713986702263355, -0.20527788996696472, -0.27103134989738464], [0.06426559388637543, 0.06904440373182297, -0.02832568623125553, 0.02437630295753479, 0.062152065336704254, 0.05353408306837082, 0.03629294037818909, -0.0017932637128978968, 0.00729560200124979, -0.044005684554576874, -0.04769797623157501, -0.03544037416577339, -0.0007998484652489424, 0.07105225324630737, -0.003940139431506395, 0.07136256247758865, 0.029782326892018318, 0.04989924281835556, 0.04568594694137573, -0.07397673279047012], [0.009468093514442444, 0.018033361062407494, -0.1196373999118805, 0.0071649071760475636, 0.016642292961478233, 0.01615871489048004, 0.09730369597673416, -0.004476494155824184, -0.03776531293988228, -0.08818530291318893, -0.20849601924419403, -0.011523189023137093, -0.0009127527591772377, 0.02957429178059101, -0.02497049979865551, 0.027898333966732025, 0.029049523174762726, 0.08780163526535034, 0.01282360590994358, -0.019219767302274704], [0.08408814668655396, 0.08070855587720871, 0.04760114476084709, 0.005375916603952646, 0.0634189024567604, 0.04542172700166702, -0.022732146084308624, 0.0002602444728836417, 0.028997479006648064, 0.011900344863533974, -0.0025647806469351053, 0.02029489353299141, 0.00025118933990597725, 0.08141538500785828, 0.01767299324274063, 0.06917796283960342, 0.01422789040952921, -0.03752586990594864, 0.038828469812870026, -0.07935124635696411], [-0.00221344456076622, -0.0026005127001553774, 0.00025530290440656245, 0.0003659399226307869, -0.0012921668821945786, -0.00019627241999842227, 0.0005492808995768428, -1.8069860743707977e-05, 4.9133141146739945e-05, -0.00010166225547436625, 0.0001944980031112209, -0.00046267162542790174, -1.3135454537405167e-05, -0.0019514636369422078, 4.0065973735181615e-05, -0.002340518869459629, 0.0003000037104357034, 0.00012493142276071012, 0.0004966839333064854, 0.0032924970146268606], [0.08064393699169159, 0.08058742433786392, 0.002131129615008831, -0.0008009446901269257, 0.06965906172990799, 0.05865926668047905, -0.05138002708554268, 0.0007065171957947314, -0.005362195894122124, -0.006711962632834911, 0.006835410371422768, -0.023011837154626846, 0.00038224714808166027, 0.07535718381404877, -0.015780078247189522, 0.08155740052461624, 0.006644519045948982, 0.007082225289195776, -0.022062242031097412, -0.08721140772104263], [0.2691103518009186, 0.28331196308135986, 0.05015048012137413, -0.027363896369934082, 0.242562398314476, 0.20805656909942627, -0.2221575677394867, 0.004487437196075916, 0.011252556927502155, -0.021791843697428703, 0.01562867872416973, -0.06921791285276413, 0.00392866600304842, 0.2607598900794983, -0.12233366817235947, 0.27358633279800415, -0.03460153937339783, 0.036350615322589874, -0.0009098353912122548, -0.296194851398468], [0.07555978745222092, 0.07605697214603424, 0.01306689903140068, 0.002534925937652588, 0.06493567675352097, 0.05202094465494156, -0.03032725676894188, 0.0005063831340521574, 0.016656052321195602, -0.008325212635099888, 0.0032871183939278126, -0.01813902147114277, 0.00016066108946688473, 0.07367432862520218, -0.010479357093572617, 0.07170197367668152, 0.01071272511035204, 0.008599462918937206, 0.005815029609948397, -0.07878608256578445], [0.08814425021409988, 0.09453578293323517, 0.0011111864587292075, -0.012640359811484814, 0.08549465984106064, 0.06971828639507294, -0.11263211071491241, 0.00035418744664639235, -0.062199145555496216, 0.009378883056342602, 0.018118059262633324, -0.010200557298958302, 0.00023226632038131356, 0.09208784252405167, 0.030606774613261223, 0.08928148448467255, 0.01141218189150095, -0.0016725386958569288, -0.12386786937713623, -0.09822914004325867], [-0.7369873523712158, -0.4666925072669983, -0.08181292563676834, -0.42166486382484436, -0.301631897687912, -0.24843710660934448, 1.4289019107818604, 0.01375050563365221, 0.08057615906000137, -0.015644356608390808, -0.3105238378047943, 0.4549742341041565, 0.009888854809105396, -0.5667808651924133, 0.041530855000019073, -0.36859723925590515, -0.24317002296447754, -0.07936947047710419, 0.7090359926223755, 0.5212149620056152], [0.3999359607696533, 0.4120211601257324, 0.030525153502821922, -0.01805249974131584, 0.35209718346595764, 0.2988589406013489, -0.29977115988731384, -0.000356865901267156, -0.06490980088710785, 0.021899159997701645, 0.06922394037246704, -0.09769687801599503, -0.0014989800984039903, 0.38332653045654297, -0.10504186153411865, 0.4012562930583954, -0.011019178666174412, -0.01903221197426319, -0.22311681509017944, -0.4375379979610443], [0.07877354323863983, 0.08015663921833038, 0.010336600244045258, 0.0026626838371157646, 0.06806424260139465, 0.054350078105926514, -0.0369064062833786, 0.00023922954278532416, 0.02297317050397396, 0.006096553988754749, 0.012791428714990616, -0.01783677563071251, -0.00011784987145802006, 0.07701912522315979, -0.007603831589221954, 0.07577943801879883, 0.011732430197298527, -0.0046090055257081985, 0.007358711212873459, -0.08274521678686142], [0.212992861866951, 0.20608773827552795, -0.017299890518188477, -0.01978359743952751, 0.1759497970342636, 0.1471763551235199, -0.14087139070034027, 0.0009695062763057649, 0.003909234888851643, -0.018171822652220726, 0.01771566830575466, -0.0945606678724289, 0.0003386415191926062, 0.19767948985099792, -0.05553692206740379, 0.2110038697719574, 0.0054243034683167934, 0.07963856309652328, -0.0690721794962883, -0.23481784760951996], [0.1739749163389206, 0.18055415153503418, 0.012804060243070126, -0.013993236236274242, 0.15382742881774902, 0.12751150131225586, -0.13181766867637634, 0.0008352664881385863, -0.018890107050538063, -0.002923509106040001, 0.017669418826699257, -0.04223191365599632, 0.0005591370281763375, 0.16940876841545105, -0.04382257163524628, 0.17782528698444366, 0.0018126467475667596, 0.01291754562407732, -0.06353848427534103, -0.19365034997463226], [0.6338776350021362, 0.6762852668762207, 0.0770321786403656, 0.03999871015548706, 0.5933598279953003, 0.5180765390396118, -0.39763620495796204, -0.0010278756963089108, -0.08836761116981506, 0.039392754435539246, 0.11925331503152847, -0.12587207555770874, -0.00298618758097291, 0.6245194673538208, -0.14313217997550964, 0.6711990833282471, 0.04662812501192093, -0.10859304666519165, -0.1115717887878418, -0.7304555773735046], [0.04458047077059746, 0.043213121592998505, -0.0033286374527961016, -0.0019887867383658886, 0.037967707961797714, 0.031115697696805, 0.00900877732783556, 0.00032034647301770747, -0.027076205238699913, 0.0007052969303913414, 0.01610753871500492, -0.014195735566318035, 6.758386007277295e-05, 0.04455365613102913, -0.0032537810038775206, 0.043523725122213364, 0.014285051263868809, 0.004855116363614798, -0.039951227605342865, -0.046484120190143585], [0.14304539561271667, 0.14800231158733368, 0.0062701161950826645, -0.011381620541214943, 0.12396059185266495, 0.09997960180044174, -0.09188614040613174, 0.0011303368955850601, 0.003365678945556283, -0.007695975713431835, 0.006979750469326973, -0.0334739089012146, 0.0006547946250066161, 0.14178121089935303, -0.037661563605070114, 0.14346683025360107, 0.007416959851980209, 0.019115088507533073, -0.02961648628115654, -0.1556919366121292], [0.10628162324428558, 0.1034502387046814, 0.00822225771844387, 0.009932438842952251, 0.08386129140853882, 0.06286974996328354, -0.05720837414264679, -0.00048367097042500973, 0.030406489968299866, -0.0055226911790668964, 0.00719823082908988, -0.01612883061170578, -0.00012195707677165046, 0.10337243229150772, -0.012275107204914093, 0.0977763831615448, 0.027579285204410553, -0.0012528334045782685, 0.007795835379511118, -0.10650906711816788], [-0.11298232525587082, -0.08614719659090042, -0.10377778857946396, -0.060889001935720444, -0.04275713115930557, -0.07257576286792755, -0.18416835367679596, 0.006635942496359348, 0.1892954558134079, 0.09437238425016403, -0.007721323054283857, 0.02803388051688671, 0.006902591325342655, -0.09353649616241455, 0.04791392758488655, -0.15129129588603973, 0.00969962403178215, -0.10687684267759323, -0.14187569916248322, 0.14438685774803162], [-0.0017423983663320541, -0.0018896169494837523, 0.0003530426474753767, 0.00010117542842635885, -0.0012996414443477988, -0.0007397131994366646, 0.0012156503507867455, -2.2689468096359633e-05, -6.1021066358080134e-05, 0.0007787877111695707, 0.00032049344736151397, 0.00016550974396523088, -2.297064747835975e-05, -0.0015928352950140834, 0.000564256333746016, -0.0017889668233692646, -0.00016578870418015867, -0.001029911101795733, 0.0004604847636073828, 0.00216182554140687], [-0.18560808897018433, -0.14337174594402313, -0.0404675118625164, 0.005544084589928389, -0.08444201201200485, -0.07258247584104538, -0.004098988138139248, 0.0030323355458676815, 0.16426041722297668, 0.007908768020570278, 0.05437523499131203, 0.06635206937789917, 0.0037668882869184017, -0.12796275317668915, 0.052378974854946136, -0.13265909254550934, 0.10953036695718765, -0.11337897926568985, -0.48430827260017395, 0.12774735689163208], [0.07377323508262634, 0.08306296914815903, -0.07102475315332413, 0.023447459563612938, 0.0751376524567604, 0.06582359224557877, 0.0574510358273983, -0.0019631334580481052, -0.011253457516431808, -0.08480454236268997, -0.12192249298095703, -0.045926839113235474, -0.0006199923809617758, 0.08481673151254654, -0.029081718996167183, 0.08868314325809479, 0.03523420915007591, 0.10397323220968246, 0.02569020539522171, -0.09180725365877151], [0.0661914199590683, 0.06929048150777817, -0.26143041253089905, -0.004658597521483898, 0.06643500924110413, 0.05687324330210686, 0.10993761569261551, -0.00016640100511722267, -0.09414155036211014, -0.24394258856773376, -0.47924381494522095, -0.08040249347686768, 0.003488012822344899, 0.08687552809715271, -0.03939654305577278, 0.08743846416473389, 0.05309326946735382, 0.32140299677848816, -0.03897946700453758, -0.07428566366434097], [0.09481683373451233, 0.08531519770622253, 0.0868622362613678, 0.0047151800245046616, 0.0623776875436306, 0.04045494645833969, -0.028501201421022415, 0.00024345656856894493, 0.07994962483644485, 0.036076582968235016, -0.005408246070146561, 0.054106615483760834, 3.1800231226952747e-05, 0.08781110495328903, 0.03273019939661026, 0.06788259744644165, 0.014157512225210667, -0.08788972347974777, 0.10217813402414322, -0.08006007969379425], [-0.0006716134957969189, -0.0008260381873697042, 0.00010047211253549904, 0.00015473934763576835, -0.0002911759074777365, 9.005056199384853e-06, 0.00034790957579389215, -1.6976493498077616e-05, -6.592710997210816e-05, 0.00014540684060193598, 3.0228115065256134e-05, -1.0781732271425426e-05, -1.3917855540057644e-05, -0.0005408117431215942, 0.0003166994429193437, -0.0007075864705257118, -5.5403230362571776e-05, -0.00019159768999088556, 0.0005349785787984729, 0.001162210712209344], [0.1870371252298355, 0.1863640397787094, 0.004832384176552296, -0.009133905172348022, 0.15927688777446747, 0.13521389663219452, -0.12763208150863647, 0.0009140154579654336, -0.01988028921186924, -0.009887518361210823, 0.019797679036855698, -0.057500842958688736, 0.0004347940848674625, 0.17561855912208557, -0.041875310242176056, 0.18860991299152374, 0.004200657829642296, 0.01835331693291664, -0.061310090124607086, -0.20350778102874756], [-0.22425013780593872, -0.2419125884771347, -0.024393664672970772, 0.020143121480941772, -0.2184208631515503, -0.18725648522377014, 0.09650389850139618, -0.003688457887619734, -0.12814532220363617, -0.010070952586829662, -0.04281450808048248, 0.05802173912525177, -0.004308180417865515, -0.22168301045894623, 0.06596378982067108, -0.23290716111660004, 0.01575717143714428, 0.034705750644207, -0.12155041098594666, 0.2561407685279846], [0.16157157719135284, 0.16249114274978638, 0.021264247596263885, 0.006201499607414007, 0.13906735181808472, 0.11187723278999329, -0.06977821886539459, 0.000604662811383605, 0.036728523671627045, -0.01610964722931385, 0.00926673598587513, -0.042685478925704956, 0.00032150530023500323, 0.15866075456142426, -0.022612426429986954, 0.1529608815908432, 0.025342484936118126, 0.01870288886129856, 0.007776346057653427, -0.1684102714061737], [-0.017518745735287666, -0.03137084096670151, 3.685907358885743e-05, 0.04347650706768036, -0.028084322810173035, -0.026980411261320114, 0.02610604651272297, -0.0006476006237789989, 0.0643695667386055, -0.01206753309816122, -0.002666574204340577, -0.003109641605988145, -0.0009689799626357853, -0.015494846738874912, 0.06980009377002716, -0.030794983729720116, 0.050931185483932495, -0.006076422985643148, 0.05746524780988693, 0.034845855087041855], [0.6238645911216736, 0.6478816866874695, -0.05901050940155983, -0.008986582048237324, 0.5699120759963989, 0.4907952547073364, -0.5425059795379639, 0.004800704773515463, 0.016319166868925095, -0.10641445964574814, -0.030841948464512825, -0.16370753943920135, 0.006185157690197229, 0.6183245182037354, -0.14544302225112915, 0.6373148560523987, 0.05246133729815483, 0.07965955138206482, -0.23123247921466827, -0.7100127935409546], [0.018453449010849, -0.020865049213171005, 0.04162748530507088, -0.006215820088982582, -0.11688967794179916, -0.06270776689052582, 0.07543422281742096, 0.0010351028759032488, 0.36208683252334595, -0.008673008531332016, -0.10506735742092133, -0.04168800637125969, 0.0014600824797526002, -0.1085057482123375, -0.37237226963043213, -0.030990470200777054, -0.1095617413520813, 0.07078249752521515, 0.19070720672607422, 0.08342089504003525], [0.17105557024478912, 0.17454105615615845, 0.015712596476078033, 0.007541662082076073, 0.14850634336471558, 0.11888394504785538, -0.08279218524694443, -0.00037039403105154634, 0.057667024433612823, 0.006262809503823519, 0.029778117313981056, -0.040225427597761154, -0.0005479392129927874, 0.16983304917812347, -0.016696805134415627, 0.16525772213935852, 0.028180887922644615, -0.01097654365003109, 0.01533691305667162, -0.18086813390254974], [0.1218997985124588, 0.13549277186393738, -0.15070092678070068, -0.020458590239286423, 0.1189790815114975, 0.09569703042507172, -0.07119809091091156, 0.0025706738233566284, 0.044430922716856, -0.0861092284321785, -0.020486710593104362, -0.23138149082660675, 0.00139920215588063, 0.14016424119472504, -0.029618052765727043, 0.1083989366889, 0.02615598775446415, 0.26967859268188477, 0.023674998432397842, -0.15049436688423157], [0.1390966922044754, 0.1416832059621811, 0.011526604183018208, -0.013563667424023151, 0.1175583004951477, 0.0974452793598175, -0.10227467864751816, 0.000488783756736666, -0.015665745362639427, 7.657004607608542e-05, 0.013678817078471184, -0.031211109831929207, 0.00018448907940182835, 0.1276709884405136, -0.037006303668022156, 0.1349349021911621, -0.005357031244784594, 0.01092590019106865, -0.050832994282245636, -0.15008600056171417], [-0.13426965475082397, -0.1345229297876358, 0.24009671807289124, 0.12090058624744415, 0.019493352621793747, -0.07272257655858994, 0.1991252899169922, 0.012864634394645691, 0.6113430261611938, -0.0711134672164917, -0.12573087215423584, -0.009346331469714642, 0.004365840461105108, -0.027070967480540276, -0.3910077214241028, 0.020944511517882347, 0.3269957900047302, 0.2000475525856018, -1.0648311376571655, 0.08815540373325348], [0.019080286845564842, 0.028958573937416077, 0.09822124987840652, 0.062466733157634735, 0.005607128608971834, 0.0058842492289841175, 0.14028218388557434, -0.002128549385815859, 0.18598641455173492, -0.03502987325191498, 0.03283838555216789, -0.03982838615775108, -0.0015786834992468357, 0.026738425716757774, 0.1877286732196808, 0.012208664789795876, 0.07429444789886475, 0.022611193358898163, 0.2910754084587097, -0.024580148980021477], [0.12874341011047363, 0.1341325044631958, 0.007289278786629438, -0.009476813487708569, 0.11213724315166473, 0.09108933061361313, -0.07376492768526077, 0.00042411338654346764, -5.51885568711441e-05, -0.0026198667474091053, 0.007745963986963034, -0.028727399185299873, 0.00015158952737692744, 0.12775011360645294, -0.034786611795425415, 0.1294832080602646, 0.004365476313978434, 0.01565597765147686, -0.021112093701958656, -0.1413308084011078], [0.13960786163806915, 0.13605628907680511, 0.005292990244925022, 0.005039151292294264, 0.1109451875090599, 0.0865633487701416, -0.07895928621292114, -0.0005065542063675821, 0.027291908860206604, -0.005806209985166788, 0.013003801926970482, -0.027538655325770378, -0.00020395868341438472, 0.13001921772956848, -0.0279244277626276, 0.12762069702148438, 0.02160211093723774, 0.004284979309886694, -0.011880491860210896, -0.1412419080734253], [-0.24442224204540253, -0.048762980848550797, 0.11778329312801361, 0.03747639060020447, -0.22263437509536743, -0.0348588265478611, 0.3500378727912903, 0.0061730570159852505, 0.9436964392662048, 0.3058050870895386, 0.2782348394393921, 0.2904430627822876, 0.003911922220140696, -0.2747775614261627, -0.8425623774528503, -0.18962231278419495, -0.024162767454981804, -0.35440734028816223, 0.7315081357955933, 0.11719845980405807], [0.006413081660866737, -0.0025800399016588926, 0.002238108078017831, 0.00017198607383761555, -0.00672882841899991, -0.004545533563941717, -0.03516397252678871, -0.0025765690952539444, -0.0054756952449679375, -0.007804022636264563, -0.010272299870848656, -0.0009614902082830667, -0.00042729059350676835, -0.0036008411552757025, -0.03534702584147453, -0.004393308889120817, -0.004998601041734219, 0.0290457084774971, 0.00019855839491356164, 0.004740903619676828], [0.18807528913021088, -0.03963235765695572, -0.08834900707006454, -0.00326709751971066, -0.05991801619529724, -0.10782094299793243, -0.2760724723339081, -0.060423724353313446, 0.0154800396412611, 0.1883099526166916, 0.5293589234352112, 0.1645011603832245, -0.041178856045007706, -0.15529361367225647, 0.22329601645469666, -0.1882440596818924, -0.14944766461849213, -0.44668132066726685, -0.05019892752170563, -0.03738081827759743], [0.07157757878303528, -0.012159574776887894, -0.16678526997566223, 0.016812022775411606, -0.09340054541826248, -0.03348833695054054, -0.12304598093032837, -0.007719891145825386, -0.22282283008098602, 0.059359002858400345, 0.16663426160812378, 0.0049576000310480595, -0.0007599177770316601, 0.005545004736632109, -0.05155365541577339, -0.012780370190739632, 0.04475914314389229, -0.44664517045021057, 0.13527527451515198, -0.00317079178057611], [0.02913496270775795, 0.09025851637125015, -0.08517741411924362, -0.1498897522687912, 0.06990475207567215, -0.02268419787287712, -0.02667229436337948, 0.010409928858280182, 0.04689478129148483, -0.02705075591802597, 0.23040753602981567, -0.1271338015794754, 0.023999780416488647, 0.051029421389102936, 0.07935121655464172, -0.037673864513635635, 0.12514464557170868, -0.4594261050224304, -0.002277768449857831, 0.04383520409464836], [-0.10561308264732361, 0.0025533833540976048, 0.33406785130500793, 0.11889926344156265, -0.024646781384944916, 0.03991132974624634, 0.0528799332678318, -0.016185708343982697, -0.1803930401802063, 0.02845671772956848, 0.18814899027347565, 0.1307927519083023, -0.01118831243366003, -0.09713736921548843, -0.06812281161546707, -0.05313783138990402, -0.03658845275640488, -0.4292450547218323, -0.07280439883470535, 0.05433431267738342], [-0.009186950512230396, -0.00476223137229681, -0.0007883807993493974, -0.003723034868016839, 0.00332498992793262, 0.0021419196855276823, -0.03653630614280701, 0.00015547398652415723, 0.015077215619385242, -0.003490791190415621, -0.01592273637652397, -0.0007769856019876897, -0.0007926504476927221, -0.00817051436752081, -0.016057733446359634, -0.005619650240987539, -0.006233020685613155, 0.024285081773996353, -0.0005542092258110642, 0.003544645616784692], [0.13541191816329956, 0.1329638957977295, 0.0008051631157286465, 7.772311801090837e-05, 0.11503720283508301, 0.09744838625192642, -0.06666348874568939, -0.0003832089714705944, -0.006396534852683544, -0.009290817193686962, 0.013256203383207321, -0.042028963565826416, -1.2096635146008339e-05, 0.12586911022663116, -0.024256892502307892, 0.137355774641037, 0.013409906066954136, 0.012234652414917946, -0.01817624643445015, -0.14571557939052582], [-0.08802006393671036, 0.03578317537903786, 0.0849255621433258, 0.09809791296720505, -0.15810656547546387, -0.04310091212391853, 0.049085233360528946, -0.014306333847343922, 0.6747531890869141, -0.27182266116142273, -0.17532576620578766, -0.15546977519989014, -0.011855719611048698, -0.09777673333883286, -1.1466495990753174, 0.15374189615249634, 0.015267492271959782, 0.09067558497190475, 0.8579306602478027, -0.015367122367024422], [0.1344064176082611, 0.13420619070529938, 0.018795309588313103, 0.0027670967392623425, 0.11400643736124039, 0.09217990934848785, -0.047921933233737946, 0.0002728044055402279, 0.030088158324360847, -0.010627100244164467, 0.010465344414114952, -0.03154684230685234, 5.626575875794515e-05, 0.1293274611234665, -0.02072557806968689, 0.12631075084209442, 0.017086924985051155, 0.012732420116662979, 0.016219167038798332, -0.14014582335948944], [0.03729262575507164, 0.025525912642478943, 0.027485420927405357, -0.1476535201072693, -0.046617113053798676, -0.032828349620103836, 0.3066042363643646, 0.00033943442394956946, 0.25920581817626953, 0.02169140800833702, 0.003976068925112486, 0.04986146464943886, -0.0029454866889864206, 0.038900505751371384, -0.23364900052547455, 0.003232915885746479, -0.13683918118476868, 0.09805057942867279, 0.21727031469345093, 0.005983095150440931], [0.19398851692676544, 0.094222292304039, 0.10983480513095856, -0.09455138444900513, 0.10052115470170975, 0.12038126587867737, 0.3528277575969696, 0.020662710070610046, 0.3480517566204071, 0.09741012752056122, 0.1744459569454193, -0.08821748942136765, -0.008589650504291058, -0.2060590386390686, 0.022444115951657295, 0.11581980437040329, 0.026644034311175346, 0.3871958553791046, 0.1980782151222229, -0.027502337470650673], [-0.3868982493877411, 0.017477508634328842, 0.14390365779399872, -0.04200073704123497, 0.055434517562389374, 0.10271969437599182, 0.13697275519371033, -0.015742789953947067, 0.4327574074268341, 0.5254254341125488, 0.8380085229873657, 0.10576317459344864, -0.04681806266307831, -0.27997055649757385, -0.1256791204214096, -0.12843075394630432, 0.07383759319782257, -1.1856589317321777, -0.046261612325906754, -0.1528085172176361], [-0.14561061561107635, -0.1455449014902115, -0.014737195335328579, -0.0018408457981422544, -0.12162566184997559, -0.09796752035617828, 0.0667775422334671, 0.0007370946113951504, -0.046473175287246704, -0.007523259613662958, -0.025813279673457146, 0.031823623925447464, 0.0006996103911660612, -0.13647040724754333, 0.018893517553806305, -0.13576620817184448, -0.017108872532844543, 0.0068774595856666565, -0.011105853132903576, 0.1508680135011673], [0.15357565879821777, 0.2102942317724228, -0.0014325184747576714, -0.012632673606276512, 0.14473272860050201, 0.17823578417301178, -0.12636995315551758, 0.007413338404148817, 0.07561181485652924, -0.017436988651752472, -0.012344538234174252, -0.08808921277523041, 0.007759284693747759, 0.08834046870470047, 0.44334810972213745, 0.22358037531375885, 0.023967549204826355, 0.07553600519895554, 0.4006655514240265, -0.23551982641220093], [0.24628350138664246, 0.14110949635505676, 0.0139014245942235, 0.027769897133111954, 0.14279676973819733, 0.12570129334926605, -0.16927504539489746, 0.001826321124099195, 0.019283436238765717, -0.0075247203931212425, 0.02523725852370262, -0.05192073434591293, 0.0015992039116099477, 0.1865462213754654, 0.10015161335468292, 0.19494269788265228, 0.04830031469464302, 0.005247040651738644, 0.09458530694246292, -0.19608552753925323], [0.08039791136980057, 0.1096637025475502, -0.09889470785856247, -0.003878721734508872, 0.09428105503320694, 0.08020781725645065, 0.008270584046840668, 0.0014135659439489245, -0.025653718039393425, -0.07495392858982086, -0.06695584952831268, 0.005535884760320187, 0.0005202841712161899, 0.09816799312829971, -0.10037188977003098, 0.11345992982387543, 0.02709008753299713, 0.10826729983091354, -0.05852203816175461, -0.11472182720899582], [0.02556583657860756, 0.024937091395258904, 0.0008589444332756102, 0.0005053500644862652, 0.022121580317616463, 0.018319636583328247, -0.05213798210024834, -0.000780935341026634, -0.08617081493139267, -0.0007861749618314207, 0.025711365044116974, -0.0010741761652752757, -0.00048805217375047505, 0.02566881850361824, 0.014268661849200726, 0.025393789634108543, 0.009226422756910324, -0.0007842610939405859, -0.12929607927799225, -0.02758164145052433], [0.17130324244499207, 0.10799936205148697, 0.0018352163024246693, 0.029812071472406387, 0.05853867530822754, 0.04705395922064781, -0.13832715153694153, -0.0005892989574931562, 0.1642024964094162, -0.018874933943152428, 0.0007102355593815446, -0.029053395614027977, -0.0004132793692406267, 0.12618866562843323, -0.18427027761936188, 0.09837717562913895, 0.03757148236036301, 0.027543826028704643, 0.04262230917811394, -0.11624906957149506], [0.08451341837644577, 0.07599451392889023, 0.014422562904655933, 0.05853956937789917, 0.047056663781404495, 0.029053306207060814, -0.1132165789604187, -0.002556036226451397, 0.021830568090081215, -0.008527139201760292, 0.004447939805686474, -0.00862838327884674, -0.0011624020989984274, 0.07587205618619919, -0.1147492453455925, 0.06587937474250793, 0.051236800849437714, -0.006491763982921839, -0.04978310689330101, -0.0727500468492508], [0.10941682010889053, 0.20467913150787354, 0.0009763495763763785, 0.13572557270526886, 0.21415270864963531, 0.18549618124961853, -0.12321345508098602, 0.0076193553395569324, 0.5771074295043945, 0.038810111582279205, 0.05691906064748764, -0.13886968791484833, 0.0074455211870372295, 0.22322659194469452, 0.34121033549308777, 0.1543125957250595, 0.26050981879234314, -0.1449652463197708, 0.39408981800079346, -0.19034509360790253], [-0.0006091073155403137, -0.0008368755807168782, 0.0005910899490118027, 0.0005551179638132453, -0.00043182700756005943, -3.757916056201793e-05, 0.0014586501056328416, -4.918007834930904e-05, -0.00041586163570173085, 0.00018250553694088012, 0.0006316272192634642, -0.0005414110491983593, -3.8895519537618384e-05, -0.0004966275300830603, 0.0009329800377599895, -0.000753504631575197, 0.000552246579900384, -0.0002608990471344441, 0.000504962750710547, 0.0010614529019221663], [0.23838269710540771, 0.25175046920776367, 0.07253666967153549, 0.049060218036174774, 0.23418943583965302, 0.1995127648115158, -0.39191949367523193, 0.002715629991143942, 0.20348384976387024, -0.027190914377570152, 0.016431504860520363, -0.06030600517988205, 0.00418220367282629, 0.25437870621681213, -0.03146671876311302, 0.24132920801639557, 0.09788432717323303, -0.017982760444283485, -0.1262328177690506, -0.27430328726768494], [0.09880359470844269, 0.1040923222899437, -0.04208654910326004, 0.01114635355770588, 0.09398144483566284, 0.07943780720233917, 0.05322416126728058, 0.00034121880889870226, 0.015567058697342873, -0.06371529400348663, -0.08616314083337784, -0.04840315878391266, 0.0006409715861082077, 0.10431379079818726, -0.02674909308552742, 0.10565716028213501, 0.029097042977809906, 0.08551111817359924, 0.05631454288959503, -0.10999979078769684], [0.1479235738515854, 0.1438838094472885, -0.10626745223999023, 0.0184556283056736, 0.11782794445753098, 0.09969834983348846, -0.02043173648416996, -0.0045369998551905155, -0.08400371670722961, -0.12255650013685226, -0.1905786395072937, -0.08133205771446228, -0.001035465975292027, 0.14973032474517822, -0.09364770352840424, 0.1504845917224884, 0.039484791457653046, 0.1521289348602295, -0.022996943444013596, -0.15029899775981903], [0.08440135419368744, 0.05077558383345604, 0.11117371171712875, 0.02263924665749073, 0.04650082066655159, 0.02285374328494072, 0.02205713465809822, 0.0011019314406439662, 0.0806812271475792, 0.028147874400019646, -0.00042664320790208876, 0.04980487376451492, 0.00068563042441383, 0.06809219717979431, 0.06399282068014145, 0.02893068455159664, 0.031217316165566444, -0.07442543655633926, 0.030288251116871834, -0.05232949182391167], [-0.0022942330688238144, -0.0027007784228771925, 0.0002499240217730403, 0.0003091563703492284, -0.0013696833048015833, -0.00025367128546349704, 0.0005524822045117617, -1.6754809621488675e-05, 5.410438916442217e-06, -9.721102105686441e-05, 0.00017225337796844542, -0.0004728370695374906, -1.2667704140767455e-05, -0.002024731133133173, 0.00037082339986227453, -0.0024350560270249844, 0.0003699566295836121, 0.00014017407374922186, 0.0004720163415186107, 0.0034002664033323526], [0.20668736100196838, 0.13220012187957764, -0.03079827129840851, -0.010721755214035511, 0.038493812084198, 0.14185498654842377, -0.013752583414316177, 0.0020153296645730734, 0.21532492339611053, -0.02649865113198757, -0.016794024035334587, -0.07221976667642593, 0.0033912674989551306, 0.0629044696688652, 0.14074550569057465, 0.19793307781219482, 0.01315382868051529, 0.09790384024381638, 0.2634846568107605, -0.25052759051322937], [0.2781080901622772, 0.29254087805747986, 0.04918307811021805, -0.02449563704431057, 0.25057339668273926, 0.21506573259830475, -0.26361083984375, 0.004538341891020536, -0.0023637176491320133, -0.020727241411805153, 0.017465922981500626, -0.07373654097318649, 0.004179463721811771, 0.2692663371562958, -0.12839935719966888, 0.2820136845111847, -0.03663986176252365, 0.03824096545577049, -0.04517494887113571, -0.3056446611881256], [0.12252868711948395, 0.1940285712480545, 0.010721421800553799, 0.04569869861006737, 0.19583231210708618, 0.13040471076965332, -0.010864906013011932, 0.0035175413358956575, 0.06484396755695343, -0.031684454530477524, -0.026453707367181778, -0.09175310283899307, 0.0021422416903078556, 0.1626248061656952, 0.11243840306997299, 0.12456441670656204, 0.07330322265625, 0.07527364045381546, -0.06399662047624588, -0.19769200682640076], [0.056172799319028854, 0.06044825538992882, -0.0036158435977995396, -0.017890388146042824, 0.05095981806516647, 0.04161163419485092, -0.22849632799625397, 0.00014925301366019994, -0.11300994455814362, 0.019829507917165756, 0.023446843028068542, 0.013449057936668396, -0.00014964607544243336, 0.05692692846059799, -0.026578640565276146, 0.05288929119706154, 0.005338369868695736, -0.013778597116470337, -0.2402580827474594, -0.0603984035551548], [0.22494837641716003, 0.2572018504142761, -0.047841086983680725, 0.009968382306396961, 0.22906774282455444, 0.20078305900096893, -0.09501256793737411, -0.00011263548367423937, -0.021294983103871346, -0.06955105811357498, -0.11433536559343338, -0.04450159892439842, 0.001105984323658049, 0.24642951786518097, -0.04921184852719307, 0.2584826946258545, 0.023871084675192833, 0.057520873844623566, -0.0020349747501313686, -0.2811526358127594], [0.07466161996126175, 0.2680647075176239, -0.011915771290659904, -0.16426174342632294, 0.05413880571722984, 0.240174800157547, 0.23431169986724854, -0.007952653802931309, 0.654495894908905, 0.14257465302944183, 0.12118804454803467, -0.07878152281045914, -0.008891490288078785, -0.0044172643683850765, -0.6693465113639832, 0.42552894353866577, -0.28564175963401794, -0.1161002516746521, 1.002310037612915, -0.24962404370307922], [0.21805700659751892, 0.22057493031024933, 0.01654866524040699, 0.0654880553483963, 0.1790960431098938, 0.1364007443189621, -0.1030820906162262, -0.0021864871960133314, 0.03856048732995987, -0.013311405666172504, 0.034438397735357285, -0.0858704000711441, -0.0008380005019716918, 0.2166173905134201, 0.01908065937459469, 0.20654037594795227, 0.08072349429130554, -0.01574793830513954, -0.017766496166586876, -0.22259239852428436]], "rec.bias_ih_l0": [0.10359591990709305, 0.08889546245336533, -0.7139484286308289, 0.05924982950091362, 0.09073943644762039, 0.0780426412820816, 0.3896677494049072, -0.0017635996919125319, 0.31899788975715637, 0.0904458612203598, 0.027310620993375778, 0.10100308805704117, -0.006053771823644638, 0.10486456006765366, 0.3632637858390808, 0.08948667347431183, 0.1249842494726181, -0.5866580605506897, 0.52604079246521, 0.09076058864593506, 0.2933967709541321, 0.23208662867546082, 0.9281669855117798, 0.05970631167292595, 0.1956062763929367, 0.13287754356861115, -0.16540467739105225, -0.003190009854733944, -0.2277679741382599, 0.11355308443307877, 0.09292863309383392, 0.0992257371544838, -0.0028618099167943, 0.25823768973350525, -0.30053210258483887, 0.20525860786437988, -0.042352888733148575, 0.8395412564277649, -0.21507368981838226, 0.22028546035289764, 0.023039434105157852, 0.08735378831624985, 0.13862267136573792, 0.05870828405022621, 0.1407768726348877, 0.11960165202617645, -0.05790502205491066, -0.0034651507157832384, 0.09092012792825699, 0.003592472290620208, -0.09806402772665024, -0.05040097236633301, 0.0027720602229237556, 0.18149659037590027, -0.025788864120841026, 0.14464451372623444, 0.14314299821853638, -0.12101250141859055, 0.015728317201137543, -0.0946091040968895, 0.22485725581645966, 0.1391025334596634, 0.1406300812959671, 0.03703747317194939, 0.14297568798065186, 0.0923992246389389, 0.23343916237354279, -0.0018212588038295507, 0.31792259216308594, 0.13487377762794495, 0.18671171367168427, 0.0696747750043869, -0.0061779324896633625, 0.20116962492465973, 0.3736347556114197, 0.19926078617572784, 0.081548310816288, 0.355647474527359, 0.4344876706600189, 0.2906760573387146], "rec.bias_hh_l0": [0.10335078090429306, 0.08888288587331772, -0.6753387451171875, 0.0592501200735569, 0.09073842316865921, 0.0780516043305397, 0.3897309899330139, -0.0017636031843721867, 0.319077730178833, 0.09044525027275085, 0.027059460058808327, 0.10137319564819336, -0.0060537708923220634, 0.10482440143823624, 0.3632637560367584, 0.08953671902418137, 0.12498419731855392, -0.608950138092041, 0.5260409712791443, 0.09076187014579773, 0.27133822441101074, 0.23516583442687988, 0.8703765273094177, 0.05970626696944237, 0.1959896683692932, 0.13258785009384155, -0.15203604102134705, -0.003190009854733944, -0.2260909229516983, 0.11370731890201569, 0.09385398030281067, 0.10009894520044327, -0.002861808519810438, 0.2566331624984741, -0.30053144693374634, 0.2119818478822708, -0.042352866381406784, 0.8376510143280029, -0.16672039031982422, 0.22091956436634064, 0.010685373097658157, 0.08924455940723419, 0.020984558388590813, -0.0016546580009162426, 0.14034432172775269, 0.11863875389099121, -0.023007621988654137, -0.004535894840955734, -0.03731516748666763, -0.019660303369164467, 0.09682334959506989, 0.03152075409889221, 0.0028794207610189915, 0.15627677738666534, -0.02966669760644436, 0.1258801370859146, 0.1020236536860466, -0.08053141087293625, -0.06949635595083237, -0.10172480344772339, 0.11099573969841003, 0.25829601287841797, 0.1523219794034958, 0.03702662140130997, 0.1372106522321701, 0.07935760170221329, 0.2767868638038635, -0.0018212571740150452, 0.3179227113723755, 0.13487322628498077, 0.18671168386936188, 0.07569629698991776, -0.006177928298711777, 0.18256200850009918, 0.3736344575881958, 0.2559621334075928, 0.08154840767383575, 0.3557928204536438, 0.3845784366130829, 0.2605213224887848], "lin.weight": [[-0.05315469577908516, -0.02264726534485817, -0.46810683608055115, 0.11995352059602737, 0.0685616210103035, -0.04088953509926796, 0.5268651247024536, 0.026342807337641716, 0.8122313618659973, -0.08835554122924805, -0.20961913466453552, -0.05523858591914177, 0.011006630957126617, 0.24017493426799774, -0.4562414586544037, 0.00909269880503416, 0.3564313054084778, 0.12877947092056274, -1.1741331815719604, 0.13091185688972473]], "lin.bias": [-0.05109826475381851]}}