{"model_data": {"model": "SimpleRNN", "input_size": 1, "skip": 1, "output_size": 1, "unit_type": "LSTM", "num_layers": 1, "hidden_size": 20, "bias_fl": true}, "state_dict": {"rec.weight_ih_l0": [[-0.023338526487350464], [-0.0005613062530755997], [-0.15464851260185242], [0.02370636910200119], [-0.012489398941397667], [-0.023975975811481476], [-0.03885064274072647], [-0.0012330578174442053], [0.014515968039631844], [-0.03406781330704689], [-0.09144837409257889], [0.008160130120813847], [0.0012122251791879535], [-0.0017805001698434353], [-0.024767836555838585], [-0.026325859129428864], [0.030796976760029793], [0.16119077801704407], [-0.051120124757289886], [-0.020858900621533394], [-0.055167827755212784], [-0.0049135880544781685], [0.08248352259397507], [0.008590844459831715], [-0.024418121203780174], [-0.04024321585893631], [0.3970663249492645], [-0.000919237791094929], [-0.18121221661567688], [-0.07630003243684769], [-0.21276932954788208], [0.0015728939324617386], [-0.0001645662559894845], [-0.004329722374677658], [0.013030823320150375], [-0.054446641355752945], [-0.028763094916939735], [-0.10111983120441437], [0.3771016001701355], [-0.045941900461912155], [-0.15305009484291077], [-0.0031271588522940874], [0.7922494411468506], [-0.10641124099493027], [-0.025258881971240044], [-0.04794146120548248], [-2.1982407569885254], [-0.04856860637664795], [-2.125657558441162], [0.11804696172475815], [0.11551384627819061], [0.2639254927635193], [-0.033498238772153854], [-0.014023464173078537], [0.9727575182914734], [-0.05191987380385399], [-0.40449148416519165], [-0.5201596021652222], [-4.9758148193359375], [0.044277068227529526], [-0.14555613696575165], [-0.10206229984760284], [0.009767194278538227], [0.040785644203424454], [-0.07371842861175537], [-0.039061564952135086], [-0.0011824460234493017], [-0.0008539273985661566], [-0.011194422841072083], [-0.059782713651657104], [-0.1258067935705185], [0.054817404597997665], [0.0007674425723962486], [-0.18287084996700287], [-0.03136294707655907], [-0.08102533221244812], [0.07952903211116791], [-0.07741863280534744], [-0.5491496324539185], [-0.0034388576168566942]], "rec.weight_hh_l0": [[0.08369915932416916, 0.0805354043841362, -0.007390073966234922, -0.00672332476824522, 0.06914202868938446, 0.058004431426525116, -0.05137950927019119, -0.00020656739070545882, 0.0026605038437992334, -0.011037376709282398, 0.007778880652040243, -0.04620072990655899, -0.0005636761779896915, 0.07714957743883133, -0.023157084360718727, 0.08155198395252228, 0.004270683974027634, 0.036277759820222855, -0.02903088741004467, -0.0888831838965416], [0.0740409716963768, 0.07662184536457062, 0.0073621273040771484, -0.007415028288960457, 0.06415974348783493, 0.052646130323410034, -0.05516307055950165, 0.000589665025472641, -0.0070986137725412846, -0.002189249498769641, 0.008395940065383911, -0.017511462792754173, -0.0005413269391283393, 0.07043882459402084, -0.018304230645298958, 0.07426997274160385, 5.560247154789977e-05, 0.0030872656498104334, -0.02812785841524601, -0.08220881968736649], [-0.7150371074676514, -0.5571483969688416, -0.007833241485059261, -0.07451752573251724, -0.44729435443878174, -0.3542982339859009, 0.1258099526166916, 0.010194884613156319, 0.17429523169994354, -0.095421202480793, -0.17457212507724762, 0.35723239183425903, 0.02810579352080822, -0.6546939611434937, 0.12962587177753448, -0.49868130683898926, -0.08220107108354568, 0.07026749104261398, 0.28885969519615173, 0.6050963997840881], [0.035228095948696136, 0.038250260055065155, 0.0031059482134878635, -0.007302629761397839, 0.03506430238485336, 0.029119977727532387, -0.009820090606808662, 0.003956654109060764, -0.04521461948752403, -0.0003964920761063695, 0.017101870849728584, -0.0037700021639466286, -0.002599976724013686, 0.03710413724184036, 0.0062079583294689655, 0.03797974810004234, 0.00034859051811508834, -0.0007658587419427931, -0.06200353801250458, -0.04229428991675377], [0.06976582854986191, 0.07175814360380173, 0.005683409981429577, -0.0030508525669574738, 0.05918871611356735, 0.04705057665705681, -0.03873954713344574, 0.0012468108907341957, 0.005904646124690771, -0.004697898402810097, 0.006432086229324341, -0.016140766441822052, -0.0008191615343093872, 0.06861887127161026, -0.014442765153944492, 0.06874379515647888, 0.00632865633815527, 0.004920200444757938, -0.010043916292488575, -0.07568208873271942], [0.0676022469997406, 0.06530983746051788, 0.009197552688419819, 0.0072083743289113045, 0.052337851375341415, 0.03896424174308777, -0.03136693313717842, 0.0007417190936394036, 0.021087588742375374, -0.0048579266294837, 0.00871028658002615, -0.010195069015026093, -0.0004516759072430432, 0.06469900906085968, -0.00545097142457962, 0.06095940247178078, 0.018501322716474533, -0.003344051307067275, 0.004914482124149799, -0.0675821453332901], [0.29648154973983765, 0.30101892352104187, 0.003298901254311204, 0.035747598856687546, 0.2668914794921875, 0.2221350073814392, -0.2291703224182129, 0.0029006421100348234, 0.24783919751644135, 0.026542365550994873, 0.046480536460876465, -0.1033577173948288, -0.0001714149402687326, 0.29400530457496643, -0.08099108934402466, 0.2716062664985657, 0.05534560605883598, -0.05294698104262352, 0.19988226890563965, -0.3110109865665436], [-0.0817696824669838, -0.08358979225158691, -0.0007847980596125126, 0.0012447446351870894, -0.07591915130615234, -0.06531046330928802, 0.0636613667011261, 0.0004238727269694209, 0.003131392877548933, -0.0005253713461570442, 0.00018163469212595373, 0.01857895776629448, 0.0006007642368786037, -0.08052001893520355, -9.544945351080969e-05, -0.08208421617746353, 0.00039953264058567584, -0.0002539884590078145, 0.00852860976010561, 0.0863875225186348], [0.22361509501934052, 0.24926316738128662, 0.07350749522447586, 0.003924535121768713, 0.22788958251476288, 0.20067265629768372, -0.4152362048625946, 0.011441772803664207, 0.11686718463897705, -0.025822512805461884, 0.01163124293088913, -0.044187162071466446, 0.004183379001915455, 0.23965197801589966, -0.12214533984661102, 0.24054904282093048, 0.040882959961891174, -0.007095731794834137, -0.19333167374134064, -0.27285873889923096], [0.05521313101053238, 0.06065435707569122, -0.020577607676386833, 0.024235984310507774, 0.05294128879904747, 0.04520999267697334, 0.03975836560130119, 0.0019146130653098226, 0.007127715740352869, -0.03356993943452835, -0.05021778866648674, -0.016336949542164803, -0.0015809426549822092, 0.06288062036037445, 0.001574596855789423, 0.06310262531042099, 0.022444766014814377, 0.02940492145717144, 0.05022784695029259, -0.066810242831707], [-0.0024575877469033003, 0.008290829136967659, -0.11494768410921097, 0.008291669189929962, 0.007536754012107849, 0.009136912412941456, 0.10192839056253433, 0.006422892678529024, -0.045149534940719604, -0.0986957848072052, -0.23137860000133514, -0.0012494276743382215, 0.0002605704066809267, 0.020248237997293472, -0.03214466571807861, 0.019468478858470917, 0.02675187960267067, 0.10600525140762329, 0.0059366305358707905, -0.009709684178233147], [0.08931701630353928, 0.08298127353191376, 0.04585525766015053, 0.004262903239578009, 0.0648467093706131, 0.04596516489982605, -0.021825751289725304, 0.0005308769759722054, 0.03355780616402626, 0.01455248799175024, 0.0022826569620519876, 0.015102730132639408, -0.0017195851542055607, 0.08444846421480179, 0.013400416821241379, 0.07046099752187729, 0.014978524297475815, -0.03637346625328064, 0.036943469196558, -0.08191750198602676], [-0.08635477721691132, -0.08880508691072464, 0.00016616958600934595, 0.000498429813887924, -0.08094089478254318, -0.06903920322656631, 0.0676242858171463, 0.0005137521657161415, -0.0017076111398637295, 0.00014960899716243148, 0.0016891073901206255, 0.01652350090444088, 0.0007374880369752645, -0.08514909446239471, 0.001153928111307323, -0.08703741431236267, 0.0007798584992997348, -0.0013470842968672514, 0.010966700501739979, 0.09140702337026596], [0.08028813451528549, 0.07952520996332169, -0.00032447106787003577, -0.004613260272890329, 0.06774072349071503, 0.057042304426431656, -0.049252018332481384, 0.00018740959058050066, -0.008558472618460655, -0.0006559316534548998, 0.010327487252652645, -0.027917636558413506, -0.00028986268443986773, 0.0745457112789154, -0.016478992998600006, 0.08047853410243988, 0.001968137687072158, 0.003308564657345414, -0.02167103998363018, -0.0870918408036232], [0.2688150703907013, 0.27885162830352783, 0.03942818194627762, -0.01875832863152027, 0.23506619036197662, 0.20087125897407532, -0.22159425914287567, 0.0063563501462340355, 0.014100794680416584, -0.008714307099580765, 0.012520073913037777, -0.07462363690137863, -0.0033639974426478148, 0.2573755979537964, -0.11849043518304825, 0.2680206894874573, -0.02906038798391819, 0.020484788343310356, -0.00394632201641798, -0.29345813393592834], [0.08133796602487564, 0.08062675595283508, 0.013040591031312943, 0.005204786080867052, 0.06852729618549347, 0.05488186329603195, -0.030793577432632446, 0.0010106118861585855, 0.02357889711856842, -0.00531154265627265, 0.007784034591168165, -0.02060302160680294, -0.00038207866600714624, 0.07838746905326843, -0.008787788450717926, 0.0750630646944046, 0.013726523146033287, 0.0021613589487969875, 0.009718392975628376, -0.08360189944505692], [0.08483367413282394, 0.09104485809803009, -0.004483240190893412, -0.010465576313436031, 0.08217313885688782, 0.06681795418262482, -0.11066188663244247, 0.004473167937248945, -0.06241215392947197, -0.015419172123074532, 0.004511706065386534, -0.007641131989657879, -0.0008847500430420041, 0.08904799818992615, 0.02340756729245186, 0.08538731187582016, 0.013194600120186806, 0.014679048210382462, -0.12266836315393448, -0.09554838389158249], [-0.7509185075759888, -0.47256237268447876, -0.06983031332492828, -0.4256255626678467, -0.30543234944343567, -0.25480586290359497, 1.435110330581665, -0.001303170109167695, 0.10081596672534943, 0.0019585411064326763, -0.3315370976924896, 0.4688558578491211, -0.0006216924521140754, -0.57518470287323, 0.024849293753504753, -0.36974623799324036, -0.24260729551315308, -0.08893275260925293, 0.7246253490447998, 0.5297510623931885], [0.41374528408050537, 0.4188041687011719, 0.031969282776117325, -0.012548798695206642, 0.3542453646659851, 0.30169790983200073, -0.3075977563858032, 0.01211396511644125, -0.06051650643348694, 0.02747526951134205, 0.07857730984687805, -0.1179175153374672, -0.009448956698179245, 0.39215171337127686, -0.09866218268871307, 0.406660795211792, -0.004230931866914034, -0.04232330992817879, -0.2284456193447113, -0.4478248357772827], [0.0801863968372345, 0.08072691410779953, 0.012669026851654053, 0.005752440541982651, 0.06732704490423203, 0.05283648520708084, -0.032695405185222626, 0.0009385644807480276, 0.03197687864303589, -0.0010306750191375613, 0.015080477111041546, -0.01682932674884796, -0.0005440774839371443, 0.07798057794570923, -0.004004902206361294, 0.07515305280685425, 0.014826524071395397, -0.010923417285084724, 0.011839651502668858, -0.08379197120666504], [0.21688517928123474, 0.20771604776382446, -0.02140101045370102, -0.013109701685607433, 0.17584753036499023, 0.14773054420948029, -0.14119525253772736, 0.008040711283683777, 0.007666310295462608, -0.02841731533408165, 0.016299422830343246, -0.114308662712574, 0.0018122113542631269, 0.19964247941970825, -0.05204617604613304, 0.2135060727596283, 0.014400356449186802, 0.08715904504060745, -0.06543052196502686, -0.24010276794433594], [0.17696428298950195, 0.18093526363372803, 0.011644287966191769, -0.012607116252183914, 0.1523306518793106, 0.12620776891708374, -0.12952977418899536, 0.0011800522916018963, -0.0146679962053895, -0.004733367823064327, 0.023333925753831863, -0.04394213855266571, -0.0016291054198518395, 0.170901358127594, -0.04259641841053963, 0.1781686544418335, 0.004597528837621212, 0.006091006100177765, -0.06289179623126984, -0.19624461233615875], [0.6477536559104919, 0.6836135387420654, 0.08613846451044083, 0.04159340634942055, 0.6026168465614319, 0.531857967376709, -0.407673180103302, 0.008671404793858528, -0.09193707257509232, 0.030489027500152588, 0.11138545721769333, -0.15905384719371796, 0.01926524192094803, 0.6304239630699158, -0.14671927690505981, 0.6822563409805298, 0.05533905327320099, -0.10895495861768723, -0.11005859076976776, -0.7413434386253357], [0.0488089956343174, 0.04735803231596947, 0.004303423222154379, -0.001098377862945199, 0.04177577421069145, 0.03536286577582359, 0.0027017786633223295, 0.004255384672433138, -0.0327589325606823, -0.003283922327682376, 0.016244055703282356, -0.016238326206803322, -0.003416789462789893, 0.049075063318014145, -0.004838231485337019, 0.04788411036133766, 0.013646678067743778, 0.004517797380685806, -0.04375292733311653, -0.051213428378105164], [0.14521698653697968, 0.14814835786819458, 0.00855183880776167, -0.008290346711874008, 0.12239784002304077, 0.09838941693305969, -0.08695271611213684, 0.001712738536298275, 0.009094896726310253, -0.009939427487552166, 0.013833967968821526, -0.03532551974058151, -0.0021530427038669586, 0.14284107089042664, -0.03443998843431473, 0.14301685988903046, 0.011967271566390991, 0.01229214109480381, -0.02873966470360756, -0.1570235639810562], [0.10440395772457123, 0.10044161975383759, 0.01277574896812439, 0.010621078312397003, 0.07980623841285706, 0.05883140116930008, -0.04858268052339554, 0.0017013071337714791, 0.03560634329915047, -0.003346992889419198, 0.014920358546078205, -0.01261934544891119, -0.001482640509493649, 0.10131589323282242, -0.00879686139523983, 0.09387972950935364, 0.03110215812921524, -0.00786849670112133, 0.010071261785924435, -0.10376980155706406], [-0.11708804219961166, -0.08942978829145432, -0.10421346127986908, -0.0587502159178257, -0.04457130283117294, -0.07698588073253632, -0.18571175634860992, -0.00664912024512887, 0.20011311769485474, 0.10261005163192749, -0.013444051146507263, 0.033299729228019714, 0.014876737259328365, -0.09695456176996231, 0.05649520084261894, -0.15604957938194275, 0.011387688107788563, -0.1141633540391922, -0.133159801363945, 0.14856351912021637], [-0.0712226927280426, -0.07308536767959595, -0.00017958880926016718, 0.0007329625659622252, -0.06518024206161499, -0.05449208617210388, 0.05257883295416832, 0.0008195846457965672, 0.0015557595761492848, -0.00042597216088324785, -0.0005367434932850301, 0.010432661511003971, 6.0455213315435685e-06, -0.0698930025100708, -0.0010801616590470076, -0.07154829055070877, -6.481679884018376e-05, -4.981399979442358e-05, 0.004474894609302282, 0.07606439292430878], [-0.1886397749185562, -0.14143531024456024, -0.036572184413671494, 0.0030792024917900562, -0.08253391087055206, -0.07097361236810684, -0.0018456920515745878, 0.02262900210916996, 0.16283003985881805, 0.004299034830182791, 0.05129171907901764, 0.06754890829324722, 0.02049642987549305, -0.12661553919315338, 0.044326238334178925, -0.13081830739974976, 0.10788575559854507, -0.11160965263843536, -0.49514782428741455, 0.12520357966423035], [0.06827250123023987, 0.07944965362548828, -0.055290982127189636, 0.024128740653395653, 0.0699627697467804, 0.06148655340075493, 0.058597877621650696, 0.003161467844620347, -0.008738520555198193, -0.06665390729904175, -0.12020736932754517, -0.02277413010597229, -0.0009774687932804227, 0.0810064822435379, -0.023357344791293144, 0.08512227237224579, 0.025926385074853897, 0.07555771619081497, 0.030821530148386955, -0.09029974043369293], [0.06129104271531105, 0.06459485739469528, -0.2562181055545807, -0.003271235153079033, 0.0619526244699955, 0.05378678813576698, 0.10821408033370972, 0.00986859668046236, -0.10142312943935394, -0.2528204917907715, -0.4996389150619507, -0.07797648012638092, 0.003144084010273218, 0.08350524306297302, -0.0468982458114624, 0.08418271690607071, 0.052636049687862396, 0.34908148646354675, -0.04617088660597801, -0.07026228308677673], [0.10153353214263916, 0.08751241862773895, 0.08235947042703629, 0.0007880086195655167, 0.06324567645788193, 0.040725596249103546, -0.0286201573908329, -0.0008645961643196642, 0.08696239441633224, 0.03888198733329773, 0.0016407043440267444, 0.04402419924736023, -0.001454236451536417, 0.09080810099840164, 0.028430406004190445, 0.06901916861534119, 0.015274334698915482, -0.0820014700293541, 0.10148675739765167, -0.08185083419084549], [-0.06350056827068329, -0.06601251661777496, 0.0006438791751861572, 0.0008514992659911513, -0.05654813349246979, -0.04381438344717026, 0.04174681752920151, 0.0004570957971736789, -0.0006452572415582836, 7.080379873514175e-06, -0.000739720300771296, 0.0018785380525514483, 0.00032457662746310234, -0.06182672828435898, -0.0008397893398068845, -0.06409882009029388, 0.00011910404282389209, -0.0006252308958210051, 0.0008859241497702897, 0.069516621530056], [0.18764641880989075, 0.18476013839244843, -0.002216823399066925, -0.010657870210707188, 0.15602891147136688, 0.1328609436750412, -0.1255960464477539, 0.0009344462305307388, -0.01973489485681057, -0.008898522704839706, 0.023727664723992348, -0.0631600096821785, -0.0007511157891713083, 0.1750563234090805, -0.04095258191227913, 0.18727253377437592, 0.0023357814643532038, 0.017897972837090492, -0.06023608520627022, -0.20383095741271973], [-0.22622214257717133, -0.2410883903503418, -0.01792696863412857, 0.017621517181396484, -0.21673426032066345, -0.18561196327209473, 0.09845156222581863, -0.006964458618313074, -0.12345825135707855, 0.008416254073381424, -0.03266271576285362, 0.06338508427143097, 0.0019362308084964752, -0.2220911979675293, 0.06535910069942474, -0.23135001957416534, 0.010966512374579906, 0.027073325589299202, -0.11721872538328171, 0.25789496302604675], [0.16762417554855347, 0.16675490140914917, 0.0226006880402565, 0.009747589007019997, 0.1423318088054657, 0.11490990221500397, -0.06843683868646622, 0.0015604315558448434, 0.04717596620321274, -0.007764948531985283, 0.015308978036046028, -0.047300707548856735, -0.0015272099990397692, 0.1639099270105362, -0.019843202084302902, 0.1558370590209961, 0.02992907166481018, 0.009437533095479012, 0.012069417163729668, -0.17321208119392395], [-0.01820223405957222, -0.029449909925460815, -0.012144490145146847, 0.045091595500707626, -0.025232015177607536, -0.02337278611958027, 0.02034267969429493, 0.002447103848680854, 0.06022239103913307, -0.02361748181283474, -0.003414937760680914, 7.689501217100769e-05, 0.000729143328499049, -0.014174539595842361, 0.06672517210245132, -0.028999071568250656, 0.05563792958855629, 0.004351838491857052, 0.046708282083272934, 0.03344142064452171], [0.6336469054222107, 0.6517168283462524, -0.08153694868087769, -0.02495524100959301, 0.5727336406707764, 0.49549299478530884, -0.548007071018219, 0.010468222200870514, -0.006507921032607555, -0.10160324722528458, -0.040630143135786057, -0.17843256890773773, 0.0028415985871106386, 0.6249158978462219, -0.15332166850566864, 0.6415031552314758, 0.043798111379146576, 0.08282535523176193, -0.24534747004508972, -0.7174440622329712], [0.018939930945634842, -0.020135274156928062, 0.0365288108587265, -0.0006963872001506388, -0.12062545865774155, -0.0632551982998848, 0.07226583361625671, -0.014606919139623642, 0.3707631826400757, -0.002561266301199794, -0.09389780461788177, -0.033523187041282654, -0.022415779531002045, -0.1139313206076622, -0.36522191762924194, -0.031397681683301926, -0.10927660018205643, 0.06581927835941315, 0.1678301841020584, 0.08642076700925827], [0.17426203191280365, 0.17626968026161194, 0.023939067497849464, 0.012387225404381752, 0.1485498994588852, 0.1181432381272316, -0.07765056937932968, 0.0011753090657293797, 0.07325584441423416, 0.005281427875161171, 0.036788251250982285, -0.04012593254446983, -0.0009971518302336335, 0.17312246561050415, -0.011452989652752876, 0.16552357375621796, 0.03326023370027542, -0.02479076199233532, 0.02005036361515522, -0.18366509675979614], [0.12171734124422073, 0.14053402841091156, -0.14811496436595917, -0.01692010834813118, 0.12352444231510162, 0.10078991949558258, -0.07787380367517471, 0.013107010163366795, 0.04289659485220909, -0.09488806873559952, -0.018193041905760765, -0.23426465690135956, 0.011478740721940994, 0.142706498503685, -0.025149507448077202, 0.10639408230781555, 0.02459288388490677, 0.2701207399368286, 0.028031622990965843, -0.15560807287693024], [0.1471867710351944, 0.14691689610481262, 0.01355007290840149, -0.0155261792242527, 0.1202128678560257, 0.09905008226633072, -0.1029975488781929, 0.0003186043177265674, -0.013923119753599167, -0.002144977217540145, 0.021165432408452034, -0.03258094564080238, -0.0005858518998138607, 0.13103684782981873, -0.03879958391189575, 0.1379784792661667, -0.0050614927895367146, 0.0014892172766849399, -0.05212434008717537, -0.15604589879512787], [-0.13344649970531464, -0.13512016832828522, 0.24600975215435028, 0.12325320392847061, 0.018624406307935715, -0.07380684465169907, 0.19340534508228302, -0.0033412540797144175, 0.6009845733642578, -0.0749320462346077, -0.1318911761045456, -0.006879985332489014, 0.011179610155522823, -0.027834594249725342, -0.38245686888694763, 0.023473596200346947, 0.32727983593940735, 0.1975415050983429, -1.063249111175537, 0.08656825870275497], [0.006197664886713028, 0.034768879413604736, 0.08955808728933334, 0.06569389253854752, 0.0063245221972465515, 0.007388381287455559, 0.15076948702335358, -0.010645037516951561, 0.1723966747522354, -0.030432995408773422, 0.03027154691517353, -0.05405048280954361, -0.013476119376718998, 0.022248171269893646, 0.18404793739318848, 0.012652907520532608, 0.06701570004224777, 0.023706121370196342, 0.2980571687221527, -0.029480909928679466], [0.13460887968540192, 0.1372283697128296, 0.012608081102371216, -0.0062752957455813885, 0.11247886717319489, 0.09076038748025894, -0.06923004239797592, 0.0015521440654993057, 0.006825393997132778, -0.007021730300039053, 0.014127727597951889, -0.030025340616703033, -0.00029879456269554794, 0.1306242048740387, -0.031242728233337402, 0.13119462132453918, 0.008585117757320404, 0.005496406927704811, -0.019160158932209015, -0.14521653950214386], [0.14178641140460968, 0.13558822870254517, 0.014637433923780918, 0.008757693693041801, 0.10841742157936096, 0.08330107480287552, -0.07045584172010422, 0.0017618377460166812, 0.03616316616535187, -0.0026799775660037994, 0.02294301986694336, -0.025285540148615837, -0.001149497926235199, 0.13002410531044006, -0.022152792662382126, 0.1249505802989006, 0.026972772553563118, -0.0076948837377130985, -0.007698361761868, -0.14093977212905884], [-0.24104496836662292, -0.04523748159408569, 0.11266384273767471, 0.04890438914299011, -0.22314389050006866, -0.03425384685397148, 0.36379289627075195, 0.023209452629089355, 0.9432400465011597, 0.3081806004047394, 0.2832426130771637, 0.2851167917251587, -0.006870801094919443, -0.2738315463066101, -0.8052525520324707, -0.18926158547401428, -0.017917264252901077, -0.3529279828071594, 0.7104610204696655, 0.11613157391548157], [0.022869421169161797, 0.011674399487674236, -0.01857694797217846, 0.01828966848552227, 0.006418796721845865, 0.00886370986700058, -0.052501577883958817, -0.07508093863725662, 0.0327426940202713, -0.008168291300535202, 0.0008313186117447913, -0.022247901186347008, -0.05655548721551895, 0.010296269319951534, -0.04704572632908821, 0.009017293341457844, -0.0029388621915131807, 0.02219938114285469, 0.0005727314273826778, -0.008313782513141632], [0.18988262116909027, -0.0385039821267128, -0.09761177748441696, -0.00476737879216671, -0.05765482038259506, -0.10651156306266785, -0.28722405433654785, -0.051432136446237564, -0.00923051405698061, 0.19073869287967682, 0.5464907884597778, 0.1599474400281906, -0.05771634727716446, -0.15629269182682037, 0.2409079372882843, -0.19014155864715576, -0.15064509212970734, -0.4426513612270355, -0.04933216795325279, -0.0373755544424057], [0.07676432281732559, -0.015678321942687035, -0.17413121461868286, 0.02359664812684059, -0.10138531774282455, -0.033722713589668274, -0.12769176065921783, -0.030535735189914703, -0.21883650124073029, 0.05430462583899498, 0.14431536197662354, 0.019847435876727104, 0.004374360665678978, 0.000761228206101805, -0.046699490398168564, -0.01682746410369873, 0.05617247894406319, -0.45857733488082886, 0.13980455696582794, -0.0034834053367376328], [0.02641858533024788, 0.09022792428731918, -0.08317827433347702, -0.14645124971866608, 0.07427611947059631, -0.019022516906261444, -0.016932133585214615, 0.005546928849071264, 0.043122876435518265, -0.04492727667093277, 0.22862835228443146, -0.1319468468427658, 0.035437289625406265, 0.044648829847574234, 0.07840031385421753, -0.04384962469339371, 0.13403040170669556, -0.4605308473110199, -0.006937719881534576, 0.04855809733271599], [-0.10767757147550583, 0.0029695872217416763, 0.3375718295574188, 0.11064241081476212, -0.028275474905967712, 0.036148592829704285, 0.05374068021774292, -0.04614371061325073, -0.18104708194732666, 0.04713427275419235, 0.17265966534614563, 0.1287548989057541, -0.03576185554265976, -0.1020021140575409, -0.06839470565319061, -0.05819467082619667, -0.041101500391960144, -0.43939024209976196, -0.07021921873092651, 0.05880124121904373], [-0.021829450502991676, -0.015854600816965103, -0.03711545839905739, 0.0010159803787246346, -0.0034432935062795877, -0.005675263702869415, -0.03698623552918434, -0.06588040292263031, 0.05617953836917877, -0.01108214445412159, -0.03195272013545036, -0.0029683378525078297, -0.05685730278491974, -0.019600532948970795, -0.0008735777228139341, -0.016875164583325386, -0.005673217587172985, 0.03432868793606758, 0.0064719365909695625, 0.013547591865062714], [0.1351926475763321, 0.1320638805627823, -0.0033099360298365355, -0.005703420843929052, 0.11244332790374756, 0.09540921449661255, -0.06145361065864563, 0.0016047299141064286, -0.008007918484508991, -0.004708330146968365, 0.016425032168626785, -0.04759383946657181, -0.001117716426961124, 0.12618350982666016, -0.02426723763346672, 0.1386391669511795, 0.005695650819689035, 0.015141785144805908, -0.014149416238069534, -0.1470385193824768], [-0.10159717500209808, 0.03514513745903969, 0.08642123639583588, 0.08397534489631653, -0.1610247641801834, -0.03989354148507118, 0.050586096942424774, -0.012963960878551006, 0.6821271181106567, -0.26861682534217834, -0.1713358610868454, -0.15705768764019012, 0.020897282287478447, -0.10683557391166687, -1.1503210067749023, 0.1571103036403656, 0.017991717904806137, 0.0843248963356018, 0.8682911992073059, -0.015798529610037804], [0.1442134827375412, 0.1412872076034546, 0.02305762656033039, 0.005176479462534189, 0.11956032365560532, 0.09687787294387817, -0.05016423389315605, 0.00040185690158978105, 0.04082481190562248, -0.002751541556790471, 0.01816829852759838, -0.035121891647577286, 0.0019479001639410853, 0.13608403503894806, -0.019391432404518127, 0.13135884702205658, 0.020241042599081993, 0.0014641007874161005, 0.021313713863492012, -0.1473657786846161], [0.0278797410428524, 0.02406991645693779, 0.017485005781054497, -0.1519959419965744, -0.0495605394244194, -0.032423291355371475, 0.3063131868839264, -0.01393516082316637, 0.2623633146286011, 0.018496142700314522, 0.007803184445947409, 0.04408600181341171, -0.030706461519002914, 0.03369569405913353, -0.2152632474899292, 0.0018599593313410878, -0.13075190782546997, 0.10161108523607254, 0.20966584980487823, 0.007907981052994728], [0.19686800241470337, 0.09430932998657227, 0.10840412229299545, -0.09891004115343094, 0.09966665506362915, 0.12004201859235764, 0.3458264470100403, 0.03619416058063507, 0.3502918481826782, 0.111919105052948, 0.19272266328334808, -0.09356263279914856, -0.007727531716227531, -0.20876961946487427, 0.018986085429787636, 0.11610226333141327, 0.0241963230073452, 0.3829323947429657, 0.21309006214141846, -0.02620755136013031], [-0.3872133195400238, 0.017146078869700432, 0.14706772565841675, -0.04687660560011864, 0.05445324629545212, 0.10236658900976181, 0.15072928369045258, -0.03670227900147438, 0.44568493962287903, 0.5206577777862549, 0.8437973260879517, 0.10430841892957687, -0.06312545388936996, -0.28030315041542053, -0.12807577848434448, -0.12881818413734436, 0.06795584410429001, -1.1760047674179077, -0.04183347895741463, -0.15457099676132202], [-0.15008825063705444, -0.14805977046489716, -0.0257689468562603, -0.005398545879870653, -0.12179740518331528, -0.09667229652404785, 0.06494821608066559, -0.00036224108771421015, -0.06338413059711456, -0.005358530208468437, -0.03395978361368179, 0.02897861786186695, -0.0007888363325037062, -0.13813689351081848, 0.014547574333846569, -0.13587051630020142, -0.019705994054675102, 0.023515485227108, -0.016339674592018127, 0.15380345284938812], [0.15571466088294983, 0.21485818922519684, -0.008243652991950512, -0.0157350841909647, 0.1460554003715515, 0.18485607206821442, -0.13010883331298828, 0.02878871187567711, 0.06271962076425552, -0.0075136469677090645, 0.0038109878078103065, -0.10169854760169983, 0.007620758842676878, 0.085642971098423, 0.4426991939544678, 0.22670528292655945, 0.019643183797597885, 0.07773250341415405, 0.394351601600647, -0.23838576674461365], [0.2480347752571106, 0.13074718415737152, 0.011861894279718399, 0.028059426695108414, 0.13609270751476288, 0.12225665152072906, -0.16809166967868805, 0.01907787285745144, 0.017177235335111618, -0.005027529317885637, 0.03718801960349083, -0.05277154967188835, 0.006056955549865961, 0.18142005801200867, 0.10944406688213348, 0.18953493237495422, 0.04815998673439026, 0.0018434225348755717, 0.10302230715751648, -0.18965810537338257], [0.08450528979301453, 0.11417911946773529, -0.09755895286798477, -0.001074642059393227, 0.09699058532714844, 0.08404446393251419, 0.0067464690655469894, 0.0066876718774437904, -0.024682542309165, -0.08955859392881393, -0.07424495369195938, -0.0016776621341705322, 0.018620695918798447, 0.10177069902420044, -0.10192383080720901, 0.1200098991394043, 0.03766719624400139, 0.11893937736749649, -0.0584937185049057, -0.11995407938957214], [0.016476625576615334, 0.01613159105181694, 0.007302041165530682, -0.004897251725196838, 0.01362959947437048, 0.010921183973550797, -0.05864108353853226, 0.00416487455368042, -0.09897676855325699, -0.0036609568633139133, 0.018662845715880394, 0.005611782893538475, -0.002188099315389991, 0.01730182394385338, 0.008098899386823177, 0.01703311875462532, 0.0039818985387682915, -0.0018374074716120958, -0.14162901043891907, -0.01917058415710926], [0.16845910251140594, 0.0972372516989708, -0.00038637567195110023, 0.0304305050522089, 0.04718460515141487, 0.039676375687122345, -0.132585346698761, 0.011464353650808334, 0.1761183887720108, -0.016834957525134087, 0.012076811864972115, -0.02764824405312538, 0.003911624662578106, 0.11696486175060272, -0.18856321275234222, 0.08653927594423294, 0.03973182663321495, 0.029229823499917984, 0.04584917053580284, -0.10886813700199127], [0.07628535479307175, 0.06916619837284088, 0.017725089564919472, 0.05752144753932953, 0.039321497082710266, 0.021357696503400803, -0.10161788016557693, 0.005356117617338896, 0.021683258935809135, -0.006350655108690262, 0.009936757385730743, -0.0018311633029952645, 0.003302927827462554, 0.06807899475097656, -0.11330278217792511, 0.058066386729478836, 0.050741370767354965, -0.008440343663096428, -0.04162740334868431, -0.06602722406387329], [0.10659590363502502, 0.2059219926595688, -0.002724322257563472, 0.13789066672325134, 0.2138938009738922, 0.18779534101486206, -0.11794093251228333, 0.00806872732937336, 0.5734109282493591, 0.036022793501615524, 0.04690592736005783, -0.15302793681621552, 0.027478618547320366, 0.2240612804889679, 0.35735562443733215, 0.15527641773223877, 0.2587013244628906, -0.13804097473621368, 0.39676883816719055, -0.19187285006046295], [-0.08263731002807617, -0.08450977504253387, -0.0008855838677845895, 0.0010181937832385302, -0.07692473381757736, -0.06636670976877213, 0.0646071583032608, 0.00024308731372002512, 0.004936728160828352, -7.548112625954673e-05, 0.00017835397738963366, 0.019734986126422882, 0.0007058240589685738, -0.08143023401498795, 0.0006798182148486376, -0.08302778005599976, 0.0008183492464013398, -0.00032282221945934, 0.008747018873691559, 0.08729688078165054], [0.24103428423404694, 0.2532530725002289, 0.07130938023328781, 0.06025709956884384, 0.23523637652397156, 0.2019687443971634, -0.38122785091400146, 0.01296086236834526, 0.2172970473766327, -0.03502212464809418, 0.005936612840741873, -0.07383827865123749, 0.0072554354555904865, 0.2578524649143219, -0.028423842042684555, 0.2424032837152481, 0.10185447335243225, -0.01735827885568142, -0.11363249272108078, -0.2780615985393524], [0.0898500382900238, 0.09561993926763535, -0.03182709217071533, 0.006892636884003878, 0.08480373024940491, 0.07082203030586243, 0.05632435530424118, 0.0026722813490778208, 0.015422966331243515, -0.05059869587421417, -0.08711908757686615, -0.028943177312612534, -0.001367771066725254, 0.09609963744878769, -0.021053902804851532, 0.09713169187307358, 0.019380131736397743, 0.06584838777780533, 0.06010942906141281, -0.10297004133462906], [0.14297105371952057, 0.13947638869285583, -0.10128576308488846, 0.014666661620140076, 0.1128561720252037, 0.09622030705213547, -0.018518149852752686, 0.0042634690180420876, -0.08486783504486084, -0.1281563639640808, -0.20536044239997864, -0.07655871659517288, -0.0008922195993363857, 0.1455397605895996, -0.09321455657482147, 0.146628737449646, 0.033911801874637604, 0.16499052941799164, -0.027049733325839043, -0.147245392203331], [0.08970953524112701, 0.046715449541807175, 0.11495218425989151, 0.02462192252278328, 0.044177763164043427, 0.019097445532679558, 0.02464914321899414, -0.0012023926246911287, 0.09294196963310242, 0.030537711456418037, 0.007892384193837643, 0.04468990117311478, -0.0014040578389540315, 0.06841328740119934, 0.0577104352414608, 0.024119039997458458, 0.03186209499835968, -0.07646048069000244, 0.04028670862317085, -0.050775621086359024], [-0.08711168169975281, -0.0895925909280777, 0.0001381135080009699, 0.0004850981349591166, -0.08186797052621841, -0.06991815567016602, 0.06743577867746353, 0.000440046627772972, -0.002667840337380767, 0.0001250237983185798, 0.0018535034032538533, 0.01740788109600544, 0.0007369416998699307, -0.08600954711437225, 0.00035253859823569655, -0.08779291063547134, 0.00025071779964491725, -0.001326267491094768, 0.010735536925494671, 0.09216975420713425], [0.20369818806648254, 0.12892182171344757, -0.03857012093067169, -0.009594114497303963, 0.032872140407562256, 0.14341282844543457, -0.006894286256283522, 0.016019849106669426, 0.2252112776041031, -0.028837241232395172, -0.010513802990317345, -0.07362788915634155, -0.0037859121803194284, 0.05597132444381714, 0.13842129707336426, 0.19545525312423706, 0.014612991362810135, 0.09778157621622086, 0.26003724336624146, -0.25041553378105164], [0.27614662051200867, 0.28632885217666626, 0.038276590406894684, -0.01499474048614502, 0.24137188494205475, 0.20634278655052185, -0.26374974846839905, 0.006708040367811918, 0.0019500006455928087, -0.008235122077167034, 0.012991960160434246, -0.07832373678684235, -0.0034757419489324093, 0.26410555839538574, -0.12437238544225693, 0.2746472656726837, -0.030807819217443466, 0.02172037959098816, -0.04811654984951019, -0.3011165261268616], [0.10788711905479431, 0.19176100194454193, 0.010704954154789448, 0.047306567430496216, 0.19808685779571533, 0.12764836847782135, 0.003380974056199193, 0.007348526734858751, 0.06377030164003372, -0.02169516123831272, -0.026397977024316788, -0.10315529257059097, 0.008938184008002281, 0.15421032905578613, 0.11250528693199158, 0.11215551197528839, 0.07230877131223679, 0.07589609920978546, -0.07140900939702988, -0.19621552526950836], [0.05566655844449997, 0.06042507663369179, -0.012819437310099602, -0.015256546437740326, 0.05089671164751053, 0.04149254783987999, -0.21757382154464722, 0.004176328424364328, -0.10755039006471634, -0.00680597173050046, 0.007356860674917698, 0.013291803188621998, -0.0005385593394748867, 0.056969352066516876, -0.030199510976672173, 0.05227939411997795, 0.008094560354948044, 0.01032590214163065, -0.2320333570241928, -0.06097535789012909], [0.22326259315013885, 0.25471168756484985, -0.037276096642017365, 0.012094885110855103, 0.2243470549583435, 0.19792583584785461, -0.09895872324705124, 0.00539338868111372, -0.02848256751894951, -0.05848260223865509, -0.12570525705814362, -0.0340755395591259, -0.0024285910185426474, 0.24541927874088287, -0.056098997592926025, 0.25611573457717896, 0.014853863045573235, 0.04504696652293205, -0.006192367523908615, -0.28151702880859375], [0.06489615887403488, 0.27104243636131287, -0.005071226507425308, -0.1610226035118103, 0.050869956612586975, 0.24911965429782867, 0.2330070286989212, -0.02683226391673088, 0.6756979823112488, 0.14550727605819702, 0.12453783303499222, -0.08609998226165771, -0.04697573557496071, -0.013992492109537125, -0.6482958793640137, 0.43758177757263184, -0.2775689363479614, -0.12663288414478302, 0.9974205493927002, -0.25144490599632263], [0.2162090539932251, 0.22070719301700592, 0.021041594445705414, 0.06703940033912659, 0.17840155959129333, 0.1358201652765274, -0.09862678498029709, 0.0018169041723012924, 0.04018186405301094, -0.014998297207057476, 0.035298679023981094, -0.09194805473089218, 0.004630964249372482, 0.21535325050354004, 0.017941851168870926, 0.2067144215106964, 0.08292065560817719, -0.01881101354956627, -0.0207844078540802, -0.22305500507354736]], "rec.bias_ih_l0": [0.10038728266954422, 0.08725297451019287, -0.7275312542915344, 0.055152107030153275, 0.08764234930276871, 0.07576070725917816, 0.3937816917896271, -0.09594137221574783, 0.3228868544101715, 0.08411075174808502, 0.016513356938958168, 0.10145433247089386, -0.10015929490327835, 0.1067008525133133, 0.36265328526496887, 0.09162110090255737, 0.12116678059101105, -0.5877881050109863, 0.5382868647575378, 0.0906045213341713, 0.3005143404006958, 0.23320840299129486, 0.9376423358917236, 0.064592145383358, 0.19778387248516083, 0.13097457587718964, -0.16917011141777039, -0.08595871925354004, -0.22766172885894775, 0.11398862302303314, 0.08833275735378265, 0.0976036936044693, -0.08025786280632019, 0.26396575570106506, -0.30332857370376587, 0.20980288088321686, -0.04298989474773407, 0.8475380539894104, -0.2257368564605713, 0.22376053035259247, 0.006961603183299303, 0.07530653476715088, 0.1388792246580124, 0.060927193611860275, 0.1263258308172226, 0.11337566375732422, -0.05529714375734329, 0.010212138295173645, 0.09006734192371368, 0.0066236634738743305, -0.10802160948514938, -0.05205705761909485, -0.0046096802689135075, 0.18838436901569366, -0.024089084938168526, 0.1481121927499771, 0.14183831214904785, -0.1229701116681099, 0.017403988167643547, -0.08053939044475555, 0.22521114349365234, 0.12385685741901398, 0.1447063386440277, 0.028880519792437553, 0.13312481343746185, 0.08680184185504913, 0.23465842008590698, -0.09672036021947861, 0.3232836425304413, 0.12905018031597137, 0.1848539412021637, 0.06615626066923141, -0.10093940794467926, 0.19712138175964355, 0.3709601163864136, 0.1903548240661621, 0.08129686862230301, 0.36091360449790955, 0.43891382217407227, 0.29445454478263855], "rec.bias_hh_l0": [0.09996021538972855, 0.08720478415489197, -0.686229944229126, 0.055153097957372665, 0.0876387506723404, 0.07578589022159576, 0.39386186003685, -0.09594131261110306, 0.32298511266708374, 0.08410881459712982, 0.016110733151435852, 0.10197267681360245, -0.10015931725502014, 0.10660754144191742, 0.36265313625335693, 0.09176047891378403, 0.12116670608520508, -0.6110648512840271, 0.5382872819900513, 0.09060965478420258, 0.27298468351364136, 0.23863716423511505, 0.8753186464309692, 0.06459196656942368, 0.1984836459159851, 0.1304698884487152, -0.15504752099514008, -0.08595871925354004, -0.2258206605911255, 0.11428399384021759, 0.08966412395238876, 0.09869160503149033, -0.08025788515806198, 0.2616546154022217, -0.303327351808548, 0.2208455502986908, -0.04298984259366989, 0.8454436659812927, -0.1742248684167862, 0.22495943307876587, -0.006769554689526558, 0.07892514765262604, 0.021024921908974648, -0.013866681605577469, 0.12552805244922638, 0.11159510165452957, -0.02002756856381893, 0.008563756942749023, -0.03884453698992729, -0.018573196604847908, 0.09725970774888992, 0.034063324332237244, -0.004442594014108181, 0.1487330049276352, -0.028109028935432434, 0.11723913252353668, 0.09484633803367615, -0.08228060603141785, -0.06847981363534927, -0.09477417916059494, 0.10689318180084229, 0.25355470180511475, 0.15853577852249146, 0.028853334486484528, 0.12623381614685059, 0.0692170113325119, 0.28023865818977356, -0.096720390021801, 0.3232838213443756, 0.12904822826385498, 0.18485388159751892, 0.07335004210472107, -0.10093954205513, 0.17791582643985748, 0.370959609746933, 0.2561410963535309, 0.08129703253507614, 0.36111098527908325, 0.3868633508682251, 0.25870174169540405], "lin.weight": [[-0.053403448313474655, -0.022242527455091476, -0.47709935903549194, 0.12678596377372742, 0.06938360631465912, -0.04050258547067642, 0.5233174562454224, 0.0473589189350605, 0.8026754856109619, -0.09658787399530411, -0.20675121247768402, -0.05833613872528076, 0.003990101628005505, 0.2411864995956421, -0.4430350661277771, 0.006841814145445824, 0.3583568036556244, 0.12507961690425873, -1.1656334400177002, 0.13272938132286072]], "lin.bias": [-0.0527581088244915]}}