{"model_data": {"model": "SimpleRNN", "input_size": 2, "skip": 1, "output_size": 1, "unit_type": "LSTM", "num_layers": 1, "hidden_size": 20, "bias_fl": true}, "state_dict": {"rec.weight_ih_l0": [[-0.15924416482448578, 1.1642056703567505], [-0.1607719510793686, 0.44819897413253784], [-0.10778356343507767, 0.43681052327156067], [-0.17857089638710022, -0.19180169701576233], [-0.3553128242492676, -0.08023833483457565], [-0.009886830113828182, 0.03304493427276611], [-0.13068097829818726, -0.3154451251029968], [-0.7326575517654419, 1.9648345708847046], [0.5384061932563782, -0.11279040575027466], [-0.251467227935791, -0.9726223945617676], [0.03937895968556404, -0.3396185338497162], [0.11508552730083466, -0.06449846178293228], [-0.08698675781488419, 0.021204620599746704], [-0.03307414799928665, -0.10869240015745163], [0.1861547827720642, 0.31257522106170654], [-0.05054819956421852, -0.026954960078001022], [-0.0041193231008946896, -0.5995209217071533], [-0.2135104537010193, 0.5545971393585205], [-0.1643669307231903, 0.043005961924791336], [-1.2146848440170288, -1.0511488914489746], [0.49209222197532654, -0.25410035252571106], [0.1506587117910385, -0.0017104700673371553], [-0.057493146508932114, -0.3967979848384857], [-0.017230767756700516, 0.22923976182937622], [-0.48250892758369446, 0.28204017877578735], [-0.015736425295472145, -0.026977866888046265], [-0.18192236125469208, -0.22804377973079681], [-0.6923312544822693, -0.1815238744020462], [-0.003567845094949007, 0.738000214099884], [0.23607800900936127, 1.3406925201416016], [0.07858218252658844, -0.021772637963294983], [-0.06324747204780579, -0.38603144884109497], [-0.08295553177595139, -0.04691413417458534], [-0.016594335436820984, -0.08106432855129242], [0.07894474267959595, 1.317014217376709], [-0.07420728355646133, -0.004626196809113026], [-0.09747804701328278, -0.5375277996063232], [0.3766340911388397, -0.3157901167869568], [-0.3350171744823456, 0.025507135316729546], [-0.8081173300743103, 1.5545105934143066], [-6.009873390197754, -0.30686408281326294], [-3.4471170902252197, -0.1649194359779358], [1.0644822120666504, 0.7670810222625732], [0.13996689021587372, -0.37990477681159973], [-0.4150918424129486, 0.03968475013971329], [0.0925622433423996, -0.11540398746728897], [0.07945854961872101, -0.8066297769546509], [-11.090249061584473, 0.23729394376277924], [1.0805044174194336, -0.1906532645225525], [-0.9432083368301392, -0.05207078531384468], [-0.2124043107032776, 0.7053176760673523], [-1.4334412813186646, 0.7719682455062866], [0.20488059520721436, -0.15793408453464508], [-0.01595865562558174, 0.1270626187324524], [0.8760181069374084, -0.6876113414764404], [-0.261203408241272, -0.04120119661092758], [0.14828430116176605, 1.1582926511764526], [7.119436740875244, -0.07513528317213058], [0.8280162215232849, -0.3089570701122284], [-1.3507554531097412, 0.20631693303585052], [0.0009953021071851254, 1.188789963722229], [-0.42355912923812866, 0.18976816534996033], [-0.07140655815601349, 0.2784307599067688], [-0.15230216085910797, -0.46468299627304077], [-0.3886176645755768, 0.37625110149383545], [-0.004852019250392914, 0.03302143141627312], [-0.4520260691642761, -0.373454749584198], [0.1151844784617424, 0.9902883172035217], [0.7384318113327026, 0.29726672172546387], [0.10308457165956497, 0.9627652764320374], [0.17778006196022034, -0.2724769115447998], [0.48031437397003174, -0.02711758203804493], [-0.3909132480621338, 0.0014734669821336865], [-0.03397611901164055, -0.09833520650863647], [-0.10951002687215805, 0.5420174598693848], [-0.0749003067612648, -0.028811238706111908], [-0.22432877123355865, -0.704264223575592], [0.03713530674576759, 0.329049289226532], [-0.33754751086235046, -0.27790531516075134], [-0.30385786294937134, 0.5075781941413879]], "rec.weight_hh_l0": [[-0.1866610050201416, -0.07644146680831909, -0.00017838561325334013, -0.0344441682100296, -0.04234659671783447, -0.01821916177868843, -0.10670512914657593, -0.003411833895370364, -0.0015022646402940154, -0.014035808853805065, 0.0790579691529274, 0.4126088619232178, -0.1847154200077057, 0.05078965425491333, -0.926634669303894, -0.03143906593322754, 0.4694881737232208, 0.10680104792118073, -0.4215802550315857, 0.31884920597076416], [0.03191109001636505, -0.12134048342704773, 0.007389936130493879, -0.022462403401732445, -0.013467789627611637, -0.07413741946220398, 0.03178005293011665, 0.2287077009677887, -0.02814587391912937, 0.0756186842918396, -0.054612405598163605, 0.012002545408904552, -0.19642244279384613, 0.03732140734791756, -0.15987542271614075, 0.026015086099505424, 0.07189925014972687, 0.16922789812088013, -0.3506105840206146, 0.08727694302797318], [0.02977820485830307, -0.13388076424598694, -0.19495034217834473, -0.040883369743824005, -0.20083120465278625, 0.015015133656561375, 0.023531677201390266, -0.0830763727426529, -0.01192241907119751, -0.24746005237102509, -0.06714627891778946, -0.2163512408733368, -0.16941092908382416, -0.003806891618296504, 0.010026998817920685, -0.028762729838490486, 0.2683790624141693, 0.2001085728406906, -0.20820145308971405, 0.3791303336620331], [0.32675278186798096, 0.08451798558235168, 0.05641636997461319, 0.1338757872581482, -0.03067011758685112, -0.02429240383207798, 0.008400365710258484, 0.25913962721824646, -0.07838648557662964, -0.12725721299648285, 0.04533061385154724, -0.10142132639884949, -0.02723834477365017, 0.0643148198723793, 0.05069398134946823, -0.03717207536101341, 0.1737213134765625, -0.32998499274253845, -0.18215185403823853, 0.07498341053724289], [-0.18529759347438812, -0.09617879241704941, -0.13890743255615234, -0.18698561191558838, -0.4508236050605774, -0.02587323635816574, -0.0061010257340967655, -0.08454947918653488, 0.06859440356492996, 0.33590736985206604, 0.0929454118013382, 0.10849983245134354, 0.03217068314552307, 0.0667710229754448, -0.11350496858358383, 0.05383424460887909, 0.046251505613327026, 0.03696860000491142, 0.07853447645902634, 0.5030417442321777], [0.025727875530719757, 0.024279892444610596, 0.044140398502349854, -0.02218642458319664, -0.008349872194230556, -0.016797225922346115, -0.02484801597893238, 0.05111062154173851, -0.046011701226234436, 0.05882634222507477, 0.02258346416056156, 0.05332479998469353, -0.009058048948645592, 0.0029004195239394903, -0.020710598677396774, 0.010387414135038853, 0.023759519681334496, -0.012841836549341679, -0.014353984966874123, -0.04819416254758835], [-0.06292496621608734, 0.06791958212852478, -0.08681930601596832, -0.08806924521923065, 0.10317247360944748, 0.04743504524230957, 0.1595814824104309, 0.2174903303384781, 0.15070873498916626, -0.1154121458530426, -0.08474524319171906, -0.001726782415062189, -0.045923929661512375, -0.042873430997133255, -0.5179364085197449, 0.01344278920441866, -0.13364434242248535, -0.07313288003206253, -0.05717258155345917, 0.13222815096378326], [-0.020718857645988464, -0.07488393038511276, 0.06251408904790878, 0.26112625002861023, 0.08899807184934616, -0.044272035360336304, -0.7343127131462097, 1.1407767534255981, 0.0805179551243782, 0.7318612933158875, 0.40691936016082764, 1.4967999458312988, 0.20465296506881714, 0.1432308852672577, -0.6360257267951965, -0.08843958377838135, 1.1888983249664307, 0.22635899484157562, -0.6904926896095276, -0.4789840877056122], [-0.4866449236869812, -0.42128753662109375, 0.1948297619819641, 0.015623201616108418, 0.016797177493572235, -0.05492160841822624, -0.04537754878401756, -0.9132399559020996, -0.00016311397484969348, 0.3191967308521271, -0.03114754520356655, -0.0202298853546381, 0.10298936069011688, 0.09143328666687012, 0.15575090050697327, 0.06274337321519852, -0.20770184695720673, 0.12192628532648087, 0.09223128855228424, -0.19124369323253632], [-0.5624553561210632, 1.5871657133102417, 0.17437656223773956, -0.7738213539123535, -0.202487975358963, 0.05070892721414566, -0.16382050514221191, -0.3086315095424652, 0.41894903779029846, 0.1656840443611145, 0.6151246428489685, 0.8749367594718933, 0.5236212611198425, -0.02413422241806984, 0.40299728512763977, 0.13803070783615112, 0.5148736834526062, -0.44480451941490173, 0.8839888572692871, 0.3378196358680725], [0.0734601840376854, -0.19309891760349274, -0.1148647889494896, 0.13705331087112427, -0.15380731225013733, -0.027776462957262993, 0.08534704893827438, -0.14831340312957764, 0.10050389915704727, -0.3663483262062073, -0.059485409408807755, -0.16631358861923218, 0.07761938124895096, 0.04206360504031181, 0.19765770435333252, -0.0768330842256546, 0.11950398236513138, -0.2047908753156662, -0.08244894444942474, 0.33817827701568604], [-0.2213495969772339, -0.14485539495944977, -0.12783977389335632, 0.06529449671506882, 0.1922137439250946, -0.06999916583299637, 0.1665782332420349, -0.008360940963029861, -0.21228139102458954, 0.623653769493103, -0.4733150601387024, 0.2592616379261017, -0.08765003085136414, 0.01841958798468113, 0.3572908639907837, 0.12953005731105804, 0.08874383568763733, 0.7242273092269897, -0.5368427634239197, -0.8975248336791992], [-0.07744923233985901, -0.1339179277420044, 0.018505368381738663, 0.018026046454906464, -0.014244064688682556, 0.03930727392435074, 0.025853291153907776, 0.7418742775917053, 0.16245359182357788, 0.03126915916800499, 0.2330431044101715, 0.006895444821566343, -0.006526042707264423, -0.0027883420698344707, 0.06395340710878372, -0.007249406538903713, 0.10268715769052505, 0.2572256624698639, -0.2353535294532776, 0.07426416128873825], [0.01573965698480606, 0.06273260712623596, -0.03240301460027695, -0.024578988552093506, -0.07042217254638672, -0.011924059130251408, -0.04541357606649399, -0.009679297916591167, 0.046338241547346115, -0.034083932638168335, 0.01106222439557314, 0.011781732551753521, 0.048984989523887634, 0.0336211621761322, 0.0236977469176054, 0.006099689286202192, -0.004222304094582796, -0.09423685073852539, 0.05012369528412819, 0.05406740680336952], [0.10878284275531769, 0.016481490805745125, 0.06842666864395142, 0.2700507640838623, 0.10282230377197266, 0.049878787249326706, 0.021134646609425545, 0.3168299198150635, -0.11526418477296829, -0.347095787525177, 0.09387041628360748, 0.2170301079750061, 0.11152010411024094, -0.000591584830544889, -0.29792290925979614, -0.039114318788051605, 0.07039254158735275, -0.2829263508319855, -0.09388327598571777, -0.11897162348031998], [0.047138676047325134, 0.018221328034996986, 0.03054046630859375, -0.07616116851568222, -0.09472863376140594, -0.023983603343367577, -0.00239297142252326, 0.0842481181025505, 0.007855833508074284, 0.06918427348136902, -0.038417790085077286, -0.05850366875529289, -0.009561418555676937, 0.014305172488093376, 0.09641280025243759, 0.020164014771580696, 0.014691083692014217, -0.07728272676467896, -0.05228884890675545, 0.07901444286108017], [-0.19106504321098328, -0.18436230719089508, -0.13439752161502838, 0.08516092598438263, 0.06864035129547119, 0.020505830645561218, 0.16031673550605774, -0.0887840986251831, 0.08071964234113693, -0.00433527585119009, -0.16739590466022491, -0.2599100172519684, 0.03626387193799019, 0.011958472430706024, 0.15083999931812286, 0.048846445977687836, -0.23991088569164276, 0.06762202829122543, -0.0027635646983981133, -0.03709060698747635], [0.07483061403036118, 0.2811659276485443, 0.30343931913375854, -0.16248242557048798, -0.0185845959931612, -0.05636186525225639, -0.125163272023201, 0.6632060408592224, -0.03140445426106453, -0.16691799461841583, 0.5377269983291626, 0.777104377746582, -0.17099826037883759, 0.01097878161817789, -1.910826563835144, 0.06208951771259308, 0.16283880174160004, -0.21842995285987854, -0.5610237717628479, 0.3175147473812103], [-0.12209036201238632, -0.15344563126564026, -0.05110730975866318, -0.1583908647298813, -0.029833484441041946, -0.16859029233455658, 0.0803542509675026, -0.026291508227586746, 0.0210206788033247, 0.044686172157526016, -0.09762886166572571, 0.05567902699112892, -0.09696345031261444, 0.06933325529098511, -0.3650679588317871, 0.011577300727367401, 0.004770651459693909, -0.0005677741137333214, -0.13794444501399994, 0.21503500640392303], [0.5910783410072327, 0.7057434320449829, 0.039107196033000946, -0.18077078461647034, -0.3371425271034241, -0.20573318004608154, -0.27806001901626587, 0.7701492309570312, 0.24840977787971497, -0.4307844340801239, 0.19082827866077423, 0.5682222843170166, 0.5031386017799377, 0.03319991007447243, 0.17118065059185028, 0.10208817571401596, -0.2766312062740326, -0.5722630620002747, 0.6814119815826416, -0.177510604262352], [-0.4510732889175415, -0.41382768750190735, 0.25590309500694275, 0.0446290597319603, 0.06771105527877808, -0.03708433732390404, -0.03140788897871971, -1.002972960472107, 0.10534874349832535, 0.2787286341190338, -0.1007121279835701, -0.2514456808567047, 0.256104052066803, 0.08997943252325058, 0.28538110852241516, 0.034186527132987976, 0.15663935244083405, 0.1465691328048706, 0.10939408093690872, -0.027232103049755096], [0.28242576122283936, 0.2769244611263275, 0.11237868666648865, 0.05153271183371544, 0.09311285614967346, -0.11472645401954651, -0.10266129672527313, 0.2806873619556427, -0.06093652918934822, 0.1009022444486618, 0.12406019866466522, 0.212484210729599, 0.04227616265416145, 0.042928557842969894, 0.14487691223621368, 0.01723870262503624, -0.055351752787828445, -0.02297571860253811, -0.052275363355875015, -0.2947584390640259], [-0.00146376877091825, 0.15770716965198517, -0.18371334671974182, 0.04507127031683922, -0.06850231438875198, 0.010029417462646961, 0.02918458729982376, -0.24613653123378754, 0.1580737829208374, -0.04572701081633568, -0.04860221967101097, -0.03696032986044884, 0.1375952959060669, 0.024470577016472816, 0.10788264870643616, -0.0013875880977138877, -0.12304821610450745, -0.1312616467475891, 0.2595210075378418, 0.11905957758426666], [-0.22069351375102997, -0.24440905451774597, 0.014980957843363285, 0.09272751212120056, 0.09217393398284912, -0.014080648310482502, -0.035094913095235825, -0.26719462871551514, 0.034407101571559906, -0.21150754392147064, 0.11830739676952362, -0.03039790317416191, -0.0699898824095726, 0.0822606161236763, -0.2888026535511017, -0.10005746781826019, 0.2612130641937256, 0.389064222574234, -0.2647654712200165, 0.05277443677186966], [-0.12881961464881897, 0.004179305396974087, -0.13991661369800568, -0.18819402158260345, -0.7971994280815125, -0.06095718592405319, 0.006895596627146006, 0.07251137495040894, 0.10978757590055466, 0.2690235376358032, 0.17094078660011292, -0.005127151496708393, -0.027802059426903725, 0.09855340421199799, -0.23789189755916595, 0.10096248239278793, 0.0727425292134285, -0.061880458146333694, 0.06237463653087616, 0.7907921671867371], [0.036295086145401, 0.041153304278850555, 0.027486976236104965, -0.006922429893165827, -0.004745522513985634, -0.01553022675216198, -0.025784332305192947, 0.05057254806160927, -0.04074332118034363, 0.05903496965765953, 0.025142453610897064, 0.053671352565288544, 0.01517786830663681, 0.005252283997833729, 0.019640004262328148, 0.00995965488255024, 0.020940225571393967, -0.003591200802475214, 0.012615866959095001, -0.05782163143157959], [-0.0033342204988002777, 0.03678809106349945, -0.08721756935119629, -0.054685451090335846, 0.09993178397417068, 0.050751831382513046, 0.1623326987028122, 0.21082374453544617, 0.11343763768672943, -0.13967165350914001, -0.10594217479228973, -0.07199730724096298, -0.04339810460805893, -0.04833080619573593, -0.4102465510368347, 0.017855802550911903, -0.0921441838145256, -0.07418449968099594, -0.007085588760674, 0.0952640250325203], [-0.003989547491073608, 0.35296645760536194, -0.42212608456611633, 0.029784653335809708, 0.1596420556306839, 0.014836519956588745, -0.03497403860092163, 0.06787117570638657, 0.4187966287136078, -0.03705959767103195, -0.16023030877113342, 0.6449460387229919, 0.09210090339183807, 0.015469914302229881, 0.13510559499263763, -0.09062022715806961, 0.39830282330513, 0.11544813215732574, -0.08274812996387482, 0.22389353811740875], [0.17402663826942444, -0.2101553976535797, 0.17237231135368347, 0.026370279490947723, -0.07231274992227554, -0.07837097346782684, -0.10427704453468323, 0.016090160235762596, -0.11784084141254425, 0.10084232687950134, -0.03196699544787407, 0.02100788801908493, 0.12981659173965454, 0.1177162155508995, 0.21408966183662415, 0.037872735410928726, 0.1714339554309845, -0.10712357610464096, -0.26424068212509155, -0.22722908854484558], [-0.33048367500305176, -0.918973445892334, -0.13752664625644684, 0.1811874955892563, 0.005763006396591663, -0.01208588294684887, 0.28589582443237305, -0.16901713609695435, -0.1491735577583313, -0.10484287887811661, -0.1644320785999298, -0.6443555951118469, -1.0540777444839478, 0.0014821270015090704, 0.5425514578819275, -0.013552757911384106, -0.2054462879896164, 1.25339937210083, -0.9272040128707886, -0.20127712190151215], [-0.14523273706436157, -0.2744348645210266, -0.14014393091201782, 0.12273802608251572, -0.217776820063591, -0.03104816935956478, 0.08570611476898193, -0.3379090428352356, 0.14826810359954834, -0.3775036931037903, -0.03291812539100647, -0.1890600025653839, 0.01647632196545601, 0.05275515094399452, 0.08869433403015137, -0.08160769194364548, 0.24515780806541443, -0.03519529476761818, -0.3161776065826416, 0.4543832540512085], [0.031293801963329315, -0.27447959780693054, -0.023491470143198967, 0.07515918463468552, 0.12314923107624054, -0.06301535665988922, 0.05134204030036926, 0.42392122745513916, -0.12899963557720184, 0.15866915881633759, -0.3645586669445038, 0.25036555528640747, 0.005326672922819853, -0.009252657182514668, -0.015615133568644524, 0.06454208493232727, 0.31862956285476685, 0.018538644537329674, -0.34176790714263916, -0.6262518763542175], [-0.1280180662870407, -0.09674819558858871, -0.0655592679977417, 0.0689467191696167, -0.021474307402968407, 0.04302245005965233, -0.00012990282266400754, 0.7460538744926453, 0.1288757473230362, 0.10867834836244583, 0.23951180279254913, 0.006379916798323393, 0.11862977594137192, 0.008329184725880623, 0.14050090312957764, -0.004133663605898619, 0.14464756846427917, 0.27657440304756165, -0.06301232427358627, 0.06200995668768883], [0.03144774213433266, 0.06748466938734055, -0.01932394690811634, -0.032633163034915924, -0.05237654224038124, -0.00885157659649849, -0.04900943115353584, 0.014467178843915462, 0.03016391210258007, -0.01811470277607441, 0.01100954506546259, 0.027895959094166756, 0.0455203615128994, 0.02600775472819805, 0.03369149565696716, 0.008522763848304749, -0.007385733537375927, -0.08549382537603378, 0.05097322538495064, 0.022779375314712524], [-0.442923367023468, -0.23511910438537598, 0.1682475060224533, 0.15724001824855804, 0.10989946126937866, 0.07346383482217789, -0.037370484322309494, -0.5035523772239685, -0.049355555325746536, -0.7006005048751831, 0.24689744412899017, 0.44418439269065857, -0.10844936966896057, -0.04239800572395325, -1.1196043491363525, -0.0892762765288353, 0.18155986070632935, 0.05431259796023369, -0.3870033621788025, 0.15709282457828522], [0.06697241216897964, 0.02031676471233368, 0.016727395355701447, -0.0677662044763565, -0.09862316399812698, -0.02733795717358589, -0.0017409534193575382, 0.08605753630399704, 0.009027394466102123, 0.06538866460323334, -0.0335330031812191, -0.05239605903625488, -0.017370013520121574, 0.017812510952353477, 0.10338596999645233, 0.02426195703446865, 0.03438341245055199, -0.05165182426571846, -0.07171173393726349, 0.09124038368463516], [-0.1289234310388565, -0.07033471763134003, -0.14970991015434265, 0.06056196987628937, 0.0026088599115610123, 0.015422943979501724, 0.23228561878204346, 0.09129598736763, 0.09202776104211807, -0.09608320891857147, -0.20097024738788605, -0.3092525601387024, 0.004927200265228748, -0.011926368810236454, 0.08264651894569397, 0.09139511734247208, -0.3398280441761017, -0.023259926587343216, 0.02178666554391384, 0.10077044367790222], [-0.05239887908101082, 0.06877264380455017, -0.04288686439394951, 0.1630076766014099, 0.3482687771320343, -0.040560390800237656, 0.013047363609075546, 0.4683707356452942, -0.2572897970676422, 0.6857155561447144, -0.0195296760648489, 0.3861416280269623, 0.15367257595062256, 0.06777319312095642, -0.2473924607038498, 0.05154024437069893, 0.12673434615135193, -0.08801263570785522, -0.16247177124023438, -0.6255339980125427], [-0.0020324510987848043, -0.08752524107694626, -0.02005659230053425, -0.28054457902908325, 0.032724399119615555, -0.18139509856700897, 0.07989693433046341, 0.009810429066419601, -0.08127973228693008, 0.23572716116905212, -0.22891901433467865, 0.05213199555873871, -0.048334576189517975, 0.04657087102532387, -0.18329869210720062, 0.08701970428228378, -0.03069000504910946, -0.06767614185810089, -0.16161595284938812, 0.035041239112615585], [-0.2367083877325058, -0.6872673034667969, -0.2422621101140976, -0.10834875702857971, -0.14793536067008972, -0.12387572228908539, 0.31657129526138306, -0.5908358097076416, -0.10006120800971985, 0.0919659212231636, -0.5386788845062256, -0.5105569362640381, -0.655760645866394, 0.016142485663294792, -0.10170117765665054, -0.005101492628455162, -0.02233964018523693, 0.17353655397891998, -1.1110984086990356, 0.7033406496047974], [-0.7931435108184814, 0.23728378117084503, 0.509738564491272, -0.04211345314979553, 0.89716637134552, 0.16540980339050293, -0.4404859244823456, 0.2889712452888489, 0.32255029678344727, -0.7757904529571533, -0.1950581818819046, -0.17761553823947906, -0.00043445100891403854, -0.07646913826465607, 0.3510879874229431, 0.038969118148088455, 0.2599911093711853, 0.07765167951583862, 0.0786353126168251, -0.7079614996910095], [0.4449976086616516, -0.12138324230909348, 0.12646546959877014, -0.034667279571294785, 0.5898932814598083, 0.043961409479379654, 0.1538538932800293, -0.23143017292022705, -0.20874932408332825, -0.33769097924232483, -0.062489159405231476, 0.1456683725118637, -0.3863203525543213, -0.16449396312236786, 0.002544462215155363, -0.11716991662979126, 0.04308464005589485, 0.03954356536269188, 0.06496967375278473, -0.4404169023036957], [0.6638964414596558, -0.04505334794521332, -1.5905245542526245, -0.1351267248392105, -0.1642150729894638, -0.07480305433273315, -0.1732339709997177, 0.5379027724266052, -0.2553592026233673, 0.12799867987632751, 0.06056905910372734, 0.13139915466308594, 0.08011993020772934, 0.009510551579296589, -0.0229183416813612, 0.04772515594959259, 0.10913334041833878, -0.10436496883630753, -0.15726445615291595, -0.4236218333244324], [0.0450410470366478, 0.08562824130058289, 0.142938494682312, 0.058278389275074005, -0.009433833882212639, 0.05977373197674751, -0.1810808777809143, -0.7426049113273621, -0.21808509528636932, -0.5812397003173828, 0.30023670196533203, 0.0910576730966568, 0.20666328072547913, -0.07656964659690857, 0.25354689359664917, -0.06883809715509415, 0.19773857295513153, 0.48031389713287354, 0.017851572483778, -0.1901858001947403], [-0.41507431864738464, -0.30181217193603516, 0.15943247079849243, -0.1095900684595108, -0.09145665913820267, -0.019696392118930817, 0.08038944751024246, -0.012622633948922157, -0.06923498213291168, -0.3561554253101349, -0.07021818310022354, -0.15531596541404724, -0.01569453440606594, -0.11657270789146423, -0.22884882986545563, 0.1755441129207611, -0.2426360547542572, -0.11159147322177887, -0.057287607342004776, -1.0364571809768677], [0.005009854678064585, -0.0808950886130333, 0.12441280484199524, 0.09378902614116669, -0.07631448656320572, -0.07888101786375046, 0.07267975062131882, -0.17496030032634735, -0.07446157932281494, -0.22462603449821472, 0.1113118901848793, 0.22752371430397034, -0.08705060184001923, 0.05084604769945145, -0.014681478962302208, -0.031358636915683746, -0.06582402437925339, -0.22637440264225006, -0.08038605004549026, -0.0547526553273201], [-0.18623404204845428, 0.20913705229759216, -0.4272366762161255, -0.051424138247966766, -0.10504841804504395, 0.1598370373249054, 0.13855832815170288, 0.3352782726287842, 0.2204587608575821, 0.3127157390117645, 0.05730906128883362, -0.2054591327905655, 0.030742555856704712, -0.04344658553600311, 0.05411975458264351, 0.027320489287376404, 0.15489618480205536, 0.2679634988307953, 0.023425737395882607, 0.12077463418245316], [1.065131664276123, 0.5232221484184265, -0.2518087923526764, 0.11799521744251251, 1.4947117567062378, -0.03224990516901016, -0.20961134135723114, -0.15948471426963806, -0.21472473442554474, -1.6043834686279297, 0.402180552482605, 0.40100759267807007, 0.2581748366355896, -0.11982256174087524, 0.018581800162792206, -0.03455018252134323, 0.3770274221897125, -0.22517956793308258, -0.28594857454299927, -1.3370200395584106], [0.18726709485054016, -0.13587135076522827, 0.22050702571868896, -0.23053298890590668, 0.09862755984067917, -0.0890049934387207, 0.16121447086334229, -0.8974089026451111, -0.28992047905921936, -0.4564061760902405, -0.2842874228954315, -0.4128496050834656, -0.2516901195049286, -0.0713053047657013, -0.5078656077384949, -0.03133483976125717, -0.3454701006412506, -0.10922645032405853, 0.1404917985200882, 0.6902642846107483], [0.12413907051086426, 0.04596057906746864, 0.23135043680667877, 0.05073343217372894, 0.08093234151601791, 0.03095630370080471, 0.08804233372211456, 1.0453078746795654, 0.31946152448654175, 0.19264550507068634, 0.15103599429130554, -0.07001417875289917, -0.3676571547985077, -0.042420726269483566, 0.11928389966487885, 0.040744882076978683, 0.24062927067279816, 0.3717542886734009, -0.0070579019375145435, 0.046779561787843704], [-0.20315910875797272, 0.04112067073583603, 0.23575742542743683, 0.08674471080303192, 0.17441479861736298, 0.05987587198615074, -0.18550977110862732, 0.05852153152227402, -0.07039808481931686, -0.7701879143714905, -0.07484188675880432, -0.01034004706889391, 0.28333383798599243, -0.050544045865535736, -0.29058027267456055, -0.03807957097887993, -0.44026896357536316, 0.3477494716644287, 0.1755523830652237, 0.40630990266799927], [-0.518801212310791, -0.01270679384469986, 0.6267043352127075, 0.27594345808029175, 0.45907896757125854, 0.1331579089164734, -0.3378710150718689, 0.4776805341243744, 0.2288680225610733, -0.18694330751895905, 0.1874798983335495, -0.030965184792876244, 0.3307570815086365, -0.13444575667381287, -0.3204730749130249, -0.04936964064836502, -0.353407621383667, 0.4943642318248749, 0.21904069185256958, -0.61397784948349], [0.2571924030780792, 0.19756318628787994, 0.0392165333032608, 0.007928773760795593, -0.04017399623990059, -0.052255500108003616, 0.029004119336605072, -0.6520777344703674, -0.15795521438121796, -0.10898792743682861, -0.23227651417255402, 0.13125625252723694, -0.1275663822889328, 0.017321981489658356, -0.01209317147731781, 0.01992124505341053, -0.24924543499946594, -0.37651389837265015, 0.23359650373458862, 0.043632689863443375], [-0.026582788676023483, 0.09072557091712952, -0.14452096819877625, -0.04758257791399956, 0.04657455161213875, 0.07734815031290054, 0.11585184186697006, -0.24331419169902802, 0.044677019119262695, 0.12755468487739563, -0.1374586969614029, -0.05355154722929001, 0.1428624540567398, -0.056653525680303574, -0.004421261604875326, -0.02227753959596157, -0.021772708743810654, 0.1221025213599205, -0.09657448530197144, 0.17346727848052979], [0.43334341049194336, 0.5468682050704956, 0.09665275365114212, -0.3563792407512665, 0.23177501559257507, -0.04414380341768265, 0.61097651720047, -0.07680726051330566, -0.047035496681928635, 0.5618395209312439, -0.7417826652526855, -0.6785104274749756, -0.27649956941604614, 0.2350810319185257, -0.32198047637939453, -0.23067128658294678, 0.557002604007721, -0.12026462703943253, -0.23736396431922913, -0.257224440574646], [0.19631795585155487, 0.3372555375099182, -0.061296116560697556, -0.21617868542671204, -0.22254100441932678, -0.10483290255069733, -0.07401063293218613, -0.07722137123346329, -0.14051902294158936, 0.3054090142250061, 0.021798718720674515, 0.21211829781532288, 0.012496055103838444, 0.07315781712532043, 0.08116596192121506, 0.05044696107506752, 0.025033239275217056, 0.05426550656557083, 0.10726649314165115, 0.005066754296422005], [-0.12258514016866684, -0.05057874321937561, 0.1360142081975937, 0.1902247667312622, -0.013476532883942127, -0.06567202508449554, -0.3089434504508972, 0.0859561637043953, 0.042869169265031815, -0.1326991766691208, 0.3741533160209656, 0.4053272008895874, -0.2106192260980606, 0.037616241723299026, -0.5950199961662292, -0.049134038388729095, 0.2030784785747528, -0.11357694119215012, -0.048592064529657364, 0.16544775664806366], [-2.1071064472198486, -0.5241603851318359, -0.12687364220619202, -0.036681607365608215, -0.7901726961135864, -0.22568587958812714, 0.5925465822219849, 0.3887687921524048, -0.7257623672485352, 0.8084919452667236, -0.5703713893890381, -0.7152354717254639, -0.2665328085422516, 0.18280313909053802, -0.21012328565120697, 0.3165811002254486, -0.06262845546007156, 0.023365367203950882, -0.14827705919742584, 0.2424555867910385], [0.23214800655841827, 0.38550612330436707, 0.007860805839300156, 0.028745274990797043, 0.18485498428344727, 0.01704595610499382, 0.1692057102918625, 0.01884208619594574, 0.16324804723262787, -0.8201477527618408, 0.3107108771800995, 0.14842209219932556, 0.047192879021167755, -0.041046638041734695, -0.031102068722248077, -0.051007065922021866, -0.7600240111351013, 0.17294304072856903, 0.030844006687402725, 0.025763830170035362], [-0.3841916620731354, 0.7738962769508362, -0.2817196846008301, 0.4883771538734436, 0.5125340223312378, -0.009854919277131557, -0.17873536050319672, -0.11257445067167282, 0.6567808985710144, 0.158278226852417, 0.006540894042700529, 0.20387108623981476, 0.19782397150993347, 0.14983944594860077, 0.16696365177631378, -0.038477055728435516, -0.04006538540124893, -0.4127407968044281, -0.1691594272851944, -0.007523368112742901], [-0.7038648128509521, -0.291495144367218, 0.3107026517391205, 0.0017228215001523495, 0.1675896793603897, 0.03594616800546646, -0.26292547583580017, -0.02040701173245907, -0.4469703733921051, 0.552904486656189, -0.04519733786582947, 0.8020617365837097, 0.11093906313180923, 0.02619980089366436, -0.8080762028694153, 0.1628553867340088, 0.15002630650997162, 0.7972509860992432, -0.17892210185527802, -0.5478692054748535], [0.6359579563140869, 0.17325778305530548, 0.05624183639883995, 0.2124175727367401, 0.13640880584716797, -0.09360696375370026, 0.03482583165168762, 0.8976027965545654, -0.19668936729431152, 0.30112865567207336, -0.106222003698349, -0.03922554478049278, -0.20348550379276276, 0.07342313230037689, -0.09856227785348892, 0.0275296401232481, 0.1072629764676094, -0.14872415363788605, -0.4562247395515442, -0.3436870574951172], [0.005207453854382038, 0.012303818017244339, -0.33140885829925537, -0.07727120816707611, -0.18302594125270844, 0.06637170910835266, -0.04575008898973465, -0.5312361121177673, -0.0784834697842598, -0.3970364034175873, -0.09763328731060028, -0.30978378653526306, -0.04379142075777054, -0.043119173496961594, 0.20201297104358673, -0.04141905531287193, 0.1949441283941269, 0.3160768747329712, -0.0242951400578022, 0.32373762130737305], [0.10366716235876083, -0.11812420934438705, -0.0184766948223114, 0.1578368842601776, -0.04236198216676712, -0.007188017480075359, 0.04618500918149948, -0.03723330795764923, 0.07366180419921875, -0.21357931196689606, 0.06226327642798424, -0.3417196571826935, 0.032073866575956345, 0.10747009515762329, 0.055873893201351166, -0.0919734388589859, 0.29830557107925415, -0.08400106430053711, -0.2274155467748642, 0.12043631076812744], [0.009347854182124138, -0.008052684366703033, -0.024932749569416046, -0.16366785764694214, -0.6008076071739197, -0.058461908251047134, 0.04649188369512558, 0.07633144408464432, 0.04147648066282272, 0.3288536071777344, 0.013299030251801014, -0.0653887614607811, -0.1194460466504097, 0.06777089089155197, -0.11621022969484329, 0.12536871433258057, 0.08619828522205353, -0.15520717203617096, -0.08484027534723282, 0.5638096928596497], [0.04043939709663391, 0.03210482373833656, 0.04597089812159538, -0.020565694198012352, -0.0076844398863613605, -0.017974618822336197, -0.02429010532796383, 0.07027727365493774, -0.04552925005555153, 0.059248290956020355, 0.023652490228414536, 0.05475328862667084, -0.012010488659143448, 0.003482017433270812, -0.02141697145998478, 0.009971962310373783, 0.0242877546697855, -0.03322894498705864, -0.015849648043513298, -0.04904370382428169], [0.19012202322483063, 0.2807528078556061, -0.24215583503246307, -0.08705029636621475, 0.157408207654953, 0.04518433287739754, 0.15690003335475922, 0.2544024884700775, 0.1251845359802246, -0.18750441074371338, -0.06045476347208023, 0.05233554169535637, -0.07913707941770554, -0.06236288323998451, -0.5432283878326416, -0.023139944300055504, -0.12850700318813324, -0.09817301481962204, -0.13344687223434448, 0.12850283086299896], [-1.154964566230774, -0.14206179976463318, 0.5943131446838379, -0.2433193027973175, 0.14972439408302307, 0.018150055781006813, -0.38344788551330566, -1.088590145111084, -0.10875464230775833, 0.33437442779541016, -0.2579220235347748, -0.308422714471817, -0.5908223986625671, -0.1414336860179901, 0.0011833029566332698, -0.06214608997106552, 0.7570657134056091, 0.3514004051685333, -0.7669622302055359, -0.17991290986537933], [-0.3439365029335022, -0.4546836316585541, 0.623235821723938, -0.06953740864992142, -0.04907717555761337, -0.06536322832107544, -0.037619948387145996, -0.15966133773326874, 0.0502740815281868, 0.3614806830883026, -0.006085213739424944, -0.051776058971881866, 0.02865336649119854, 0.07626711577177048, -0.14723093807697296, 0.113557368516922, -0.22341863811016083, -0.0021431753411889076, -0.08648776262998581, -0.10077548772096634], [-0.1107911467552185, -0.1761242002248764, 0.05784258618950844, 0.1601800173521042, -0.10487142205238342, 0.019060619175434113, -0.067139632999897, 0.14646798372268677, -0.022213654592633247, -0.10617567598819733, 0.10496598482131958, 0.11058810353279114, -0.21943138539791107, 0.004505799617618322, -0.14989663660526276, 0.043366655707359314, 0.5087563991546631, 0.1768396943807602, -0.1258634477853775, 0.2963758707046509], [-0.19457779824733734, -0.1966242492198944, -0.1444735825061798, 0.13924898207187653, -0.14367783069610596, -0.015886714681982994, 0.05919991061091423, -0.44986364245414734, 0.14758771657943726, -0.4042726159095764, -0.06254126131534576, -0.23300455510616302, 0.13628366589546204, 0.03504112735390663, 0.10388302803039551, -0.06738920509815216, 0.17314884066581726, 0.018681589514017105, -0.2077430635690689, 0.31692251563072205], [0.4954577088356018, -0.1779889464378357, -0.1940959244966507, 0.061489127576351166, 0.04993681237101555, -0.07705122232437134, 0.2793033719062805, 0.5796077847480774, 0.013829133473336697, 0.03902389109134674, -0.1677166372537613, 1.0241740942001343, -0.16565831005573273, -0.00892660953104496, -0.43575310707092285, 0.08155721426010132, 0.07070501893758774, 0.009085404686629772, -0.780798077583313, -0.18458731472492218], [-0.023422935977578163, -0.2575819194316864, -0.025686968117952347, 0.05726151168346405, -0.04617821052670479, 0.03689221665263176, -0.044100191444158554, 1.2452161312103271, 0.1115228459239006, 0.26166626811027527, 0.6127671003341675, 0.15343937277793884, 0.248915433883667, 0.02276570536196232, 0.2016916424036026, -0.015696056187152863, 0.21032623946666718, 0.620580792427063, -0.07726629078388214, 0.1479484587907791], [0.00964513048529625, 0.06204600632190704, -0.036491550505161285, -0.02094263769686222, -0.06903114169836044, -0.011996850371360779, -0.04429526627063751, -0.017192091792821884, 0.04777149856090546, -0.033124130219221115, 0.013560262508690357, 0.014567951671779156, 0.04935823380947113, 0.03476320579648018, 0.017552677541971207, 0.006247899495065212, -0.002501164097338915, -0.10120504349470139, 0.049560029059648514, 0.05410462245345116], [0.009010554291307926, 0.17994536459445953, -0.2073815017938614, 0.021047258749604225, 0.1905815303325653, 0.08705375343561172, 0.2721337080001831, 0.4831470251083374, -0.08076000958681107, -0.052530087530612946, -0.08459354192018509, 0.26614391803741455, -0.044658537954092026, -0.05662184953689575, -1.1078763008117676, -0.021308405324816704, 0.41581663489341736, 0.3383052349090576, -0.46426132321357727, -0.10607331991195679], [0.059250812977552414, 0.04479833319783211, 0.037670861929655075, -0.08431438356637955, -0.10729218274354935, -0.026021383702754974, 0.0018250241409987211, 0.1205923855304718, 0.006693250499665737, 0.08002498000860214, -0.038851119577884674, -0.06467487663030624, -0.01769973896443844, 0.012912803329527378, 0.10560525208711624, 0.0275719054043293, 0.012385818175971508, -0.1199478879570961, -0.055914755910634995, 0.08488071709871292], [-0.1170445904135704, -0.08972271531820297, -0.12568211555480957, 0.08743980526924133, 0.16973458230495453, 0.038013387471437454, 0.20909039676189423, 0.06575986742973328, 0.1734728217124939, -0.03777984529733658, -0.28432580828666687, -0.3490048050880432, 0.0342283695936203, -0.011905765160918236, 0.2222040742635727, 0.02644854225218296, -0.2943825125694275, -0.1497265100479126, 0.03627582639455795, -0.08183135092258453], [-0.9191091060638428, 0.014474805444478989, 0.24140791594982147, 0.09126431494951248, -0.03455619141459465, -0.0019931860733777285, -0.1398901492357254, 0.9082467555999756, 0.0012424855958670378, 0.0695771798491478, 0.3257943391799927, 0.3985995650291443, 0.11152183264493942, 0.0039772954769432545, -1.4506489038467407, 0.1423020362854004, 0.1731472611427307, 0.6348756551742554, -0.40486639738082886, -0.20637397468090057], [0.05870328098535538, -0.28982922434806824, -0.22939155995845795, -0.0181703120470047, 0.3507787883281708, -0.19134971499443054, 0.10239836573600769, 0.0412558913230896, 0.1695445030927658, -0.15600590407848358, -0.09327922016382217, 0.1739591360092163, -0.035331372171640396, 0.07940062135457993, -0.4172409772872925, -0.015654809772968292, -0.1297413408756256, 0.38936755061149597, -0.19990624487400055, -0.1134398803114891], [-0.026507997885346413, -0.11554298549890518, -0.02354561910033226, -0.09807378053665161, -0.41709452867507935, -0.1642245501279831, 0.04740564897656441, -0.06769327074289322, 0.08201586455106735, 0.20480045676231384, -0.06465079635381699, -0.03440752252936363, -0.04642047733068466, 0.13230635225772858, -0.4988780915737152, -0.06111214682459831, 0.046311959624290466, -0.4443690776824951, -0.6048117280006409, 0.5341511368751526]], "rec.bias_ih_l0": [0.3773844838142395, 0.6181495785713196, 0.3315233290195465, 0.00044409133261069655, -0.42619267106056213, -0.020080408081412315, 0.002654735930263996, -0.21703201532363892, -0.3102361559867859, -1.3199588060379028, -0.31473150849342346, 0.18605895340442657, 0.1425667256116867, -0.16735485196113586, -0.44166746735572815, -0.015317478217184544, 0.07700049132108688, 0.0832446813583374, 0.1303420513868332, -1.2097127437591553, -0.5840965509414673, -0.1304328292608261, -0.425110399723053, 0.08965055644512177, -0.13845840096473694, -0.08383704721927643, -0.08954383432865143, -0.40467068552970886, -0.0944242998957634, 1.7993124723434448, 0.09503934532403946, -0.4593242108821869, -0.1845017820596695, -0.06334523111581802, 0.4102359712123871, 0.0074667795561254025, 0.287680447101593, -0.522167444229126, 0.30441728234291077, 1.5758295059204102, 0.1042671799659729, -0.13814802467823029, -0.0455559678375721, 0.07982097566127777, -0.09463606774806976, -0.010768360458314419, 0.43394696712493896, -0.012599797919392586, -0.26722925901412964, -0.05908967927098274, -0.30493298172950745, -0.505932629108429, -0.28875938057899475, 0.04560631513595581, 0.20735716819763184, 0.03524931147694588, -0.13200801610946655, -0.009783080779016018, -0.0908546969294548, 0.19026415050029755, -0.2713921070098877, 0.4638972580432892, 0.3300832211971283, -0.1088743805885315, 0.20120736956596375, -0.021381855010986328, -0.17201516032218933, 0.05825802683830261, -0.13754045963287354, 0.37316179275512695, -0.16423861682415009, 0.17231829464435577, -0.30906134843826294, -0.10955812782049179, 0.02747448906302452, -0.015172576531767845, 0.04742885380983353, -0.04098748788237572, 0.196470707654953, 0.16450294852256775], "rec.bias_hh_l0": [0.3855941593647003, 0.6156653165817261, 0.3379320204257965, 0.02036929689347744, -0.4655260741710663, -0.020847588777542114, -0.0872730016708374, -0.03770921006798744, -0.19623954594135284, -1.5733956098556519, -0.22380878031253815, 0.1762307733297348, 0.12252544611692429, -0.16872891783714294, -0.4728396236896515, -0.013748976401984692, 0.026594005525112152, -0.08112536370754242, 0.04280256852507591, -1.3411829471588135, -0.6077481508255005, -0.14181873202323914, -0.43455439805984497, 0.07052342593669891, -0.11635929346084595, -0.08387935161590576, 0.003310526255518198, -0.3719393014907837, -0.21583738923072815, 1.5379379987716675, 0.1344037652015686, -0.2849283516407013, -0.02210826240479946, -0.0632018893957138, 0.33735138177871704, 0.0074479361064732075, 0.30041664838790894, -0.620520830154419, 0.2861790359020233, 1.4293500185012817, -0.06640904396772385, -0.17451466619968414, -0.1898622065782547, 0.11085671931505203, 0.015637019649147987, -0.004678010940551758, 0.43125849962234497, -0.002472937572747469, -0.047304678708314896, 0.11076541990041733, -0.43139153718948364, -0.21013574302196503, -0.5425413250923157, -0.1065538078546524, 0.12828385829925537, 0.11020129173994064, -0.027175502851605415, -0.025267455726861954, -0.20747441053390503, -0.006473819725215435, -0.2611418068408966, 0.4025598168373108, 0.31391075253486633, -0.10627621412277222, 0.1854398548603058, -0.021293900907039642, -0.1525903344154358, 0.17483390867710114, -0.342629611492157, 0.4034067392349243, -0.24957963824272156, 0.2269541323184967, -0.20819614827632904, -0.11308755725622177, 0.02591543085873127, -0.01515797059983015, 0.08522174507379532, 0.0692935660481453, 0.13538667559623718, 0.14451541006565094], "lin.weight": [[0.6666468977928162, -0.0615985281765461, -0.34521642327308655, -0.05560031160712242, -0.01134826336055994, -0.09403599053621292, 0.3614858388900757, -1.4058011770248413, -0.6600216627120972, 0.2633272707462311, 0.02099759690463543, 0.48691508173942566, -0.3470675051212311, 0.049862075597047806, -0.3731802701950073, 0.032281309366226196, -0.1321583092212677, -1.1839797496795654, -0.1837923675775528, -0.0767895057797432]], "lin.bias": [-0.02796717919409275]}}