{"model_data": {"model": "SimpleRNN", "input_size": 2, "skip": 1, "output_size": 1, "unit_type": "LSTM", "num_layers": 1, "hidden_size": 20, "bias_fl": true}, "state_dict": {"rec.weight_ih_l0": [[-0.05146874114871025, 0.8038093447685242], [-0.08740980178117752, 0.4040836691856384], [-0.11087264120578766, 0.41162845492362976], [-0.1359228491783142, 0.03679027408361435], [-0.07203579694032669, -0.001583446515724063], [-0.2013835608959198, 0.19330772757530212], [0.011099781841039658, -0.05770689621567726], [-0.39071643352508545, 1.645702600479126], [0.5447278618812561, -0.1372615396976471], [-0.4391840398311615, -0.9960544109344482], [0.0797477662563324, -0.197153702378273], [0.06319253146648407, -0.19253244996070862], [-0.060150325298309326, -0.020497946068644524], [0.012016473338007927, 0.08992265164852142], [0.034947529435157776, 0.09075461328029633], [-0.0320696197450161, 0.244383305311203], [-0.06055224686861038, -0.4121348261833191], [-0.03274640813469887, 0.4585880935192108], [-0.03690659999847412, 0.053750015795230865], [-0.6687880158424377, -1.078560471534729], [0.38062864542007446, -0.2664216160774231], [0.04793667420744896, -0.10469481348991394], [-0.0312283206731081, -0.24394454061985016], [-0.11026660352945328, 0.0596969835460186], [-0.1893012374639511, 0.23729322850704193], [-0.27450573444366455, 0.06921712309122086], [-0.0013218607055023313, -0.151816725730896], [-0.18447482585906982, -0.11690708994865417], [-0.023732658475637436, 0.8362705707550049], [0.042970091104507446, 1.0644561052322388], [0.08222774416208267, 0.1328628808259964], [-0.1092778667807579, -0.4196852743625641], [-0.07070732861757278, -0.09905487298965454], [-0.023840583860874176, 0.26742878556251526], [-0.09398557990789413, 1.3638503551483154], [0.03450927883386612, 0.11639074981212616], [-0.11103932559490204, -0.34584841132164], [0.44223615527153015, -0.4221418499946594], [-0.02520722709596157, 0.27650871872901917], [-0.4257049858570099, 1.1569011211395264], [-5.501674652099609, -0.16507378220558167], [-3.235999584197998, 0.13040857017040253], [0.7903462648391724, 0.4266362488269806], [0.2910706102848053, -0.07065154612064362], [-0.2405613362789154, -0.35885971784591675], [-0.07551104575395584, -0.08218753337860107], [0.5861520767211914, -0.9746456742286682], [-10.110042572021484, 0.17684850096702576], [1.505213737487793, -0.1287463754415512], [-0.9043025374412537, -0.09073952585458755], [-0.24429717659950256, 0.7624207139015198], [-0.552253782749176, 0.6807651519775391], [0.1994258612394333, -0.06868143379688263], [-0.2552821934223175, -0.02269008383154869], [0.5559037923812866, -0.6506695747375488], [-0.6289724111557007, -0.10161292552947998], [0.047520749270915985, 0.8980002403259277], [6.987318515777588, -0.10955812782049179], [0.23898425698280334, -0.5305665731430054], [-1.094826579093933, 0.1519801914691925], [0.24233224987983704, 0.5465205311775208], [-0.1081528514623642, 0.06902957707643509], [-0.09701503813266754, 0.44276073575019836], [-0.16261962056159973, 0.04425967112183571], [-0.1227167546749115, 0.2675812244415283], [-0.2803395390510559, 0.2904803156852722], [-0.34553781151771545, -0.13362568616867065], [-0.5150467753410339, 1.0016472339630127], [0.5206636786460876, 0.4261831045150757], [-0.07803463190793991, 0.4809577167034149], [0.27218836545944214, -0.2214345782995224], [0.10787053406238556, -0.13533452153205872], [-0.26801565289497375, -0.04031609743833542], [0.03721803054213524, -0.02223268710076809], [0.19472438097000122, 0.3390760123729706], [-0.056879982352256775, 0.2918546795845032], [-0.2195926159620285, -0.506532609462738], [0.47030022740364075, 0.033882949501276016], [-0.3687027096748352, -0.01833583600819111], [-0.1614043116569519, 0.4440234899520874]], "rec.weight_hh_l0": [[-0.2728336453437805, -0.31112638115882874, 0.0473291389644146, 0.11071649938821793, -0.12038201093673706, 0.15229082107543945, -0.14786642789840698, 0.04108608141541481, -0.050132907927036285, -0.12834370136260986, 0.13447722792625427, 0.4630151689052582, -0.2250031679868698, -0.01749221421778202, -0.765853226184845, 0.1545751541852951, 0.41668784618377686, 0.203458771109581, -0.5345897078514099, 0.27463802695274353], [0.05827631801366806, -0.01576944999396801, 0.01426934078335762, -0.007722057402133942, -0.023462438955903053, 0.017556287348270416, 0.025420986115932465, 0.21488407254219055, -0.15380974113941193, -0.02856810949742794, -0.011747872456908226, 0.061108268797397614, -0.17479407787322998, -0.03638024628162384, -0.23802915215492249, 0.08552408218383789, 0.13574464619159698, 0.05387799069285393, -0.47202059626579285, 0.09256581217050552], [-0.060620762407779694, -0.11634666472673416, -0.1455278843641281, 0.12357377260923386, -0.15835385024547577, -0.08236447721719742, 0.09463296830654144, -0.08988334238529205, 0.1666150689125061, -0.1787065863609314, -0.01520606130361557, -0.18126548826694489, -0.05955265834927559, 0.09831096231937408, -0.02529854141175747, -0.07655064761638641, 0.18089286983013153, 0.02884547784924507, -0.32096990942955017, 0.2798230051994324], [0.024461474269628525, 0.029811596497893333, 0.08197999745607376, -0.047042932361364365, -0.004670694470405579, 0.020812982693314552, -0.07423898577690125, 0.25667330622673035, -0.11431503295898438, 0.1331356167793274, 0.009497391991317272, 0.2556516230106354, -0.08850167691707611, -0.02629959024488926, -0.361089825630188, 0.17915792763233185, -0.025656497105956078, 0.0060239629819989204, -0.06674427539110184, 0.038628995418548584], [-0.13505390286445618, -0.049132511019706726, -0.007216942962259054, 0.04865892976522446, -0.18145525455474854, -0.1084422767162323, 0.05297822505235672, 0.1180989146232605, 0.16564521193504333, 0.15483836829662323, 0.06102962791919708, 0.23221611976623535, 0.0065275197848677635, -0.03945799544453621, -0.2812027037143707, 0.14772164821624756, 0.11771184206008911, -0.21310998499393463, 0.11158053576946259, 0.24606747925281525], [-0.023626135662198067, 0.11210191994905472, -0.024311712011694908, -0.05083755776286125, -0.10340385884046555, -0.04045615717768669, -0.04671063646674156, -0.06950625032186508, -0.06402436643838882, 0.11983515322208405, 0.05177240073680878, 0.052196551114320755, -0.04488945007324219, -0.0983864888548851, -0.20236040651798248, 0.2861485183238983, 0.03365538641810417, 0.01962006464600563, -0.07555320113897324, 0.14552190899848938], [-0.1020873486995697, -0.024030286818742752, -0.013997290283441544, 0.04890405014157295, -0.036716312170028687, 0.04345837980508804, 0.1034560278058052, -0.02674728073179722, 0.018120141699910164, -0.09955421835184097, -0.06518028676509857, -0.005841229110956192, -0.07138753682374954, 0.04198614880442619, -0.20353543758392334, -0.03428763896226883, -0.052595771849155426, -0.10298863798379898, -0.1806727647781372, 0.010559652000665665], [-0.5801100134849548, 0.11055758595466614, 0.35103631019592285, -0.01761644147336483, 0.10149610042572021, 0.14120180904865265, -0.6938354969024658, 0.32176780700683594, -0.0475957915186882, 0.11266053467988968, 0.450378954410553, 0.9940544962882996, -0.2530553340911865, -0.15148809552192688, -0.9703291058540344, -0.1536465287208557, 0.8405964374542236, 0.2565501928329468, -0.595329225063324, 0.20809118449687958], [-0.48859137296676636, -0.2704159617424011, 0.2591779828071594, -0.15452413260936737, -0.0687132477760315, 0.03342152014374733, -0.3154691755771637, -0.7266332507133484, -0.1909029632806778, 0.2487722784280777, -0.10358648002147675, -0.003738634753972292, -0.00955385435372591, -0.2625899314880371, -0.1548594981431961, -0.14353105425834656, -0.15475651621818542, 0.21669122576713562, -0.16483785212039948, -0.1456768959760666], [-0.6621879935264587, 1.2894998788833618, 0.12706366181373596, -0.47982990741729736, -0.20940324664115906, -0.12871845066547394, -0.030411100015044212, -0.20570065081119537, 0.5522712469100952, -0.1975214034318924, 0.4205438196659088, 0.6591233015060425, 0.49231812357902527, 0.011249114759266376, 0.35635796189308167, -0.17976416647434235, 0.29925429821014404, -0.7616877555847168, 1.0628360509872437, 0.27336224913597107], [0.16789771616458893, -0.004019159823656082, 0.03609205782413483, -0.017577819526195526, 0.03068956360220909, -0.07910708338022232, 0.09456958621740341, -0.006701791658997536, 0.11551874130964279, -0.20737029612064362, 0.07680873572826385, -0.15216179192066193, 0.008767182938754559, 0.10945117473602295, -0.00041092862375080585, 0.011895140632987022, 0.10604797303676605, -0.14017927646636963, 0.04494088143110275, 0.2199813276529312], [-0.3249397575855255, 0.0903342217206955, 0.03575798124074936, -0.21719712018966675, 0.27067258954048157, -0.07314920425415039, 0.10535722225904465, -0.16308264434337616, -0.2395157814025879, 0.36655011773109436, -0.21115261316299438, 0.21843725442886353, -0.0184268057346344, -0.09673229604959488, 0.17749351263046265, 0.083326555788517, 0.12227936834096909, 0.43180349469184875, -0.5150243043899536, -0.5043638348579407], [-0.13417372107505798, -0.09382252395153046, -0.030003657564520836, 0.028007470071315765, -0.0031067228410393, 0.02911396510899067, -0.06759826838970184, 0.4497310519218445, 0.0881279930472374, 0.13617371022701263, 0.11189877241849899, 0.026196874678134918, 0.015712428838014603, -0.02108495868742466, -0.07943570613861084, 0.028889460489153862, 0.044451408088207245, 0.3196479082107544, -0.29512327909469604, 0.000878579041454941], [-0.039554107934236526, -0.044451985508203506, 0.02475718781352043, -0.023737197741866112, -0.009090463630855083, 0.017159653827548027, -0.025349650532007217, -0.016257401555776596, -0.014301741495728493, 0.07317453622817993, -0.017854221165180206, -0.08405311405658722, -0.03817787766456604, 0.0047159395180642605, -0.04684615507721901, 0.0565812885761261, -0.16818203032016754, -0.05366506054997444, -0.07143394649028778, 0.023792896419763565], [0.19418096542358398, 0.2209341675043106, -0.01366931851953268, 0.08313094079494476, 0.15699857473373413, 0.17820137739181519, -0.06590625643730164, 0.18751995265483856, -0.17196831107139587, -0.0903296023607254, 0.3847058415412903, 0.1835358589887619, 0.0028445094358175993, 0.003757783677428961, -0.4200022220611572, 0.36931219696998596, -0.053569141775369644, -0.05822792276740074, -0.1460801362991333, -0.13436156511306763], [-0.12276005744934082, -0.040168486535549164, -0.03916804492473602, 0.003434865502640605, -0.06441173702478409, -0.026868198066949844, 0.042418431490659714, -0.0405706986784935, 0.006982308346778154, -0.0487215518951416, 0.08519154787063599, 0.05377446860074997, -0.08688899874687195, -0.04533444717526436, -0.15725143253803253, -0.015421791933476925, 0.004468321800231934, 0.09171158820390701, -0.16859722137451172, 0.10701702535152435], [-0.09653985500335693, -0.08738428354263306, -0.01789839379489422, -0.0142141068354249, 0.08866969496011734, -0.014216129668056965, 0.07230712473392487, 0.07525288313627243, 0.030653372406959534, 0.033367641270160675, -0.13593943417072296, -0.06945010274648666, -0.019435850903391838, -0.06771671772003174, 0.006247433368116617, 0.07328822463750839, -0.2544647753238678, 0.031233899295330048, -0.032697536051273346, -0.032068606466054916], [0.10893730074167252, 0.024266783148050308, 0.04297642782330513, 0.0569637157022953, -0.12266995012760162, 0.11500749737024307, -0.07012436538934708, 0.7255661487579346, -0.25636839866638184, -0.14483030140399933, 0.3170754015445709, 0.7861860990524292, -0.3032956123352051, -0.12506581842899323, -1.1314197778701782, 0.24188393354415894, 0.3854970335960388, -0.03692253306508064, -0.9639973640441895, 0.14276252686977386], [-0.03792876377701759, -0.022388668730854988, 0.007522573694586754, -0.0367114432156086, -0.013840396888554096, -0.09110645204782486, 0.12748491764068604, 0.1329680234193802, 0.03348320722579956, 0.028686940670013428, 0.007299389224499464, -0.015049689449369907, -0.08469098806381226, -0.021867480129003525, -0.14569061994552612, 0.07230239361524582, -0.09077242016792297, 0.05156427249312401, -0.08377831429243088, 0.1205141469836235], [0.5541905760765076, 0.6415026783943176, -0.00036165802157483995, -0.11029128730297089, -0.13262569904327393, -0.2008345127105713, -0.04159358888864517, 0.6757659912109375, 0.3383947014808655, -0.10711833834648132, 0.2858341932296753, 0.06423588842153549, 0.4599650800228119, 0.22465021908283234, 0.24716918170452118, -0.07741590589284897, -0.32079145312309265, -0.8938368558883667, 0.877508282661438, -0.05983300879597664], [-0.31188786029815674, -0.24208691716194153, -0.134063720703125, -0.07571188360452652, 0.07396785169839859, 0.14832548797130585, -0.03545909747481346, -0.730243980884552, -0.02155015990138054, 0.14997254312038422, 0.18397454917430878, -0.33776938915252686, 0.14453545212745667, -0.04403401538729668, 0.09318776428699493, 0.10237587988376617, 0.1355377584695816, 0.06014223396778107, -0.03111414611339569, 0.07298756390810013], [0.37836843729019165, 0.12881219387054443, 0.10336819291114807, -0.10642962902784348, -0.006530198268592358, -0.043232809752225876, -0.0673941820859909, 0.35997870564460754, -0.11048668622970581, 0.08275903761386871, 0.07027757912874222, -0.025756100192666054, -0.015112941153347492, 0.0691901221871376, 0.0009538941085338593, -0.0723503828048706, 0.11069714277982712, -0.0860091969370842, -0.023632610216736794, -0.03834608569741249], [0.08117733150720596, -0.019790073856711388, 0.051482412964105606, 0.008288439363241196, -0.0626034215092659, -0.11320062726736069, 0.13000626862049103, -0.20129990577697754, 0.21012187004089355, -0.03671671822667122, -0.11678145825862885, 0.11249034851789474, 0.04687603563070297, 0.10214350372552872, -0.02116115391254425, -0.07041162997484207, -0.1686042994260788, -0.05335898697376251, 0.40128445625305176, 0.17111773788928986], [0.06703785806894302, 0.06993710249662399, 0.13209909200668335, -0.08227383345365524, -0.016228143125772476, 0.014823771081864834, -0.12263115495443344, 0.323542058467865, -0.12476501613855362, 0.13392163813114166, 0.018991263583302498, 0.19751933217048645, -0.06896092742681503, 0.01841498166322708, -0.2908797860145569, 0.05961374193429947, -0.0040062847547233105, -0.05098402872681618, -0.021683722734451294, -0.011996274814009666], [-0.1147087812423706, -0.04335397854447365, -0.011775301769375801, -0.03536001220345497, -0.38798561692237854, -0.31429606676101685, 0.10355062782764435, 0.04632893577218056, 0.19408562779426575, 0.21868929266929626, 0.03645464777946472, 0.05924344062805176, -0.005910595878958702, -0.0918351486325264, -0.14991675317287445, 0.20505230128765106, 0.1385270655155182, -0.13851015269756317, 0.06796199083328247, 0.4282175600528717], [-0.0736396312713623, 0.11424761265516281, -0.03912530094385147, -0.10291523486375809, -0.21426533162593842, -0.14264336228370667, 0.014940476976335049, -0.13418729603290558, -0.09619532525539398, 0.20758436620235443, -0.008355433121323586, -0.03910326957702637, -0.020314747467637062, -0.10001862049102783, -0.04859161749482155, 0.2963390052318573, 0.07311823964118958, 0.08734817802906036, 0.012325790710747242, 0.22854028642177582], [-0.05343091860413551, 0.020036164671182632, -0.010065804235637188, 0.04909895732998848, -0.043215312063694, 0.03427203372120857, 0.1478017419576645, 0.040551312267780304, 0.03566545248031616, -0.1139616146683693, -0.153929203748703, -0.02098201774060726, -0.051629602909088135, 0.05744205042719841, -0.24323515594005585, -0.08176775276660919, -0.12142633646726608, -0.14463239908218384, -0.11902505904436111, 0.015953291207551956], [0.11958636343479156, 0.31997933983802795, -0.058801762759685516, 0.09172117710113525, 0.04250152409076691, -0.09586868435144424, -0.2703920602798462, 0.013311881572008133, 0.32872867584228516, 0.0777454599738121, -0.26415225863456726, 0.7324123978614807, -0.12987522780895233, 0.04961229860782623, 0.03312947228550911, 0.1650487333536148, 0.23779936134815216, 0.21581824123859406, 0.2432934045791626, 0.22246956825256348], [0.20010551810264587, 0.13367228209972382, -0.12302088737487793, 0.08003205806016922, -0.06956716626882553, 0.18453188240528107, -0.41622811555862427, 0.09124226123094559, -0.3000660538673401, 0.0385059230029583, 0.0738588497042656, 0.034288786351680756, 0.16033349931240082, -0.12421485036611557, 0.1177380308508873, -0.06031394377350807, 0.2528601288795471, 0.06079840287566185, -0.7386248111724854, -0.22573773562908173], [-0.2896347641944885, -0.41740506887435913, -0.0601608008146286, -0.12797677516937256, 0.22115637362003326, -0.1739007830619812, 0.11236608773469925, -0.2676220238208771, -0.3913258910179138, -0.2198861837387085, -0.09648442268371582, -0.3665136992931366, -0.7966192364692688, 0.07845935225486755, 0.1627397984266281, 0.0055216411128640175, -0.3017425537109375, 0.8765491247177124, -1.3257476091384888, -0.11729409545660019], [-0.17980995774269104, -0.21569876372814178, -0.11827001720666885, 0.010674897581338882, 0.022902818396687508, -0.07093340903520584, 0.1325683444738388, -0.4445885419845581, 0.2001066654920578, -0.2591746151447296, 0.1060061976313591, -0.21471059322357178, -0.050362929701805115, 0.11215187609195709, -0.12695464491844177, -0.08022990822792053, 0.18922185897827148, 0.19531874358654022, -0.2549038529396057, 0.3376716077327728], [0.09667567908763885, -0.012747975066304207, -0.062066689133644104, -0.17280344665050507, 0.19542242586612701, -0.06955455988645554, 0.12294526398181915, 0.3885319232940674, -0.15932641923427582, 0.22755354642868042, -0.1564626544713974, 0.21164654195308685, -0.0031053132843226194, -0.029507599771022797, -0.1449032574892044, -0.0014862384414300323, 0.29566827416419983, 0.05384262278676033, -0.2979082465171814, -0.3164161741733551], [-0.1522572934627533, -0.061353739351034164, -0.09701206535100937, 0.03853695094585419, -0.014607129618525505, 0.017695849761366844, -0.05121111124753952, 0.4330194592475891, 0.08492286503314972, 0.14082612097263336, 0.10361750423908234, 0.00914276298135519, 0.11674582958221436, 0.039580974727869034, 0.0022343057207763195, 0.003148044692352414, 0.06484092772006989, 0.3145955801010132, -0.1032225638628006, -0.028057819232344627], [-0.13809481263160706, -0.06334983557462692, -0.025907814502716064, -0.025101423263549805, -0.019718961790204048, 0.011120871640741825, -0.04126593470573425, -0.14643500745296478, 0.02517087012529373, 0.12093734741210938, 0.014835614711046219, -0.08507724106311798, -0.0625477135181427, -0.011085109785199165, -0.14046324789524078, 0.11185245960950851, -0.18539738655090332, 0.002795702777802944, -0.1810120791196823, 0.0721527710556984], [-0.4446070194244385, -0.07298649102449417, -0.06239210441708565, 0.11929439753293991, 0.02460329234600067, 0.12646451592445374, 0.07137627899646759, -0.2635267674922943, -0.07010690867900848, -0.1493852585554123, 0.5144224762916565, 0.38703274726867676, -0.302001029253006, -0.19086624681949615, -1.230829119682312, 0.2374509572982788, 0.16249500215053558, 0.3023703396320343, -0.8369104266166687, 0.3695376515388489], [-0.15788334608078003, -0.015452752821147442, -0.03986731916666031, -0.0070022400468587875, -0.12037741392850876, -0.042542777955532074, 0.03899434953927994, -0.073418028652668, 0.06918855756521225, -0.05831855908036232, 0.21719397604465485, 0.02041892521083355, -0.04038360342383385, -0.051024358719587326, -0.05790035054087639, -0.12782596051692963, 0.07178134471178055, 0.03340597078204155, -0.0569220706820488, 0.11471942812204361], [-0.023787392303347588, -0.06274823099374771, -0.04234695807099342, -0.038996897637844086, 0.06445536762475967, -0.06147868186235428, 0.14454348385334015, 0.16501936316490173, 0.0030191128607839346, 0.002917422214522958, -0.1649501472711563, -0.14714676141738892, -0.03297540172934532, -0.04504961892962456, 0.06520707160234451, 0.0811462551355362, -0.3588913083076477, 0.014250430278480053, -0.04011980816721916, 0.029501603916287422], [-0.3080674111843109, -0.17066282033920288, -0.48412731289863586, -0.24296775460243225, 0.03775620460510254, 0.1066199243068695, 0.11813905835151672, 0.10841148346662521, -0.33678245544433594, 0.13861624896526337, 0.06062906235456467, 0.23411627113819122, 0.09845498949289322, -0.07157162576913834, -0.08463425189256668, 0.1853467971086502, 0.31175297498703003, 0.2366809844970703, -0.05464829131960869, 0.04306403547525406], [-0.11371628940105438, -0.06136266142129898, -0.0065969545394182205, -0.06589070707559586, -0.03308838978409767, -0.14444690942764282, 0.16626934707164764, 0.07807205617427826, 0.0846095159649849, 0.06412561237812042, 0.001214300747960806, -0.013063467107713223, -0.12011879682540894, -0.04843611270189285, -0.25804099440574646, 0.1326625645160675, -0.0852145329117775, 0.07599356025457382, -0.2721596956253052, 0.1990453451871872], [-0.07620885223150253, -0.12196581810712814, -0.3116927146911621, -0.015465485863387585, -0.054013196378946304, -0.028839534148573875, 0.3624762296676636, -0.5240792632102966, -0.603840708732605, -0.15666387975215912, -0.21949222683906555, -0.424655944108963, -0.3711058795452118, -0.016737772151827812, -0.18455350399017334, 0.30012252926826477, -0.15965798497200012, 0.44021961092948914, -1.623496413230896, 0.5972553491592407], [-0.6664493083953857, 0.31966906785964966, 0.38976413011550903, 0.1573447734117508, 0.5427417755126953, 0.3408927619457245, -0.4625251293182373, 0.32706356048583984, 0.2608567178249359, -0.778421938419342, -0.10269422084093094, 0.03229418396949768, -0.027994684875011444, -0.09719929844141006, 0.559264600276947, -0.1290835589170456, 0.3024044930934906, 0.034761879593133926, 0.18173848092556, -0.6624351739883423], [0.06697079539299011, -0.16493161022663116, 0.2742786407470703, -0.1530221402645111, 0.326177716255188, 0.1753212809562683, -0.1302575320005417, -0.23675541579723358, -0.2529960572719574, -0.3836587965488434, -0.11831086874008179, -0.060625556856393814, -0.20216916501522064, 0.019821656867861748, 0.04881422594189644, -0.1676008701324463, 0.026324208825826645, 0.09929291158914566, 0.13947793841362, -0.622035026550293], [0.8057340979576111, 0.26842379570007324, -1.5071152448654175, -0.0675702914595604, -0.18714448809623718, -0.46180373430252075, -0.19788846373558044, 0.723651111125946, -0.09885228425264359, -0.3169901967048645, 0.13134723901748657, 0.31836608052253723, 0.055844634771347046, -0.092386893928051, 0.03080216981470585, -0.05261978507041931, 0.16150110960006714, 0.22696194052696228, -0.07275452464818954, -0.03485975041985512], [-0.2879980504512787, -0.06157649680972099, 0.15226443111896515, 0.08359402418136597, -0.010823151096701622, 0.20176582038402557, -0.10285446047782898, -0.20349188148975372, 0.15605485439300537, -0.4241311848163605, 0.22322475910186768, 0.15070489048957825, 0.04089885577559471, 0.08670350909233093, -0.02849707566201687, 0.06632120162248611, 0.011341700330376625, -0.45192041993141174, 0.04202971234917641, -0.03168090060353279], [-0.1679152399301529, -0.04801630601286888, -0.06402840465307236, -0.018805013969540596, 0.06260854005813599, 0.16150818765163422, 0.10029271245002747, 0.22173430025577545, 0.2697041928768158, 0.10788977891206741, -0.22843539714813232, -0.47123247385025024, -0.054388679563999176, -0.023950127884745598, -0.6048996448516846, 0.01135244220495224, -0.20184019207954407, 0.2451568841934204, 0.03198536857962608, -0.7930200099945068], [-0.2209024727344513, -0.07104457169771194, 0.0796874538064003, 0.031220845878124237, -0.0927685797214508, -0.2139168232679367, -0.18646106123924255, -0.38148871064186096, -0.46360358595848083, -0.6063778400421143, -0.15238341689109802, 0.38894298672676086, -0.05968906730413437, 0.04666300117969513, -0.0925624817609787, -0.03141487389802933, 0.03778461739420891, -0.31554698944091797, -0.18287107348442078, -0.36435478925704956], [-0.033847738057374954, 0.128324493765831, -0.17346900701522827, 0.06818772852420807, -0.2346416413784027, 0.03145325928926468, 0.24514494836330414, 0.36868050694465637, 0.33627602458000183, 0.1674531102180481, -0.08752933889627457, -0.14353279769420624, 0.139190211892128, 0.06152652949094772, -0.2554718852043152, -0.023672407492995262, -0.015486972406506538, 0.1837032288312912, -0.07832519710063934, 0.47560185194015503], [0.943977415561676, 0.6391832828521729, -0.12370212376117706, 0.11339184641838074, 0.8966166973114014, 0.5330423712730408, -0.3595736026763916, -0.1790502369403839, -0.06630613654851913, -1.238259196281433, 0.4090978503227234, 0.5190818905830383, 0.34274446964263916, 0.010643230751156807, 0.13479885458946228, -0.43126803636550903, 0.3453691899776459, -0.15260860323905945, -0.2215101420879364, -1.324676513671875], [0.3308131694793701, -0.34464988112449646, 0.4173470139503479, -0.2547362446784973, -0.052380479872226715, -0.4834449291229248, 0.1809246987104416, -0.8597691655158997, -0.37299972772598267, -0.37457409501075745, -0.21873091161251068, -0.2870078980922699, -0.3348861038684845, 0.027933618053793907, -0.743101954460144, -0.00654709292575717, -0.18357831239700317, -0.21509283781051636, 0.21114516258239746, 0.6630353331565857], [-0.08407672494649887, 0.08628782629966736, 0.34453144669532776, -0.08644815534353256, 0.25822120904922485, -0.07085639983415604, -0.09174815565347672, 0.9818628430366516, 0.18322105705738068, 0.27953457832336426, 0.11397437006235123, -0.06422524154186249, -0.30149978399276733, 0.02256544679403305, 0.20787201821804047, -0.11667712032794952, 0.1063045784831047, 0.44344139099121094, -0.16454514861106873, 0.08449403941631317], [-0.07734651118516922, 0.03979773074388504, 0.02280588634312153, -0.03431377559900284, 0.0022246227599680424, -0.0037630514707416296, -0.05808806046843529, -0.24323506653308868, -0.047666601836681366, -0.733640730381012, 0.1321808397769928, -0.026539992541074753, 0.21624153852462769, -0.09298080205917358, -0.4513993263244629, -0.11669899523258209, -0.3228152096271515, 0.318124383687973, 0.2551252245903015, 0.34787631034851074], [-0.435634583234787, -0.004645557142794132, 0.18236762285232544, 0.14988598227500916, 0.2854683995246887, 0.2038804590702057, -0.10229390859603882, 0.40316712856292725, 0.00846334919333458, -0.43278205394744873, 0.35764172673225403, 0.04515500366687775, 0.2815483510494232, 0.006715799681842327, -0.8121281862258911, -0.22301732003688812, -0.2494860142469406, 0.4838390648365021, 0.49176812171936035, -0.31313222646713257], [0.23822325468063354, 0.2271891087293625, 0.059658829122781754, -0.03189719840884209, -0.04816008731722832, -0.13716243207454681, 0.10788781940937042, -0.586033046245575, -0.10358249396085739, -0.154301717877388, -0.15039978921413422, 0.08289074152708054, -0.1507064253091812, -0.0017031875904649496, -0.015960421413183212, 0.026731563732028008, -0.22763314843177795, -0.5047263503074646, 0.2333434671163559, 0.06290116161108017], [0.04262969642877579, -0.10393112152814865, -0.04050188511610031, 0.15457721054553986, 0.09215834736824036, 0.20723554491996765, 0.12487906962633133, -0.20073500275611877, 0.07448896020650864, -0.7914666533470154, -0.03879581391811371, -0.14941547811031342, 0.21454602479934692, 0.32541289925575256, -0.0254650991410017, -0.11666874587535858, 0.016500461846590042, 0.08870204538106918, 0.13158288598060608, 0.28190693259239197], [0.45298928022384644, -0.3011953830718994, -0.2714918255805969, -0.013551585376262665, 0.3998321294784546, 0.11354367434978485, 0.6067327857017517, 0.24749121069908142, -0.14760872721672058, 0.3277873992919922, -0.6264277100563049, -0.295940637588501, -0.1860787719488144, -0.19664429128170013, -0.38614559173583984, 0.14311200380325317, 0.39387643337249756, -0.32616469264030457, -0.16494621336460114, -0.15605613589286804], [0.17141547799110413, 0.24689142405986786, -0.3994028568267822, 0.13003620505332947, -0.11821896582841873, 0.0723256766796112, 0.0773603543639183, -0.1485874503850937, -0.17995817959308624, 0.3172200322151184, -0.22400303184986115, 0.3885939419269562, -0.02200441248714924, -0.01992553286254406, -0.07541332393884659, -0.041307754814624786, 0.04803171008825302, 0.24737289547920227, 0.14965598285198212, 0.48946312069892883], [-0.15462684631347656, 0.022459013387560844, 0.06631680577993393, -0.04902469366788864, -0.12086842954158783, -0.03729807212948799, -0.29020845890045166, -0.0012832062784582376, 0.02889588288962841, -0.02378433384001255, 0.18361787497997284, 0.24080128967761993, -0.12335675209760666, 0.10772448033094406, -0.13690024614334106, 0.019561083987355232, 0.34291309118270874, -0.11387506127357483, -0.34378868341445923, 0.0511404387652874], [-2.379075527191162, -0.6821452379226685, 0.09777776896953583, -0.08914076536893845, -0.45596176385879517, -0.708031177520752, 0.538846492767334, 0.3124430179595947, -0.7360178828239441, 0.5090481638908386, -0.513496994972229, -0.5991927981376648, -0.19608838856220245, 0.09488482773303986, -0.1423371285200119, 0.4194776713848114, -0.09147121012210846, 0.01808040589094162, -0.23385660350322723, 0.6537747383117676], [0.15263086557388306, -0.0008666329085826874, 0.09197665750980377, 0.01537402905523777, 0.02317674644291401, -0.0030096278060227633, 0.20475314557552338, 0.044696442782878876, -0.03048819489777088, -0.10643105953931808, -0.040403496474027634, -0.027165528386831284, 0.1048491969704628, 0.08047642558813095, 0.039191339164972305, 0.08049122989177704, -0.37573060393333435, -0.06372132897377014, 0.35120928287506104, -0.019773095846176147], [-0.26356202363967896, 0.7732443809509277, -0.3489988446235657, -0.20304922759532928, 0.34390273690223694, 0.45653852820396423, -0.1588217169046402, -0.12133018672466278, 0.4417436718940735, 0.30164554715156555, 0.08718802779912949, 0.03580870106816292, 0.2547171711921692, 0.4000117778778076, 0.03668837994337082, 0.1747802048921585, 0.05153581500053406, -0.535958468914032, -0.2870924472808838, 0.0792897492647171], [-0.6537451148033142, -0.42302700877189636, 0.29406091570854187, -0.1371995359659195, 0.12532906234264374, 0.23362158238887787, -0.37560051679611206, 0.03665465489029884, -0.5210726857185364, 0.21461334824562073, -0.005723524838685989, 0.7278956770896912, -0.03501283749938011, -0.24552562832832336, -0.651946485042572, 0.1479998528957367, 0.2416197508573532, 0.6478290557861328, -0.42448118329048157, -0.2555609345436096], [0.53999263048172, 0.21929329633712769, 0.015525173395872116, -0.07151899486780167, 0.07410421967506409, 0.07064519822597504, -0.009256025776267052, 0.6258577704429626, -0.5029017925262451, 0.10181529074907303, -0.1302550733089447, 0.0821349248290062, -0.221892848610878, -0.011632352136075497, -0.2972692847251892, 0.14361906051635742, 0.07360375672578812, 0.026373472064733505, -0.522758424282074, -0.006153399590402842], [-0.025215279310941696, -0.03844793140888214, -0.0977839007973671, 0.11107999831438065, -0.11571015417575836, -0.05194052681326866, 0.047161638736724854, -0.17366766929626465, 0.045934244990348816, -0.14346551895141602, -0.05775498226284981, -0.12380515784025192, -0.0954262763261795, 0.045540135353803635, -0.08952673524618149, -0.054261092096567154, 0.16680718958377838, 0.1005353182554245, -0.33736565709114075, 0.2322208285331726], [0.026251502335071564, 0.06947674602270126, 0.12169024348258972, -0.08047560602426529, -0.010331155732274055, 0.013331555761396885, -0.07855910062789917, 0.37817835807800293, -0.1149555891752243, 0.16091088950634003, 0.003060227492824197, 0.22845196723937988, -0.08767177909612656, -0.03231320530176163, -0.3453714847564697, 0.2192150503396988, -0.024279959499835968, -0.07259631901979446, -0.09411922842264175, 0.034882061183452606], [-0.0324133075773716, -0.08012501895427704, 0.02292766608297825, -0.05299557000398636, -0.26985234022140503, -0.21809516847133636, 0.10750473290681839, 0.14615276455879211, 0.09015218168497086, 0.1481046974658966, 0.07384399324655533, 0.06724072247743607, -0.0853123739361763, -0.06581776589155197, -0.15094271302223206, 0.19861795008182526, 0.10757515579462051, -0.04543136805295944, -0.13328543305397034, 0.3377775549888611], [-0.04376841336488724, 0.10280051082372665, -0.05999530851840973, -0.07047717273235321, -0.16613557934761047, -0.10836558043956757, -0.017908187583088875, -0.10034225136041641, -0.0871809795498848, 0.13269245624542236, 0.07511357963085175, 0.037934560328722, -0.1009807139635086, -0.1172821968793869, -0.1829659640789032, 0.2963913381099701, 0.06792517006397247, 0.04359157755970955, -0.17413130402565002, 0.2145262360572815], [0.08157385140657425, 0.12721064686775208, -0.046672794967889786, 0.06475751847028732, -0.018994707614183426, 0.020076144486665726, 0.15839217603206635, -0.1155666783452034, -0.08450715988874435, -0.15148194134235382, -0.044260673224925995, 0.06626168638467789, -0.15816949307918549, 0.05995989963412285, -0.31042808294296265, -0.006039578467607498, -0.08842001110315323, -0.13765402138233185, -0.25088027119636536, 0.04039430618286133], [-0.012789903208613396, 0.7139694690704346, -0.2871812880039215, 0.027539657428860664, 0.28005534410476685, 0.16332916915416718, -0.6346534490585327, 1.338836669921875, -0.4319581687450409, 0.7476924657821655, -0.20206142961978912, -0.018398409709334373, -0.4655081331729889, 0.09022147208452225, 0.2797337472438812, 0.10079950094223022, 0.7400000691413879, 0.4305846095085144, -0.8535972237586975, -0.3260304927825928], [-0.045975834131240845, -0.09051898866891861, 0.16399826109409332, -0.08082279562950134, -0.1321823000907898, 0.07069091498851776, -0.33378303050994873, 0.22273969650268555, -0.17218853533267975, 0.2502613961696625, 0.1476278156042099, -0.03429548069834709, -0.03998648747801781, -0.33317309617996216, -0.4970799684524536, 0.13331438601016998, -0.22215254604816437, 0.36783748865127563, -0.42562350630760193, 0.05365629494190216], [-0.05758357048034668, -0.12274417281150818, 0.10805999487638474, 0.09607892483472824, -0.12796173989772797, -0.08522114902734756, 0.0070892502553761005, 0.02405773103237152, 0.005613031797111034, -0.1372578740119934, 0.1855483055114746, 0.14611707627773285, -0.12718147039413452, -0.05621293932199478, -0.30140194296836853, -0.021802188828587532, 0.2560206353664398, -0.062005363404750824, -0.4639752507209778, 0.1207018569111824], [-0.44191640615463257, -0.1746928095817566, -0.03715613856911659, 0.018720194697380066, 0.15971539914608002, 0.0039215306751430035, 0.15268529951572418, -0.6526924967765808, 0.21848617494106293, -0.3087298572063446, 0.06695378571748734, -0.18469884991645813, 0.10235168039798737, 0.050066616386175156, -0.06791304051876068, -0.1759224236011505, 0.08240338414907455, 0.2512184679508209, -0.04208666831254959, 0.08964894711971283], [0.24088406562805176, -0.05780931934714317, -0.14447496831417084, -0.03430801257491112, 0.24878239631652832, 0.02325425110757351, 0.2225143313407898, 0.2850107252597809, -0.005755431484431028, 0.03314073756337166, 0.0006359558319672942, 0.8507096767425537, -0.05437416955828667, 0.009213854558765888, -0.47386181354522705, 0.04663034901022911, 0.09540095925331116, 0.12715363502502441, -0.6506179571151733, -0.28055891394615173], [-0.09577015042304993, -0.14781329035758972, -0.11379368603229523, 0.0946267768740654, -0.010986043140292168, 0.06715866923332214, -0.15313221514225006, 0.8962375521659851, 0.04775810241699219, 0.31621482968330383, 0.4355103671550751, 0.14599117636680603, 0.22439368069171906, 0.033457618206739426, 0.027961861342191696, 0.03490709140896797, 0.11522071808576584, 0.6816179156303406, -0.15983445942401886, 0.031939420849084854], [-0.27539530396461487, -0.2314920872449875, 0.10649587213993073, -0.0970233827829361, -0.039038851857185364, -0.0433008186519146, 0.0007681613205932081, -0.3832053244113922, 0.0043676551431417465, 0.2076585739850998, -0.11651254445314407, -0.05454878881573677, -0.02550658956170082, -0.045134250074625015, -0.062149155884981155, 0.17260967195034027, -0.17898914217948914, 0.013935398310422897, 0.00728601822629571, 0.04760579764842987], [0.039208561182022095, 0.0998268723487854, -0.14048202335834503, 0.08319096267223358, 0.16872520744800568, 0.142281174659729, 0.13053351640701294, 0.27819979190826416, -0.29721105098724365, 0.04665444791316986, 0.12267889082431793, 0.22030861675739288, -0.06952203065156937, -0.2838635742664337, -0.7859349846839905, 0.1729639619588852, 0.07661336660385132, 0.042397450655698776, -0.4366391599178314, -0.06636914610862732], [-0.09719377011060715, -0.04176380857825279, -0.04011239483952522, 0.01863430254161358, -0.09747523069381714, -0.0549139641225338, 0.07152001559734344, -0.049606990069150925, -0.0020691680256277323, -0.05070485919713974, 0.11223908513784409, 0.04263870790600777, -0.11174676567316055, -0.060814257711172104, -0.16801419854164124, 0.0017063606064766645, 0.008420489728450775, 0.12951868772506714, -0.20993904769420624, 0.15958796441555023], [-0.22106732428073883, -0.2777590751647949, -0.06783422827720642, -0.01594223454594612, 0.15116830170154572, -0.04670108109712601, 0.14626967906951904, 0.04958371818065643, 0.1401994675397873, -0.01581745781004429, -0.29366469383239746, -0.18948239088058472, -0.017734108492732048, -0.06542056798934937, 0.0001396332518197596, 0.048791706562042236, -0.41001707315444946, -0.001363696064800024, -0.06430283188819885, 0.014289917424321175], [0.06501123309135437, 0.30296385288238525, -0.15414787828922272, -0.2817625105381012, 0.1105475127696991, 0.30912089347839355, -0.2205173820257187, 1.3990354537963867, -0.3558471202850342, 0.10281159728765488, 0.11200206726789474, 0.7289541363716125, 0.09546731412410736, -0.36988234519958496, -0.957145631313324, 0.46060141921043396, 0.25117582082748413, -0.10298053920269012, -0.6634200215339661, -0.29030928015708923], [-0.23924437165260315, -0.05726275593042374, -0.1713111847639084, 0.012544617988169193, 0.27133798599243164, 0.35316744446754456, -0.14322026073932648, -0.12706121802330017, -0.6225849390029907, 0.29538893699645996, -0.18485260009765625, -0.16246618330478668, -0.20614227652549744, -0.10714554786682129, 0.06462220102548599, 0.21794617176055908, -0.015718083828687668, 0.41996094584465027, -0.686201274394989, -0.42819005250930786], [0.06546778976917267, 0.0589248463511467, -0.040573570877313614, -0.03158452361822128, -0.22357816994190216, -0.16394099593162537, 0.16571830213069916, 0.13749556243419647, 0.0027312906458973885, 0.04722017049789429, 0.004191338550299406, -0.14741355180740356, -0.07478570193052292, -0.05401168391108513, -0.19243209064006805, 0.06475381553173065, 0.046566568315029144, -0.061929866671562195, -0.4596189260482788, 0.41596198081970215]], "rec.bias_ih_l0": [0.3808506429195404, 0.5109571218490601, 0.4121522605419159, -0.04199879616498947, -0.2530670166015625, 0.007768253330141306, 0.22914984822273254, -0.08167090266942978, -0.20843541622161865, -1.0968849658966064, -0.18911895155906677, 0.12645554542541504, 0.0835343524813652, -0.04026785120368004, -0.5144752860069275, 0.29910099506378174, 0.05221930891275406, 0.15532298386096954, 0.11739063262939453, -1.1880730390548706, -0.5288159251213074, -0.26595339179039, -0.3011227548122406, -0.08510985225439072, 0.005247509106993675, -0.005633216351270676, 0.14772790670394897, -0.35748931765556335, -0.07858695089817047, 1.5711212158203125, 0.22982686758041382, -0.3856092393398285, -0.22830726206302643, 0.1952158361673355, 0.46223658323287964, 0.060308363288640976, 0.2572496831417084, -0.5807693004608154, 0.4010777771472931, 1.4526287317276, 0.12103109061717987, -0.13288764655590057, -0.10963352769613266, 0.07825755327939987, 0.0003536958829499781, -0.08870157599449158, 0.3399272859096527, -0.07461544126272202, -0.25830382108688354, -0.10787318646907806, -0.2379312664270401, -0.4708077609539032, -0.19280627369880676, 0.0032677599228918552, 0.22592326998710632, 0.04851055517792702, -0.2016979306936264, -0.03791546821594238, -0.13406695425510406, 0.13851298391819, -0.18230891227722168, 0.2894820272922516, 0.4360268712043762, -0.018598005175590515, 0.17078058421611786, 0.14561298489570618, 0.09877939522266388, -0.004216878209263086, 0.0009558644378557801, 0.2874487638473511, -0.07209909707307816, 0.1907673180103302, -0.3425809442996979, -0.14964284002780914, 0.15489131212234497, 0.36468374729156494, 0.015925582498311996, -0.1339324414730072, 0.371298611164093, 0.3874483108520508], "rec.bias_hh_l0": [0.3874703347682953, 0.5104687809944153, 0.4141250252723694, -0.037867601960897446, -0.28909966349601746, -0.013690780848264694, 0.17461155354976654, 0.07441017031669617, -0.08477041125297546, -1.346069097518921, -0.1242344081401825, 0.11773911118507385, 0.06522730737924576, -0.04142993688583374, -0.5324074625968933, 0.300068199634552, 0.015240967273712158, 0.004556585103273392, 0.025311652570962906, -1.3020248413085938, -0.5505386590957642, -0.269354909658432, -0.30391058325767517, -0.08742630481719971, 0.026033202186226845, -0.03759210929274559, 0.2205026000738144, -0.32985517382621765, -0.21900060772895813, 1.3148223161697388, 0.25821101665496826, -0.23080819845199585, -0.08050580322742462, 0.19531194865703583, 0.4061286449432373, 0.06005501747131348, 0.2665500342845917, -0.6686604022979736, 0.380098432302475, 1.3254011869430542, -0.04728852957487106, -0.16752757132053375, -0.2415870726108551, 0.10413577407598495, 0.11036941409111023, -0.08234040439128876, 0.33731624484062195, -0.06460510939359665, -0.037326373159885406, 0.06146731600165367, -0.3550046682357788, -0.18346399068832397, -0.4355259835720062, -0.13743069767951965, 0.14797377586364746, 0.12413719296455383, -0.11301189661026001, -0.05294642969965935, -0.23823465406894684, -0.05433393642306328, -0.1722179353237152, 0.24661508202552795, 0.4309912323951721, -0.018186235800385475, 0.155194953083992, 0.14714296162128448, 0.11300990730524063, 0.10136411339044571, -0.214620903134346, 0.31606242060661316, -0.13126027584075928, 0.23892872035503387, -0.24595734477043152, -0.15443384647369385, 0.15419399738311768, 0.3646929860115051, 0.04705046862363815, -0.02483968622982502, 0.30044904351234436, 0.3744145631790161], "lin.weight": [[0.6917493939399719, 0.04909871891140938, -0.3650308847427368, -0.15812398493289948, -0.04949364811182022, -0.1891486942768097, 0.2587037980556488, -1.5181620121002197, -0.6988114714622498, 0.1992851048707962, 0.013534339144825935, 0.4598411023616791, -0.31328392028808594, 0.07889242470264435, -0.40115267038345337, 0.12281445413827896, -0.1091993972659111, -1.3944530487060547, -0.17360541224479675, -0.015945658087730408]], "lin.bias": [-0.04797476530075073]}}