{"model_data": {"model": "SimpleRNN", "input_size": 2, "skip": 1, "output_size": 1, "unit_type": "LSTM", "num_layers": 1, "hidden_size": 20, "bias_fl": true}, "state_dict": {"rec.weight_ih_l0": [[-0.025035332888364792, 0.8002766370773315], [-0.08010943233966827, 0.40394899249076843], [-0.10242296010255814, 0.4144481420516968], [-0.07569113373756409, 0.05003947392106056], [-0.056359343230724335, 0.009823019616305828], [-0.1749025285243988, 0.2041320651769638], [-0.011431591585278511, -0.034281861037015915], [-0.3400799632072449, 1.6434181928634644], [0.5600133538246155, -0.13491469621658325], [-0.459778755903244, -0.9867363572120667], [0.06704729050397873, -0.19549691677093506], [0.05148523300886154, -0.18854612112045288], [-0.06308983266353607, -0.01636769436299801], [0.006607978139072657, 0.089212566614151], [0.045641545206308365, 0.08256012946367264], [-0.032945919781923294, 0.22165372967720032], [-0.04169715195894241, -0.3839918375015259], [-0.0808025449514389, 0.4611436128616333], [-0.0008184196194633842, 0.054044030606746674], [-0.6263323426246643, -1.0545010566711426], [0.3533673584461212, -0.26043739914894104], [0.08137425035238266, -0.10506320744752884], [-0.04233613610267639, -0.24838921427726746], [-0.05534568428993225, 0.06271237134933472], [-0.1420600712299347, 0.24697136878967285], [-0.2457187920808792, 0.08349892497062683], [-0.025103503838181496, -0.14345188438892365], [-0.17903417348861694, -0.11711572855710983], [-0.07364270836114883, 0.829860270023346], [0.06828176975250244, 1.0608184337615967], [0.09551597386598587, 0.13296733796596527], [-0.11264059692621231, -0.41462257504463196], [-0.07080727815628052, -0.09504148364067078], [-0.012943219393491745, 0.26627451181411743], [-0.03669114410877228, 1.353140115737915], [0.006990343797951937, 0.12352252006530762], [-0.0899847075343132, -0.3253524899482727], [0.41089341044425964, -0.4196932911872864], [0.00814929511398077, 0.27536678314208984], [-0.37898188829421997, 1.133421778678894], [-5.437305927276611, -0.1658414751291275], [-3.1686549186706543, 0.13121163845062256], [0.7816545963287354, 0.41870346665382385], [0.2953811585903168, -0.07122213393449783], [-0.23444655537605286, -0.3581547737121582], [-0.046322137117385864, -0.08500854671001434], [0.5800271034240723, -0.9704874753952026], [-10.020600318908691, 0.1749526858329773], [1.491626501083374, -0.1275983303785324], [-0.8461738228797913, -0.09139882773160934], [-0.24248377978801727, 0.7630164623260498], [-0.4792864918708801, 0.6722871661186218], [0.21334271132946014, -0.06887850910425186], [-0.30412057042121887, -0.022795166820287704], [0.5383210182189941, -0.6444359421730042], [-0.6255951523780823, -0.1023339107632637], [0.046878889203071594, 0.8921869397163391], [6.95518684387207, -0.11249639093875885], [0.21450047194957733, -0.5269082188606262], [-1.059623122215271, 0.15237203240394592], [0.2578198313713074, 0.5394893288612366], [-0.10241951048374176, 0.07483019679784775], [-0.09908187389373779, 0.4464571475982666], [-0.100851871073246, 0.056693799793720245], [-0.12507082521915436, 0.27431491017341614], [-0.26455751061439514, 0.30208078026771545], [-0.37792539596557617, -0.10680467635393143], [-0.5120260715484619, 1.003838062286377], [0.4690971076488495, 0.42953503131866455], [-0.03880433738231659, 0.48097100853919983], [0.267161101102829, -0.21995782852172852], [0.13480453193187714, -0.13507886230945587], [-0.2656232416629791, -0.03621571511030197], [0.04275386780500412, -0.016113588586449623], [0.21928194165229797, 0.3295312821865082], [-0.05765615776181221, 0.2870701253414154], [-0.20686006546020508, -0.4786136746406555], [0.4697186052799225, 0.031231634318828583], [-0.24891869723796844, -0.01567552424967289], [-0.1285187155008316, 0.43479686975479126]], "rec.weight_hh_l0": [[-0.2783959209918976, -0.3134087026119232, 0.043965425342321396, 0.12137474119663239, -0.12230631709098816, 0.1580810844898224, -0.14735223352909088, 0.032845500856637955, -0.05017057806253433, -0.14060992002487183, 0.13403521478176117, 0.4582147002220154, -0.22485409677028656, -0.01646353490650654, -0.7577537894248962, 0.14569641649723053, 0.4243273138999939, 0.20839785039424896, -0.5378047823905945, 0.26616084575653076], [0.056955937296152115, -0.019244108349084854, 0.013740192167460918, 0.008254694752395153, -0.014701761305332184, 0.024097366258502007, 0.02574819140136242, 0.2094205915927887, -0.1566353440284729, -0.03588265925645828, -0.01178120169788599, 0.060679782181978226, -0.17694544792175293, -0.036667823791503906, -0.2364937663078308, 0.1013951525092125, 0.13776588439941406, 0.05581550672650337, -0.4729439318180084, 0.08475222438573837], [-0.06754952669143677, -0.12109427899122238, -0.14829325675964355, 0.1328238844871521, -0.15800605714321136, -0.08622697740793228, 0.09536202251911163, -0.09809678047895432, 0.16747531294822693, -0.1777789294719696, -0.019396338611841202, -0.18466034531593323, -0.061216022819280624, 0.10511738806962967, -0.023587137460708618, -0.07393840700387955, 0.1794322282075882, 0.02231183834373951, -0.32015401124954224, 0.2782585024833679], [0.008638706989586353, 0.018452323973178864, 0.07917022705078125, -0.02875887230038643, -0.011326421983540058, 0.029092684388160706, -0.07813423871994019, 0.245231032371521, -0.11130846291780472, 0.1216399297118187, 0.009970905259251595, 0.2528471052646637, -0.08941064029932022, -0.024303749203681946, -0.3610629737377167, 0.18304194509983063, -0.011464599519968033, 0.002484561875462532, -0.06927867233753204, 0.04967286065220833], [-0.12495347112417221, -0.04517468437552452, -0.003303022123873234, 0.05570058524608612, -0.1786421239376068, -0.0966113805770874, 0.0398513600230217, 0.12073955684900284, 0.16884122788906097, 0.14421652257442474, 0.061945896595716476, 0.23709329962730408, 0.004955679178237915, -0.027033226564526558, -0.2920370101928711, 0.14920714497566223, 0.11191686242818832, -0.21156063675880432, 0.10893403738737106, 0.23747311532497406], [-0.018596496433019638, 0.1124323159456253, -0.02410515584051609, -0.03431669995188713, -0.11952490359544754, -0.029586559161543846, -0.047677963972091675, -0.05782660096883774, -0.0717640370130539, 0.09993128478527069, 0.058378059417009354, 0.052389319986104965, -0.05284729599952698, -0.08471915125846863, -0.19944709539413452, 0.28091126680374146, 0.03605562821030617, 0.016219817101955414, -0.08068924397230148, 0.1450483798980713], [-0.0858793556690216, -0.02370574325323105, -0.01272763404995203, 0.05574306473135948, -0.03771774843335152, 0.04735548794269562, 0.10094067454338074, -0.01696084812283516, 0.0023015423212200403, -0.09932971000671387, -0.06666947156190872, -0.006519207265228033, -0.07414110004901886, 0.05215638875961304, -0.19123835861682892, -0.006229574326425791, -0.05092252418398857, -0.10685553401708603, -0.18066412210464478, 0.0065613663755357265], [-0.5803472399711609, 0.1077020987868309, 0.34833472967147827, -0.018459299579262733, 0.10323914140462875, 0.14167650043964386, -0.6905339956283569, 0.31324562430381775, -0.05421238765120506, 0.11350467801094055, 0.44852185249328613, 0.9882131218910217, -0.2584650218486786, -0.15618307888507843, -0.9675202965736389, -0.11756060272455215, 0.8346824049949646, 0.25803619623184204, -0.597513735294342, 0.21179009974002838], [-0.47797679901123047, -0.2633277475833893, 0.263073205947876, -0.15528161823749542, -0.07778330892324448, 0.04034217819571495, -0.3190750777721405, -0.7118400931358337, -0.2006978690624237, 0.23999683558940887, -0.10181374102830887, -0.002850994234904647, -0.007326592691242695, -0.26350080966949463, -0.15308617055416107, -0.1422768086194992, -0.15859511494636536, 0.2163826823234558, -0.16221369802951813, -0.13975273072719574], [-0.6443271636962891, 1.274645447731018, 0.12431551516056061, -0.46450480818748474, -0.19935205578804016, -0.13999177515506744, -0.028031280264258385, -0.21184879541397095, 0.5472872257232666, -0.19442495703697205, 0.41929876804351807, 0.6549564599990845, 0.4834536910057068, -0.005017219576984644, 0.3539620637893677, -0.2024238109588623, 0.30645671486854553, -0.7490652799606323, 1.0572121143341064, 0.26583513617515564], [0.1489136666059494, -0.0015618887264281511, 0.032200369983911514, -0.017729897052049637, 0.05082538351416588, -0.07204572856426239, 0.0977778285741806, -0.005161697510629892, 0.11505785584449768, -0.19832172989845276, 0.07960259914398193, -0.14776094257831573, 0.00703758280724287, 0.11371365189552307, -0.0015725711127743125, 0.03606734052300453, 0.09567084163427353, -0.13414359092712402, 0.04411190003156662, 0.21007098257541656], [-0.32042983174324036, 0.09426248073577881, 0.03761235252022743, -0.21811698377132416, 0.2638862729072571, -0.06972531229257584, 0.1024290919303894, -0.15732301771640778, -0.2493627667427063, 0.3700072467327118, -0.20552927255630493, 0.2167699933052063, -0.02230871468782425, -0.1056574210524559, 0.16589638590812683, 0.09971560537815094, 0.1182435154914856, 0.4324093759059906, -0.5124254822731018, -0.4944499135017395], [-0.13506148755550385, -0.09321687370538712, -0.03087938390672207, 0.029522709548473358, -0.0035017100162804127, 0.02984790876507759, -0.06739182025194168, 0.4359447658061981, 0.08215103298425674, 0.1368388831615448, 0.10872066766023636, 0.0259570125490427, 0.01324781309813261, -0.025835901498794556, -0.08164429664611816, 0.028917260468006134, 0.04461987316608429, 0.31545352935791016, -0.29476720094680786, 0.0012307132128626108], [-0.03776220977306366, -0.04608902707695961, 0.017634432762861252, -0.024189729243516922, -0.006917967926710844, 0.021137671545147896, -0.02055128663778305, -0.021057650446891785, -0.011910264380276203, 0.06368421018123627, -0.021460937336087227, -0.08667322993278503, -0.03623587265610695, 0.011934037320315838, -0.045211128890514374, 0.051744479686021805, -0.18814468383789062, -0.05285022780299187, -0.07052773982286453, 0.016128594055771828], [0.19405913352966309, 0.2192261517047882, -0.012758862227201462, 0.0902206227183342, 0.15670683979988098, 0.17629466950893402, -0.06655867397785187, 0.1801881045103073, -0.16774462163448334, -0.08611629158258438, 0.38809600472450256, 0.17887082695960999, 0.0003963024646509439, 0.005069793201982975, -0.4164818525314331, 0.35183754563331604, -0.053505826741456985, -0.05358785763382912, -0.14655189216136932, -0.1380806416273117], [-0.11692211031913757, -0.029567895457148552, -0.04041508585214615, 0.022619327530264854, -0.06027461588382721, -0.01879866048693657, 0.043574947863817215, -0.040833741426467896, 0.008760150521993637, -0.04513983055949211, 0.0779765248298645, 0.06177666038274765, -0.07878319174051285, -0.04844805225729942, -0.1645665168762207, 0.017572445794939995, -0.004295976832509041, 0.10053876787424088, -0.15527799725532532, 0.10754930973052979], [-0.09153367578983307, -0.09046053886413574, -0.013635298237204552, -0.0060685621574521065, 0.08511250466108322, -0.014828972518444061, 0.07000728696584702, 0.08385703712701797, 0.016518887132406235, 0.03148459270596504, -0.12892256677150726, -0.06429845839738846, -0.029932264238595963, -0.06947939097881317, -0.002904630498960614, 0.08940634876489639, -0.2501830756664276, 0.03624122217297554, -0.03662995249032974, -0.027352480217814445], [0.10809466987848282, 0.022214697673916817, 0.041688382625579834, 0.06339572370052338, -0.12526245415210724, 0.11732137203216553, -0.06916680932044983, 0.7209484577178955, -0.2549325227737427, -0.1500348299741745, 0.3152715265750885, 0.7830148935317993, -0.30330491065979004, -0.12174680829048157, -1.1266509294509888, 0.23846542835235596, 0.38601863384246826, -0.033539798110723495, -0.9634979963302612, 0.14035890996456146], [-0.043142013251781464, -0.026322606950998306, 0.004117778968065977, -0.038339849561452866, -0.010088740848004818, -0.09510980546474457, 0.13096196949481964, 0.1329263150691986, 0.0328613743185997, 0.0318678542971611, 0.0057242740876972675, -0.01674659550189972, -0.0847180187702179, -0.022301796823740005, -0.14270906150341034, 0.07646296918392181, -0.09881588816642761, 0.05209245905280113, -0.0852062925696373, 0.1228489801287651], [0.5381904244422913, 0.6243982315063477, -0.005335341673344374, -0.11504330486059189, -0.15764257311820984, -0.2270178347826004, -0.03252990171313286, 0.6547895669937134, 0.33094385266304016, -0.0989404171705246, 0.27730631828308105, 0.039943043142557144, 0.4399677515029907, 0.21595118939876556, 0.24061566591262817, -0.08397222310304642, -0.32062989473342896, -0.8787952065467834, 0.8628370761871338, -0.03855764865875244], [-0.29984408617019653, -0.2392011433839798, -0.12948985397815704, -0.0854339748620987, 0.09203800559043884, 0.14241592586040497, -0.044354528188705444, -0.720743715763092, -0.03627730533480644, 0.14726102352142334, 0.18998831510543823, -0.33850157260894775, 0.13711480796337128, -0.06406155228614807, 0.09997567534446716, 0.09587864577770233, 0.13486707210540771, 0.06736035645008087, -0.037976354360580444, 0.060321006923913956], [0.3698490262031555, 0.12523947656154633, 0.10373340547084808, -0.0886373370885849, 0.005318846553564072, -0.04094983637332916, -0.06325739622116089, 0.3485053777694702, -0.1060054823756218, 0.07698523998260498, 0.06971610337495804, -0.026178643107414246, -0.01282412838190794, 0.07488775253295898, 0.0004227583413012326, -0.07477772980928421, 0.10419240593910217, -0.08849789947271347, -0.02194991707801819, -0.04232777655124664], [0.06832997500896454, -0.023508219048380852, 0.04851314052939415, 0.011368523351848125, -0.06732314825057983, -0.11959759145975113, 0.13344985246658325, -0.20646703243255615, 0.21941128373146057, -0.03503202646970749, -0.1193239688873291, 0.11074884235858917, 0.05179920792579651, 0.12079787999391556, -0.01727822609245777, -0.06526406109333038, -0.17076465487480164, -0.05667402595281601, 0.40821385383605957, 0.17372004687786102], [0.06286560744047165, 0.056377820670604706, 0.12845052778720856, -0.05481492727994919, -0.01648290455341339, 0.01952243410050869, -0.12526828050613403, 0.3176228404045105, -0.11057276278734207, 0.11358410120010376, 0.017327280715107918, 0.1912817806005478, -0.0611521452665329, 0.034505851566791534, -0.28351891040802, 0.03813668340444565, 0.0013043138897046447, -0.07271033525466919, -0.0181913822889328, -0.001983301481232047], [-0.1210138201713562, -0.045198142528533936, -0.010354826226830482, -0.025082169100642204, -0.38882723450660706, -0.3016670048236847, 0.09320007264614105, 0.04659181833267212, 0.2011178880929947, 0.2026556134223938, 0.041159167885780334, 0.06925562024116516, -0.010496457107365131, -0.07328750193119049, -0.1669033318758011, 0.20305980741977692, 0.13399958610534668, -0.11996354907751083, 0.0635182186961174, 0.423567533493042], [-0.06387288868427277, 0.11289631575345993, -0.033337682485580444, -0.08083824813365936, -0.22384773194789886, -0.12632612884044647, 0.011614874936640263, -0.133006289601326, -0.11365750432014465, 0.18220661580562592, -0.005424333270639181, -0.04330449178814888, -0.027537455782294273, -0.08697880059480667, -0.04062613844871521, 0.2942482829093933, 0.07395478338003159, 0.0838807001709938, 0.005127012263983488, 0.21981441974639893], [-0.04286915436387062, 0.0219563078135252, -0.00952985230833292, 0.04920552670955658, -0.04651797562837601, 0.03534766659140587, 0.14513655006885529, 0.031178224831819534, 0.02420365996658802, -0.11057335138320923, -0.157249316573143, -0.022264335304498672, -0.050272952765226364, 0.07031719386577606, -0.22799260914325714, -0.057120490819215775, -0.12094562500715256, -0.14673477411270142, -0.11404968798160553, 0.010179798118770123], [0.11173982173204422, 0.3163464069366455, -0.05722362548112869, 0.07801739126443863, 0.03761225938796997, -0.10421072691679001, -0.2662299871444702, 0.001972221303731203, 0.3198454678058624, 0.08005090802907944, -0.2646448016166687, 0.7304044365882874, -0.13780224323272705, 0.0503561794757843, 0.030991798266768456, 0.1654892861843109, 0.23395134508609772, 0.21005074679851532, 0.24166595935821533, 0.22523225843906403], [0.20372094213962555, 0.1344451904296875, -0.12192728370428085, 0.09190995246171951, -0.07169896364212036, 0.18809445202350616, -0.4162331819534302, 0.0931985080242157, -0.2998591363430023, 0.03281807154417038, 0.08079521358013153, 0.03269191086292267, 0.15960988402366638, -0.12147407233715057, 0.11209169775247574, -0.07184510678052902, 0.24518930912017822, 0.06280963867902756, -0.7336911559104919, -0.2117270678281784], [-0.28519803285598755, -0.41456422209739685, -0.06339249759912491, -0.11939083784818649, 0.22319954633712769, -0.169405996799469, 0.11377739906311035, -0.26955708861351013, -0.38905033469200134, -0.20805630087852478, -0.09625218063592911, -0.36431434750556946, -0.7886485457420349, 0.06284347921609879, 0.16008400917053223, -0.005835507996380329, -0.2964518070220947, 0.8670228123664856, -1.3250024318695068, -0.11774929612874985], [-0.20073829591274261, -0.21313518285751343, -0.12155737727880478, 0.01167469285428524, 0.048277027904987335, -0.05747265741229057, 0.13365298509597778, -0.44591987133026123, 0.19465301930904388, -0.2537906765937805, 0.10683824121952057, -0.21061035990715027, -0.052651986479759216, 0.11249210685491562, -0.12522073090076447, -0.06383734196424484, 0.180344820022583, 0.20522958040237427, -0.2556574046611786, 0.31929099559783936], [0.08495623618364334, -0.007820713333785534, -0.062107693403959274, -0.17852157354354858, 0.19479039311408997, -0.07066702097654343, 0.12523184716701508, 0.3798043429851532, -0.1656678467988968, 0.23039861023426056, -0.15478934347629547, 0.20666354894638062, -0.005762533284723759, -0.033084385097026825, -0.1453702747821808, -0.0010080207139253616, 0.2872430980205536, 0.06622012704610825, -0.2980138957500458, -0.3127425014972687], [-0.150694340467453, -0.06200520694255829, -0.09760682284832001, 0.04201878234744072, -0.013962664641439915, 0.017806585878133774, -0.05030645802617073, 0.41698941588401794, 0.08149202913045883, 0.13996903598308563, 0.10029119998216629, 0.00805626343935728, 0.11324117332696915, 0.036081068217754364, 0.0002298315812367946, -0.00861887726932764, 0.06481143087148666, 0.3104867935180664, -0.10382378101348877, -0.028968611732125282], [-0.13884878158569336, -0.0650797113776207, -0.03315117582678795, -0.025904245674610138, -0.01741916686296463, 0.016264403238892555, -0.0363643653690815, -0.1509077548980713, 0.026815032586455345, 0.11332622170448303, 0.01301166694611311, -0.08711178600788116, -0.061756059527397156, -0.005044435616582632, -0.13926683366298676, 0.11706658452749252, -0.2058129608631134, 0.004873674362897873, -0.1800556629896164, 0.06305842846632004], [-0.42643895745277405, -0.0726187601685524, -0.06320865452289581, 0.1319945901632309, 0.026008708402514458, 0.1305236667394638, 0.08020500838756561, -0.2608081102371216, -0.06707733869552612, -0.1663246750831604, 0.5211971998214722, 0.3831382393836975, -0.3049546778202057, -0.17923054099082947, -1.2303187847137451, 0.2395368218421936, 0.16580794751644135, 0.3023499548435211, -0.8398568630218506, 0.357469767332077], [-0.15637999773025513, 0.008138276636600494, -0.051537252962589264, -0.013105874881148338, -0.10167382657527924, -0.029156548902392387, 0.02759063057601452, -0.0648217424750328, 0.04494495317339897, -0.02638324908912182, 0.20656441152095795, 0.04064730554819107, -0.04455135017633438, -0.10071688890457153, -0.08915726840496063, -0.08370375633239746, 0.060050930827856064, 0.06213206797838211, -0.06845609098672867, 0.10468316823244095], [-0.024450767785310745, -0.0650961622595787, -0.03958679735660553, -0.026401514187455177, 0.06252703815698624, -0.061378363519907, 0.1431342214345932, 0.17203058302402496, -0.005642001051455736, 0.0010042848298326135, -0.16057398915290833, -0.14358966052532196, -0.039524372667074203, -0.04204893112182617, 0.061035700142383575, 0.09790689498186111, -0.356058806180954, 0.01666497439146042, -0.039418432861566544, 0.0312543623149395], [-0.3017086982727051, -0.17458513379096985, -0.4890318214893341, -0.25085049867630005, 0.04281054437160492, 0.10667687654495239, 0.12470515072345734, 0.11296943575143814, -0.32902446389198303, 0.1314331293106079, 0.061422910541296005, 0.2279074639081955, 0.09841151535511017, -0.07263662666082382, -0.08237459510564804, 0.2056662142276764, 0.31554025411605835, 0.2391469031572342, -0.05629996582865715, 0.0485321581363678], [-0.11873363703489304, -0.0661112442612648, -0.010399946942925453, -0.06698233634233475, -0.02950810268521309, -0.14872676134109497, 0.1713056117296219, 0.08065110445022583, 0.08215063065290451, 0.06635481864213943, -0.0007925198879092932, -0.015595977194607258, -0.1218201071023941, -0.049372389912605286, -0.25430622696876526, 0.1372196078300476, -0.09422244876623154, 0.07881177961826324, -0.2734820544719696, 0.20190726220607758], [-0.06229837238788605, -0.11312341690063477, -0.30732792615890503, -0.02488178014755249, -0.05115533247590065, -0.018019571900367737, 0.366295725107193, -0.5120002031326294, -0.5971003770828247, -0.1695162057876587, -0.22201001644134521, -0.4264925718307495, -0.35687798261642456, -0.006453303620219231, -0.17053604125976562, 0.2998097836971283, -0.1715897172689438, 0.43833133578300476, -1.6097139120101929, 0.5858264565467834], [-0.6663868427276611, 0.32190996408462524, 0.38460829854011536, 0.16241100430488586, 0.5415501594543457, 0.33561915159225464, -0.4588085412979126, 0.3248744010925293, 0.25989940762519836, -0.7739947438240051, -0.10325568914413452, 0.033294547349214554, -0.0255772452801466, -0.09359628707170486, 0.556061863899231, -0.14395231008529663, 0.29954785108566284, 0.03721274435520172, 0.1817929744720459, -0.6617980003356934], [0.0602845773100853, -0.16440890729427338, 0.2712031602859497, -0.14618901908397675, 0.32336893677711487, 0.17379264533519745, -0.13277244567871094, -0.23330791294574738, -0.250867635011673, -0.3848608434200287, -0.1167987510561943, -0.060195498168468475, -0.2011692076921463, 0.020064547657966614, 0.04725595563650131, -0.17575085163116455, 0.032899562269449234, 0.10163910686969757, 0.14006869494915009, -0.6181032657623291], [0.8190073370933533, 0.273194819688797, -1.5076748132705688, -0.06779474020004272, -0.18695248663425446, -0.4552057981491089, -0.1951024830341339, 0.7243216633796692, -0.09908128529787064, -0.31080979108810425, 0.1318962574005127, 0.31702500581741333, 0.05701654776930809, -0.10034778714179993, 0.032006967812776566, -0.043682556599378586, 0.16126632690429688, 0.2295403927564621, -0.07480587065219879, -0.036024533212184906], [-0.28164777159690857, -0.057898543775081635, 0.1548147350549698, 0.07976144552230835, -0.01061280257999897, 0.2061791718006134, -0.10827580839395523, -0.2016211599111557, 0.15504170954227448, -0.4156840443611145, 0.21900899708271027, 0.151932492852211, 0.04084005951881409, 0.09125269949436188, -0.029569806531071663, 0.07654636353254318, 0.006615309044718742, -0.46080201864242554, 0.04252823442220688, -0.027090532705187798], [-0.17106151580810547, -0.053330838680267334, -0.06746990233659744, -0.018647335469722748, 0.06650366634130478, 0.15552212297916412, 0.10423030704259872, 0.21814484894275665, 0.26644831895828247, 0.10770893841981888, -0.22581183910369873, -0.47320908308029175, -0.054837897419929504, -0.022911855950951576, -0.5971800684928894, 0.017004771158099174, -0.20159921050071716, 0.24298271536827087, 0.03067546710371971, -0.7776007652282715], [-0.21299876272678375, -0.07258063554763794, 0.08120191097259521, 0.012249813415110111, -0.08200109750032425, -0.2063361555337906, -0.18809659779071808, -0.37692639231681824, -0.46480634808540344, -0.6023291349411011, -0.15002693235874176, 0.3856962323188782, -0.05823468416929245, 0.059409454464912415, -0.09130203723907471, -0.007616371847689152, 0.03765294328331947, -0.32323282957077026, -0.1803840547800064, -0.35437482595443726], [-0.046579793095588684, 0.1270156353712082, -0.17341822385787964, 0.07983531057834625, -0.23728954792022705, 0.02372024580836296, 0.2448621541261673, 0.3703908920288086, 0.33870741724967957, 0.1710299551486969, -0.09333176910877228, -0.14115117490291595, 0.13811296224594116, 0.05341782793402672, -0.2595027983188629, -0.02221984975039959, -0.01797623373568058, 0.1812632977962494, -0.07421624660491943, 0.47631576657295227], [0.9521963596343994, 0.6406013369560242, -0.12396262586116791, 0.1086094081401825, 0.8945075273513794, 0.5348700284957886, -0.3634505867958069, -0.1777769923210144, -0.062249429523944855, -1.232763409614563, 0.40862318873405457, 0.5183579921722412, 0.34317511320114136, 0.009057121351361275, 0.1363479197025299, -0.4352017045021057, 0.341774046421051, -0.15527814626693726, -0.21966935694217682, -1.3251925706863403], [0.31896236538887024, -0.3479260802268982, 0.41631242632865906, -0.26456162333488464, -0.045343637466430664, -0.4823257625102997, 0.18100379407405853, -0.8528203368186951, -0.37166598439216614, -0.3726459741592407, -0.21764066815376282, -0.2841433584690094, -0.33561021089553833, 0.02030557580292225, -0.7409707903862, -0.009256537072360516, -0.18424604833126068, -0.21174518764019012, 0.2095581591129303, 0.65146404504776], [-0.08759050816297531, 0.08674869686365128, 0.3434900939464569, -0.08965812623500824, 0.2575707733631134, -0.07173489034175873, -0.09121021628379822, 0.9803723096847534, 0.18255427479743958, 0.28278568387031555, 0.11470165103673935, -0.06461050361394882, -0.3006075918674469, 0.0214980598539114, 0.20649392902851105, -0.11088778078556061, 0.10537345707416534, 0.44434165954589844, -0.16427059471607208, 0.08603008836507797], [-0.06923268735408783, 0.04327329993247986, 0.021625371649861336, -0.02984721213579178, 0.004224275704473257, -0.00346696306951344, -0.05254890397191048, -0.24481427669525146, -0.048655733466148376, -0.7228742241859436, 0.13799461722373962, -0.02742386981844902, 0.20742306113243103, -0.09785226732492447, -0.4518973231315613, -0.1289762556552887, -0.30660757422447205, 0.32269832491874695, 0.24946542084217072, 0.32656681537628174], [-0.4278697967529297, -0.011551992036402225, 0.17563576996326447, 0.14395971596240997, 0.2867951989173889, 0.19839875400066376, -0.09060046076774597, 0.4007870852947235, -0.0008978256373666227, -0.4287703335285187, 0.3509618639945984, 0.04577616974711418, 0.2747441232204437, 0.021499479189515114, -0.8161724805831909, -0.21884752810001373, -0.2458614706993103, 0.4769093990325928, 0.48843979835510254, -0.3041464388370514], [0.23931720852851868, 0.226120263338089, 0.06042115390300751, -0.0322287417948246, -0.04801856353878975, -0.1349984109401703, 0.10736864060163498, -0.5777440071105957, -0.10050519555807114, -0.15606610476970673, -0.1482493132352829, 0.08154215663671494, -0.14858469367027283, 0.0012955955462530255, -0.013563587330281734, 0.019175076857209206, -0.22595803439617157, -0.5023296475410461, 0.23229262232780457, 0.058926913887262344], [0.03678039833903313, -0.10547097027301788, -0.04078342020511627, 0.14964498579502106, 0.09845639020204544, 0.20675663650035858, 0.12450726330280304, -0.1988854706287384, 0.07313203066587448, -0.7867695689201355, -0.038467176258563995, -0.14840631186962128, 0.2134396731853485, 0.32550984621047974, -0.02899482473731041, -0.10895958542823792, 0.015342109836637974, 0.09218773990869522, 0.132430762052536, 0.2793496251106262], [0.44721296429634094, -0.3061152696609497, -0.2673092782497406, 9.132348350249231e-05, 0.39426136016845703, 0.1091451570391655, 0.597165048122406, 0.2572384774684906, -0.13599231839179993, 0.3255665898323059, -0.6249592900276184, -0.2871268689632416, -0.18474815785884857, -0.20117789506912231, -0.3927290737628937, 0.13080650568008423, 0.39129194617271423, -0.32911866903305054, -0.166416198015213, -0.15699970722198486], [0.17021679878234863, 0.2524127960205078, -0.4041913151741028, 0.1119072362780571, -0.11751557141542435, 0.07826902717351913, 0.07524055242538452, -0.14848636090755463, -0.19073957204818726, 0.31104394793510437, -0.22594745457172394, 0.3804674446582794, -0.0222358088940382, -0.010089150629937649, -0.07320927828550339, -0.047783058136701584, 0.04215805232524872, 0.24862155318260193, 0.1486404836177826, 0.49256664514541626], [-0.15455250442028046, 0.016679637134075165, 0.0655924454331398, -0.04873146489262581, -0.11819522827863693, -0.035803135484457016, -0.2864176630973816, -0.0021861407440155745, 0.028320038691163063, -0.024702176451683044, 0.17910894751548767, 0.2363307923078537, -0.12205493450164795, 0.11061195284128189, -0.13260535895824432, 0.020193547010421753, 0.34135183691978455, -0.11682361364364624, -0.3451707065105438, 0.05681176483631134], [-2.3797061443328857, -0.6823939085006714, 0.09770579636096954, -0.08480743318796158, -0.4567519724369049, -0.7109712958335876, 0.5353820323944092, 0.321998655796051, -0.727468729019165, 0.5099493265151978, -0.5109779834747314, -0.5986855626106262, -0.19357898831367493, 0.08928874135017395, -0.1424330770969391, 0.42090365290641785, -0.09441612660884857, 0.024715516716241837, -0.23075874149799347, 0.6554812788963318], [0.16539619863033295, 0.0015271140728145838, 0.09524044394493103, 0.021692967042326927, 0.021954866126179695, 0.0006798904505558312, 0.19822052121162415, 0.04922746121883392, -0.031364135444164276, -0.11086082458496094, -0.03716067597270012, -0.02501835860311985, 0.10522573441267014, 0.08413422852754593, 0.0374237559735775, 0.07912337779998779, -0.3732200562953949, -0.0664583072066307, 0.35360395908355713, -0.021349778398871422], [-0.26687297224998474, 0.7719393968582153, -0.3495684266090393, -0.20217733085155487, 0.34005481004714966, 0.44697335362434387, -0.15563006699085236, -0.12173748016357422, 0.44265830516815186, 0.29500317573547363, 0.0888984352350235, 0.03462082892656326, 0.25459975004196167, 0.39964619278907776, 0.036243245005607605, 0.1735924780368805, 0.04921426996588707, -0.5352959632873535, -0.2863810956478119, 0.08999697118997574], [-0.6356379985809326, -0.42330554127693176, 0.28946876525878906, -0.14293941855430603, 0.13101118803024292, 0.23983848094940186, -0.3769071102142334, 0.03654969483613968, -0.5285294055938721, 0.19122782349586487, -0.002692778129130602, 0.7171474695205688, -0.03748231753706932, -0.24281977117061615, -0.648501455783844, 0.14237917959690094, 0.2492823749780655, 0.6479957103729248, -0.4265720844268799, -0.23643510043621063], [0.5302086472511292, 0.21450519561767578, 0.02404465526342392, -0.0538458377122879, 0.08309397101402283, 0.07972094416618347, -0.017968064174056053, 0.6105923652648926, -0.5078217387199402, 0.09506618976593018, -0.1266821175813675, 0.08470819145441055, -0.22378139197826385, -0.023878907784819603, -0.29518526792526245, 0.17218366265296936, 0.08020190894603729, 0.02984652668237686, -0.5222575068473816, -0.012531929649412632], [-0.03684104606509209, -0.04687881097197533, -0.10107208788394928, 0.12057360261678696, -0.11484186351299286, -0.05503210797905922, 0.04761786758899689, -0.17878055572509766, 0.04669400677084923, -0.14204101264476776, -0.06203797832131386, -0.12686647474765778, -0.09834980964660645, 0.05073476955294609, -0.08777403086423874, -0.042243536561727524, 0.1651352196931839, 0.0960274264216423, -0.33919304609298706, 0.2309543788433075], [-0.0009069513762369752, 0.056801918894052505, 0.11618715524673462, -0.06285567581653595, -0.013037423603236675, 0.023814138025045395, -0.0832471251487732, 0.3639531135559082, -0.1054486557841301, 0.14975683391094208, 0.007517308462411165, 0.2268373817205429, -0.08728370815515518, -0.028071392327547073, -0.3459719717502594, 0.23296836018562317, -0.01082664541900158, -0.07770907878875732, -0.09661589562892914, 0.044889990240335464], [-0.024277934804558754, -0.07258688658475876, 0.029172223061323166, -0.050830159336328506, -0.2715904712677002, -0.2153988778591156, 0.10191065818071365, 0.15268029272556305, 0.09091967344284058, 0.13774435222148895, 0.07711733132600784, 0.06933378428220749, -0.086469866335392, -0.05191527307033539, -0.1521003246307373, 0.20562562346458435, 0.10569820553064346, -0.051152244210243225, -0.13541744649410248, 0.33326759934425354], [-0.052682045847177505, 0.09906667470932007, -0.06341615319252014, -0.05296574532985687, -0.18087729811668396, -0.09554967284202576, -0.018982643261551857, -0.10568001866340637, -0.09584609419107437, 0.11462842673063278, 0.08036462217569351, 0.03607648238539696, -0.10734454542398453, -0.10702437162399292, -0.1815836876630783, 0.29381635785102844, 0.07071202993392944, 0.044832684099674225, -0.17814083397388458, 0.2122122198343277], [0.08606615662574768, 0.12251865118741989, -0.04581763967871666, 0.07177407294511795, -0.020455650985240936, 0.022620487958192825, 0.15637871623039246, -0.11571913212537766, -0.09958159178495407, -0.15053728222846985, -0.04653403162956238, 0.06672519445419312, -0.16152523458003998, 0.07572049647569656, -0.3035549819469452, 0.02721819095313549, -0.08692985773086548, -0.14723122119903564, -0.24690209329128265, 0.03523353487253189], [0.00879765022546053, 0.7121986746788025, -0.29762792587280273, 0.03580518439412117, 0.27596086263656616, 0.16522032022476196, -0.6355471611022949, 1.340557336807251, -0.4175390601158142, 0.7488059401512146, -0.20202170312404633, -0.015899362042546272, -0.46628713607788086, 0.09501690417528152, 0.2764747738838196, 0.10672993957996368, 0.7324584126472473, 0.4380732476711273, -0.8501534461975098, -0.31815746426582336], [-0.03916095197200775, -0.0866156741976738, 0.1670220047235489, -0.07763941586017609, -0.14058443903923035, 0.07493340224027634, -0.3383422791957855, 0.22938835620880127, -0.18428635597229004, 0.24407213926315308, 0.1509672999382019, -0.0331132598221302, -0.04464201256632805, -0.33720332384109497, -0.4946119785308838, 0.15268324315547943, -0.21954013407230377, 0.393034964799881, -0.4260006248950958, 0.05896267667412758], [-0.048843447118997574, -0.12175304442644119, 0.10521436482667923, 0.10095518082380295, -0.12533624470233917, -0.08539068698883057, 0.005678731016814709, 0.015549587085843086, 0.0014505808940157294, -0.13225194811820984, 0.18410532176494598, 0.14318683743476868, -0.1261080801486969, -0.0715256929397583, -0.298493355512619, -0.033117834478616714, 0.2561227083206177, -0.059910427778959274, -0.4615785777568817, 0.11579852551221848], [-0.46315303444862366, -0.17999574542045593, -0.04194066673517227, 0.022612228989601135, 0.17902575433254242, 0.009229585528373718, 0.1575438231229782, -0.6533204317092896, 0.21992169320583344, -0.2990622818470001, 0.06944870203733444, -0.18054373562335968, 0.09809349477291107, 0.049854833632707596, -0.06847656518220901, -0.1492898166179657, 0.07462894916534424, 0.259610652923584, -0.04279650002717972, 0.08947855979204178], [0.2184818983078003, -0.05490179359912872, -0.14287397265434265, -0.0385262705385685, 0.24822747707366943, 0.019121812656521797, 0.22279667854309082, 0.28123775124549866, -0.010954493656754494, 0.038486674427986145, 0.001762030879035592, 0.8411747217178345, -0.05478840321302414, 0.0041346424259245396, -0.47158992290496826, 0.04658716544508934, 0.08996455371379852, 0.1322060376405716, -0.6489286422729492, -0.27980971336364746], [-0.09288817644119263, -0.14837755262851715, -0.11690283566713333, 0.10202530771493912, -0.010650869458913803, 0.0677245482802391, -0.15178583562374115, 0.8827479481697083, 0.04484393447637558, 0.3146001398563385, 0.43129047751426697, 0.1442977339029312, 0.2192811816930771, 0.03077062778174877, 0.025714553892612457, 0.027537431567907333, 0.11556525528430939, 0.6818678975105286, -0.16139718890190125, 0.02950342744588852], [-0.28477969765663147, -0.23249296844005585, 0.09980243444442749, -0.10200849175453186, -0.038951367139816284, -0.03501243516802788, 0.0033332775346934795, -0.3888755440711975, 0.0008523607975803316, 0.20522268116474152, -0.11749614775180817, -0.054332904517650604, -0.030295556411147118, -0.04772620275616646, -0.06566555052995682, 0.20236846804618835, -0.19396854937076569, 0.021716969087719917, 0.003928242716938257, 0.04658324271440506], [0.030229227617383003, 0.1002577543258667, -0.1327916979789734, 0.10515407472848892, 0.16845180094242096, 0.1483384519815445, 0.12591581046581268, 0.29250696301460266, -0.2925208806991577, 0.04598313570022583, 0.12850569188594818, 0.2197045385837555, -0.06858418881893158, -0.30294132232666016, -0.7841945290565491, 0.18612946569919586, 0.07734404504299164, 0.035658419132232666, -0.4307812750339508, -0.07657831907272339], [-0.08168332278728485, -0.026893816888332367, -0.05003831908106804, 0.0457952544093132, -0.0945807620882988, -0.03767414763569832, 0.06457050144672394, -0.045681972056627274, -0.006750860251486301, -0.043874744325876236, 0.11387880891561508, 0.05088223144412041, -0.10772997885942459, -0.07250885665416718, -0.18348835408687592, 0.04915016517043114, 0.008825636468827724, 0.15921740233898163, -0.21100907027721405, 0.16023962199687958], [-0.23456984758377075, -0.2840324938297272, -0.06587029248476028, -0.005050279200077057, 0.15165123343467712, -0.04649226740002632, 0.1450905054807663, 0.041899073868989944, 0.1221567913889885, -0.01593731716275215, -0.2906356751918793, -0.1850721687078476, -0.02829613909125328, -0.06950091570615768, -0.0040626367554068565, 0.05959588289260864, -0.4082045555114746, 0.012384353205561638, -0.06835827231407166, 0.013456602580845356], [0.06531434506177902, 0.3024750053882599, -0.1591438353061676, -0.2880801558494568, 0.10825251787900925, 0.31143197417259216, -0.21786198019981384, 1.3924305438995361, -0.35295727849006653, 0.0965280756354332, 0.11206427961587906, 0.728264331817627, 0.0967184528708458, -0.3755791485309601, -0.9535792469978333, 0.48365747928619385, 0.2489859014749527, -0.10751065611839294, -0.6631672978401184, -0.2848413288593292], [-0.2393755465745926, -0.056956760585308075, -0.1707012802362442, 0.01840963587164879, 0.27458709478378296, 0.3501569926738739, -0.13992427289485931, -0.1321173459291458, -0.6210457682609558, 0.2773943841457367, -0.1830405592918396, -0.1651429384946823, -0.20673149824142456, -0.10298822075128555, 0.06507817655801773, 0.20785634219646454, -0.024963177740573883, 0.41105780005455017, -0.6864814162254333, -0.40088748931884766], [0.06057518348097801, 0.05335453152656555, -0.03896050155162811, -0.039142608642578125, -0.22299040853977203, -0.15907472372055054, 0.16773074865341187, 0.1434895545244217, 0.00872853584587574, 0.03751654550433159, -0.006298367399722338, -0.1471983641386032, -0.07349824905395508, -0.03140491619706154, -0.175827294588089, 0.07612373679876328, 0.03848636522889137, -0.0434773750603199, -0.4544638693332672, 0.4048198163509369]], "rec.bias_ih_l0": [0.3839855194091797, 0.5119508504867554, 0.41700035333633423, -0.03607373312115669, -0.24766679108142853, 0.01812383159995079, 0.23482878506183624, -0.07824327051639557, -0.20800019800662994, -1.09281325340271, -0.18583421409130096, 0.12685613334178925, 0.08463495969772339, -0.03541893512010574, -0.5074939131736755, 0.28846827149391174, 0.057916197925806046, 0.15777705609798431, 0.11897138506174088, -1.1710976362228394, -0.5215834379196167, -0.2653377950191498, -0.30002275109291077, -0.08593374490737915, 0.009145868010818958, 0.004072909709066153, 0.15099599957466125, -0.35466518998146057, -0.07836924493312836, 1.5701885223388672, 0.2321985810995102, -0.3812754154205322, -0.22584916651248932, 0.19804951548576355, 0.47248220443725586, 0.07538215070962906, 0.2593061327934265, -0.5777388215065002, 0.40207192301750183, 1.446547269821167, 0.12018299847841263, -0.13342659175395966, -0.10981476306915283, 0.07693655043840408, 0.001909105689264834, -0.09077510982751846, 0.338406503200531, -0.07549770921468735, -0.2575848698616028, -0.10834910720586777, -0.23282451927661896, -0.46729353070259094, -0.19212672114372253, 0.0033850206527858973, 0.22574067115783691, 0.04997171461582184, -0.20083488523960114, -0.038253676146268845, -0.13443242013454437, 0.13891714811325073, -0.17931807041168213, 0.2916904091835022, 0.44127577543258667, -0.013436022214591503, 0.1750078797340393, 0.15630440413951874, 0.10452345013618469, -0.0027098876889795065, 0.00468052364885807, 0.2884010374546051, -0.06874391436576843, 0.19196291267871857, -0.33988821506500244, -0.14144130051136017, 0.160318523645401, 0.3701561689376831, 0.020756717771291733, -0.1329451948404312, 0.37459343671798706, 0.3922954797744751], "rec.bias_hh_l0": [0.3904268145561218, 0.5114779472351074, 0.41890570521354675, -0.03214379772543907, -0.28273600339889526, -0.0023665623739361763, 0.1813259869813919, 0.07729236036539078, -0.08520224690437317, -1.341221809387207, -0.12175599485635757, 0.11818859726190567, 0.06642425060272217, -0.03656131401658058, -0.5251765251159668, 0.28915703296661377, 0.021579928696155548, 0.007418220397084951, 0.02789219841361046, -1.2838258743286133, -0.5429351329803467, -0.2686835825443268, -0.30273348093032837, -0.08812849968671799, 0.029236111789941788, -0.026608621701598167, 0.22294707596302032, -0.3272397816181183, -0.2179766297340393, 1.3147010803222656, 0.2602793574333191, -0.2273753434419632, -0.07886770367622375, 0.19814449548721313, 0.4171585738658905, 0.07516378909349442, 0.26850828528404236, -0.6651207804679871, 0.3812297284603119, 1.3206872940063477, -0.04801045358181, -0.16803523898124695, -0.24144087731838226, 0.10274135321378708, 0.11171047389507294, -0.08442877978086472, 0.33580440282821655, -0.06549332290887833, -0.036824047565460205, 0.06095469370484352, -0.34948280453681946, -0.1807723343372345, -0.43428027629852295, -0.1371963620185852, 0.14803779125213623, 0.1253456324338913, -0.11255306750535965, -0.05326734110713005, -0.23824942111968994, -0.053846877068281174, -0.16932807862758636, 0.2494536191225052, 0.4364017844200134, -0.013043643906712532, 0.16018345952033997, 0.1577495038509369, 0.11860665678977966, 0.10231141000986099, -0.2093990594148636, 0.31674453616142273, -0.12725211679935455, 0.23994939029216766, -0.24352002143859863, -0.14616501331329346, 0.15963585674762726, 0.3701629042625427, 0.05162649601697922, -0.024044232442975044, 0.30427083373069763, 0.379778116941452], "lin.weight": [[0.6999601721763611, 0.049071311950683594, -0.3663748800754547, -0.16394397616386414, -0.04712895303964615, -0.1913285106420517, 0.2595757246017456, -1.5307307243347168, -0.700947105884552, 0.19990932941436768, 0.012453945353627205, 0.46009108424186707, -0.31434258818626404, 0.08392542600631714, -0.40167859196662903, 0.12730340659618378, -0.1079387292265892, -1.4086647033691406, -0.17325568199157715, -0.013994934037327766]], "lin.bias": [-0.04787082225084305]}}