{"model_data": {"model": "SimpleRNN", "input_size": 2, "skip": 1, "output_size": 1, "unit_type": "LSTM", "num_layers": 1, "hidden_size": 20, "bias_fl": true}, "state_dict": {"rec.weight_ih_l0": [[-0.5928773283958435, 0.07109440118074417], [0.5924956202507019, -0.17184995114803314], [0.039584770798683167, -0.24164119362831116], [-0.555717945098877, -0.7023001313209534], [0.20157590508460999, -0.4097675085067749], [-0.07254591584205627, 0.08326549082994461], [0.22671721875667572, -0.6523373126983643], [-0.39504289627075195, 1.07493257522583], [2.8808767795562744, -0.39379724860191345], [-1.8849421739578247, -0.7460211515426636], [-0.3867824375629425, -0.13042095303535461], [0.4006321132183075, -0.11738773435354233], [-0.5910158157348633, 0.131297767162323], [-0.0043853092938661575, -0.5150418281555176], [1.2704980373382568, 0.1604321151971817], [0.286213219165802, 0.04945395514369011], [-0.29792454838752747, -0.7141304016113281], [-1.9532746076583862, 0.10810082405805588], [0.9894942045211792, -0.376971572637558], [-0.3389414846897125, -0.37003469467163086], [-0.5898334980010986, -0.1290416270494461], [0.6953392624855042, 0.1189824789762497], [0.07796139270067215, -0.39127227663993835], [-0.5468730330467224, -0.2765912115573883], [0.16043031215667725, -0.1976102590560913], [0.20276212692260742, -0.3052528202533722], [-0.9374862313270569, -0.7616926431655884], [-1.1250979900360107, 0.04543237388134003], [1.4684213399887085, 0.30380597710609436], [0.19862280786037445, 0.8404327034950256], [-0.12895147502422333, 0.0023353896103799343], [0.0841066837310791, -0.2714286148548126], [-0.4076904058456421, -0.0331314280629158], [-0.17398351430892944, -0.4559720456600189], [0.7894322872161865, 0.29427435994148254], [0.2476845681667328, 0.17139634490013123], [-0.808686375617981, -0.5582183599472046], [-0.9496219754219055, -0.1947994828224182], [0.5900466442108154, 0.2539745271205902], [0.08957214653491974, -0.12946291267871857], [0.29447141289711, 0.021211767569184303], [-0.4147282838821411, -0.15990279614925385], [-0.6842973828315735, -0.10153493285179138], [-0.9884077310562134, -0.019802870228886604], [0.6960550546646118, -0.18295761942863464], [0.2835003733634949, -0.3203641474246979], [0.19304800033569336, -0.28514596819877625], [-6.229280471801758, 0.3069055676460266], [1.2923650741577148, -0.11524108052253723], [-1.0214743614196777, 0.027110084891319275], [0.1673840433359146, 0.261751651763916], [-1.6413812637329102, 0.26563358306884766], [0.6218987703323364, -0.2203468382358551], [-0.4765878915786743, 0.014877887442708015], [-1.8744499683380127, -0.2586040794849396], [-0.3308441936969757, -0.14144082367420197], [0.21927714347839355, 0.5298803448677063], [1.0280133485794067, -0.06758620589971542], [0.3740059435367584, -0.0591425783932209], [-0.5910990834236145, -0.07970704138278961], [-1.6096402406692505, -0.04821490868926048], [1.1061115264892578, -0.15122917294502258], [-0.056976497173309326, -0.29285359382629395], [-0.3948194682598114, -0.5792953968048096], [0.2425113320350647, -0.04824039340019226], [-0.10585170239210129, -0.14057564735412598], [-1.810180902481079, -0.5891311764717102], [-0.8995700478553772, 0.31476861238479614], [3.818758726119995, -0.2970709502696991], [0.7609099745750427, 0.07390208542346954], [-0.7904742360115051, -0.31508031487464905], [0.5934115648269653, -0.2190166711807251], [-0.8856094479560852, 0.033973515033721924], [0.0201729629188776, -0.5059736371040344], [0.5386074781417847, 0.25089508295059204], [0.027697104960680008, 0.25036531686782837], [-1.599305510520935, -0.6801353096961975], [-2.2014029026031494, -0.024128276854753494], [0.1729300618171692, -0.08690160512924194], [-0.46269869804382324, -0.3151331841945648]], "rec.weight_hh_l0": [[-0.12531207501888275, -0.10007143020629883, 0.07255054265260696, -0.15705737471580505, -0.20489804446697235, 0.044443368911743164, -0.3616076111793518, 0.641375720500946, 0.09885280579328537, -0.33556827902793884, 0.361316978931427, 0.11768287420272827, 0.18057198822498322, -0.15274778008460999, -0.08598122745752335, 0.04903795197606087, 0.3961406946182251, 0.389913409948349, -0.2926298677921295, -0.006550190970301628], [-0.19253835082054138, -0.058534618467092514, 0.08954865485429764, 0.2048371583223343, -0.10504468530416489, -0.20448799431324005, -0.11671967804431915, 0.5417854189872742, 0.3255833685398102, 0.24987447261810303, -0.0890175998210907, 0.09021726995706558, -0.18546999990940094, 0.01624535582959652, 0.05076853558421135, -0.20250020921230316, 0.2631166875362396, -0.07801779359579086, 0.001786260399967432, 0.12424216419458389], [-0.3868711292743683, 0.2520684003829956, 0.33406591415405273, 0.3332158923149109, 0.14209681749343872, 0.3087148666381836, -0.04254830256104469, 0.34461718797683716, -0.07076393812894821, 0.4220733940601349, -0.24417752027511597, 0.4222385287284851, 0.36542922258377075, 0.22496646642684937, 0.3298319876194, 0.44885513186454773, -0.004899455234408379, -0.321800172328949, 0.15731877088546753, 0.40224123001098633], [-0.1613393872976303, 0.35850149393081665, 0.24863111972808838, 0.12693114578723907, -0.163390651345253, -0.013207769952714443, 0.3280337452888489, 0.19806261360645294, -0.17474335432052612, 0.2608146071434021, -0.25214114785194397, 0.4707157611846924, 0.06208086758852005, 0.24999991059303284, 0.3162460923194885, 0.41864487528800964, -0.2877177298069, -0.296844482421875, -0.038800761103630066, 0.4357198476791382], [-0.3726135790348053, 0.5222808718681335, 0.29404520988464355, 0.32034415006637573, 0.04664204642176628, 0.2814464271068573, -0.16713963449001312, 0.5045444965362549, 0.04878927022218704, 0.7414268851280212, -0.018171587958931923, 0.2603672444820404, 0.2882429361343384, 0.35308635234832764, 0.3738745450973511, 0.2468220740556717, -0.00470159063115716, -0.1344822496175766, 0.09535709023475647, 0.5136110186576843], [-0.12413668632507324, -0.0033434254582971334, 0.13592691719532013, 0.07438813894987106, -0.22941109538078308, 0.19721302390098572, -0.06170247867703438, 0.15120315551757812, -0.04657382890582085, 0.3466983139514923, 0.08491039276123047, -0.08255372941493988, 0.18042106926441193, -0.04260905832052231, -0.12395479530096054, 0.10173096507787704, 0.15656428039073944, 0.17804493010044098, -0.07210028171539307, 0.1491338461637497], [-0.022022360935807228, 0.20168256759643555, 0.0483827069401741, 0.12438158690929413, 0.40307602286338806, 0.1734713912010193, 0.529346764087677, 0.14325085282325745, -0.003966402728110552, -0.5209251046180725, 0.09579663723707199, 0.010562694631516933, 0.16906943917274475, 0.04597081243991852, 0.038687948137521744, -0.11354276537895203, -0.5086330771446228, 0.19834096729755402, -0.10274758189916611, -0.45741647481918335], [0.27877265214920044, -0.5870042443275452, -0.1736622154712677, -1.2973897457122803, 0.08167976886034012, -0.30632245540618896, -0.8535018563270569, 0.7885538339614868, -0.5222510695457458, -1.4339579343795776, 0.7713130712509155, 0.2057884782552719, 0.203913152217865, -0.2446255087852478, -0.02079113945364952, 0.050304729491472244, 1.0335508584976196, 0.6820007562637329, -0.9203510284423828, -0.30984821915626526], [0.07341983914375305, 0.23596465587615967, 0.06791461259126663, -0.08770148456096649, 0.3136351704597473, 0.08383165299892426, 0.6543707847595215, -1.3927686214447021, -0.05082659795880318, 0.036732856184244156, -0.1963862031698227, -0.33720120787620544, 0.08169648051261902, 0.21864818036556244, -0.5772375464439392, 0.30361127853393555, -0.27671200037002563, -0.16822554171085358, -0.13109977543354034, -0.09837466478347778], [-0.9200502634048462, 1.0810068845748901, 0.5257019400596619, 0.6497752666473389, -0.4830877184867859, 0.6590233445167542, -0.18373753130435944, 0.10703570395708084, 0.13617242872714996, 0.04697800800204277, -0.37489864230155945, 0.4529702067375183, 0.4982157051563263, 0.3286612629890442, 1.2046018838882446, -0.01947750896215439, -0.14154377579689026, -0.16915246844291687, 1.0111074447631836, 0.3402893543243408], [0.08957108110189438, -0.017779255285859108, 0.005739755462855101, -0.08632844686508179, -0.13974471390247345, 0.20100796222686768, -0.13559894263744354, -0.3564539849758148, -0.33196860551834106, 0.014816058799624443, 0.03930480405688286, -0.044127777218818665, 0.054431475698947906, -0.07360462844371796, 0.4705297648906708, 0.21776485443115234, -0.08948370814323425, 0.10466063022613525, -0.04392758384346962, 0.04299963265657425], [0.5080600380897522, -0.11903504282236099, -0.09334392100572586, -0.12606748938560486, -0.3141627907752991, -0.15095309913158417, 0.40862175822257996, 0.045247647911310196, -0.10390543937683105, 0.2954447865486145, -0.28709179162979126, 0.33177369832992554, -0.3172461986541748, -0.032399386167526245, -0.07520419359207153, 0.010483662597835064, -0.0668615847826004, -0.3392092287540436, -0.13962501287460327, 0.045112065970897675], [0.08767951279878616, -0.3307526409626007, -0.1632063239812851, -0.13599950075149536, -0.26865464448928833, 0.03159891068935394, -0.022889843210577965, 0.7356821894645691, 0.26175108551979065, 0.03244216367602348, 0.2901325821876526, -0.15898115932941437, -0.06471164524555206, -0.2288113385438919, 0.019015807658433914, -0.14927008748054504, 0.26615792512893677, -0.05446285009384155, -0.3580707609653473, 0.05109962075948715], [-0.25541651248931885, 0.41986894607543945, 0.20064519345760345, 0.18984974920749664, -0.19894325733184814, 0.05205925181508064, 0.005373799242079258, -0.017707431688904762, -0.08638841658830643, 0.33769792318344116, -0.17757323384284973, 0.32892748713493347, 0.15604862570762634, 0.1447989046573639, 0.11319410055875778, 0.279303640127182, 0.07792611420154572, -0.12475527077913284, 0.23493967950344086, 0.24182184040546417], [-0.2723853886127472, -0.06442105025053024, 0.2726421654224396, 0.32284507155418396, -0.34807977080345154, 0.13131451606750488, 0.31215032935142517, -0.025458047166466713, -0.21925869584083557, 0.03825751319527626, -0.15387940406799316, 0.385304719209671, -2.0728562958538532e-05, 0.1319756954908371, -0.2409944087266922, 0.522067666053772, -0.2862255573272705, -0.37277090549468994, -0.1227918341755867, 0.4477654993534088], [-0.030220625922083855, 0.16814129054546356, -0.20520725846290588, -0.3439236879348755, -0.2016473114490509, 0.015597827732563019, -0.33146587014198303, -0.19094644486904144, -0.1829058974981308, -0.6598421335220337, 0.3719547390937805, -0.0023375360760837793, 0.08977754414081573, -0.40976303815841675, -0.03867232799530029, -0.012210638262331486, 0.5219736695289612, 0.48563089966773987, -0.2641869783401489, -0.34432753920555115], [-0.0057691168040037155, 0.16651985049247742, 0.1656353622674942, 0.3465896546840668, 0.6030070781707764, 0.41750335693359375, 0.45383545756340027, -0.5114445686340332, -0.1420954465866089, 0.011852802708745003, -0.06122299283742905, -0.10374394059181213, 0.20063579082489014, -0.047649066895246506, 0.17196683585643768, 0.4998254179954529, -0.5046795606613159, -0.0507345125079155, 0.2275795340538025, 0.1178596168756485], [-0.17109356820583344, -0.16199085116386414, -0.15132710337638855, -0.08021608740091324, -0.06967988610267639, 0.25307339429855347, -0.11466798931360245, 0.4448736310005188, -0.25770580768585205, -0.10803887993097305, 0.18858011066913605, 0.18136373162269592, 0.16702820360660553, -0.18523654341697693, 0.40493908524513245, 0.20941470563411713, 0.12000996619462967, 0.2606867849826813, -0.09997522085905075, 0.10014119744300842], [-0.4728792905807495, 0.17948676645755768, 0.2573644518852234, 0.11905130743980408, -0.08699032664299011, 0.12222421169281006, 0.13942037522792816, 0.05611572787165642, -0.07578359544277191, 0.42943042516708374, -0.300027996301651, 0.3726527988910675, 0.22935231029987335, 0.2636217474937439, 0.01915200985968113, 0.4983481466770172, -0.13221260905265808, -0.2229689210653305, -0.17868337035179138, 0.27343815565109253], [-0.013055901043117046, 0.11608043313026428, 0.0006334703066386282, 0.11828720569610596, -0.5044983625411987, -0.05000399425625801, -0.39644771814346313, -0.13769511878490448, -0.16583652794361115, 0.22246120870113373, -0.09671842306852341, 0.1320495456457138, 0.08674859255552292, -0.012890733778476715, 0.43308234214782715, 0.22648626565933228, 0.06732142716646194, -0.03758876770734787, 0.2268599569797516, 0.04284809157252312], [-0.0707775354385376, 0.02295658551156521, 0.14485037326812744, -0.09892871975898743, -0.11392031610012054, 0.08733625710010529, -0.1688787341117859, 0.4336196780204773, 0.07721435278654099, -0.15714198350906372, 0.21410058438777924, 0.13930247724056244, 0.147112175822258, -0.07601109892129898, -0.21407705545425415, 0.11224661767482758, 0.16726073622703552, 0.2791697084903717, -0.1910083144903183, 0.06548865884542465], [-0.07029127329587936, 0.048548027873039246, 0.05298265069723129, 0.07563124597072601, -0.20225054025650024, -0.25195756554603577, -0.019246108829975128, 0.2816607356071472, 0.2345365732908249, 0.27638328075408936, -0.019303707405924797, -0.016687216237187386, -0.17799031734466553, 0.09195553511381149, -0.14740115404129028, -0.066233791410923, 0.09221117943525314, -0.23672877252101898, -0.15335169434547424, 0.1350395679473877], [-0.2973576486110687, 0.24421903491020203, 0.2793461084365845, 0.2790681719779968, 0.02003329247236252, 0.20883148908615112, 0.034902703016996384, 0.21157969534397125, -0.034954726696014404, 0.3918496072292328, -0.24310177564620972, 0.4238746762275696, 0.32728880643844604, 0.19511277973651886, 0.09256572276353836, 0.3605911433696747, -0.12096291780471802, -0.27694693207740784, 0.17289595305919647, 0.33713895082473755], [-0.08647534996271133, -0.13055571913719177, 0.20579124987125397, 0.02595929056406021, -0.5672065019607544, -0.12589766085147858, 0.2458832710981369, 0.527611255645752, -0.25851544737815857, 0.2491040676832199, -0.13913583755493164, 0.6805967092514038, -0.08265030384063721, 0.2378760427236557, 0.1982136368751526, 0.2708682417869568, -0.36413151025772095, -0.2053370177745819, -0.42574644088745117, 0.5169684886932373], [0.008055095560848713, 0.07062436640262604, 0.22994990646839142, -0.03751395270228386, -0.3080950081348419, 0.21121446788311005, -0.25097569823265076, 0.48191219568252563, -0.11254933476448059, 0.4270825684070587, 0.11124327033758163, 0.25904375314712524, 0.2097184807062149, 0.2620053291320801, 0.12596112489700317, 0.2102251797914505, 0.13842324912548065, -0.19458062946796417, -0.17196744680404663, 0.37947553396224976], [-0.13526898622512817, 0.00623968243598938, 0.1250227987766266, 0.0362226739525795, -0.26403987407684326, 0.06573665887117386, -0.10775788128376007, 0.04251446947455406, -0.17439456284046173, 0.4922102987766266, 0.07606136053800583, -0.15066322684288025, 0.3068684935569763, 0.0060621327720582485, 0.04029928147792816, 0.11938454210758209, 0.22202423214912415, 0.2615406811237335, -0.23488277196884155, 0.1063869446516037], [0.05881456658244133, 0.15915323793888092, 0.05383027717471123, 0.36795416474342346, 0.08399277180433273, 0.15592452883720398, 0.5975762605667114, -0.06415200978517532, 0.03264781832695007, -0.3047822415828705, -0.13545984029769897, -0.02578781358897686, 0.0575065091252327, 0.14127829670906067, -0.05486242100596428, 0.03367288038134575, -0.691832959651947, -0.2301352173089981, 0.06190941482782364, -0.23990246653556824], [-0.15838004648685455, 0.15044492483139038, -0.13263441622257233, 0.1590629518032074, 0.007416056003421545, -0.13719400763511658, 0.5755138397216797, 0.5350227355957031, 0.3614700436592102, -0.0018837866373360157, -0.4460600018501282, 0.24319064617156982, -0.05902419239282608, 0.30222663283348083, -0.3150005340576172, 0.6197800636291504, -0.68255215883255, -0.3580005466938019, 0.3695107400417328, 0.2204408347606659], [-0.4500238299369812, 0.22251702845096588, -0.0036001659464091063, -0.07263292372226715, 0.2769334614276886, 0.08253763616085052, 0.07579879462718964, 0.19816766679286957, -0.6017490029335022, -0.3160346746444702, 0.2003454715013504, 0.4097442924976349, 0.32017070055007935, -0.06481961905956268, 0.14371655881404877, 0.2477128952741623, 0.20331957936286926, 0.36406728625297546, -0.46398866176605225, 0.08448482304811478], [0.6157088875770569, -0.8747715353965759, -0.6263434290885925, -0.6817151308059692, -0.5410435795783997, -0.6736053824424744, -0.5945708751678467, -0.42424869537353516, -0.5768766403198242, -0.8024341464042664, 0.4309126138687134, 0.41015520691871643, -0.6167178153991699, -0.35902902483940125, 0.1480957418680191, -0.15157556533813477, 0.7379698753356934, 0.5828573107719421, -0.8556756377220154, -0.28730276226997375], [0.227058544754982, 0.1182728186249733, -0.07292816787958145, -0.1553957760334015, -0.01512944232672453, 0.08021675795316696, 0.005557966884225607, -0.5483168959617615, -0.2918253242969513, -0.1105962023139, -0.15070289373397827, -0.11826236546039581, -0.02303170971572399, -0.08785003423690796, 0.3538215756416321, 0.3954603970050812, -0.021944699808955193, 0.1853407770395279, -0.012499915435910225, 0.05557237192988396], [0.11124436557292938, 0.206944540143013, 0.19663654267787933, -0.02548077329993248, -0.10025789588689804, 0.21117912232875824, -0.019112052395939827, 0.6220951080322266, -0.19682928919792175, 0.017135014757514, -0.12013348191976547, 0.49982449412345886, 0.09802759438753128, 0.16174723207950592, 0.3071540296077728, 0.12397061288356781, 0.03260112553834915, -0.30500003695487976, 0.17820104956626892, 0.0502314493060112], [-0.050454165786504745, -0.15996943414211273, -0.06135944277048111, -0.08784869313240051, -0.12341143190860748, 0.1485217660665512, -0.06369803845882416, 0.7672314643859863, 0.08840491622686386, 0.07303157448768616, 0.35211512446403503, -0.14131054282188416, 0.1173495203256607, -0.13688379526138306, 0.1555320769548416, -0.016924414783716202, 0.13513179123401642, 0.04373421519994736, -0.20745748281478882, 0.045875731855630875], [-0.20022672414779663, 0.32311874628067017, 0.15232811868190765, 0.1818794161081314, -0.1677476167678833, 0.027743639424443245, -0.002512103645130992, 0.0925825759768486, -0.056429341435432434, 0.21337084472179413, -0.13177700340747833, 0.29913628101348877, 0.11417177319526672, 0.07633977383375168, 0.11815418303012848, 0.2549685835838318, 0.031844522804021835, -0.11474897712469101, 0.22570398449897766, 0.13104894757270813], [0.11047836393117905, 0.1485532969236374, 0.0948823094367981, 0.2459053248167038, -0.2736797332763672, -0.2679973244667053, 0.2278776913881302, -1.0087473392486572, 0.8031644225120544, -0.10356942564249039, -0.05718567594885826, 0.5840989947319031, -0.019811449572443962, -0.050806377083063126, -0.9524195790290833, 0.7399914860725403, -0.14162160456180573, -0.07048813253641129, 0.3421793580055237, 0.24734744429588318], [0.025929942727088928, 0.15215270221233368, -0.16061964631080627, -0.3852463364601135, -0.3711109161376953, -0.030619777739048004, -0.13283568620681763, -0.31751835346221924, -0.1284513920545578, -0.4450134038925171, 0.44347959756851196, -0.16785424947738647, 0.12248659133911133, -0.38663434982299805, -0.06897222995758057, -0.03865434229373932, 0.30703625082969666, 0.4371749758720398, -0.17495155334472656, -0.216297909617424], [-0.07508110255002975, 0.08886484801769257, 0.030009174719452858, 0.4266897141933441, 0.4282486140727997, 0.18203184008598328, 0.6162500381469727, -0.4649297893047333, -0.2038775235414505, 0.15730158984661102, -0.23516277968883514, 0.12930750846862793, 0.0840403214097023, 0.007384282071143389, 0.1984516680240631, 0.38053029775619507, -0.37802475690841675, -0.28140223026275635, -0.0766330137848854, 0.19265788793563843], [-0.3462188243865967, 0.19140391051769257, -0.009520342573523521, -0.07167214900255203, 0.04818817600607872, 0.40881842374801636, 0.004903252236545086, 0.0408007949590683, -0.3609565496444702, -0.3058364689350128, 0.21979954838752747, 0.23087534308433533, 0.36446499824523926, -0.17368902266025543, 0.32043328881263733, 0.31220743060112, -0.0351426862180233, 0.15360210835933685, -0.18562118709087372, -0.024819565936923027], [-0.23223865032196045, -0.04142989590764046, -0.24436651170253754, -0.02448863349854946, -0.1468326300382614, -0.009670253843069077, -0.34373125433921814, 0.3488136827945709, -0.0003113424754701555, 0.11420658230781555, 0.12355618178844452, 0.4606454074382782, 0.14917008578777313, -0.05911729484796524, 0.06232811510562897, 0.2627495527267456, 0.28979671001434326, 0.03202962130308151, -0.3448060154914856, 0.2891800105571747], [-0.06700697541236877, 0.11370159685611725, -0.03548301011323929, 0.07439946383237839, -0.5024389624595642, -0.0070181735791265965, -0.3336808681488037, -0.3689380884170532, -0.21391738951206207, 0.1410558521747589, -0.10826784372329712, 0.14453735947608948, 0.23049071431159973, 0.0676228404045105, 0.33116963505744934, 0.18196693062782288, 0.13738451898097992, 0.13748355209827423, 0.13112673163414001, 0.18151544034481049], [-0.4760182499885559, -0.30213046073913574, 0.13425053656101227, 0.21106870472431183, 0.14440083503723145, 0.12157659232616425, -0.11004184186458588, 0.5156702995300293, 0.3717513084411621, -0.05228060111403465, 0.13004480302333832, -0.17193424701690674, -0.21940132975578308, -0.016176579520106316, -0.2523353099822998, -0.028300898149609566, 0.2194453477859497, -0.14772911369800568, 0.13599629700183868, -0.08349787443876266], [0.038470309227705, -0.14644742012023926, -0.004647307097911835, -0.1535884141921997, 0.15451666712760925, -0.13617433607578278, 0.0658685564994812, -0.46581631898880005, -0.059559039771556854, 0.05570074915885925, -0.3252445161342621, -0.1748703569173813, -0.10679001361131668, 0.03654726222157478, -0.037348002195358276, 0.004857220686972141, -0.10112764686346054, 0.25436651706695557, 0.25136125087738037, -0.13014928996562958], [0.09366501867771149, -0.3365332782268524, -0.33925294876098633, -0.013703894801437855, -0.308348685503006, -0.526594877243042, -0.2206278145313263, 0.41921427845954895, -0.0819261223077774, -0.24524472653865814, 0.6159411668777466, -0.10725067555904388, -0.1534854769706726, -0.402994304895401, 0.36933577060699463, -0.3842024803161621, 0.09995872527360916, 0.4145631790161133, -0.40600693225860596, -0.3728243410587311], [-0.044700782746076584, 0.06890849769115448, -0.19284799695014954, -0.19245021045207977, 0.19069556891918182, 0.16079628467559814, -0.05260540172457695, -0.36375436186790466, 0.23153086006641388, -0.08134770393371582, 0.15426570177078247, -0.2619282305240631, 0.09579677879810333, -0.3407290279865265, 0.25703269243240356, -0.37100985646247864, 0.09532129764556885, 0.22049745917320251, -0.03854586184024811, -0.3866700530052185], [0.13080020248889923, 0.033071368932724, 0.010279090143740177, -0.3171190619468689, -0.011660443618893623, 0.051057249307632446, 0.36506006121635437, -0.14002148807048798, -0.31295204162597656, -0.19663728773593903, -0.17203395068645477, -0.2507864236831665, -0.18517586588859558, -0.23904262483119965, 0.3682529032230377, -0.19333569705486298, -0.34948354959487915, -0.015818821266293526, -0.1993429809808731, -0.23156408965587616], [0.03575795143842697, 0.417364239692688, 0.07249722629785538, 0.2567771077156067, 0.07116042077541351, -0.21420453488826752, 0.1721208244562149, -0.07227910310029984, -0.04249713569879532, 0.05120927467942238, 0.0011105339508503675, 0.3863704204559326, -0.14626073837280273, 0.11570446193218231, 0.25530537962913513, 0.2234262228012085, -0.26561954617500305, 0.05408589541912079, -0.13231658935546875, -0.023951856419444084], [0.2372838854789734, -0.42400723695755005, 0.07121452689170837, 0.09147515147924423, 0.01148769911378622, -0.08962975442409515, 0.17329885065555573, 0.43516257405281067, 0.40468770265579224, -0.1748841106891632, 0.11624620109796524, -0.5548471212387085, -0.26456454396247864, -0.25652414560317993, -0.1481999009847641, -0.371685653924942, -0.2424192875623703, -0.29272139072418213, 0.10556779056787491, -0.37922656536102295], [0.08031288534402847, 0.3402751684188843, -0.30982571840286255, -0.12723349034786224, -0.1087852418422699, 0.1762566715478897, -0.3911791145801544, 0.2526341676712036, -0.060444772243499756, -0.24532830715179443, 0.43672889471054077, 0.5687755942344666, 0.3316786289215088, -0.16423846781253815, 0.17512629926204681, -0.07775525003671646, 0.7616769671440125, 0.3562072813510895, -0.07268498092889786, -0.058040935546159744], [0.44736507534980774, -0.31874918937683105, -0.03404432535171509, -0.2293306440114975, -0.026085570454597473, -0.27091488242149353, 0.3132454454898834, -0.859744131565094, -0.2664701044559479, -0.5729442238807678, -0.2373543679714203, -0.44122451543807983, -0.35177159309387207, -0.05795619636774063, -0.39843812584877014, -0.052700504660606384, -0.21985143423080444, 0.17700903117656708, -0.11991280317306519, -0.11802435666322708], [0.11651482433080673, -0.1253606081008911, 0.10581942647695541, 0.026913097128272057, -0.0313238799571991, -0.2551453709602356, 0.025351155549287796, 0.3984868824481964, 0.2547750174999237, 0.04142077639698982, -0.24073411524295807, -0.12692198157310486, -0.3677414059638977, 0.03216702118515968, -0.22614122927188873, -0.13626530766487122, -0.12577472627162933, 0.11747363954782486, 0.026448948308825493, 0.06871066987514496], [-0.4062923491001129, 0.3055788278579712, 0.26065218448638916, -0.23798948526382446, 0.2916828393936157, 0.386721670627594, -0.46154990792274475, -0.4469890296459198, -0.07673503458499908, -0.34600329399108887, -0.13779836893081665, 0.06488177925348282, 0.4225008487701416, -0.01846391335129738, 0.3808310329914093, 0.24046175181865692, -0.02563672512769699, 0.03591505438089371, -0.10283875465393066, 0.30226263403892517], [-0.5187499523162842, 0.27285993099212646, 0.18305140733718872, 0.23698373138904572, 0.3588102459907532, 0.2922368049621582, -0.20552919805049896, 0.09769216179847717, 0.34349939227104187, 0.07995306700468063, 0.2915530502796173, -0.1500081717967987, 0.278613805770874, 0.007414480671286583, 0.030205752700567245, -0.05164772644639015, -0.05510936677455902, 0.12552794814109802, 0.20474842190742493, 0.062051597982645035], [0.09946177899837494, 0.42219263315200806, 0.22293858230113983, 0.09301243722438812, 0.21500074863433838, -0.1374599188566208, 0.014625973999500275, -0.41263696551322937, -0.12979505956172943, 0.08134980499744415, -0.2585839033126831, 0.24558666348457336, -0.22653602063655853, 0.24865292012691498, 0.19792553782463074, 0.2719099819660187, -0.23417913913726807, -0.00989590398967266, 0.10486871004104614, 0.36196884512901306], [-0.04529520869255066, -0.21097150444984436, -0.21290096640586853, -0.10739917308092117, 0.11879198253154755, 0.12845176458358765, -0.2771490812301636, 0.01673927903175354, -0.10216798633337021, 0.12439899891614914, 0.2564455270767212, -0.13285399973392487, 0.361310213804245, -0.3713717460632324, 0.1543302834033966, -0.17816615104675293, 0.14560037851333618, 0.3540226221084595, -0.0182263795286417, -0.27503839135169983], [-0.012385651469230652, 0.2505592405796051, -0.08801709860563278, -0.14369431138038635, -0.040448956191539764, -0.37376248836517334, -0.04557465389370918, -0.031831905245780945, 0.04880571737885475, 0.035500649362802505, -0.08008237928152084, 0.12939587235450745, -0.010607908479869366, 0.14193768799304962, -0.10497784614562988, 0.08209308981895447, 0.14725646376609802, 0.28820478916168213, 0.16397620737552643, -0.060878463089466095], [-0.5809789896011353, 0.28166183829307556, 0.45713070034980774, 0.43331781029701233, 0.3871590197086334, 0.23867002129554749, -0.05107715353369713, 0.24662600457668304, -0.04001503065228462, 0.5940411686897278, -0.39920657873153687, 0.1378057301044464, 0.05872299149632454, 0.5340230464935303, 0.3027876317501068, 0.07212831825017929, -0.5838519930839539, -0.28560876846313477, 0.41069576144218445, 0.16744489967823029], [0.0019250992918387055, 0.3000754415988922, -0.007197753991931677, -0.2491355985403061, -0.09876410663127899, 0.2721410393714905, -0.5638357996940613, 0.08099125325679779, -0.4893355369567871, -0.183503195643425, -0.08517717570066452, 0.6504172086715698, 0.19175879657268524, 0.22570475935935974, 0.2959967255592346, 0.41991570591926575, -0.1291893720626831, -0.20663562417030334, -0.13949976861476898, 0.24281920492649078], [-0.08384723216295242, -0.10476566851139069, -0.11289714276790619, -0.07828451693058014, -0.033529702574014664, 0.02768717333674431, 0.33646512031555176, -0.8902578353881836, -0.754054844379425, -0.3356799781322479, -0.2984009385108948, 0.12379856407642365, -0.004018682520836592, 0.03435388579964638, -0.11822559684515, 0.47126534581184387, 0.014829959720373154, -0.27554556727409363, -0.18542619049549103, 0.4673912823200226], [0.43044671416282654, -0.018974658101797104, -0.05776473507285118, 0.0006233002059161663, 0.22402088344097137, -0.20790879428386688, 0.7361454367637634, -0.7253957390785217, 0.4789569675922394, -0.5666384696960449, 0.2810092568397522, -0.0858834981918335, -0.14461155235767365, -0.11045937985181808, -0.4324168562889099, -0.4065965414047241, -0.20080795884132385, 0.31696009635925293, 0.06912477314472198, -0.2808881402015686], [-0.1638975292444229, -0.05944213271141052, 0.14475494623184204, -0.05108833685517311, 0.061969634145498276, 0.008832830935716629, 0.050786297768354416, 0.5568476319313049, 0.3603475093841553, 0.3510664403438568, 0.029018841683864594, -0.022269101813435555, 0.25147169828414917, 0.07807313650846481, -0.3794984221458435, -0.06182025000452995, 0.027271496132016182, -0.19260451197624207, -0.13680057227611542, -0.3057384192943573], [-0.2074815034866333, -0.031405091285705566, 0.19756320118904114, -0.08150587975978851, -0.09025798738002777, 0.11469189077615738, -0.343164324760437, 0.45912379026412964, -0.25806277990341187, -0.4084991216659546, 0.40817055106163025, 0.14723515510559082, 0.3030131757259369, -0.1005663201212883, -0.11156259477138519, 0.14113381505012512, 0.32374307513237, 0.35228943824768066, -0.3419708013534546, -0.010888620279729366], [-0.04379632696509361, -0.2073175609111786, 0.1466900110244751, 0.21071800589561462, -0.45031821727752686, -0.2568051218986511, -0.0083491001278162, 0.8114798069000244, 0.1814645379781723, 0.49581778049468994, -0.1791542023420334, 0.008852317929267883, -0.27314773201942444, 0.014968733303248882, 0.004632072988897562, -0.02831267938017845, 0.12024392187595367, -0.25882667303085327, 0.08878282457590103, 0.11995040625333786], [-0.3925081789493561, 0.24502915143966675, 0.3416767418384552, 0.35569629073143005, 0.11444655805826187, 0.3024669587612152, -0.02026231959462166, 0.19869068264961243, -0.047992102801799774, 0.45908209681510925, -0.250613272190094, 0.4123169481754303, 0.36039385199546814, 0.22605644166469574, 0.27945810556411743, 0.46281179785728455, -0.03193994238972664, -0.32926493883132935, 0.21627210080623627, 0.4142082631587982], [-0.11727837473154068, 0.27357539534568787, 0.15814346075057983, 0.052758727222681046, -0.29101845622062683, -0.13766996562480927, 0.17115558683872223, -0.2304941564798355, -0.17146198451519012, 0.31052130460739136, -0.24456773698329926, 0.5298611521720886, 0.1773890107870102, 0.22814558446407318, 0.16322460770606995, 0.4348811209201813, -0.2368241548538208, -0.0638001412153244, -0.002778760390356183, 0.36927464604377747], [-0.11432649940252304, 0.14038322865962982, 0.17325037717819214, 0.2671339809894562, -0.2377018928527832, 0.12403655797243118, -0.35855868458747864, 0.6250609755516052, 0.0696486085653305, 0.7174934148788452, -0.1840835064649582, 0.29286521673202515, 0.14609158039093018, 0.37098073959350586, 0.364057332277298, 0.19018231332302094, -0.01917688548564911, -0.34348535537719727, 0.058608151972293854, 0.5539730191230774], [-0.053812175989151, 0.09385623037815094, 0.13501474261283875, -0.03608519956469536, -0.1803179234266281, 0.08359851688146591, -0.13706770539283752, -0.013572869822382927, -0.06592445075511932, 0.3907301127910614, 0.10989383608102798, -0.02992854081094265, 0.2773439288139343, -0.036540765315294266, -0.13635878264904022, 0.1433739811182022, 0.22746585309505463, 0.24912559986114502, -0.2422850877046585, 0.16223172843456268], [-0.11266211420297623, 0.3457525074481964, -0.1169644147157669, 0.3297586739063263, -0.08463919162750244, -0.008748136460781097, 0.226736381649971, 0.2809790372848511, -0.19711996614933014, -0.25229883193969727, 0.1883096694946289, 0.24426566064357758, 0.17718589305877686, -0.05141741409897804, 0.2718496024608612, 0.031066130846738815, -0.41913560032844543, 0.010067968629300594, -0.13769987225532532, -0.22335605323314667], [-0.45062538981437683, 0.44981682300567627, -0.011011810041964054, -0.7016493678092957, 0.2065754234790802, 0.04169175773859024, -0.8039199709892273, -0.4372994005680084, -1.1002330780029297, -1.3647613525390625, 0.3182711899280548, -0.3159475028514862, 0.8000820875167847, -0.18709512054920197, 0.2548036277294159, 0.05581546947360039, 0.9506714344024658, 1.5442931652069092, -0.49081259965896606, -0.4121454954147339], [-0.04245779663324356, 0.27526307106018066, 0.10527738183736801, 0.08169612288475037, 0.3712776005268097, 0.13835158944129944, 0.753208339214325, -1.255527377128601, -0.35846003890037537, -0.1271078735589981, -0.15066710114479065, -0.25971683859825134, 0.040614593774080276, 0.1978980302810669, -0.4651399254798889, 0.3843412697315216, -0.3190164864063263, -0.2760411202907562, -0.1591986119747162, 0.052845850586891174], [0.06883372366428375, -0.11985116451978683, -0.13124731183052063, -0.16507601737976074, -0.2003098428249359, -0.2823534905910492, -0.2874772250652313, -0.9538950324058533, -0.5339349508285522, -0.44558045268058777, -0.03320988640189171, 0.19172009825706482, -0.013974958099424839, 0.009591281414031982, -0.0956469178199768, 0.5201488733291626, 0.30902937054634094, 0.2692558467388153, -0.17566773295402527, 0.1301359236240387], [0.027765098959207535, -0.02516116015613079, -0.12127068638801575, 0.0045462423004209995, -0.2602909505367279, 0.2547962963581085, -0.08947355300188065, -0.7733979821205139, -0.1329347789287567, 0.11167348921298981, -0.06489984691143036, -0.10025618970394135, 0.10279880464076996, 0.0482243075966835, 0.4050908386707306, 0.4282502830028534, 0.1768590807914734, 0.2856765389442444, -0.15317703783512115, 0.18784403800964355], [0.5829061269760132, -0.010057708248496056, -0.08260855078697205, -0.17286908626556396, -0.22594092786312103, -0.07919541001319885, 0.35399219393730164, 0.2711735963821411, -0.10887415707111359, 0.3480135500431061, -0.32370588183403015, 0.4516644775867462, -0.36424872279167175, -0.06004646047949791, -0.08697991818189621, 0.05282924696803093, -0.055673833936452866, -0.472134530544281, -0.2298807054758072, 0.10757189989089966], [-0.10039667785167694, -0.10019127279520035, -0.11394014954566956, -0.10683753341436386, 0.10090388357639313, 0.23775824904441833, -0.10806761682033539, 0.7832554578781128, 0.12903772294521332, -0.13389620184898376, 0.6280490756034851, -0.03337395563721657, 0.24476687610149384, -0.1781359165906906, 0.0835597962141037, -0.0042733545415103436, 0.20643648505210876, 0.2089974731206894, -0.21421058475971222, -0.0813729465007782], [-0.2608245313167572, 0.42432495951652527, 0.19664426147937775, 0.21218718588352203, -0.23383548855781555, 0.053561024367809296, -0.004606796428561211, 0.0013749562203884125, -0.08352995663881302, 0.315632700920105, -0.1700267195701599, 0.3299697935581207, 0.16795280575752258, 0.13594752550125122, 0.11389276385307312, 0.26830098032951355, 0.07486757636070251, -0.0785331055521965, 0.1819971352815628, 0.22246430814266205], [-0.19552910327911377, 0.1314091980457306, 0.23886479437351227, 0.29120057821273804, -0.13687460124492645, 0.1293366551399231, 0.03648936748504639, -0.3589423596858978, -0.35666605830192566, -0.21754303574562073, 0.18208590149879456, 0.6834046840667725, 0.30206987261772156, 0.06704437732696533, -0.23934127390384674, 0.46430161595344543, 0.10724951326847076, 0.002414184622466564, -0.3354197144508362, 0.2540532350540161], [-0.01915896125137806, 0.01892099715769291, -0.15429875254631042, -0.32149600982666016, -0.1952267289161682, 0.03438363969326019, -0.1408417671918869, -0.15532098710536957, -0.08201471716165543, -0.5926748514175415, 0.340827614068985, -0.0756952241063118, 0.09406764805316925, -0.3948145806789398, 0.029574180021882057, -0.04507065936923027, 0.36737194657325745, 0.5108693838119507, -0.2784353494644165, -0.2732990086078644], [-0.02286018617451191, 0.058169323951005936, -0.06957940012216568, 0.10397261381149292, 0.1082756370306015, 0.13713723421096802, 0.4311297833919525, -0.604341447353363, -0.20465339720249176, 0.2289840281009674, -0.15570756793022156, -0.022732989862561226, 0.19932520389556885, -0.10536947846412659, 0.33944475650787354, 0.4154590964317322, -0.16158370673656464, 0.09605979174375534, 0.07246895879507065, 0.20303870737552643], [-0.17337574064731598, 0.02849395014345646, -0.2641438841819763, -0.19893227517604828, 0.2092641144990921, 0.26426786184310913, -0.2321743220090866, 0.34223049879074097, -0.12200187146663666, -0.11428099870681763, 0.3467203676700592, 0.20531578361988068, 0.3347223699092865, -0.1608966737985611, 0.4293576776981354, 0.1618615835905075, 0.23744331300258636, 0.4039234519004822, -0.062499623745679855, 0.0044083246029913425], [-0.18394693732261658, -0.14011065661907196, 0.015824565663933754, -0.10805270075798035, -0.2014608234167099, 0.2343100756406784, 0.07071704417467117, -0.08612751215696335, -0.1012284904718399, 0.12631425261497498, -0.20514002442359924, 0.010344932787120342, -0.052814945578575134, 0.22990670800209045, -0.1334397792816162, 0.2726041376590729, 0.0951288565993309, -0.4052407145500183, -0.1315307468175888, 0.17657415568828583], [-0.09218350797891617, 0.04150150716304779, -0.12195593863725662, 0.06917848438024521, -0.5596579313278198, -0.01863589882850647, -0.39548996090888977, -0.0032516291830688715, -0.0975290909409523, 0.1468604952096939, 0.04633571207523346, 0.23986667394638062, 0.07790239155292511, -0.04313057288527489, 0.41661757230758667, 0.16006210446357727, 0.08472609519958496, 0.03506936505436897, 0.10942081362009048, 0.007347363047301769]], "rec.bias_ih_l0": [-0.09987543523311615, 0.17150823771953583, -0.6307675838470459, -0.39341384172439575, -0.3573130667209625, -0.21557079255580902, 0.05804483965039253, 0.42841169238090515, -0.16354739665985107, -0.630686342716217, -0.32937830686569214, 0.08540818840265274, 0.17470219731330872, -0.5031212568283081, -0.488905131816864, -0.27250611782073975, -0.101817287504673, 0.011335277929902077, -0.11947685480117798, -0.010900788940489292, -0.07150688767433167, -0.07557660341262817, -0.46759092807769775, -0.01657787896692753, -0.11528472602367401, -0.2017749547958374, -0.14627721905708313, -0.08037955313920975, -0.18518872559070587, 0.8068875670433044, -0.001315591624006629, -0.4486238360404968, -0.18280039727687836, -0.5673815011978149, -0.03528216481208801, 0.054903533309698105, 0.13529302179813385, -0.17287275195121765, 0.2508436143398285, -0.09302204102277756, 0.25238609313964844, -0.21480336785316467, 0.20229694247245789, 0.1792079508304596, -0.07925336062908173, -0.11219204217195511, 0.3614691197872162, -0.009722527116537094, -0.05322103202342987, -0.1370975375175476, -0.07908954471349716, -0.3288310468196869, -0.23422172665596008, 0.26191985607147217, -0.17596539855003357, -0.2843618392944336, -0.40152519941329956, -0.17925551533699036, 0.12167064845561981, 0.07701890915632248, -0.21486185491085052, 0.08756770938634872, -0.5034862756729126, -0.3105315864086151, -0.1357676237821579, -0.31675103306770325, -0.18961723148822784, -0.23045572638511658, -0.13210256397724152, -0.13662181794643402, -0.22088003158569336, 0.04756459966301918, -0.2589419484138489, -0.36556386947631836, -0.206038698554039, 0.0782259926199913, -0.02372240647673607, -0.045394450426101685, 0.09645824134349823, -0.19679376482963562], "rec.bias_hh_l0": [-0.06477392464876175, 0.15224474668502808, -0.6112976670265198, -0.3105955719947815, -0.5291493535041809, -0.3687506318092346, -0.10002444684505463, 0.6533214449882507, 0.026674600318074226, -0.9358328580856323, -0.1712297648191452, 0.07212655991315842, 0.15166963636875153, -0.5796571373939514, -0.5566080808639526, 0.10310295969247818, -0.1985994279384613, -0.18845228850841522, -0.3604649007320404, -0.23320363461971283, -0.140189528465271, -0.12220203131437302, -0.5698485374450684, -0.11838127672672272, 0.038878265768289566, -0.4683612585067749, 0.040229786187410355, -0.037469346076250076, -0.38605964183807373, 0.48798897862434387, 0.06593287736177444, -0.19305534660816193, 0.004088916350156069, -0.46274974942207336, -0.19050288200378418, -0.2522450387477875, 0.15939666330814362, -0.32075297832489014, 0.20651718974113464, -0.3439805805683136, 0.07230103760957718, -0.2546607255935669, 0.03572755679488182, 0.21787220239639282, 0.057291194796562195, -0.10433636605739594, 0.35816821455955505, 0.0006040853913873434, 0.17660696804523468, 0.034241292625665665, -0.2191479653120041, -0.019500629976391792, -0.511442244052887, 0.03355983644723892, -0.26999571919441223, -0.14859704673290253, -0.27290141582489014, -0.19533990323543549, -0.03149530291557312, -0.13199873268604279, -0.1920335441827774, -0.08555183559656143, -0.5560926198959351, -0.3029508590698242, -0.37752673029899597, -0.30082327127456665, -0.15993516147136688, -0.07639908790588379, -0.45692142844200134, -0.07446885854005814, -0.36794424057006836, 0.11514703184366226, -0.15105772018432617, -0.6274990439414978, -0.20957644283771515, 0.08066543936729431, 0.03870634734630585, 0.08852388709783554, -0.017010724171996117, -0.24874582886695862], "lin.weight": [[0.2013017237186432, -0.007310864515602589, 0.036372918635606766, 0.07779520750045776, -0.01034144964069128, -0.13398894667625427, 0.27320364117622375, -0.500247597694397, -0.4800284504890442, -0.12536484003067017, -0.08335588127374649, 0.26690855622291565, -0.22393839061260223, 0.08483351022005081, -0.052372727543115616, 0.02642846666276455, -0.07749476283788681, -0.41077953577041626, -0.09192077070474625, 0.08414837718009949]], "lin.bias": [-0.11918701231479645]}}