{"model_data": {"model": "SimpleRNN", "input_size": 2, "skip": 1, "output_size": 1, "unit_type": "LSTM", "num_layers": 1, "hidden_size": 20, "bias_fl": true}, "state_dict": {"rec.weight_ih_l0": [[-0.6555889844894409, 0.11299654841423035], [0.6536113023757935, -0.1647794246673584], [-0.01632693223655224, -0.2369505912065506], [-0.6121841073036194, -0.6850425601005554], [0.19449482858181, -0.4065549373626709], [-0.12087351083755493, 0.08865800499916077], [0.18711723387241364, -0.5700007081031799], [-0.4555249810218811, 0.9858188033103943], [2.9745237827301025, -0.36310574412345886], [-1.9067819118499756, -0.7441325783729553], [-0.33121025562286377, -0.12634794414043427], [0.4524115324020386, -0.08163127303123474], [-0.6703975200653076, 0.19069375097751617], [0.022672858089208603, -0.5148188471794128], [1.5478777885437012, 0.17360489070415497], [0.17098520696163177, 0.03923894092440605], [-0.33774980902671814, -0.6835365295410156], [-2.0581400394439697, 0.18441955745220184], [1.0466269254684448, -0.3670971393585205], [-0.3017212748527527, -0.36327362060546875], [-0.6376528739929199, -0.09728339314460754], [0.7480742931365967, 0.12511226534843445], [0.04357925429940224, -0.3911976218223572], [-0.6089947819709778, -0.26675429940223694], [0.15682323276996613, -0.19466394186019897], [0.19139425456523895, -0.302605539560318], [-0.9620933532714844, -0.6849059462547302], [-1.2086684703826904, 0.036828018724918365], [1.5468106269836426, 0.3134959042072296], [0.19433632493019104, 0.8440986275672913], [-0.0727698802947998, 0.005183178931474686], [0.1152561828494072, -0.25425001978874207], [-0.49307164549827576, 0.03618665039539337], [-0.1732652336359024, -0.46006855368614197], [1.0470775365829468, 0.3027570843696594], [0.16666638851165771, 0.16227605938911438], [-0.8335807919502258, -0.5185748934745789], [-1.056039810180664, -0.1376853883266449], [0.6460408568382263, 0.25616732239723206], [0.1912377029657364, -0.12565520405769348], [0.27880966663360596, 0.04588863626122475], [-0.48170655965805054, -0.17505121231079102], [-0.7950925230979919, -0.08971346169710159], [-1.0413352251052856, -0.0009552370174787939], [0.6903253197669983, -0.18002872169017792], [0.30347374081611633, -0.3260939121246338], [0.15925565361976624, -0.2665465176105499], [-6.101709842681885, 0.2957393527030945], [1.3928048610687256, -0.11237548291683197], [-1.0260655879974365, 0.027892615646123886], [0.0967332050204277, 0.2586488723754883], [-1.733469843864441, 0.28568702936172485], [0.6790091395378113, -0.23733799159526825], [-0.49300023913383484, 0.023984836414456367], [-2.044163227081299, -0.259194552898407], [-0.1558496206998825, -0.13678660988807678], [0.2772865295410156, 0.5092115998268127], [1.1274938583374023, -0.08967804163694382], [0.47080036997795105, -0.06354773044586182], [-0.656392514705658, -0.07972411811351776], [-1.6634389162063599, -0.0125571945682168], [1.161032795906067, -0.14671781659126282], [-0.12657640874385834, -0.28834185004234314], [-0.4422513246536255, -0.5650917887687683], [0.2376340627670288, -0.04369267076253891], [-0.14546096324920654, -0.13517069816589355], [-1.837935447692871, -0.5037012696266174], [-0.9509871006011963, 0.1963016539812088], [3.888711452484131, -0.27395254373550415], [0.7567850947380066, 0.07654191553592682], [-0.7399300932884216, -0.3113507926464081], [0.6331929564476013, -0.17912691831588745], [-0.9656851291656494, 0.12569491565227509], [0.05074683204293251, -0.5057336091995239], [0.793484091758728, 0.27479270100593567], [-0.15902259945869446, 0.24075756967067719], [-1.6370315551757812, -0.6381661295890808], [-2.299192428588867, 0.058521684259176254], [0.19862307608127594, -0.08542993664741516], [-0.4343322813510895, -0.3079603612422943]], "rec.weight_hh_l0": [[-0.1101788878440857, -0.11214085668325424, 0.08733666688203812, -0.13998815417289734, -0.20319215953350067, 0.03263464942574501, -0.3480338454246521, 0.6658293008804321, 0.09283719211816788, -0.3288712501525879, 0.35301101207733154, 0.11972805112600327, 0.15529316663742065, -0.14171354472637177, -0.09428149461746216, 0.03843066096305847, 0.3860700726509094, 0.34060558676719666, -0.28934454917907715, -0.0019485290395095944], [-0.1846521645784378, -0.06529746204614639, 0.089223712682724, 0.2037748396396637, -0.11358774453401566, -0.22787921130657196, -0.1146060898900032, 0.5391603112220764, 0.3321685492992401, 0.255557119846344, -0.09540273994207382, 0.07516521215438843, -0.20616771280765533, 0.017840802669525146, 0.036216165870428085, -0.22434577345848083, 0.25905895233154297, -0.08105068653821945, 0.004488907288759947, 0.11600545048713684], [-0.3856835961341858, 0.2490595132112503, 0.34121984243392944, 0.33854860067367554, 0.1596069037914276, 0.31292712688446045, -0.008267299272119999, 0.3448811173439026, -0.057351142168045044, 0.43370285630226135, -0.2581019699573517, 0.41785454750061035, 0.33698657155036926, 0.23528268933296204, 0.31720489263534546, 0.4510233402252197, -0.05627141892910004, -0.3389236629009247, 0.16098788380622864, 0.4175071120262146], [-0.14538340270519257, 0.35199081897735596, 0.259190171957016, 0.14987042546272278, -0.1428135633468628, -0.021219594404101372, 0.35283300280570984, 0.19436953961849213, -0.1717587411403656, 0.272489994764328, -0.265288382768631, 0.47259560227394104, 0.03735855221748352, 0.25811031460762024, 0.3057304918766022, 0.41907253861427307, -0.30938687920570374, -0.3310145139694214, -0.03094838373363018, 0.45016273856163025], [-0.36913439631462097, 0.5180639028549194, 0.30834680795669556, 0.3482546806335449, 0.05478833615779877, 0.2808491289615631, -0.14769408106803894, 0.4961727261543274, 0.05644438415765762, 0.7474573254585266, -0.026233559474349022, 0.2571033537387848, 0.2773367762565613, 0.3770807087421417, 0.36478081345558167, 0.24711555242538452, -0.022896334528923035, -0.15265363454818726, 0.10748764872550964, 0.5333636999130249], [-0.11960090696811676, -0.004545686300843954, 0.14294004440307617, 0.08184682577848434, -0.22954030334949493, 0.19487649202346802, -0.054975710809230804, 0.16982978582382202, -0.05565625801682472, 0.35182464122772217, 0.08206962049007416, -0.07884441316127777, 0.1709519624710083, -0.0336872935295105, -0.12502215802669525, 0.09965526312589645, 0.15242619812488556, 0.1485113650560379, -0.07399480044841766, 0.16054357588291168], [0.011947453953325748, 0.18304122984409332, 0.06529948115348816, 0.13696327805519104, 0.4070119857788086, 0.15346397459506989, 0.5458464026451111, 0.14393962919712067, -0.0014300178736448288, -0.5101194977760315, 0.0859990268945694, 0.008683356456458569, 0.1356469690799713, 0.051956795156002045, 0.022229665890336037, -0.12798325717449188, -0.5220394730567932, 0.15429319441318512, -0.09571169316768646, -0.47116243839263916], [0.26481398940086365, -0.5628735423088074, -0.16858690977096558, -1.2951605319976807, 0.09056031703948975, -0.2933180332183838, -0.8582919239997864, 0.8074836134910583, -0.5417076349258423, -1.457249641418457, 0.7837508320808411, 0.22577443718910217, 0.22033222019672394, -0.24228143692016602, -0.003589254803955555, 0.0677710548043251, 1.0392954349517822, 0.6955543756484985, -0.9348924160003662, -0.29203349351882935], [0.08936845511198044, 0.20908623933792114, 0.05577542260289192, -0.09102872759103775, 0.31050875782966614, 0.06864731013774872, 0.6616784930229187, -1.4222303628921509, -0.0258770864456892, 0.04984591156244278, -0.21111378073692322, -0.36771854758262634, 0.06588108837604523, 0.21515578031539917, -0.6000150442123413, 0.28186744451522827, -0.2862620949745178, -0.17140498757362366, -0.11651585251092911, -0.1359940618276596], [-0.9185701608657837, 1.0773073434829712, 0.5283125638961792, 0.6517804265022278, -0.4835495054721832, 0.6562895774841309, -0.1763291358947754, 0.10496407002210617, 0.14349141716957092, 0.048516906797885895, -0.3798018991947174, 0.4459229111671448, 0.4913824796676636, 0.333724707365036, 1.2010867595672607, -0.0245831198990345, -0.1499371975660324, -0.17341329157352448, 1.0142313241958618, 0.3406319320201874], [0.09645235538482666, -0.02741672657430172, 0.002211915561929345, -0.08841858804225922, -0.14168821275234222, 0.19240406155586243, -0.1304955929517746, -0.3626823127269745, -0.3203226327896118, 0.018337920308113098, 0.03003554604947567, -0.06345625221729279, 0.04415225610136986, -0.07494200021028519, 0.45876702666282654, 0.20854198932647705, -0.09784210473299026, 0.1035018190741539, -0.038259923458099365, 0.03526434302330017], [0.5191599130630493, -0.14349053800106049, -0.11490084230899811, -0.12466505914926529, -0.3127516806125641, -0.16176576912403107, 0.42056092619895935, 0.01723669283092022, -0.07542330026626587, 0.31129464507102966, -0.3052315413951874, 0.30418428778648376, -0.330521821975708, -0.037740595638751984, -0.0953308641910553, -0.0016696462407708168, -0.08102001994848251, -0.3446328341960907, -0.11767873167991638, 0.020661408081650734], [0.11094904690980911, -0.34125596284866333, -0.12837949395179749, -0.11412535607814789, -0.2643793225288391, 0.0153324780985713, -0.008762468583881855, 0.7577472925186157, 0.25005269050598145, 0.047355420887470245, 0.2835739552974701, -0.14971673488616943, -0.09307286888360977, -0.2195429652929306, 0.013315773569047451, -0.16000238060951233, 0.2564772367477417, -0.10379116237163544, -0.35727325081825256, 0.0621512234210968], [-0.25296229124069214, 0.41911450028419495, 0.22442032396793365, 0.19598014652729034, -0.20287738740444183, 0.04638943076133728, 0.013761001639068127, -0.02102258987724781, -0.07927477359771729, 0.35615864396095276, -0.18495474755764008, 0.326650470495224, 0.14838437736034393, 0.17084598541259766, 0.10395380109548569, 0.2776680290699005, 0.07039221376180649, -0.1343115270137787, 0.24073559045791626, 0.2829100489616394], [-0.25491300225257874, -0.0834161564707756, 0.2697078287601471, 0.32182276248931885, -0.3489609658718109, 0.11179567128419876, 0.3195746839046478, -0.03515743836760521, -0.19841518998146057, 0.04749429225921631, -0.16789814829826355, 0.354536771774292, -0.018313374370336533, 0.1364116370677948, -0.26396697759628296, 0.4900014400482178, -0.2955458164215088, -0.377281129360199, -0.11387716978788376, 0.43256819248199463], [-0.030429331585764885, 0.16981081664562225, -0.21149669587612152, -0.338516503572464, -0.19570773839950562, 0.015114711597561836, -0.32319334149360657, -0.19281674921512604, -0.18397726118564606, -0.6645569801330566, 0.36884427070617676, -0.004677097778767347, 0.08944794535636902, -0.43213415145874023, -0.03871801123023033, -0.012218429706990719, 0.5137857794761658, 0.4897060990333557, -0.26237812638282776, -0.3501414358615875], [0.02247098833322525, 0.14763586223125458, 0.16960033774375916, 0.35362708568573, 0.6085761785507202, 0.39288872480392456, 0.4782065451145172, -0.5222133994102478, -0.13126228749752045, 0.020476987585425377, -0.07555857300758362, -0.1185896247625351, 0.15466155111789703, -0.04430466890335083, 0.14635667204856873, 0.4752514958381653, -0.5280574560165405, -0.082722969353199, 0.23603303730487823, 0.10648028552532196], [-0.13688965141773224, -0.18056544661521912, -0.11858483403921127, -0.05190332606434822, -0.059364959597587585, 0.23395326733589172, -0.09078936278820038, 0.45733800530433655, -0.2647975981235504, -0.08668573945760727, 0.17432790994644165, 0.1876828521490097, 0.127846822142601, -0.17611610889434814, 0.39377087354660034, 0.19660277664661407, 0.10086014121770859, 0.20463082194328308, -0.09245187044143677, 0.11533758044242859], [-0.46760520339012146, 0.1665019541978836, 0.253711462020874, 0.11721652001142502, -0.0878899097442627, 0.11230354011058807, 0.1469958871603012, 0.04512390121817589, -0.048482391983270645, 0.4369439482688904, -0.31337398290634155, 0.34740394353866577, 0.22023293375968933, 0.26423180103302, 0.0009510434465482831, 0.48773640394210815, -0.14269991219043732, -0.22147224843502045, -0.16861827671527863, 0.25912752747535706], [-0.009714159183204174, 0.11038023233413696, 0.0007505051326006651, 0.12249290943145752, -0.5200085043907166, -0.05799170956015587, -0.3863540589809418, -0.14543281495571136, -0.15047641098499298, 0.22644570469856262, -0.10917798429727554, 0.12404030561447144, 0.07536780089139938, -0.01300189457833767, 0.42680224776268005, 0.21998143196105957, 0.046549104154109955, -0.04770628362894058, 0.23305167257785797, 0.04134250804781914], [-0.061331067234277725, 0.013666573911905289, 0.15586069226264954, -0.08793433755636215, -0.11399062722921371, 0.08038125932216644, -0.1595974713563919, 0.4515843987464905, 0.07318496704101562, -0.15336383879184723, 0.20875683426856995, 0.14036884903907776, 0.1283000409603119, -0.06723568588495255, -0.22159555554389954, 0.10309270024299622, 0.16075849533081055, 0.24035347998142242, -0.18832693994045258, 0.06866203993558884], [-0.06259830296039581, 0.04262504354119301, 0.052701033651828766, 0.0752398893237114, -0.20875184237957, -0.2733014225959778, -0.015024655498564243, 0.2790887951850891, 0.24034389853477478, 0.28236594796180725, -0.025529341772198677, -0.030512046068906784, -0.19947455823421478, 0.09377321600914001, -0.16153402626514435, -0.08528903871774673, 0.08518444746732712, -0.24038651585578918, -0.15083420276641846, 0.12779748439788818], [-0.3007701337337494, 0.2434440404176712, 0.2937090992927551, 0.28674080967903137, 0.03544346243143082, 0.22804731130599976, 0.07250627130270004, 0.2124951183795929, -0.02375587821006775, 0.41433221101760864, -0.26106104254722595, 0.42656347155570984, 0.31681254506111145, 0.2169180065393448, 0.08094282448291779, 0.3726963400840759, -0.18250776827335358, -0.2973257601261139, 0.17689675092697144, 0.37183815240859985], [-0.06976091861724854, -0.13809114694595337, 0.2142513543367386, 0.05163411423563957, -0.5397603511810303, -0.1323973536491394, 0.27978935837745667, 0.5240018963813782, -0.25187206268310547, 0.2624439299106598, -0.1572350114583969, 0.6797302961349487, -0.11325899511575699, 0.24482348561286926, 0.18427413702011108, 0.2752764821052551, -0.3950856029987335, -0.24151195585727692, -0.4163125455379486, 0.5358040928840637], [0.010309789329767227, 0.06773903220891953, 0.2380148321390152, -0.01207138691097498, -0.3055259883403778, 0.2111084908246994, -0.23744487762451172, 0.47719159722328186, -0.10724340379238129, 0.42977097630500793, 0.10716313868761063, 0.2573220729827881, 0.20354771614074707, 0.2809423804283142, 0.11897247284650803, 0.21132028102874756, 0.12615066766738892, -0.20635034143924713, -0.1613452136516571, 0.3977634906768799], [-0.13373839855194092, 0.005312575958669186, 0.12970076501369476, 0.04015699028968811, -0.26522108912467957, 0.06463991105556488, -0.10500578582286835, 0.05086476728320122, -0.17857369780540466, 0.4960508644580841, 0.07517033815383911, -0.15006718039512634, 0.30352485179901123, 0.012197338044643402, 0.03936578333377838, 0.11743186414241791, 0.22063393890857697, 0.2529290020465851, -0.23719476163387299, 0.11384130269289017], [0.08471835404634476, 0.14581547677516937, 0.07496868818998337, 0.38350921869277954, 0.091273233294487, 0.14152735471725464, 0.6125150322914124, -0.06858432292938232, 0.035786472260951996, -0.2969338297843933, -0.14310358464717865, -0.025420986115932465, 0.031639017164707184, 0.1473502665758133, -0.06877193599939346, 0.02449008822441101, -0.7042714357376099, -0.2658212184906006, 0.06862928718328476, -0.24792572855949402], [-0.16515077650547028, 0.15792687237262726, -0.1317896544933319, 0.15945056080818176, 0.010620915330946445, -0.12576977908611298, 0.5714526176452637, 0.5401558876037598, 0.35118240118026733, -0.008454058319330215, -0.439561128616333, 0.25876620411872864, -0.04676390439271927, 0.3044634461402893, -0.3009340465068817, 0.6348555088043213, -0.6769600510597229, -0.3561546802520752, 0.36593925952911377, 0.23232482373714447], [-0.43217483162879944, 0.20907914638519287, -0.007109564729034901, -0.07227369397878647, 0.27855223417282104, 0.07137873768806458, 0.08662356436252594, 0.18635106086730957, -0.5867224931716919, -0.3077685832977295, 0.18891264498233795, 0.3790028691291809, 0.3014666736125946, -0.06721211224794388, 0.12302640080451965, 0.2260865569114685, 0.18863056600093842, 0.360428124666214, -0.45699697732925415, 0.0512581393122673], [0.6192130446434021, -0.8790984749794006, -0.6283031702041626, -0.6814692616462708, -0.5428285598754883, -0.6791079044342041, -0.5907703042030334, -0.4266720116138458, -0.5734947919845581, -0.8016870021820068, 0.4281911849975586, 0.4040446877479553, -0.6252102851867676, -0.36010274291038513, 0.14359354972839355, -0.15773840248584747, 0.7332884073257446, 0.580264151096344, -0.854247510433197, -0.28894394636154175], [0.23274090886116028, 0.11090045422315598, -0.07620774209499359, -0.15705689787864685, -0.015436832793056965, 0.07272422313690186, 0.010630104690790176, -0.5539457201957703, -0.28235316276550293, -0.10834457725286484, -0.15891090035438538, -0.13502363860607147, -0.03211994096636772, -0.08912800252437592, 0.34394463896751404, 0.38826826214790344, -0.03030240349471569, 0.18473361432552338, -0.007989550940692425, 0.05017882212996483], [0.1215701550245285, 0.183746337890625, 0.1806124746799469, -0.01812741532921791, -0.09372696280479431, 0.20232407748699188, -0.0035557050723582506, 0.5972188115119934, -0.16869305074214935, 0.03302169218659401, -0.14035850763320923, 0.4728565812110901, 0.08454949408769608, 0.1609681248664856, 0.2881697416305542, 0.1147676333785057, 0.015003935433924198, -0.3144739866256714, 0.20196816325187683, 0.03418758511543274], [-0.0240330807864666, -0.1777401566505432, -0.027974391356110573, -0.06099895015358925, -0.117265485227108, 0.12986166775226593, -0.04369140788912773, 0.7870624661445618, 0.08136700838804245, 0.09151170402765274, 0.3398037850856781, -0.13770176470279694, 0.08171678334474564, -0.12368128448724747, 0.1442873179912567, -0.03139409050345421, 0.11978531628847122, -0.016454169526696205, -0.20082968473434448, 0.052323080599308014], [-0.20811833441257477, 0.32714512944221497, 0.19798827171325684, 0.1921858787536621, -0.19006285071372986, 0.023212607949972153, 0.006805268116295338, 0.09168100357055664, -0.04951547831296921, 0.2437264770269394, -0.1423887312412262, 0.3026290535926819, 0.10827077180147171, 0.11156613379716873, 0.11162393540143967, 0.2605753540992737, 0.022949188947677612, -0.12809185683727264, 0.23372477293014526, 0.19137261807918549], [0.12436874210834503, 0.13369593024253845, 0.09107483178377151, 0.24455603957176208, -0.2743045687675476, -0.2837813198566437, 0.23337098956108093, -1.017844319343567, 0.821914792060852, -0.0981174111366272, -0.06813755631446838, 0.5573806762695312, -0.033765170723199844, -0.04982389509677887, -0.9727494716644287, 0.7165992856025696, -0.1490335911512375, -0.07190807163715363, 0.3495349884033203, 0.2345355749130249], [0.02639825828373432, 0.15306924283504486, -0.1681177169084549, -0.3815644681453705, -0.37365561723709106, -0.03174622356891632, -0.1259949952363968, -0.3211289048194885, -0.12792566418647766, -0.4488426446914673, 0.4418739676475525, -0.1712407022714615, 0.12210623174905777, -0.4187626540660858, -0.06984806060791016, -0.039081841707229614, 0.30023089051246643, 0.44136837124824524, -0.17251132428646088, -0.2205348163843155], [-0.048163656145334244, 0.06770187616348267, 0.03461406007409096, 0.4396635591983795, 0.43676191568374634, 0.16102717816829681, 0.6395992040634155, -0.4817357063293457, -0.18952706456184387, 0.16548492014408112, -0.25029227137565613, 0.11693636327981949, 0.04596927762031555, 0.011139342561364174, 0.17424997687339783, 0.36260321736335754, -0.39955008029937744, -0.3193420171737671, -0.06436480581760406, 0.18290956318378448], [-0.3038792610168457, 0.16546538472175598, 0.01775062456727028, -0.03354740887880325, 0.07040496915578842, 0.38910114765167236, 0.044008515775203705, 0.045052457600831985, -0.35962122678756714, -0.2810860276222229, 0.19533291459083557, 0.23027925193309784, 0.3130125105381012, -0.16530776023864746, 0.30068081617355347, 0.2987014353275299, -0.06917066127061844, 0.08923022449016571, -0.17053017020225525, -0.004588588606566191], [-0.22942982614040375, -0.048263080418109894, -0.24849297106266022, -0.02521284855902195, -0.14606687426567078, -0.018216589465737343, -0.3365321457386017, 0.3432517945766449, 0.024317661300301552, 0.11728152632713318, 0.11427443474531174, 0.4394962191581726, 0.1419721096754074, -0.061141565442085266, 0.04649347439408302, 0.255349338054657, 0.27919262647628784, 0.03442441672086716, -0.3393128514289856, 0.28193241357803345], [-0.0653504729270935, 0.11016838997602463, -0.03647535666823387, 0.07884257286787033, -0.5237786769866943, -0.011546730995178223, -0.3238708972930908, -0.37618550658226013, -0.20413020253181458, 0.1441906988620758, -0.11973366141319275, 0.13949482142925262, 0.22413375973701477, 0.0729878693819046, 0.3279173970222473, 0.1791774481534958, 0.11527818441390991, 0.13206608593463898, 0.13603246212005615, 0.18492931127548218], [-0.4638682007789612, -0.30824851989746094, 0.14038591086864471, 0.21541650593280792, 0.1439477652311325, 0.11066386848688126, -0.10452745854854584, 0.5291616916656494, 0.3640510141849518, -0.048773329704999924, 0.12832804024219513, -0.1664741039276123, -0.24014100432395935, -0.01076921634376049, -0.25834959745407104, -0.03614383190870285, 0.21727335453033447, -0.18170611560344696, 0.134847491979599, -0.08265170454978943], [0.029757576063275337, -0.13288433849811554, 0.00044147061998955905, -0.1426020711660385, 0.16671448945999146, -0.11708471924066544, 0.07191132009029388, -0.45943939685821533, -0.07333870977163315, 0.052500005811452866, -0.3198208808898926, -0.155471071600914, -0.09853485971689224, 0.03544224053621292, -0.023646237328648567, 0.028080319985747337, -0.10475540906190872, 0.2490554004907608, 0.24649494886398315, -0.1099286824464798], [0.10195664316415787, -0.33924585580825806, -0.33558037877082825, 0.004448667634278536, -0.29186344146728516, -0.5370288491249084, -0.19443091750144958, 0.4211011230945587, -0.08978096395730972, -0.23649518191814423, 0.6057947278022766, -0.09814835339784622, -0.18023310601711273, -0.4062013030052185, 0.36682000756263733, -0.38388168811798096, 0.07793491333723068, 0.38069242238998413, -0.4029581844806671, -0.3676380515098572], [-0.03216133266687393, 0.06274498999118805, -0.18258899450302124, -0.1662638783454895, 0.2051687091588974, 0.15666194260120392, -0.02980055846273899, -0.366181343793869, 0.2313685119152069, -0.07469646632671356, 0.14379170536994934, -0.2574070692062378, 0.07385855913162231, -0.3354647159576416, 0.24908141791820526, -0.3715733587741852, 0.07563279569149017, 0.18752752244472504, -0.031039144843816757, -0.38090577721595764], [0.13289743661880493, 0.031960539519786835, 0.01111889723688364, -0.3091602325439453, -0.007067905738949776, 0.050464220345020294, 0.3803178071975708, -0.14221224188804626, -0.3064277172088623, -0.19536185264587402, -0.1775241643190384, -0.2510886788368225, -0.19242264330387115, -0.23834912478923798, 0.3624095618724823, -0.19265566766262054, -0.3614787459373474, -0.03461137413978577, -0.1958705484867096, -0.23076817393302917], [0.03332239389419556, 0.41492435336112976, 0.06472941488027573, 0.25456106662750244, 0.07072820514440536, -0.21275639533996582, 0.17353595793247223, -0.09003518521785736, -0.033364586532115936, 0.051177676767110825, -0.0009137269225902855, 0.3759707510471344, -0.1422538310289383, 0.10636298358440399, 0.25338414311408997, 0.22671999037265778, -0.26903071999549866, 0.06229278817772865, -0.12872561812400818, -0.028503747656941414], [0.24472461640834808, -0.4287731945514679, 0.07251381874084473, 0.0946158915758133, 0.011948822066187859, -0.1014355719089508, 0.1897294819355011, 0.43517208099365234, 0.4096088111400604, -0.17233218252658844, 0.10933482646942139, -0.5569635033607483, -0.2959875762462616, -0.25622814893722534, -0.16621915996074677, -0.38023391366004944, -0.256002813577652, -0.31667980551719666, 0.10792775452136993, -0.38150814175605774], [0.06575680524110794, 0.3457243740558624, -0.311085969209671, -0.12834860384464264, -0.09662285447120667, 0.19546809792518616, -0.3992583453655243, 0.2517963945865631, -0.06108923628926277, -0.25101298093795776, 0.44132134318351746, 0.5733156800270081, 0.3816811442375183, -0.16555847227573395, 0.18625667691230774, -0.05477939918637276, 0.7746152877807617, 0.36699050664901733, -0.0741051584482193, -0.05355984717607498], [0.4496670961380005, -0.323918879032135, -0.03691649064421654, -0.23336629569530487, -0.035869915038347244, -0.2805735766887665, 0.30996671319007874, -0.864895224571228, -0.25381237268447876, -0.5724879503250122, -0.24085140228271484, -0.4591541588306427, -0.3535340130329132, -0.059783950448036194, -0.41037818789482117, -0.06514193117618561, -0.21909986436367035, 0.1836075782775879, -0.11726967990398407, -0.13259023427963257], [0.1173449456691742, -0.12619510293006897, 0.10579167306423187, 0.026997344568371773, -0.03188081085681915, -0.25753065943717957, 0.02675483003258705, 0.39801374077796936, 0.25570592284202576, 0.04203789681196213, -0.24178101122379303, -0.129018172621727, -0.37139734625816345, 0.032182108610868454, -0.22785142064094543, -0.1385451704263687, -0.12862473726272583, 0.11683060973882675, 0.026859024539589882, 0.06801113486289978], [-0.4106985628604889, 0.3114573657512665, 0.26322847604751587, -0.23730476200580597, 0.29392004013061523, 0.395690381526947, -0.46741706132888794, -0.4428495466709137, -0.0843658372759819, -0.3476771116256714, -0.13252446055412292, 0.07803377509117126, 0.4326479434967041, -0.01875523291528225, 0.3900095820426941, 0.2484043836593628, -0.019029898568987846, 0.03805597126483917, -0.10612218827009201, 0.30650612711906433], [-0.5139041543006897, 0.2805272340774536, 0.2136639952659607, 0.263173907995224, 0.37064093351364136, 0.29565349221229553, -0.1928185075521469, 0.1176612451672554, 0.32625898718833923, 0.08883389830589294, 0.29013732075691223, -0.13104631006717682, 0.26846933364868164, 0.012589947320520878, 0.03703141212463379, -0.04159750044345856, -0.0639757513999939, 0.09382417798042297, 0.20069406926631927, 0.08699742704629898], [0.09058073163032532, 0.42360976338386536, 0.2080647200345993, 0.07843689620494843, 0.2098965048789978, -0.13070175051689148, 0.005818595644086599, -0.42611807584762573, -0.1149180606007576, 0.07719016075134277, -0.25752514600753784, 0.23289601504802704, -0.21021394431591034, 0.2406461387872696, 0.1983916014432907, 0.2764078676700592, -0.22920551896095276, 0.021675238385796547, 0.10693548619747162, 0.35704776644706726], [-0.039261750876903534, -0.21260027587413788, -0.20721179246902466, -0.09299305826425552, 0.13043361902236938, 0.12595632672309875, -0.26719868183135986, 0.02105577476322651, -0.10529720038175583, 0.1297392100095749, 0.2539997100830078, -0.1271490752696991, 0.3519153296947479, -0.3704632818698883, 0.15180759131908417, -0.1807195544242859, 0.1377764344215393, 0.3375038504600525, -0.017061447724699974, -0.2730991542339325], [-0.01326602790504694, 0.2518109679222107, -0.08719417452812195, -0.14184735715389252, -0.02830645442008972, -0.3689034879207611, -0.04109903424978256, -0.031279537826776505, 0.04594847932457924, 0.036154236644506454, -0.08000773191452026, 0.13546115159988403, -0.011661868542432785, 0.142157644033432, -0.1009175032377243, 0.0874510407447815, 0.14207468926906586, 0.28559136390686035, 0.1636851727962494, -0.056735433638095856], [-0.5790396928787231, 0.2744119465351105, 0.4550204277038574, 0.4364241063594818, 0.3951256573200226, 0.2401375025510788, -0.03860071301460266, 0.24461977183818817, -0.020541207864880562, 0.5959660410881042, -0.40757930278778076, 0.12292256206274033, 0.052095621824264526, 0.5295734405517578, 0.2912399172782898, 0.0746658593416214, -0.5966649055480957, -0.29229503870010376, 0.4199067950248718, 0.1651935875415802], [-0.009429003112018108, 0.3143589496612549, -0.00979857798665762, -0.2561436593532562, -0.09936115890741348, 0.2918858826160431, -0.5930978655815125, 0.09122505784034729, -0.5017173290252686, -0.18659426271915436, -0.07186627388000488, 0.6628302931785583, 0.2263331264257431, 0.22138430178165436, 0.3132503628730774, 0.4361630976200104, -0.10269610583782196, -0.16835236549377441, -0.14921289682388306, 0.24595002830028534], [-0.09662239998579025, -0.0991319939494133, -0.12483935058116913, -0.09932654350996017, -0.0440618060529232, 0.038089245557785034, 0.31580767035484314, -0.9010576605796814, -0.7433478236198425, -0.345851868391037, -0.2880619168281555, 0.11451089382171631, 0.022926408797502518, 0.02809506095945835, -0.11389186978340149, 0.4753916561603546, 0.031213000416755676, -0.22801190614700317, -0.18846958875656128, 0.4607935845851898], [0.42985349893569946, -0.021297402679920197, -0.059791721403598785, -0.0022405278868973255, 0.22451619803905487, -0.2087811529636383, 0.7354248762130737, -0.7291505336761475, 0.49841299653053284, -0.5667629837989807, 0.2754414975643158, -0.09850263595581055, -0.14048270881175995, -0.11183000355958939, -0.4453318119049072, -0.4100057780742645, -0.2039639949798584, 0.33406609296798706, 0.0728856548666954, -0.2847306728363037], [-0.16447466611862183, -0.057091884315013885, 0.14663630723953247, -0.04850970581173897, 0.06614448130130768, 0.01372087374329567, 0.05377541854977608, 0.5606915354728699, 0.3516117036342621, 0.3516707122325897, 0.03174584358930588, -0.012475492432713509, 0.251184344291687, 0.07880646735429764, -0.3725605905056, -0.056484781205654144, 0.027319464832544327, -0.1979985386133194, -0.13859811425209045, -0.30162811279296875], [-0.19424846768379211, -0.042428355664014816, 0.2123490571975708, -0.06395640224218369, -0.08740659803152084, 0.10524313896894455, -0.3293520212173462, 0.4886532425880432, -0.26459571719169617, -0.40313607454299927, 0.39988330006599426, 0.14907880127429962, 0.27925023436546326, -0.08667368441820145, -0.11916665732860565, 0.13214817643165588, 0.31340089440345764, 0.3010292947292328, -0.33867180347442627, -0.0051352898590266705], [-0.03722706064581871, -0.21165725588798523, 0.14664612710475922, 0.21026532351970673, -0.4610190689563751, -0.2718101143836975, -0.006118359975516796, 0.809901773929596, 0.18516765534877777, 0.5005737543106079, -0.18327081203460693, -0.001981356181204319, -0.29270750284194946, 0.01600821688771248, -0.005768018774688244, -0.04544467478990555, 0.11538242548704147, -0.2611517310142517, 0.09047546237707138, 0.11377228051424026], [-0.39152929186820984, 0.24209466576576233, 0.34923022985458374, 0.36107081174850464, 0.13055959343910217, 0.30702832341194153, 0.012810232117772102, 0.1985856592655182, -0.03536834940314293, 0.47151583433151245, -0.2642216682434082, 0.40828466415405273, 0.3321908414363861, 0.23670049011707306, 0.26670223474502563, 0.4653647541999817, -0.08179891109466553, -0.34631380438804626, 0.21995821595191956, 0.43059250712394714], [-0.10000431537628174, 0.2663171589374542, 0.16789723932743073, 0.07872135192155838, -0.26538243889808655, -0.14461009204387665, 0.20108701288700104, -0.23370131850242615, -0.16753360629081726, 0.32506945729255676, -0.2606295049190521, 0.5316352844238281, 0.14943787455558777, 0.23439818620681763, 0.15135523676872253, 0.4382549226284027, -0.26335981488227844, -0.10065816342830658, 0.0060323867946863174, 0.38733983039855957], [-0.10948419570922852, 0.13465775549411774, 0.18723353743553162, 0.2965170443058014, -0.22987426817417145, 0.12287385761737823, -0.3381357491016388, 0.6173027157783508, 0.07799696177244186, 0.7247480750083923, -0.19365113973617554, 0.28958484530448914, 0.13373175263404846, 0.39884889125823975, 0.35435670614242554, 0.19039611518383026, -0.038525067269802094, -0.36480513215065, 0.07142702490091324, 0.5807157158851624], [-0.0492275208234787, 0.0928024873137474, 0.14142854511737823, -0.02940382808446884, -0.180013969540596, 0.08103635162115097, -0.13074153661727905, 0.007350242231041193, -0.07493491470813751, 0.3944268226623535, 0.10735082626342773, -0.0261232890188694, 0.2684560716152191, -0.02751905657351017, -0.1371893435716629, 0.14178341627120972, 0.2236153483390808, 0.22162693738937378, -0.24507619440555573, 0.17459499835968018], [-0.08649493008852005, 0.33078619837760925, -0.08095047622919083, 0.35687753558158875, -0.06831952929496765, -0.02370956540107727, 0.2475060373544693, 0.2809571623802185, -0.19446071982383728, -0.23561078310012817, 0.17621038854122162, 0.24502284824848175, 0.1484491527080536, -0.042452793568372726, 0.2579805552959442, 0.022683609277009964, -0.4366084933280945, -0.032355863600969315, -0.12812095880508423, -0.2193576693534851], [-0.47235071659088135, 0.48617494106292725, -0.010131148621439934, -0.7021834254264832, 0.21882183849811554, 0.06544648110866547, -0.8133401870727539, -0.4093601703643799, -1.1271547079086304, -1.3965303897857666, 0.336798757314682, -0.289150595664978, 0.8314145803451538, -0.18586209416389465, 0.28269317746162415, 0.08835203945636749, 0.9600498676300049, 1.5738948583602905, -0.5113608837127686, -0.3874940872192383], [-0.026072118431329727, 0.25026679039001465, 0.09642422199249268, 0.08086447417736053, 0.3700144290924072, 0.12450915575027466, 0.7633017301559448, -1.282476544380188, -0.3352290987968445, -0.11372987180948257, -0.16626334190368652, -0.29110661149024963, 0.023265652358531952, 0.19407276809215546, -0.48786377906799316, 0.36379474401474, -0.33153626322746277, -0.28127068281173706, -0.14542490243911743, 0.01953611709177494], [0.07205071300268173, -0.12803293764591217, -0.13314677774906158, -0.1623271405696869, -0.19939492642879486, -0.2877194881439209, -0.2781279981136322, -0.9674158096313477, -0.5232595205307007, -0.4439575970172882, -0.04003521427512169, 0.17819753289222717, -0.022154109552502632, 0.01444905437529087, -0.1045152023434639, 0.5127095580101013, 0.2983444929122925, 0.2667791545391083, -0.1699827015399933, 0.12912772595882416], [0.03436439111828804, -0.03448648005723953, -0.12570060789585114, 0.002133778529241681, -0.26282966136932373, 0.2466936707496643, -0.08528688549995422, -0.7792260050773621, -0.1213003396987915, 0.11495749652385712, -0.07353805750608444, -0.11971884965896606, 0.09317382425069809, 0.04835691675543785, 0.39311322569847107, 0.41958168148994446, 0.1694905161857605, 0.2855852246284485, -0.1478748470544815, 0.18094180524349213], [0.5945199728012085, -0.03501434624195099, -0.10338978469371796, -0.17004910111427307, -0.22405563294887543, -0.09011983871459961, 0.36710435152053833, 0.2411930412054062, -0.08009926229715347, 0.36495858430862427, -0.3427127003669739, 0.42387327551841736, -0.37856215238571167, -0.06538395583629608, -0.10756123065948486, 0.04047297313809395, -0.07100184261798859, -0.479430615901947, -0.20692452788352966, 0.08309408277273178], [-0.06668350845575333, -0.1211211159825325, -0.06624367088079453, -0.07997660338878632, 0.1068417951464653, 0.21480156481266022, -0.08738502115011215, 0.8161514401435852, 0.11911147832870483, -0.11271747946739197, 0.614327073097229, -0.02867775596678257, 0.20352807641029358, -0.16236518323421478, 0.07172594964504242, -0.020344117656350136, 0.19096021354198456, 0.13974831998348236, -0.20825016498565674, -0.07214939594268799], [-0.25851237773895264, 0.4235546588897705, 0.22068792581558228, 0.2186637967824936, -0.24052701890468597, 0.04786626249551773, 0.003537772223353386, -0.0013111205771565437, -0.07602415233850479, 0.33293598890304565, -0.1772395521402359, 0.32761451601982117, 0.16048283874988556, 0.1613241583108902, 0.10437502712011337, 0.26656511425971985, 0.06749062240123749, -0.08689681440591812, 0.1875012069940567, 0.2605082392692566], [-0.17718255519866943, 0.10120563209056854, 0.2307695746421814, 0.2898435592651367, -0.13369326293468475, 0.10730383545160294, 0.045166172087192535, -0.3781128227710724, -0.3273673355579376, -0.20699580013751984, 0.16466955840587616, 0.6496070623397827, 0.2835862934589386, 0.07351603358983994, -0.26555076241493225, 0.43140506744384766, 0.09672614187002182, -0.0023017642088234425, -0.3190344572067261, 0.23614338040351868], [-0.019430041313171387, 0.01987285539507866, -0.15981733798980713, -0.3164922297000885, -0.1903134137392044, 0.03419935703277588, -0.1325596123933792, -0.15803726017475128, -0.08243630081415176, -0.597655177116394, 0.33808737993240356, -0.0786294937133789, 0.09398382157087326, -0.4217778444290161, 0.029826808720827103, -0.04534333199262619, 0.3594333827495575, 0.5169867277145386, -0.27688950300216675, -0.2786777913570404], [0.009742612950503826, 0.035021521151065826, -0.0611024871468544, 0.12978005409240723, 0.1294536590576172, 0.11493650823831558, 0.4631608724594116, -0.6194449067115784, -0.18933425843715668, 0.24603413045406342, -0.17742601037025452, -0.03511423245072365, 0.15763436257839203, -0.10030627995729446, 0.3135407269001007, 0.4008064270019531, -0.1908881664276123, 0.04934612661600113, 0.08908002823591232, 0.19855554401874542], [-0.1353013813495636, 0.006490371655672789, -0.22897446155548096, -0.16695083677768707, 0.2224303036928177, 0.2435740828514099, -0.20471976697444916, 0.35847851634025574, -0.1282024383544922, -0.0903235375881195, 0.32968538999557495, 0.21055418252944946, 0.2911665439605713, -0.15092049539089203, 0.41631177067756653, 0.1482727974653244, 0.21508915722370148, 0.34218353033065796, -0.0530506893992424, 0.021479235962033272], [-0.18107706308364868, -0.14329276978969574, 0.014746793545782566, -0.1084335595369339, -0.20404349267482758, 0.23041246831417084, 0.07478845864534378, -0.08945977687835693, -0.09518573433160782, 0.12848599255084991, -0.20921680331230164, -0.00319702853448689, -0.06072807312011719, 0.2299814075231552, -0.14205284416675568, 0.26547980308532715, 0.08681860566139221, -0.40515023469924927, -0.12946678698062897, 0.16947416961193085], [-0.08943091332912445, 0.03529410809278488, -0.12470940500497818, 0.07335943728685379, -0.5751461386680603, -0.025683024898171425, -0.3853660225868225, -0.010811099782586098, -0.080313540995121, 0.15021447837352753, 0.03504746034741402, 0.23211389780044556, 0.06670665740966797, -0.044854409992694855, 0.40980514883995056, 0.1527806520462036, 0.06496860086917877, 0.025909099727869034, 0.11568077653646469, 0.0050575220957398415]], "rec.bias_ih_l0": [-0.08434925973415375, 0.1803179234266281, -0.6230559945106506, -0.37650159001350403, -0.3433151841163635, -0.2121087908744812, 0.07971131056547165, 0.41125789284706116, -0.14237965643405914, -0.6252875924110413, -0.3185479938983917, 0.105371855199337, 0.18868349492549896, -0.496379554271698, -0.4706888198852539, -0.2712143659591675, -0.07246947288513184, 0.035853538662195206, -0.10578086227178574, -0.002515615662559867, -0.05878483131527901, -0.06721162796020508, -0.4617762565612793, 0.0048246681690216064, -0.1048906072974205, -0.1997789740562439, -0.1294400691986084, -0.08942354470491409, -0.16624626517295837, 0.8118603229522705, 0.007784146815538406, -0.4277697801589966, -0.1608784943819046, -0.5623272061347961, -0.020436467602849007, 0.05696873739361763, 0.16336718201637268, -0.1353880912065506, 0.25995907187461853, -0.08690746873617172, 0.26054587960243225, -0.22283433377742767, 0.2139296680688858, 0.1948789805173874, -0.07407775521278381, -0.10948948562145233, 0.37024620175361633, -0.01966068521142006, -0.048591870814561844, -0.1358044147491455, -0.08675951510667801, -0.3266541659832001, -0.23970958590507507, 0.26787224411964417, -0.17640791833400726, -0.2733902335166931, -0.4206520617008209, -0.19286465644836426, 0.12358812242746353, 0.07490277290344238, -0.19966350495815277, 0.0936644971370697, -0.4958380460739136, -0.2908954918384552, -0.12090101093053818, -0.31318825483322144, -0.1700255423784256, -0.2602730393409729, -0.10925055295228958, -0.12692242860794067, -0.21045777201652527, 0.06868040561676025, -0.234788179397583, -0.3584805130958557, -0.1839483380317688, 0.07980451732873917, 0.008717384189367294, -0.017216991633176804, 0.10159282386302948, -0.18842940032482147], "rec.bias_hh_l0": [-0.049226850271224976, 0.16105064749717712, -0.6035647392272949, -0.2936681807041168, -0.515237033367157, -0.365406334400177, -0.0783807635307312, 0.6362172365188599, 0.04785717651247978, -0.9304800033569336, -0.1603558212518692, 0.09208876639604568, 0.16564379632472992, -0.5731170177459717, -0.5384095907211304, 0.1047687828540802, -0.16926921904087067, -0.16395755112171173, -0.34682437777519226, -0.22503797709941864, -0.12751847505569458, -0.11384374648332596, -0.564300000667572, -0.09699933975934982, 0.0493701808154583, -0.4666183590888977, 0.057089708745479584, -0.046508338302373886, -0.36713463068008423, 0.49291956424713135, 0.07505206018686295, -0.17216908931732178, 0.026066407561302185, -0.45692548155784607, -0.17569948732852936, -0.2505371868610382, 0.18747493624687195, -0.28330016136169434, 0.21562381088733673, -0.33820104598999023, 0.0804348811507225, -0.262693852186203, 0.04730972275137901, 0.23354578018188477, 0.06247269734740257, -0.10163198411464691, 0.3669450581073761, -0.009333895519375801, 0.1812388002872467, 0.03553531691431999, -0.22683198750019073, -0.01731834001839161, -0.5169614553451538, 0.03942614048719406, -0.2704404592514038, -0.13758297264575958, -0.2920174300670624, -0.20894946157932281, -0.029586918652057648, -0.1341264843940735, -0.17682412266731262, -0.0794723704457283, -0.5485035181045532, -0.2833136320114136, -0.3628043532371521, -0.29724904894828796, -0.1403418332338333, -0.10620325803756714, -0.434085488319397, -0.06474684178829193, -0.35755476355552673, 0.1362690031528473, -0.12688757479190826, -0.6211164593696594, -0.18748706579208374, 0.08224667608737946, 0.0711529329419136, 0.1167168989777565, -0.011887154541909695, -0.2404293566942215], "lin.weight": [[0.20654186606407166, -0.0016200549434870481, 0.047525160014629364, 0.08852146565914154, -0.003993469290435314, -0.13288842141628265, 0.2773699462413788, -0.4759455621242523, -0.5005846619606018, -0.12405185401439667, -0.07887455075979233, 0.2844504415988922, -0.2315731942653656, 0.09001389890909195, -0.04455356299877167, 0.03430367261171341, -0.07796966284513474, -0.4338795840740204, -0.09991125762462616, 0.10309798270463943]], "lin.bias": [-0.12184633314609528]}}