{"model_data": {"model": "SimpleRNN", "input_size": 1, "skip": 1, "output_size": 1, "unit_type": "LSTM", "num_layers": 1, "hidden_size": 20, "bias_fl": true}, "state_dict": {"rec.weight_ih_l0": [[-0.03305239975452423], [0.033797737210989], [-0.19420753419399261], [-0.7377818822860718], [0.5693055987358093], [-0.4208298623561859], [-0.22184570133686066], [0.2574210464954376], [0.14573222398757935], [-0.3358725309371948], [-0.5578057169914246], [-0.0787852331995964], [0.07118025422096252], [0.04873694106936455], [0.25398844480514526], [-0.2878004312515259], [-0.01807200163602829], [-0.5920262932777405], [-3.0997414588928223], [-0.7428461909294128], [0.03639543429017067], [0.21596696972846985], [-0.09786154329776764], [-0.7109301090240479], [0.6445684432983398], [-0.2315954864025116], [-0.2235901653766632], [-0.5848061442375183], [0.4123777449131012], [-0.29444336891174316], [-0.747673511505127], [0.10212253779172897], [0.22903932631015778], [-0.1074218600988388], [0.03803512081503868], [-0.32296377420425415], [-0.06726191192865372], [-0.3058440387248993], [-0.2913643419742584], [-0.4940023720264435], [-0.19007402658462524], [0.19504353404045105], [0.37873518466949463], [0.6841972470283508], [1.2745039463043213], [0.1646154671907425], [-0.3230692148208618], [-2.854890823364258], [-0.2901948094367981], [-0.37492233514785767], [-0.7600581645965576], [-0.2903134822845459], [-0.21683327853679657], [0.16270186007022858], [-0.03802192956209183], [-0.2665846645832062], [0.2688368856906891], [-0.4389333426952362], [2.4768948554992676], [-1.4717655181884766], [-0.016623303294181824], [0.07755838334560394], [-0.07266117632389069], [-0.6504454612731934], [0.8286349177360535], [-0.33894434571266174], [-0.3287324905395508], [0.05565495416522026], [0.48584240674972534], [-0.13792972266674042], [-0.9403278231620789], [-0.062224727123975754], [0.08889223635196686], [-0.08781295269727707], [0.364327609539032], [-0.5963494181632996], [-0.03168197348713875], [-0.5567174553871155], [-4.300605297088623], [-1.0224385261535645]], "rec.weight_hh_l0": [[0.10876356810331345, -0.03650329262018204, 0.06937596946954727, 0.12673819065093994, -0.13510721921920776, -0.06392298638820648, 0.022730804979801178, -0.10943445563316345, 0.13004687428474426, 0.14057783782482147, -0.14129768311977386, 0.053304173052310944, 0.009880696423351765, 0.08250563591718674, -0.05990825966000557, 0.18286506831645966, -0.02354755625128746, 0.07528313994407654, 0.34744536876678467, -0.17759300768375397], [-0.08181746304035187, -0.10635430365800858, 0.31373777985572815, 0.01971162110567093, -0.020214982330799103, -0.11503254622220993, -0.00589142506942153, -0.007887239567935467, -0.13953037559986115, -0.05590840429067612, 0.08918905258178711, -0.028125420212745667, -0.08927163481712341, -0.09190480411052704, -0.13748779892921448, -0.0789685770869255, -0.018559005111455917, 0.056635960936546326, -0.1044345498085022, 0.020711760967969894], [0.005761526990681887, -0.20609469711780548, -0.2572205662727356, 0.12053506076335907, -0.06220642104744911, -0.35507696866989136, -0.0429125539958477, 0.059303734451532364, -0.42777806520462036, -0.006437703967094421, 0.1870846003293991, -0.19072771072387695, -0.1944260597229004, 0.02733924798667431, 0.1547333300113678, -0.155387744307518, -0.0904955193400383, -0.1122182309627533, -0.26246675848960876, 0.1772402971982956], [0.1227705329656601, 0.0161887276917696, -0.20973962545394897, 0.005238918121904135, -0.03981411084532738, -0.11131159216165543, -0.03538697957992554, 0.29179102182388306, -0.037811197340488434, 0.12080048024654388, 0.09506209194660187, 0.03421122208237648, 0.03649846836924553, -0.028013063594698906, 0.05744633451104164, 0.024773627519607544, -0.024906381964683533, 0.18539535999298096, -0.2905755341053009, 0.1455029547214508], [0.014480095356702805, -0.04614298790693283, -0.17796076834201813, 0.008906024508178234, 0.03785824030637741, -0.13289159536361694, -0.1003638207912445, 0.06931344419717789, -0.11549759656190872, -0.058775290846824646, 0.009770507924258709, -0.12591391801834106, -0.018733149394392967, 0.04654497653245926, 0.20018820464611053, -0.06320404261350632, -0.0889141634106636, -0.09821192175149918, 0.1386387199163437, -0.10227634757757187], [0.23307731747627258, -0.02034536935389042, 0.35992056131362915, -0.031251586973667145, -0.012323189526796341, -0.006684196647256613, 0.016384774819016457, 0.05310730263590813, -0.4301353693008423, 0.061398833990097046, 0.11543616652488708, -0.0894140675663948, -0.04562139883637428, 0.04304086044430733, -0.06939349323511124, 0.10399693995714188, -0.018521348014473915, 0.12459651380777359, -0.15242213010787964, 0.07261224091053009], [-0.04412201792001724, -0.036979757249355316, 0.07885381579399109, 0.04380730912089348, 0.01137965451925993, -0.004739492200314999, -0.15748180449008942, -0.03940252587199211, -0.1125415489077568, 0.08944694697856903, -0.02436111308634281, 0.030820947140455246, 0.013338427990674973, 0.08297476917505264, -0.0286298468708992, 0.11057344079017639, 0.10070610791444778, 0.03182954713702202, 0.17818988859653473, -0.09427030384540558], [0.5412576794624329, -0.13858065009117126, -0.3925292193889618, -0.14719998836517334, 0.4341316521167755, -0.4009783864021301, 0.32112181186676025, 0.25482574105262756, -0.24487341940402985, -0.20954105257987976, 0.3537224233150482, -0.27834779024124146, -0.033872704952955246, 0.03496804088354111, 0.04898322373628616, -0.32017138600349426, -0.4557262659072876, -0.38957688212394714, -0.25104859471321106, 0.15988263487815857], [-0.2671480178833008, 0.16800597310066223, 0.26926520466804504, 0.17990899085998535, -0.2950153648853302, 0.07050815224647522, -0.24389247596263885, 0.008803186938166618, -0.1896006464958191, -0.12068230658769608, -0.08700431883335114, 0.0501568540930748, -0.11462971568107605, -0.07478760927915573, -0.117900550365448, 0.008540423586964607, 0.052494119852781296, 0.03307008743286133, -0.0726873129606247, 0.3322078585624695], [-0.12015897035598755, 0.1526099592447281, -0.15992480516433716, -0.16341455280780792, -0.05340299755334854, -0.005053224973380566, -0.06101994216442108, -0.3146076500415802, 0.07514109462499619, 0.20106491446495056, -0.05285460874438286, 0.10621073096990585, 0.12830567359924316, 0.05639524385333061, 0.10787586867809296, 0.11566542088985443, 0.17869654297828674, 0.02524729259312153, 0.09679658710956573, -0.17136043310165405], [0.0811552181839943, -0.015978941693902016, -0.25904327630996704, -0.21945297718048096, -0.09426266700029373, -0.2753530740737915, 0.0753282979130745, 0.10575886815786362, -0.14971652626991272, 0.22075624763965607, 0.09588383138179779, 0.04023473337292671, 0.005982448812574148, 0.0499681793153286, 0.19300095736980438, -0.00899265706539154, -0.0759967789053917, 0.0972239226102829, -0.030859703198075294, -0.03076353669166565], [0.06134883314371109, -0.11758486181497574, -0.1144072487950325, -0.06248898059129715, -0.20470349490642548, 0.05320953205227852, -0.1445288509130478, 0.15209104120731354, -0.18265056610107422, -0.016724824905395508, 0.16650214791297913, 0.1955619603395462, 0.0594516396522522, -0.16000144183635712, -0.10000728815793991, -0.216344952583313, 0.04419587552547455, 0.26227641105651855, -0.1911119669675827, 0.045065317302942276], [-0.06219450384378433, -0.2436775118112564, 0.09184499084949493, 0.07981672137975693, -0.08092638105154037, -0.13784103095531464, -0.09673866629600525, 0.015410585328936577, -0.30738821625709534, -0.04931170865893364, -0.015451790764927864, 0.0428655780851841, -0.22537650167942047, -0.13126064836978912, -0.1622401624917984, 0.07823172956705093, 0.03779525309801102, 0.20885147154331207, 0.2818695902824402, -0.18363463878631592], [-0.07604024559259415, -0.16387629508972168, -0.22390075027942657, -0.13336381316184998, -0.06833397597074509, 0.0842037945985794, -0.0025593372993171215, -0.1047312319278717, -0.14937835931777954, 0.1837644726037979, -0.13852252066135406, 0.14566951990127563, 0.056833211332559586, 0.029405413195490837, 0.11435871571302414, 0.18976189196109772, 0.08858098089694977, -0.1613873988389969, 0.08151154220104218, 0.01710578240454197], [-0.13034766912460327, -0.029377248138189316, -0.16096994280815125, 0.028833439573645592, -0.07174052298069, 0.11900937557220459, -0.10373979806900024, -0.12702710926532745, -0.145900696516037, 0.12683388590812683, -0.24605827033519745, 0.08534184843301773, -0.07328608632087708, 0.07604029029607773, 0.06197599321603775, 0.21970930695533752, 0.14972326159477234, -0.055989522486925125, 0.1567026674747467, 0.0012821907876059413], [-0.05849820002913475, 0.1247723400592804, 0.10901191085577011, -0.225510835647583, -0.24773526191711426, -0.01374000869691372, 0.06557854264974594, 0.35228216648101807, -0.012364641763269901, 0.026263732463121414, -0.11437977850437164, 0.16190847754478455, -0.05453000217676163, -0.1413036733865738, -0.22067299485206604, 0.008259661495685577, 0.08017875999212265, 0.10544881224632263, -0.4939599335193634, 0.4550997316837311], [-0.03015875071287155, 0.04358171299099922, 0.22137987613677979, 0.01789347641170025, 0.0671573132276535, -0.1281011998653412, -0.08485670387744904, 0.03233495354652405, -0.2129146009683609, 0.0840425044298172, 0.05915059149265289, 0.0348188653588295, 0.02146216109395027, -0.04619705677032471, -0.14393958449363708, -0.051390789449214935, -0.12071851640939713, 0.2837771773338318, -0.16544082760810852, -0.1267823427915573], [0.12308171391487122, -0.14807751774787903, -0.349191814661026, -0.35549241304397583, -0.246037557721138, -0.11697304993867874, 0.08359470963478088, 0.6321794986724854, -0.12933318316936493, 0.2184600532054901, 0.4037559926509857, 0.15697558224201202, 0.13175150752067566, -0.017275406047701836, 0.11397985368967056, -0.20541901886463165, -0.15673503279685974, 0.18673430383205414, -0.688776969909668, 0.3246809244155884], [0.6046733856201172, -0.450676292181015, -0.8509652614593506, -0.7891879081726074, -0.9208163619041443, -0.7724922895431519, 0.6373459100723267, 2.47240948677063, 0.15410596132278442, 0.2915957272052765, 1.2101670503616333, 0.13130691647529602, 0.2374388575553894, -0.0962749719619751, 0.1711541712284088, -0.7044482231140137, -0.9071019887924194, 0.23115700483322144, -1.840233564376831, 1.4144405126571655], [0.07166200876235962, 0.027023088186979294, -0.37502193450927734, -0.06106341630220413, -0.07889024913311005, -0.2730580270290375, 0.06460385024547577, 0.81885826587677, 0.12736760079860687, -0.27861154079437256, 0.5151654481887817, -0.13737323880195618, 0.08934217691421509, -0.10176496207714081, -0.06740808486938477, -0.356132447719574, -0.4092135429382324, -0.22778700292110443, -0.5085275769233704, 0.33990585803985596], [0.14645175635814667, -0.056365497410297394, 0.10024888068437576, 0.12131516635417938, -0.17745020985603333, 0.0500834695994854, -0.24277278780937195, -0.05790858715772629, 0.06937994062900543, 0.16687041521072388, -0.308406800031662, 0.10921469330787659, 0.018829114735126495, 0.05246933177113533, 0.12264957278966904, -0.1105978861451149, 0.04093306511640549, 0.18241821229457855, 0.37291646003723145, -0.29690197110176086], [0.03733951970934868, -0.2693183124065399, 0.5130492448806763, 0.08101021498441696, 0.1706666499376297, -0.24838638305664062, -0.07307304441928864, -0.1404699832201004, -0.48299652338027954, -0.06081381440162659, 0.0009632445289753377, -0.04769471660256386, -0.306107759475708, -0.12910352647304535, -0.21221880614757538, -0.15410462021827698, -0.15096041560173035, 0.015270907431840897, 0.08551841974258423, -0.20835350453853607], [0.3925572633743286, -0.46240922808647156, -0.4246431291103363, -0.2683582603931427, 0.3744393587112427, -0.5961315631866455, 0.3496570289134979, 0.17037449777126312, -0.0634758472442627, 0.3679448068141937, 0.10648562759160995, -0.48527440428733826, -0.3505847156047821, 0.3479101061820984, 0.4208270311355591, -0.2752815783023834, -0.31139370799064636, -0.3244374990463257, -0.09451255202293396, -0.09929665923118591], [-0.033706020563840866, 0.08223184943199158, -0.25139281153678894, -0.34047994017601013, -0.015533431433141232, 0.14695607125759125, 0.2036592811346054, 0.0009248533169738948, 0.19167593121528625, 0.4842812716960907, -0.4080984890460968, -0.019530732184648514, 0.17530836164951324, 0.22671915590763092, 0.25488564372062683, 0.39994189143180847, 0.031196296215057373, -0.13975194096565247, -0.17990326881408691, 0.1628286987543106], [-0.19721314311027527, -0.016989924013614655, -0.10088451206684113, 0.18508130311965942, 0.06979755312204361, -0.1370125114917755, -0.12849880754947662, -0.005105580668896437, -0.13114778697490692, -0.12140818685293198, 0.003997246269136667, -0.020558098331093788, -0.08962004631757736, 0.05870635807514191, -0.044428836554288864, -0.10602442175149918, 0.13360533118247986, -0.0960770845413208, 0.3362700939178467, -0.08159453421831131], [0.045106690376996994, -0.13256601989269257, 0.1414516717195511, -0.14432397484779358, 0.13633570075035095, -0.2088875025510788, 0.18916165828704834, -0.03605892136693001, -0.4640423059463501, -0.028013356029987335, -0.0971202552318573, 0.11035323143005371, -0.2027968019247055, 0.018328966572880745, -0.24095208942890167, 0.044742152094841, -0.17583626508712769, 0.04831597954034805, 0.2640751302242279, -0.21872574090957642], [0.09824331104755402, 0.017706017941236496, -0.21180245280265808, 0.08452591300010681, 0.09154961258172989, 0.08048074692487717, 0.006881036330014467, -0.15883544087409973, -0.03274485468864441, 0.11360868066549301, -0.05936567857861519, 0.06765766441822052, -0.02608782984316349, -0.007948671467602253, 0.018925396725535393, 0.04605426266789436, -0.04338034987449646, -0.047192420810461044, 0.1602952629327774, -0.07121456414461136], [-0.37055641412734985, 0.07105331122875214, 0.23006537556648254, -0.31780606508255005, -0.43037453293800354, 0.09989000856876373, -0.261488676071167, -0.02276516705751419, -0.12479034811258316, -0.018916403874754906, -0.09970786422491074, 0.0010556989582255483, 0.017277777194976807, -0.00437921704724431, -0.1200791671872139, 0.4036962687969208, 0.15174514055252075, -0.6735369563102722, -0.5041624903678894, 0.683953583240509], [0.14198578894138336, 0.0546894408762455, 0.503024160861969, 0.07126902788877487, 0.2195906937122345, -0.22637446224689484, 0.08000113815069199, 0.26611989736557007, -0.29928430914878845, -0.17955641448497772, -0.02647346444427967, -0.4097195863723755, -0.36739638447761536, -0.03213801980018616, -0.2712320387363434, -0.10774742811918259, -0.135661780834198, 0.11250180751085281, 0.0230440441519022, -0.042447131127119064], [0.1551651954650879, 0.10707257688045502, -0.29045698046684265, -0.24522621929645538, 0.1688074916601181, 0.23899836838245392, 0.038419973105192184, -0.44034436345100403, 0.20818205177783966, 0.419051855802536, -0.4221765398979187, 0.20959798991680145, 0.20740289986133575, 0.2783590257167816, 0.33260267972946167, 0.2046022266149521, 0.26680251955986023, -0.19990196824073792, 0.23669983446598053, -0.1528748869895935], [0.08356036245822906, 0.15701207518577576, -0.22455446422100067, -0.17750371992588043, 0.10686507821083069, -0.057172007858753204, 0.26420819759368896, -0.10944774746894836, 0.017528612166643143, 0.4207267463207245, -0.38151663541793823, 0.022112173959612846, -0.07064290344715118, 0.20780718326568604, 0.17768821120262146, 0.03512951359152794, 0.054388534277677536, 0.013994156382977962, 0.026089541614055634, -0.252130925655365], [-0.14739331603050232, 0.09693734347820282, -0.05866098776459694, 0.07741443067789078, -0.2743861973285675, 0.018597465008497238, 0.040981631726026535, -0.02667856775224209, -0.06278937309980392, -0.007074149325489998, -0.019135097041726112, 0.06218459829688072, 0.021837186068296432, -0.18859539926052094, -0.1409044712781906, -0.005423585418611765, 0.09907860308885574, 0.16832587122917175, 0.08435890078544617, -0.058672945946455], [0.03839448466897011, -0.4128463566303253, 0.27565330266952515, 0.040818680077791214, 0.10313072800636292, -0.11193551868200302, -0.08396998792886734, 0.0884632095694542, -0.46684935688972473, -0.06829485297203064, -0.02705489844083786, -0.09415094554424286, -0.34443190693855286, -0.16042299568653107, -0.18119336664676666, -0.09714701026678085, -0.034327320754528046, 0.09874958544969559, 0.36209580302238464, -0.29589590430259705], [0.2572939991950989, -0.0766451358795166, -0.3876258432865143, -0.21763308346271515, -0.08061157166957855, 0.06342578679323196, 0.027481427416205406, -0.09339316189289093, -0.11356768012046814, 0.25860485434532166, -0.24818940460681915, 0.08184310793876648, 0.1012207418680191, 0.07854894548654556, 0.32654643058776855, 0.29207441210746765, 0.07206781208515167, -0.22681252658367157, 0.06933817267417908, 0.03766249120235443], [0.23410402238368988, -0.11961397528648376, -0.31577667593955994, -0.21035116910934448, 0.1784578114748001, 0.0477929562330246, 0.16392093896865845, -0.07051172107458115, -0.07757996022701263, 0.3365243077278137, -0.237936869263649, -0.08770113438367844, -0.055994048714637756, 0.2405267357826233, 0.22785893082618713, 0.19875997304916382, 0.019009945914149284, -0.22537283599376678, 0.20140735805034637, -0.12304816395044327], [-0.15153737366199493, 0.15644504129886627, 0.022502651438117027, -0.201121523976326, 0.03462540730834007, 0.05965222418308258, 0.042059995234012604, 0.08922729641199112, -0.1736469864845276, 0.07050713151693344, -0.20211544632911682, -0.00024824129650369287, -0.01802494376897812, 0.056357160210609436, -0.20970803499221802, 0.10412045568227768, 0.004043517168611288, 0.0028072732966393232, -0.5768010020256042, 0.2647843062877655], [0.06054966524243355, 0.07512172311544418, 0.19134312868118286, 0.059838321059942245, 0.11776871234178543, -0.17898346483707428, 0.05882035195827484, 0.11778225004673004, -0.16486506164073944, 0.015971489250659943, -0.08300834894180298, -0.05529474467039108, 0.028285035863518715, -0.026151949539780617, -0.1280188411474228, -0.10036007314920425, 0.08640066534280777, 0.24726325273513794, 0.025960246101021767, -0.22333654761314392], [-0.06920831650495529, -0.05260765552520752, -0.24461589753627777, -0.37685468792915344, -0.2076892852783203, 0.12871605157852173, -0.04260271415114403, 0.19712240993976593, -0.11896516382694244, 0.32624995708465576, -0.00437616603448987, 0.2635875642299652, 0.13551795482635498, 0.08166886121034622, 0.11046575009822845, 0.24664996564388275, 0.0038720311131328344, 0.12545469403266907, -0.5217954516410828, 0.3124507963657379], [-0.1264471858739853, 0.29299303889274597, -0.017083950340747833, 0.5438852310180664, -0.20584511756896973, 0.17343397438526154, -0.4045778512954712, -0.9644086956977844, 0.18940672278404236, -0.21165509521961212, -0.38481375575065613, 0.04095666483044624, 0.02884926088154316, -0.23527750372886658, -0.0792279839515686, 0.07271036505699158, 0.25059500336647034, 0.33923542499542236, 0.6871355175971985, -0.6085957288742065], [-0.22951142489910126, 0.13590006530284882, 0.03764311596751213, 0.2997146546840668, -0.11031772941350937, -0.09906364232301712, -0.19699475169181824, 0.41585955023765564, -0.1656038463115692, -0.20281314849853516, 0.13045531511306763, 0.017020687460899353, -0.003440329572185874, -0.2788955569267273, -0.19998082518577576, -0.32374703884124756, 0.08121420443058014, 0.325771301984787, 0.2079688012599945, -0.19408971071243286], [0.12767843902111053, -0.07125881314277649, 0.13915522396564484, 0.19772519171237946, 0.17485904693603516, 0.2709721326828003, -0.12886083126068115, -0.35377365350723267, -0.17226877808570862, 0.0206815917044878, -0.37463265657424927, 0.035231295973062515, -0.12920793890953064, 0.24436724185943604, -0.020181916654109955, 0.07576215267181396, 0.17472676932811737, 0.025640059262514114, 0.32852551341056824, -0.3176027238368988], [0.054905638098716736, 0.14061690866947174, -0.01234237290918827, 0.1757429838180542, 0.048835836350917816, 0.1514602154493332, -0.046038031578063965, -0.20927120745182037, 0.3121221959590912, -0.32077667117118835, 0.0007330508669838309, -0.10726404935121536, 0.29695752263069153, 0.12217175960540771, -0.02367972396314144, 0.031214280053973198, -0.05703342705965042, -0.506365180015564, -0.004037824459373951, 0.07573166489601135], [-0.17831499874591827, -0.1113756000995636, 0.37553200125694275, 0.04681112617254257, -0.19049564003944397, -0.059978652745485306, -0.10620301216840744, -0.1210486888885498, -0.0465572364628315, -0.01456112414598465, 0.15071426331996918, -0.18821997940540314, -0.004358271602541208, -0.07295432686805725, -0.09617104381322861, -0.03784070163965225, -0.015920640900731087, -0.2519679367542267, 0.22321738302707672, 0.07234827429056168], [-0.1425965130329132, 0.07634126394987106, 0.04984022676944733, 0.05636507645249367, 0.13775447010993958, 0.05187678337097168, -0.13686470687389374, -0.10977007448673248, 0.04964260756969452, -0.16289646923542023, -0.06108897179365158, -0.17060205340385437, 0.057918671518564224, 3.870437285513617e-05, 0.05221276357769966, -0.1146220788359642, -0.1290314644575119, -0.15747104585170746, 0.06246276572346687, 0.11552975326776505], [-0.024358440190553665, 0.06083696335554123, 0.014465581625699997, 0.15743844211101532, -0.1634758859872818, 0.12878473103046417, -0.20964878797531128, -0.2544504702091217, -0.020665466785430908, 0.1031225398182869, -0.2432325929403305, -0.11994734406471252, 0.13396745920181274, -0.02844928577542305, 0.1643361747264862, 0.2837746739387512, 0.22483284771442413, -0.03014429658651352, 0.4990231394767761, -0.16565337777137756], [0.029077790677547455, -0.1772712767124176, -0.3768104016780853, -0.14973986148834229, -0.016531499102711678, -0.033507347106933594, 0.1667533963918686, 0.03421459719538689, 0.1319238394498825, -0.10278832912445068, 0.15735670924186707, -0.10221505165100098, 0.26561370491981506, 0.23941925168037415, 0.3427065312862396, -0.04740617424249649, 0.16890110075473785, -0.13309481739997864, -0.17494645714759827, 0.10069004446268082], [0.09050245583057404, 0.14657941460609436, -0.009158752858638763, 0.20837685465812683, 0.02352362684905529, -0.17769326269626617, -0.12715542316436768, -0.10931412130594254, 0.13279548287391663, 0.18585442006587982, -0.0016534746391698718, 0.13923659920692444, -0.005848991684615612, 0.10330737382173538, -0.1366932988166809, -0.09243988990783691, 0.1431158035993576, -0.1342572420835495, 0.10761064291000366, -0.3046067953109741], [-0.022279320284724236, -0.22935040295124054, 0.20258255302906036, 0.1430014669895172, 0.07052873075008392, -0.1571766585111618, -0.10665983706712723, -1.0125397443771362, -0.07365012168884277, -0.2352835088968277, 0.1318843811750412, 0.09742236137390137, -0.16703158617019653, 0.011479668319225311, -0.1760459840297699, 0.11079521477222443, -0.050704535096883774, 0.18345695734024048, 0.19047494232654572, 0.3706376552581787], [-0.025441454723477364, -0.1953752487897873, -0.2790655493736267, -0.05058988556265831, -0.02991974540054798, 0.06583096832036972, -0.00835860799998045, -0.16918636858463287, 0.3089986741542816, -0.012443756684660912, 0.19632655382156372, 0.16660094261169434, 0.012796429917216301, 0.1250196099281311, 0.15713994204998016, 0.14836600422859192, -0.16506533324718475, -0.12436076998710632, -0.12052437663078308, 0.12438875436782837], [-0.06807214766740799, 0.23229265213012695, 0.06570501625537872, -0.031021930277347565, -0.03255840390920639, 0.08514007180929184, -0.12355528026819229, -0.2968725562095642, 0.14035090804100037, 0.11153651028871536, -0.14517799019813538, -0.11286319047212601, -0.24584680795669556, 0.23613907396793365, 0.15428468585014343, 0.09065637737512589, 0.00890188105404377, -0.15925519168376923, 0.23537710309028625, 0.000911323819309473], [-0.02422548085451126, -0.08539387583732605, 0.21512413024902344, 0.15640081465244293, 0.04847360774874687, -0.2107284814119339, 0.23586778342723846, 0.1641644686460495, 0.08217332512140274, 0.03609924018383026, -0.14667046070098877, -0.06068117544054985, 0.09917068481445312, -0.19974829256534576, -0.14630359411239624, -0.07817751914262772, 0.09670881181955338, 0.3937734067440033, -0.22041474282741547, -0.36981168389320374], [0.17469589412212372, 0.04596254974603653, 0.01800534687936306, 0.1998089998960495, 0.033133603632450104, 0.07678457349538803, -0.02808716520667076, -0.19141565263271332, 0.3275531828403473, -0.07098440825939178, 0.11800367385149002, 0.12329161912202835, -0.15541015565395355, 0.08388824015855789, 0.07067593932151794, 0.16510210931301117, 0.1106642633676529, -0.1786886751651764, 0.20197680592536926, -0.55545973777771], [-0.08411483466625214, 0.22156359255313873, -0.13994599878787994, -0.07808513194322586, -0.03171475976705551, 0.07438892126083374, 0.2078658491373062, 0.1647583693265915, 0.2645799517631531, -0.09245941787958145, 0.03540235385298729, 0.0496608205139637, -0.07045118510723114, 0.030601168051362038, 0.08456072956323624, -0.20017734169960022, -0.17673175036907196, 0.09152346849441528, -0.08864010870456696, -0.22429680824279785], [-0.012226399965584278, -0.03464629873633385, -0.30143845081329346, -0.17548592388629913, -0.1091557964682579, 0.1245487779378891, 0.026864856481552124, 0.06242908537387848, 0.030349284410476685, 0.1343405544757843, 0.03750675544142723, -0.008558381348848343, 0.04711451381444931, -0.024101603776216507, 0.30449023842811584, 0.008530969731509686, 0.20905561745166779, -0.01840309053659439, 0.1137690544128418, 0.24494460225105286], [0.14375178515911102, -0.16662099957466125, -0.3672272264957428, -0.14798706769943237, 0.16725298762321472, 0.10637781023979187, -0.013767107389867306, 0.044659946113824844, 0.15874536335468292, 0.3054503798484802, 0.11440189182758331, -0.07813914120197296, 0.062325358390808105, 0.19461803138256073, -0.03447648510336876, 0.05058577284216881, 0.15455546975135803, -0.04164957255125046, -0.11189009249210358, -0.08063314855098724], [-0.03994518890976906, -0.32364702224731445, -0.2836194336414337, -0.1129847839474678, -0.08700768649578094, -0.16876128315925598, -0.03687472268939018, -0.05026507377624512, 0.05764995515346527, 0.0658286064863205, 0.15124383568763733, -0.03603408858180046, 0.09077289700508118, 0.2507583796977997, 0.22705374658107758, 0.06696831434965134, -0.002689394634217024, -0.387236624956131, -0.046993669122457504, 0.4909372925758362], [-0.12929530441761017, 0.046218644827604294, -0.3118903338909149, 0.03736618161201477, 0.07881041616201401, 0.2443801313638687, -0.041690997779369354, -0.10506951808929443, 0.12807592749595642, -0.07451016455888748, -0.13933144509792328, -0.07824233174324036, 0.1682410091161728, 0.21247071027755737, 0.13235799968242645, 0.09706167131662369, -0.13350312411785126, -0.4917244017124176, 0.06986667960882187, 0.05007786676287651], [-0.1640443652868271, 0.0847816914319992, 0.3009030520915985, 0.3950428366661072, 0.2002008557319641, 0.13281817734241486, -0.27223557233810425, -0.49397650361061096, 0.24249579012393951, -0.031496718525886536, -0.10542227327823639, -0.0009866779437288642, -0.14490027725696564, -0.07489161193370819, -0.09829487651586533, -0.011729595251381397, 0.1157192662358284, -0.2208639234304428, 0.44594094157218933, -0.24931664764881134], [0.0896097719669342, -0.06147472560405731, -0.15135979652404785, 0.11625232547521591, 0.16848190128803253, 0.07575426995754242, 0.01072172075510025, -0.7640981078147888, -0.203314408659935, -0.05866219103336334, -0.24058030545711517, -0.037276290357112885, 0.15786617994308472, 0.18236088752746582, 0.17792372405529022, -0.21375764906406403, -0.1931350976228714, 0.034086499363183975, 0.13922104239463806, -0.16455602645874023], [-0.014275076799094677, 0.12231025099754333, -0.03035738132894039, 0.042780425399541855, 0.018490886315703392, -0.11854478716850281, 0.32990866899490356, 0.7683830857276917, 0.05608219653367996, 0.3136450946331024, 0.08880876749753952, 0.28884157538414, 0.0284841600805521, -0.010885900817811489, 0.11530954390764236, -0.24661265313625336, -0.24559275805950165, 0.3539043664932251, -0.6698334813117981, -0.5252543091773987], [-0.19108934700489044, 0.06976211071014404, -0.16440027952194214, 0.1854018121957779, 0.11708653718233109, -0.1786482185125351, -0.06654650717973709, 0.07323671132326126, -0.24735920131206512, 0.2644459307193756, -0.16150090098381042, 0.03415955603122711, -0.12211727350950241, 0.12031985819339752, -0.07079016417264938, 0.043310798704624176, -0.13263969123363495, 0.17886367440223694, 0.10910804569721222, -0.1531846970319748], [0.052633870393037796, -0.1899702101945877, 0.32034334540367126, 0.03907446190714836, 0.05990421772003174, -0.16212999820709229, -0.029639441519975662, -0.08082453906536102, -0.2614798843860626, -0.06373623013496399, 0.08999530971050262, -0.02783830650150776, -0.23112723231315613, -0.11341912299394608, -0.17573416233062744, -0.026395101100206375, -0.04275817424058914, 0.058614328503608704, -0.07546896487474442, -0.10649669170379639], [0.4100550711154938, -0.26701977849006653, -0.44149908423423767, -0.15572768449783325, 0.09997852891683578, -0.39693668484687805, 0.12670771777629852, 0.4020487368106842, -0.157577782869339, 0.40435490012168884, 0.10456346720457077, -0.07823728770017624, -0.10210777074098587, 0.11685823649168015, 0.3364295959472656, -0.12404832243919373, -0.3699144721031189, -0.09935635328292847, -0.2713729739189148, -0.021098611876368523], [0.22476209700107574, 0.06843133270740509, -0.30823689699172974, -0.2282535284757614, -0.19419658184051514, -0.1426931470632553, 0.10187280923128128, 0.1513674259185791, -0.030455848202109337, 0.4053705930709839, 0.1110793799161911, 0.058542344719171524, 0.12297782301902771, 0.05444459989666939, 0.24180267751216888, 0.07903920114040375, 0.04545348882675171, 0.11660215258598328, -0.5372384786605835, 0.1940005123615265], [-0.22599509358406067, -0.029332874342799187, -0.3466258645057678, 0.21959388256072998, 0.016472777351737022, -0.08937427401542664, -0.058966536074876785, 0.18519175052642822, -0.13125653564929962, -0.18230494856834412, 0.0883120745420456, -0.06584367156028748, -0.10223273187875748, -0.10097702592611313, -0.01915186271071434, -0.16401347517967224, -0.1879686564207077, -0.27143317461013794, 0.29572612047195435, 0.09345052391290665], [0.2212797850370407, -0.11755505204200745, 0.16465026140213013, -0.22657327353954315, -0.15028733015060425, -0.22539278864860535, -0.096074178814888, 0.18556196987628937, -0.41462284326553345, 0.04269715026021004, 0.13376833498477936, 0.12068966776132584, -0.09125637263059616, 0.01015954464673996, -0.22234417498111725, 0.05467314273118973, -0.2079840451478958, 0.2707342207431793, -0.20299142599105835, 0.002829320030286908], [-0.17951959371566772, -0.029877763241529465, -0.21323978900909424, 0.09666898846626282, -0.12975744903087616, 0.02720901556313038, -0.13107061386108398, -0.12246285378932953, -0.033702410757541656, 0.004041685257107019, -0.10989683121442795, 0.10601572692394257, -0.030330510810017586, 0.00021627737442031503, -0.012884019874036312, -0.14325128495693207, 0.11756841838359833, 0.1253819316625595, 0.15570543706417084, -0.009807588532567024], [0.6081712245941162, -0.18562328815460205, -0.5053460001945496, -0.21735422313213348, 0.556883692741394, -0.43221238255500793, 0.357047975063324, 0.24848690629005432, -0.29352065920829773, -0.16547735035419464, 0.3600808382034302, -0.3239790201187134, -0.04590391367673874, 0.10885931551456451, 0.13211071491241455, -0.440702348947525, -0.6037073731422424, -0.49717214703559875, -0.24033676087856293, 0.1860978752374649], [-0.1710030436515808, -0.11322329193353653, 0.29500535130500793, -0.054256998002529144, 0.019536694511771202, -0.021340424194931984, 0.015797792002558708, 0.09039245545864105, -0.19360756874084473, -0.24815167486667633, -0.0755574032664299, -0.1553409993648529, -0.22918525338172913, -0.03026590682566166, -0.21745257079601288, -0.18838021159172058, 0.11323489993810654, -0.07134553790092468, -0.04524317383766174, 0.17876721918582916], [0.1689290702342987, 0.148705393075943, -0.1629684865474701, -0.19233810901641846, -0.05706414580345154, 0.05926275625824928, 0.13009387254714966, -0.3223288059234619, 0.07339071482419968, 0.3115982115268707, -0.250673770904541, 0.13550332188606262, 0.12584830820560455, 0.18824489414691925, 0.19470272958278656, 0.21434448659420013, 0.05129971355199814, -0.03827419504523277, 0.18026168644428253, -0.28132274746894836], [0.18375234305858612, -0.0406559593975544, -0.4720667004585266, -0.18311545252799988, -0.06752864271402359, -0.23855772614479065, 0.1862439215183258, 0.3361054062843323, -0.10637331008911133, 0.29242151975631714, 0.2227594256401062, 0.02685786969959736, -0.0069667077623307705, 0.0759928897023201, 0.23077845573425293, 0.030177485197782516, -0.1598006635904312, 0.23207296431064606, -0.31599879264831543, -0.034881606698036194], [-0.06569407880306244, 0.08538460731506348, -0.2477196455001831, -0.06682503968477249, -0.08090896904468536, -0.13651148974895477, -0.03497914969921112, 0.012783371843397617, -0.02220289409160614, -0.09105878323316574, 0.1943540722131729, 0.1640411615371704, 0.1120046004652977, -0.1488374024629593, -0.029270287603139877, -0.17739932239055634, 0.11285363882780075, 0.16233178973197937, 0.022890431806445122, 0.09100180119276047], [-0.0785437747836113, -0.28922775387763977, 0.14827875792980194, 0.08588093519210815, 0.04891183227300644, -0.15457966923713684, -0.1300610899925232, 0.041730985045433044, -0.2865148186683655, -0.05910013988614082, -0.054881904274225235, 0.027599208056926727, -0.25941941142082214, -0.15278442203998566, -0.08898697793483734, 0.0810268446803093, 0.02249453216791153, 0.2146577686071396, 0.2878412902355194, -0.2158106565475464], [0.19701480865478516, -0.17083290219306946, -0.08828370273113251, -0.19155921041965485, -0.07000739872455597, 0.05652371421456337, 0.19299371540546417, -0.14232265949249268, -0.06031299754977226, 0.15864703059196472, -0.23795828223228455, 0.09282216429710388, 0.09322433173656464, 0.17499662935733795, 0.20168279111385345, 0.2609844505786896, 0.1336088627576828, -0.19466900825500488, 0.04520074278116226, 0.040335189551115036], [-0.09423471242189407, -0.03246841952204704, -0.21069173514842987, -0.0744725912809372, -0.016064390540122986, 0.07675424218177795, 0.012533028610050678, -0.11239227652549744, -0.15155036747455597, 0.23744826018810272, -0.22717547416687012, 0.037825800478458405, -0.03846370801329613, 0.1117933839559555, 0.09234342724084854, 0.3430798649787903, 0.1263931691646576, -0.07027725130319595, 0.0707031711935997, 0.001894020359031856], [0.006262841168791056, -0.04630668833851814, 0.042485423386096954, -0.14422133564949036, -0.22281017899513245, -0.03720511123538017, 0.11275791376829147, 0.48231378197669983, -0.2580394148826599, 0.05103440210223198, -0.04097926244139671, -0.055145129561424255, 0.12648238241672516, -0.12019523978233337, -0.19114109873771667, 0.12636588513851166, 0.11849978566169739, 0.16260947287082672, -0.8326953649520874, 0.38574904203414917], [-0.06300947815179825, 0.10170891880989075, 0.2215544730424881, -0.034578777849674225, -0.17177234590053558, -0.1346038579940796, -0.0005005548591725528, 0.08220294117927551, -0.08544482290744781, 0.11115541309118271, -0.026897607371211052, 0.0036762531381100416, 0.05765723064541817, -0.029295502230525017, -0.14404524862766266, -0.1997682750225067, 0.013607185333967209, 0.4380364716053009, -0.3229672312736511, -0.11831935495138168], [0.06718866527080536, -0.1390656977891922, -0.3029775321483612, -0.4961312711238861, -0.20211343467235565, -0.0572565495967865, 0.09648305922746658, 0.7273620963096619, -0.11295635253190994, 0.24871322512626648, 0.35296422243118286, 0.17631037533283234, 0.14795929193496704, 0.08294936269521713, 0.14961421489715576, -0.06959503889083862, -0.18703624606132507, 0.0019385694758966565, -0.7608800530433655, 0.4308669865131378], [0.452828973531723, -0.25798818469047546, -0.8086230158805847, -0.8796533942222595, -1.4635754823684692, -0.7204623222351074, 0.7383687496185303, 3.72987699508667, 0.38849300146102905, 0.29899293184280396, 1.6281245946884155, 0.5955238342285156, 0.47722455859184265, -0.5603379607200623, -0.051277000457048416, -0.783806324005127, -0.7994363903999329, 1.021161437034607, -2.593984842300415, 1.6552720069885254], [0.033939436078071594, 0.07519161701202393, -0.24785150587558746, -0.12280475348234177, -0.2085089236497879, -0.3384760916233063, 0.008273528888821602, 1.35567045211792, 0.18906064331531525, -0.2861906886100769, 0.553952157497406, -0.1534845381975174, 0.1612802892923355, -0.1563654989004135, -0.0752020925283432, -0.31351789832115173, -0.3492623269557953, -0.09452363848686218, -0.42464032769203186, 0.21002425253391266]], "rec.bias_ih_l0": [-0.08796501904726028, -0.00015869655180722475, 0.14960236847400665, -0.017656145617365837, 0.1259346306324005, -0.18031814694404602, 0.1121763214468956, 1.187623381614685, 0.04462934285402298, -0.22977282106876373, 0.028365204110741615, -0.23151789605617523, -0.19532765448093414, -0.21365167200565338, -0.11296160519123077, -0.0481879897415638, -0.14202825725078583, -0.11087530851364136, 0.8449856638908386, 0.19015565514564514, -0.01330925989896059, 0.14529195427894592, 0.4264408349990845, -0.2343183010816574, -0.2506815493106842, -0.06648894399404526, -0.1296364963054657, -0.5695030689239502, 0.339425265789032, 0.20080862939357758, -0.06672460585832596, -0.19688458740711212, -0.17370814085006714, -0.0349271222949028, 0.10839471966028214, 0.08711551874876022, 0.026612451300024986, -0.22156623005867004, -0.3233676254749298, -0.4079337418079376, 0.18630918860435486, -0.0005591942463070154, 0.0172259658575058, 0.006696503143757582, 0.15452858805656433, -0.04627282917499542, 0.05379994958639145, 0.12016304582357407, -0.08224716782569885, -0.09408392012119293, 0.1883268505334854, 0.07771433144807816, -0.014265740290284157, -0.04284537211060524, 0.14501400291919708, -0.016005195677280426, -0.18374986946582794, 0.15117737650871277, -0.010915103368461132, -0.11732932180166245, 0.0008702334598638117, 0.07571522146463394, 0.31790441274642944, 0.07647497951984406, -0.023203859105706215, -0.06074561923742294, -0.14246408641338348, 1.0369555950164795, 0.20615294575691223, 0.12710624933242798, 0.22685222327709198, 0.11216916888952255, -0.20861369371414185, 0.0885457769036293, -0.18573494255542755, 0.1794038712978363, -0.14432725310325623, 0.14485691487789154, 0.3292672336101532, 0.35159045457839966], "rec.bias_hh_l0": [0.04454013332724571, 0.1066359356045723, -0.012366306968033314, -0.03497680649161339, 0.1451767086982727, 0.0794857069849968, 0.1280297487974167, 1.168843150138855, -0.1873299479484558, -0.3256918489933014, -0.004780053161084652, 0.04115932807326317, -0.3370205760002136, -0.17437607049942017, 0.06809709221124649, 0.16374748945236206, -0.08651458472013474, -0.0650167241692543, 0.787026047706604, 0.5199889540672302, 0.04586333781480789, -0.07218199968338013, 0.589019775390625, -0.051633384078741074, -0.026126043871045113, 0.016007764264941216, -0.17531655728816986, -0.6858071684837341, 0.3305378258228302, 0.10525381565093994, 0.1766650378704071, -0.21170112490653992, 0.11211291700601578, -0.03835740685462952, 0.0682365670800209, 0.22144724428653717, -0.20792093873023987, -0.3098631501197815, -0.3231486678123474, -0.2874053716659546, 0.13137391209602356, -0.017408423125743866, -0.009064900688827038, -0.04921795055270195, 0.08693066239356995, -0.12556801736354828, 0.08379492908716202, 0.010136515833437443, 0.07612919062376022, 0.10191712528467178, -0.10139460116624832, -0.15511660277843475, 0.011808827519416809, 0.0773603543639183, -0.18700164556503296, -0.16052784025669098, -0.11534462124109268, -0.14904244244098663, 0.0039315675385296345, -0.013545590452849865, -0.07610209286212921, 0.14139874279499054, 0.45305803418159485, -0.212576225399971, -0.007594326976686716, 0.04040241613984108, -0.07361406087875366, 1.1400935649871826, 0.23043222725391388, -0.022355083376169205, 0.16941805183887482, -0.1273929923772812, -0.22406190633773804, -0.16104237735271454, 0.08960747718811035, 0.18183539807796478, -0.12403397262096405, -0.0960754007101059, 0.38958191871643066, 0.10620415210723877], "lin.weight": [[-0.23131632804870605, 0.06598926335573196, 0.20826295018196106, 0.07999442517757416, -0.07524392753839493, 0.2413654625415802, -0.0732128843665123, 0.33973193168640137, 0.2792636454105377, -0.0891973003745079, -0.17932839691638947, -0.17459270358085632, -0.010808923281729221, 0.25415101647377014, 0.04401381313800812, 0.2992435693740845, 0.08219004422426224, -0.27243784070014954, 1.2066583633422852, 0.07997613400220871]], "lin.bias": [0.10111938416957855]}}