{"model_data": {"model": "SimpleRNN", "input_size": 1, "skip": 1, "output_size": 1, "unit_type": "LSTM", "num_layers": 1, "hidden_size": 20, "bias_fl": true}, "state_dict": {"rec.weight_ih_l0": [[-0.0305650532245636], [0.07381722331047058], [-0.19313789904117584], [-0.7033337354660034], [0.5391396880149841], [-0.40875402092933655], [-0.14955513179302216], [0.29407671093940735], [0.10475923120975494], [-0.27885621786117554], [-0.4074949622154236], [-0.07051202654838562], [0.09622428566217422], [0.05061550810933113], [0.24039220809936523], [-0.3284419775009155], [0.006682599429041147], [-0.6137717962265015], [-3.1330699920654297], [-0.6639414429664612], [0.05762983486056328], [0.23939774930477142], [-0.06458400189876556], [-0.6944935321807861], [0.5984917283058167], [-0.20126453042030334], [-0.1422109305858612], [-1.105746865272522], [0.39723750948905945], [-0.2648449242115021], [-0.6936883926391602], [0.12320704013109207], [0.3159898817539215], [-0.10094597935676575], [0.032465726137161255], [-0.3474052846431732], [-0.012806463986635208], [-0.2922469973564148], [-0.042817287147045135], [-0.5460174679756165], [-0.1609186977148056], [0.2156602293252945], [0.37214425206184387], [0.6848056316375732], [1.2866536378860474], [0.15838035941123962], [-0.3139682710170746], [-3.0043983459472656], [-0.30106037855148315], [-0.36627233028411865], [-0.7659679055213928], [-0.2738955616950989], [-0.21424105763435364], [0.1685800850391388], [-0.02745484933257103], [-0.31775322556495667], [0.2771293520927429], [-0.4093642234802246], [2.7585785388946533], [-1.5266988277435303], [-0.021648719906806946], [0.13433368504047394], [-0.046430397778749466], [-0.6203845143318176], [0.7759814858436584], [-0.3341021239757538], [-0.2258688062429428], [0.19009175896644592], [0.4370575249195099], [-0.11483623832464218], [-0.8169191479682922], [-0.04512493684887886], [0.18009589612483978], [-0.10258506238460541], [0.3492414653301239], [-0.6253570914268494], [0.010478307493031025], [-0.5929014682769775], [-4.69600772857666], [-0.9893205165863037]], "rec.weight_hh_l0": [[0.10127944499254227, -0.012151326984167099, 0.06660302728414536, 0.1300598531961441, -0.13737699389457703, -0.047946102917194366, 0.01740008220076561, -0.1576916128396988, 0.13503096997737885, 0.14230822026729584, -0.1437167227268219, 0.05171014741063118, 0.003979873843491077, 0.08422477543354034, -0.05537828430533409, 0.15423810482025146, -0.017105143517255783, 0.08838584274053574, 0.3234556019306183, -0.17966946959495544], [-0.07765795290470123, -0.0762927234172821, 0.24232782423496246, 0.012293574400246143, -0.006731712259352207, -0.053902916610240936, -0.018406016752123833, -0.15344713628292084, -0.07891245931386948, 0.016214406117796898, 0.008336130529642105, 0.02353891357779503, -0.13009142875671387, -0.034206781536340714, -0.06668978184461594, -0.035607825964689255, 0.020119938999414444, 0.05065128579735756, -0.08312536031007767, 0.016065025702118874], [-0.00978026445955038, -0.18411733210086823, -0.2411126345396042, 0.11956539005041122, -0.07755618542432785, -0.3599478304386139, -0.0564381368458271, 0.05349687486886978, -0.43237289786338806, 0.009256448596715927, 0.1841372549533844, -0.1901819258928299, -0.1780756562948227, 0.023952284827828407, 0.1480199247598648, -0.1358412802219391, -0.09346269816160202, -0.11059580743312836, -0.25851336121559143, 0.1871272772550583], [0.0969948023557663, 0.010498384945094585, -0.18709519505500793, 0.0035074041225016117, -0.060858115553855896, -0.1250513643026352, -0.05184909701347351, 0.3184424340724945, -0.05486763268709183, 0.10693837702274323, 0.10374901443719864, -0.0011115542147308588, 0.016602830961346626, -0.0434049554169178, 0.034610163420438766, 0.01334475725889206, -0.043762750923633575, 0.1888987123966217, -0.2673088014125824, 0.1410595029592514], [0.008892183192074299, 0.034414149820804596, -0.1754496693611145, 0.028067082166671753, 0.03183524310588837, -0.10770294815301895, -0.09818627685308456, 0.008139441721141338, -0.09963640570640564, -0.055956289172172546, 0.0178647730499506, -0.11444371193647385, 0.002947684843093157, 0.03955721855163574, 0.18807272613048553, -0.09585698693990707, -0.08455398678779602, -0.07491844147443771, 0.09075906872749329, -0.09100650995969772], [0.2326377034187317, -0.016745636239647865, 0.36247044801712036, -0.028559138998389244, -0.005460530053824186, -0.0028992134612053633, 0.02725249156355858, 0.051729463040828705, -0.4145185053348541, 0.0631987527012825, 0.11366476863622665, -0.06741659343242645, -0.04637281596660614, 0.03271075338125229, -0.07548990845680237, 0.09553814679384232, -0.01689218170940876, 0.1516568958759308, -0.08085817098617554, 0.05126316100358963], [-0.0511750690639019, -0.05428194999694824, 0.08512940257787704, 0.03793279826641083, -0.00486617861315608, -0.02104034088551998, -0.14541883766651154, -0.035323478281497955, -0.10950011759996414, 0.08138307183980942, -0.0164233036339283, 0.01646842435002327, -0.006269318051636219, 0.07203267514705658, -0.03294513374567032, 0.07577492296695709, 0.07638444006443024, 0.040673188865184784, 0.13979876041412354, -0.06527046859264374], [0.33482250571250916, -0.06099563091993332, -0.2712787985801697, -0.13198067247867584, 0.07776772230863571, -0.31603166460990906, 0.15507717430591583, 0.5334583520889282, -0.18198105692863464, -0.21899643540382385, 0.3466446101665497, -0.20522546768188477, -0.00212481920607388, -0.0812009945511818, -0.0819849967956543, -0.2167445570230484, -0.3922322392463684, -0.3372509777545929, -0.5338451862335205, 0.29986026883125305], [-0.2662755846977234, 0.1631387174129486, 0.25653883814811707, 0.16395841538906097, -0.28909751772880554, 0.08431699872016907, -0.22274334728717804, 0.02444189228117466, -0.16629458963871002, -0.11716867238283157, -0.08204497396945953, 0.08226028084754944, -0.13105525076389313, -0.07264596223831177, -0.11060963571071625, 0.02932276576757431, 0.06678426265716553, 0.06703399866819382, -0.027978578582406044, 0.3062562942504883], [-0.1518040895462036, 0.18280218541622162, -0.14596962928771973, -0.1402430236339569, -0.06877688318490982, -0.017091801390051842, -0.09055931866168976, -0.3218284547328949, 0.06702249497175217, 0.16469156742095947, -0.029609421268105507, 0.0551002211868763, 0.09169762581586838, 0.03245634213089943, 0.08424350619316101, 0.10701332241296768, 0.16409018635749817, 0.03739972785115242, 0.07585249096155167, -0.2004232108592987], [0.07431090623140335, 0.05397318676114082, -0.24544717371463776, -0.2135571837425232, -0.07468490302562714, -0.25818079710006714, 0.057947952300310135, 0.01942981220781803, -0.16002799570560455, 0.2209041863679886, 0.07791833579540253, 0.025247976183891296, 0.06379129737615585, 0.04895628243684769, 0.18298602104187012, -0.026902543380856514, -0.07156174629926682, 0.10583966225385666, 0.025381725281476974, -0.07877860218286514], [0.05680022016167641, -0.0992836281657219, -0.11154306679964066, -0.03966451808810234, -0.1915668249130249, 0.05575872212648392, -0.12090136110782623, 0.1329827606678009, -0.17009198665618896, -0.02155001275241375, 0.160454660654068, 0.1930440068244934, 0.053507011383771896, -0.14236077666282654, -0.09638383984565735, -0.21918290853500366, 0.045621469616889954, 0.2725915014743805, -0.21575035154819489, 0.034456897526979446], [-0.07540663331747055, -0.31736448407173157, 0.08744775503873825, 0.050848230719566345, -0.08624184876680374, -0.1291384994983673, -0.12008289992809296, -0.04278019443154335, -0.2935788035392761, -0.015787046402692795, -0.0497753880918026, 0.0781993567943573, -0.3643208146095276, -0.10699987411499023, -0.12966690957546234, 0.12186161428689957, 0.06318612396717072, 0.1763538271188736, 0.18024389445781708, -0.14305830001831055], [-0.07450459152460098, -0.15283584594726562, -0.22713734209537506, -0.12080943584442139, -0.0614451989531517, 0.0874476432800293, -0.005853645037859678, -0.11283256113529205, -0.14559203386306763, 0.17795662581920624, -0.13750743865966797, 0.1687229573726654, 0.05083738639950752, 0.028758026659488678, 0.11539366096258163, 0.17996525764465332, 0.10057871043682098, -0.14386755228042603, 0.11024262011051178, 0.0032489870209246874], [-0.1304091215133667, -0.031680893152952194, -0.16657504439353943, 0.03646919131278992, -0.06829212605953217, 0.12528587877750397, -0.10709888488054276, -0.12616543471813202, -0.1401366889476776, 0.12481961399316788, -0.25018954277038574, 0.10564623773097992, -0.08393039554357529, 0.0807790756225586, 0.07024398446083069, 0.23271268606185913, 0.16247065365314484, -0.05147558078169823, 0.15952491760253906, 0.0028912099078297615], [-0.06287731975317001, 0.1219559833407402, 0.12820066511631012, -0.22368548810482025, -0.2592792212963104, -0.01978813298046589, 0.05468129739165306, 0.43126702308654785, -0.01683635078370571, 0.02144920639693737, -0.09674336761236191, 0.15588848292827606, -0.017951883375644684, -0.15054045617580414, -0.23162208497524261, 0.007780022453516722, 0.07276765257120132, 0.10524707287549973, -0.4933527112007141, 0.4694162607192993], [-0.031786464154720306, 0.06531638652086258, 0.237529918551445, 0.009930163621902466, 0.05043883994221687, -0.12123836576938629, -0.07549270987510681, -0.0030925569590181112, -0.20066115260124207, 0.057993292808532715, 0.06147081032395363, 0.029598252847790718, 0.10276208817958832, -0.04792989045381546, -0.14061492681503296, -0.05504731461405754, -0.1181752160191536, 0.24285706877708435, -0.11696146428585052, -0.1046750470995903], [0.13557012379169464, -0.17133332788944244, -0.3464701473712921, -0.3450075089931488, -0.23188060522079468, -0.12856121361255646, 0.08945483714342117, 0.7231565117835999, -0.14748644828796387, 0.2124355286359787, 0.3958578109741211, 0.12087120115756989, 0.10343151539564133, -0.020184490829706192, 0.10643665492534637, -0.238814577460289, -0.16967152059078217, 0.20655189454555511, -0.6979246139526367, 0.3200719356536865], [0.506313681602478, -0.26385417580604553, -0.7658778429031372, -0.5621387362480164, -0.7713140249252319, -0.6663855910301208, 0.48991280794143677, 2.411632537841797, 0.1382734775543213, 0.15552468597888947, 1.0651469230651855, 0.029868636280298233, 0.14912720024585724, -0.09579247981309891, 0.092933289706707, -0.6234933137893677, -0.8170214891433716, 0.20664185285568237, -1.5626286268234253, 1.0773322582244873], [0.014513600617647171, 0.02495209127664566, -0.3427385687828064, -0.1107071042060852, -0.15286709368228912, -0.17212779819965363, 0.031062033027410507, 0.6843346953392029, 0.1499074399471283, -0.24288512766361237, 0.46348661184310913, -0.15029376745224, 0.05877946317195892, -0.1053350567817688, -0.08418508619070053, -0.2142280489206314, -0.3178263306617737, -0.2941492795944214, -0.6923075914382935, 0.4292190968990326], [0.13606949150562286, -0.011721312068402767, 0.1010558158159256, 0.1326896697282791, -0.18039213120937347, 0.05863713473081589, -0.24403205513954163, -0.10455426573753357, 0.07577233016490936, 0.16105304658412933, -0.2977900207042694, 0.1017972007393837, 0.010985687375068665, 0.04844321310520172, 0.11874531954526901, -0.12973971664905548, 0.047092147171497345, 0.198015034198761, 0.35628896951675415, -0.2899509072303772], [0.045108046382665634, -0.3083712160587311, 0.4772189259529114, 0.048817142844200134, 0.15551817417144775, -0.2344275861978531, -0.05334771052002907, -0.21882963180541992, -0.4463982880115509, -0.0012679423671215773, -0.033583175390958786, -0.0069538322277367115, -0.39188671112060547, -0.071031354367733, -0.1379016488790512, -0.11194495856761932, -0.12203459441661835, 0.02052147313952446, 0.053611353039741516, -0.17291849851608276], [0.401713490486145, -0.45242664217948914, -0.4189722537994385, -0.27283042669296265, 0.3819233477115631, -0.6147313117980957, 0.3527641296386719, 0.15546593070030212, -0.07194256037473679, 0.3887372314929962, 0.10356049984693527, -0.48976197838783264, -0.33283886313438416, 0.35532984137535095, 0.4243738651275635, -0.28687968850135803, -0.34154221415519714, -0.32617926597595215, -0.06591840088367462, -0.12901394069194794], [-0.03526229038834572, 0.06763172149658203, -0.25192177295684814, -0.36679747700691223, -0.023489585146307945, 0.14796754717826843, 0.1888563185930252, 0.0276020560413599, 0.18821831047534943, 0.500024676322937, -0.4293069541454315, -0.06612566858530045, 0.1361420601606369, 0.2400732785463333, 0.26075828075408936, 0.41969454288482666, 0.03869299590587616, -0.1614934653043747, -0.19775007665157318, 0.17734555900096893], [-0.19571323692798615, 0.09435629844665527, -0.10044123232364655, 0.19640502333641052, 0.0682738721370697, -0.10817138105630875, -0.12485019117593765, -0.08841355890035629, -0.11026631295681, -0.10787928104400635, -0.003296982729807496, -0.024892043322324753, -0.05385282263159752, 0.051848627626895905, -0.043914780020713806, -0.13675890862941742, 0.12706708908081055, -0.06270518898963928, 0.29206910729408264, -0.07989727705717087], [0.05410962179303169, -0.1435212343931198, 0.1496054083108902, -0.12575075030326843, 0.14140093326568604, -0.20684045553207397, 0.18602631986141205, -0.04331253096461296, -0.45467621088027954, -0.02321673557162285, -0.0914691761136055, 0.12371079623699188, -0.22977858781814575, 0.0073283519595861435, -0.24076665937900543, 0.04147480055689812, -0.17299240827560425, 0.07766556739807129, 0.3175390958786011, -0.23476167023181915], [0.08231065422296524, -0.026273617520928383, -0.1988402009010315, 0.0781194344162941, 0.07197387516498566, 0.044070228934288025, -0.0001725576730677858, -0.13636460900306702, -0.04049137234687805, 0.10587583482265472, -0.050293587148189545, 0.0430402010679245, -0.025078408420085907, -0.010695996694266796, 0.012279238551855087, 0.024470224976539612, -0.03536500781774521, -0.030959883704781532, 0.15239809453487396, -0.054306916892528534], [-0.3401733636856079, 0.056742213666439056, 0.1743796318769455, -0.34036433696746826, -0.4975525736808777, 0.09948159009218216, -0.13721497356891632, 0.6162126660346985, -0.02801830694079399, 0.019129181280732155, 0.07351341843605042, -0.03453168272972107, 0.07525018602609634, 0.0008868704317137599, -0.07354439049959183, 0.4121204912662506, 0.10347074270248413, -0.5513728260993958, -0.896693229675293, 0.9324948191642761], [0.1561432182788849, 0.023458993062376976, 0.5029168128967285, 0.05222948268055916, 0.22909680008888245, -0.22967562079429626, 0.10194548219442368, 0.2730788588523865, -0.2943982183933258, -0.18481026589870453, -0.01230993214994669, -0.38572758436203003, -0.411572128534317, -0.039063502103090286, -0.2709936797618866, -0.10329899191856384, -0.13710613548755646, 0.12480718642473221, 0.07908646762371063, -0.07767055183649063], [0.14838823676109314, 0.14353592693805695, -0.29698166251182556, -0.24168451130390167, 0.17260786890983582, 0.23888733983039856, 0.03050876408815384, -0.42557162046432495, 0.21536432206630707, 0.4089500606060028, -0.41808176040649414, 0.1823476105928421, 0.18951937556266785, 0.2756516933441162, 0.3306371867656708, 0.20610077679157257, 0.2593589723110199, -0.19720152020454407, 0.19862188398838043, -0.1638995110988617], [0.11094386875629425, 0.1652037799358368, -0.24362967908382416, -0.21330420672893524, 0.13632996380329132, -0.03198588266968727, 0.263128399848938, -0.1801026463508606, 0.021871237084269524, 0.4559791088104248, -0.4245905578136444, 0.023642707616090775, -0.0030869923066347837, 0.24028387665748596, 0.204682394862175, 0.04727509990334511, 0.06452220678329468, -0.003964718896895647, 0.031785983592271805, -0.2634156048297882], [-0.14041739702224731, 0.10254433006048203, -0.05030408874154091, 0.0931706428527832, -0.23137328028678894, 0.024132469668984413, 0.033180009573698044, -0.06166059896349907, -0.05288922041654587, -0.020837321877479553, -0.015873605385422707, 0.06936521828174591, 0.022593950852751732, -0.16903626918792725, -0.1373043805360794, -0.020217109471559525, 0.09990660101175308, 0.19817009568214417, 0.08153237402439117, -0.09093717485666275], [0.08451925218105316, -0.6192007660865784, 0.35816147923469543, -0.001094540348276496, 0.10610169917345047, -0.21198144555091858, -0.11466817557811737, 0.1048993170261383, -0.5412682890892029, -0.06324689835309982, 0.00011976722453255206, -0.08951494842767715, -0.6517677903175354, -0.18938711285591125, -0.2077512890100479, -0.0827447846531868, -0.08338387310504913, 0.01094139739871025, 0.2318020910024643, -0.3221837878227234], [0.2669455111026764, -0.06548073142766953, -0.40009477734565735, -0.2170589119195938, -0.06144282594323158, 0.07467582821846008, 0.03138895705342293, -0.13539136946201324, -0.10377248376607895, 0.2655259668827057, -0.2606028616428375, 0.10976485908031464, 0.10268253833055496, 0.08911330252885818, 0.33684584498405457, 0.2885664701461792, 0.08585360646247864, -0.21928685903549194, 0.09150829166173935, 0.014744115062057972], [0.24341851472854614, -0.10947325825691223, -0.33275166153907776, -0.20499348640441895, 0.1926528513431549, 0.06373366713523865, 0.16591009497642517, -0.09098619222640991, -0.06496137380599976, 0.34046411514282227, -0.2515315115451813, -0.049700312316417694, -0.053814686834812164, 0.25396397709846497, 0.24543172121047974, 0.21293984353542328, 0.037736110389232635, -0.2248600423336029, 0.201110377907753, -0.12766866385936737], [-0.14205612242221832, 0.17607678472995758, 0.03201017901301384, -0.2143930047750473, 0.024444490671157837, 0.05695277079939842, 0.04102569445967674, 0.14420346915721893, -0.1630876213312149, 0.07765492796897888, -0.1986200511455536, -0.0015811551129445434, 0.02243935875594616, 0.05632524564862251, -0.20944535732269287, 0.11724954843521118, -0.0016610246384516358, -0.015080651268362999, -0.5971327424049377, 0.28590741753578186], [0.06140599027276039, 0.09699290245771408, 0.19946303963661194, 0.04586028680205345, 0.10690665245056152, -0.1667601764202118, 0.05774109065532684, 0.06486355513334274, -0.15244735777378082, 0.0035817762836813927, -0.0655459314584732, -0.043852467089891434, 0.12124281376600266, -0.025675611570477486, -0.1177445501089096, -0.10773058980703354, 0.07316683977842331, 0.21639348566532135, 0.0628388300538063, -0.19297242164611816], [-0.05258454382419586, -0.060896120965480804, -0.2350866049528122, -0.369332879781723, -0.17481906712055206, 0.10390040278434753, -0.03752381354570389, 0.09328974783420563, -0.13905444741249084, 0.3268468976020813, -0.01400238648056984, 0.23102183640003204, 0.0982576459646225, 0.07757751643657684, 0.1013973206281662, 0.20300357043743134, 0.0012445386964827776, 0.15199807286262512, -0.4625697731971741, 0.24364134669303894], [-0.18749673664569855, 0.19356669485569, 0.05628468468785286, 0.4946562349796295, -0.2138943374156952, 0.14346611499786377, -0.40690508484840393, -0.8982584476470947, 0.14594973623752594, -0.22260309755802155, -0.34823304414749146, -0.029750974848866463, 0.09068650007247925, -0.22071295976638794, -0.12166307866573334, 0.10572164505720139, 0.21804143488407135, 0.26089784502983093, 0.8103361129760742, -0.5785059928894043], [-0.2193964570760727, 0.15608789026737213, 0.05779634788632393, 0.2940969467163086, -0.10662674903869629, -0.02606828138232231, -0.16148990392684937, 0.3523254990577698, -0.09364055842161179, -0.1817244440317154, 0.11821179836988449, 0.07801417261362076, 0.021056296303868294, -0.280195951461792, -0.20975302159786224, -0.3173210024833679, 0.12247500568628311, 0.3704847991466522, 0.20446476340293884, -0.19948484003543854], [0.1237582415342331, -0.04689930006861687, 0.1371823251247406, 0.19777274131774902, 0.17463994026184082, 0.28078511357307434, -0.1325261890888214, -0.37510958313941956, -0.1619003713130951, 0.029661858454346657, -0.3836570382118225, 0.042081911116838455, -0.12890490889549255, 0.24707776308059692, -0.017214911058545113, 0.08839228004217148, 0.17999158799648285, 0.027444012463092804, 0.375916451215744, -0.3331044018268585], [0.06306549906730652, 0.11806618422269821, 0.0061608110554516315, 0.19106629490852356, 0.0665651336312294, 0.13104532659053802, -0.042006880044937134, -0.17365743219852448, 0.2859799563884735, -0.3695245683193207, 0.0292715635150671, -0.1048608273267746, 0.28478866815567017, 0.06687554717063904, -0.06536280363798141, 0.008657109923660755, -0.06480307877063751, -0.47257694602012634, -0.0009826943278312683, 0.07381375879049301], [-0.17435084283351898, -0.11481312662363052, 0.3796059787273407, 0.04878189042210579, -0.18899095058441162, -0.06282944977283478, -0.1019362285733223, -0.12448804825544357, -0.05958434194326401, -0.020363645628094673, 0.14873477816581726, -0.1835687905550003, 0.006283420603722334, -0.0736641138792038, -0.09623222053050995, -0.04938378930091858, -0.01761738769710064, -0.24540744721889496, 0.21644940972328186, 0.06670165061950684], [-0.13660837709903717, 0.061360057443380356, 0.04680447652935982, 0.05797247588634491, 0.1378481686115265, 0.05754837766289711, -0.126882404088974, -0.12771499156951904, 0.05426240339875221, -0.161607027053833, -0.05791713297367096, -0.1591992974281311, 0.05951731652021408, 0.001141836866736412, 0.05445222929120064, -0.12316220998764038, -0.12780457735061646, -0.15575073659420013, 0.05346934124827385, 0.11034106463193893], [-0.024987690150737762, 0.046034254133701324, 0.010146096348762512, 0.15417104959487915, -0.16240425407886505, 0.13337594270706177, -0.2106718271970749, -0.25855252146720886, -0.010314621031284332, 0.13395725190639496, -0.2505624294281006, -0.11248210817575455, 0.11497344076633453, -0.02123359963297844, 0.1704511046409607, 0.29058554768562317, 0.2281205952167511, -0.028922270983457565, 0.5213932991027832, -0.17109167575836182], [0.035763636231422424, -0.18954689800739288, -0.3944055140018463, -0.1502150595188141, -0.005866875406354666, -0.03636373206973076, 0.16822877526283264, 0.049408428370952606, 0.12700963020324707, -0.10147026181221008, 0.1561959832906723, -0.10470322519540787, 0.2501406669616699, 0.2421160191297531, 0.348939448595047, -0.04825262352824211, 0.1680372804403305, -0.1299857646226883, -0.18363149464130402, 0.10346117615699768], [0.08014176785945892, 0.16392840445041656, -0.003215513890609145, 0.1994265913963318, 0.011157708242535591, -0.17679494619369507, -0.13336610794067383, -0.12489539384841919, 0.12894392013549805, 0.18794021010398865, -0.001325989724136889, 0.12635080516338348, 0.029124518856406212, 0.10215774923563004, -0.13944627344608307, -0.0824282169342041, 0.13990744948387146, -0.13559043407440186, 0.12461221218109131, -0.2766852378845215], [-0.015346672385931015, -0.21329420804977417, 0.20706157386302948, 0.1519908308982849, 0.10395090281963348, -0.16321155428886414, -0.08815745264291763, -1.1507103443145752, -0.05901119112968445, -0.19723671674728394, 0.14835287630558014, 0.15640918910503387, -0.1719445139169693, 0.013102132827043533, -0.17530079185962677, 0.07411983609199524, -0.046925321221351624, 0.2829578220844269, 0.20840778946876526, 0.37089595198631287], [-0.029097063466906548, -0.19749100506305695, -0.29147496819496155, -0.05354737117886543, -0.03358233720064163, 0.06515591591596603, -0.012174823321402073, -0.15761533379554749, 0.3072783350944519, -0.01813257299363613, 0.19718071818351746, 0.15602895617485046, 0.017992287874221802, 0.13228735327720642, 0.16156606376171112, 0.14596255123615265, -0.16569145023822784, -0.12857003509998322, -0.13368955254554749, 0.1323906034231186], [-0.07793635129928589, 0.25755998492240906, 0.06392225623130798, -0.023993762210011482, -0.036437638103961945, 0.08602529019117355, -0.13441772758960724, -0.29399868845939636, 0.14117129147052765, 0.10166160762310028, -0.14301221072673798, -0.1204909086227417, -0.23829150199890137, 0.2354544848203659, 0.15573455393314362, 0.10470742732286453, 0.016003472730517387, -0.16180945932865143, 0.2193184196949005, 0.009667777456343174], [-0.030120771378278732, -0.05942350625991821, 0.21789982914924622, 0.1589207947254181, 0.04099544137716293, -0.20283842086791992, 0.2348642200231552, 0.15344606339931488, 0.08426151424646378, 0.026522241532802582, -0.13717550039291382, -0.07315011322498322, 0.1050812378525734, -0.20285630226135254, -0.14960384368896484, -0.07712671160697937, 0.09622637182474136, 0.3872710168361664, -0.22452878952026367, -0.36826440691947937], [0.16685035824775696, 0.060365885496139526, 0.004849892109632492, 0.2060062736272812, 0.030650965869426727, 0.08222424983978271, -0.03059890866279602, -0.19381552934646606, 0.343600332736969, -0.10211465507745743, 0.12912073731422424, 0.11394944787025452, -0.14021921157836914, 0.06778690218925476, 0.05566674843430519, 0.16020163893699646, 0.11163414269685745, -0.17946304380893707, 0.2420305609703064, -0.5565471649169922], [-0.06762072443962097, 0.22745423018932343, -0.12973767518997192, -0.06816709041595459, -0.02250456064939499, 0.058710020035505295, 0.2166893035173416, 0.18150736391544342, 0.2414119988679886, -0.11584997922182083, 0.05412453040480614, 0.028597461059689522, -0.007306951563805342, 0.01092563197016716, 0.06646673381328583, -0.2272082269191742, -0.19089139997959137, 0.10783802717924118, -0.03711334243416786, -0.2041148841381073], [-0.012948364019393921, -0.037348292768001556, -0.30470484495162964, -0.16837309300899506, -0.10674423724412918, 0.12192776799201965, 0.022614775225520134, 0.061971940100193024, 0.028892099857330322, 0.1353551149368286, 0.0339416041970253, -0.006889017764478922, 0.04727010428905487, -0.021369097754359245, 0.3086301386356354, 0.01771129108965397, 0.20999686419963837, -0.013058590702712536, 0.12083084881305695, 0.23753486573696136], [0.14260132610797882, -0.15992429852485657, -0.3710958659648895, -0.14484260976314545, 0.1680905669927597, 0.10517915338277817, -0.017871662974357605, 0.04011641442775726, 0.15728487074375153, 0.31334689259529114, 0.10389824211597443, -0.07891152799129486, 0.06771481782197952, 0.20116689801216125, -0.026106473058462143, 0.06941071897745132, 0.15550793707370758, -0.042880721390247345, -0.1040516346693039, -0.07724137604236603], [-0.04288043826818466, -0.3456238806247711, -0.28718483448028564, -0.11254189908504486, -0.0887303426861763, -0.1748529076576233, -0.042378075420856476, -0.00885015819221735, 0.055436164140701294, 0.06630761921405792, 0.1549714207649231, -0.045018065720796585, 0.051217857748270035, 0.2510565519332886, 0.2296341210603714, 0.08125127851963043, -0.004904578905552626, -0.3914276957511902, -0.06479380279779434, 0.5016018152236938], [-0.12308193743228912, 0.061898794025182724, -0.32361939549446106, 0.04564536735415459, 0.09752136468887329, 0.24763286113739014, -0.04007900133728981, -0.09047474712133408, 0.14218789339065552, -0.07502099871635437, -0.14763863384723663, -0.07280441373586655, 0.12684029340744019, 0.21144941449165344, 0.13700702786445618, 0.10298056155443192, -0.1266760677099228, -0.4848380982875824, 0.07730480283498764, 0.012803375720977783], [-0.18166498839855194, 0.14476948976516724, 0.3021533191204071, 0.390835702419281, 0.18101485073566437, 0.1505996137857437, -0.2726359963417053, -0.5477708578109741, 0.28513845801353455, -0.03902702406048775, -0.09527657926082611, -0.0235191248357296, -0.12718863785266876, -0.07865457981824875, -0.10492496937513351, -0.0006723994738422334, 0.11867605149745941, -0.23922431468963623, 0.49514761567115784, -0.24836859107017517], [0.08437923341989517, -0.07896183431148529, -0.15575650334358215, 0.11075517535209656, 0.152696892619133, 0.0757327526807785, 0.001979507738724351, -0.786921501159668, -0.2172989845275879, -0.056593798100948334, -0.2522706985473633, -0.06372565776109695, 0.1706879585981369, 0.18917518854141235, 0.18173854053020477, -0.20980262756347656, -0.19650278985500336, 0.026457756757736206, 0.15181799232959747, -0.22601059079170227], [-0.022965703159570694, 0.15685288608074188, -0.020758535712957382, 0.0715094581246376, 0.02300700731575489, -0.1192590519785881, 0.3184846341609955, 0.7487244009971619, 0.05434270203113556, 0.2969270944595337, 0.08826985210180283, 0.27228638529777527, 0.03398318216204643, -0.02282523177564144, 0.10109423846006393, -0.2559455633163452, -0.24304957687854767, 0.39191243052482605, -0.5666958093643188, -0.6363315582275391], [-0.19707459211349487, 0.0735272690653801, -0.16257834434509277, 0.1878388673067093, 0.10640588402748108, -0.162079855799675, -0.07104775309562683, 0.02788621559739113, -0.23564884066581726, 0.2564673125743866, -0.1511790156364441, 0.032383885234594345, -0.10772430896759033, 0.1160021647810936, -0.07149798423051834, 0.012577774003148079, -0.1252279430627823, 0.19308076798915863, 0.0924532562494278, -0.14007568359375], [0.0538303442299366, -0.25414401292800903, 0.3242337703704834, 0.024797188118100166, 0.07801986485719681, -0.16937807202339172, -0.028571275994181633, -0.20554469525814056, -0.2662161886692047, -0.007072987500578165, 0.027243787422776222, -0.006494551431387663, -0.3294225335121155, -0.07603757083415985, -0.1316162347793579, -0.03267083317041397, -0.04564926028251648, 0.04483964294195175, -0.03256579861044884, -0.10595587641000748], [0.41327008605003357, -0.2756044566631317, -0.4395020008087158, -0.15482042729854584, 0.10650529712438583, -0.402247816324234, 0.12498406320810318, 0.36045241355895996, -0.1618882566690445, 0.4110441207885742, 0.0946865901350975, -0.06035865470767021, -0.11946862936019897, 0.12218420952558517, 0.340066134929657, -0.1216588169336319, -0.37391871213912964, -0.09283050149679184, -0.2250247448682785, -0.04584071785211563], [0.21354301273822784, 0.049762822687625885, -0.30171433091163635, -0.24176949262619019, -0.18722955882549286, -0.13394002616405487, 0.08943134546279907, 0.13971519470214844, -0.03285204619169235, 0.40893664956092834, 0.09085439145565033, 0.02658587507903576, 0.08812818676233292, 0.059799425303936005, 0.23779867589473724, 0.08811376243829727, 0.03878230229020119, 0.10503893345594406, -0.5077155828475952, 0.18314597010612488], [-0.22844348847866058, 0.05652960017323494, -0.3388555645942688, 0.2230769842863083, 0.009563086554408073, -0.07837031781673431, -0.06123846024274826, 0.13810724020004272, -0.11990323662757874, -0.18205346167087555, 0.1000712439417839, -0.07160519063472748, -0.06364560127258301, -0.10711083561182022, -0.027571694925427437, -0.19416633248329163, -0.18105988204479218, -0.2341953068971634, 0.23884925246238708, 0.09774105995893478], [0.22406665980815887, -0.12416935712099075, 0.17102019488811493, -0.20718726515769958, -0.13551028072834015, -0.22120897471904755, -0.0752328485250473, 0.1778242439031601, -0.40390244126319885, 0.04218428581953049, 0.13431957364082336, 0.13163529336452484, -0.11343945562839508, -0.0007613473571836948, -0.22449681162834167, 0.046758174896240234, -0.20442365109920502, 0.2846747636795044, -0.11420836299657822, -0.016807446256279945], [-0.17836777865886688, -0.07014487683773041, -0.19893012940883636, 0.08776213973760605, -0.13549990952014923, -0.0014909099554643035, -0.12577129900455475, -0.15820012986660004, -0.045850761234760284, 0.0030207408126443624, -0.08782707899808884, 0.07081235200166702, -0.029112454503774643, -0.005142082925885916, -0.019982974976301193, -0.14723806083202362, 0.09216179698705673, 0.1267281025648117, 0.13019198179244995, 0.01766281947493553], [0.41070911288261414, -0.08418675512075424, -0.3847225308418274, -0.18227197229862213, 0.1785271167755127, -0.35174718499183655, 0.19900384545326233, 0.6024733185768127, -0.22577938437461853, -0.20282518863677979, 0.3692827820777893, -0.23924754559993744, -0.0007005762890912592, -0.03866172954440117, -0.022261137142777443, -0.317961186170578, -0.5163385272026062, -0.39774957299232483, -0.5500244498252869, 0.3711555600166321], [-0.1695743054151535, -0.13244085013866425, 0.28879258036613464, -0.056856658309698105, 0.002099820878356695, -0.01645061746239662, 0.018717149272561073, 0.10944915562868118, -0.18025588989257812, -0.24147075414657593, -0.062287427484989166, -0.129163920879364, -0.26599568128585815, -0.034117192029953, -0.21142059564590454, -0.17136210203170776, 0.11860942840576172, -0.054083507508039474, -0.026124045252799988, 0.1664436310529709], [0.16348370909690857, 0.12975534796714783, -0.1673869639635086, -0.20119959115982056, -0.04982778802514076, 0.06344511359930038, 0.11869477480649948, -0.32225272059440613, 0.07568138092756271, 0.3134879767894745, -0.25992411375045776, 0.1081864982843399, 0.09664284437894821, 0.19198724627494812, 0.19616426527500153, 0.21731723845005035, 0.06593509018421173, -0.04057079926133156, 0.16548244655132294, -0.27527010440826416], [0.19058097898960114, 0.03477158024907112, -0.4696296155452728, -0.20100456476211548, -0.03541764244437218, -0.20771338045597076, 0.17100365459918976, 0.21488358080387115, -0.106269970536232, 0.312345027923584, 0.1767646223306656, 0.016800260171294212, 0.06061114743351936, 0.09545466303825378, 0.23853197693824768, 0.026547623798251152, -0.1422509253025055, 0.21463192999362946, -0.2585197389125824, -0.0772281289100647], [-0.060807809233665466, 0.08884257823228836, -0.24653102457523346, -0.034739214926958084, -0.07605203986167908, -0.12393229454755783, -0.021622460335493088, -0.0018823258578777313, -0.012655776925384998, -0.07896705716848373, 0.18413524329662323, 0.1671767234802246, 0.09773556143045425, -0.12840358912944794, -0.028471825644373894, -0.1861845850944519, 0.11325225234031677, 0.1989634931087494, -0.008242153562605381, 0.05811300501227379], [-0.0443430095911026, -0.44695135951042175, 0.20109042525291443, 0.0483015775680542, 0.047864027321338654, -0.21173295378684998, -0.1322697401046753, 0.03358222544193268, -0.33447083830833435, -0.05898108705878258, -0.0373833142220974, 0.030354976654052734, -0.5077141523361206, -0.16916456818580627, -0.117219477891922, 0.08509135246276855, -0.0018491101218387485, 0.15436583757400513, 0.2287943959236145, -0.23467525839805603], [0.2025466412305832, -0.1635856330394745, -0.09741867333650589, -0.19805510342121124, -0.06026893109083176, 0.06726808100938797, 0.19052262604236603, -0.14797000586986542, -0.0543883852660656, 0.17019113898277283, -0.25271153450012207, 0.10768257826566696, 0.08707666397094727, 0.18464533984661102, 0.21042394638061523, 0.25885429978370667, 0.14385339617729187, -0.18960312008857727, 0.04515978693962097, 0.034518878906965256], [-0.08728509396314621, -0.038113247603178024, -0.2190486192703247, -0.07947169989347458, -0.008036008104681969, 0.08515510708093643, 0.012030210345983505, -0.13937826454639435, -0.1450338065624237, 0.24492056667804718, -0.2397780567407608, 0.0627729743719101, -0.04386591911315918, 0.12063601613044739, 0.10163028538227081, 0.3460831046104431, 0.13653793931007385, -0.0668763816356659, 0.06838896870613098, 0.00734152365475893], [0.00036781426751986146, -0.031555674970149994, 0.05609968677163124, -0.1604853868484497, -0.24295541644096375, -0.03785301744937897, 0.10048368573188782, 0.5436674952507019, -0.250691294670105, 0.060054223984479904, -0.0391128845512867, -0.043093241751194, 0.15118290483951569, -0.11879994720220566, -0.1948179304599762, 0.12566424906253815, 0.11259017139673233, 0.15672993659973145, -0.8251409530639648, 0.3999131917953491], [-0.06406133621931076, 0.13255904614925385, 0.22747701406478882, -0.0246542040258646, -0.1573755145072937, -0.12062293291091919, -0.0014490119647234678, -0.028464755043387413, -0.07481610774993896, 0.07926085591316223, -0.019435642287135124, 0.005705499090254307, 0.16200171411037445, -0.029457861557602882, -0.13701656460762024, -0.198302760720253, 0.01090830098837614, 0.3781460225582123, -0.23926310241222382, -0.10815194994211197], [0.07731425017118454, -0.15324285626411438, -0.299810528755188, -0.48354068398475647, -0.1987578272819519, -0.07194512337446213, 0.09881968796253204, 0.8205684423446655, -0.1316908299922943, 0.24391262233257294, 0.3458549976348877, 0.13885793089866638, 0.11505137383937836, 0.07736966013908386, 0.14068153500556946, -0.11007208377122879, -0.18299759924411774, 0.029980868101119995, -0.7757641673088074, 0.4123721420764923], [0.24732370674610138, -0.08186304569244385, -0.6996091604232788, -0.6336982250213623, -1.4029172658920288, -0.588062047958374, 0.5114743113517761, 3.7906341552734375, 0.4305470883846283, 0.13548004627227783, 1.5755946636199951, 0.401250958442688, 0.3719870150089264, -0.5829309225082397, -0.15184542536735535, -0.6592146754264832, -0.6684911251068115, 1.043331503868103, -2.4816040992736816, 1.3831692934036255], [-0.021525893360376358, 0.09421586990356445, -0.2325148731470108, -0.16807106137275696, -0.28299540281295776, -0.21896731853485107, -0.006833722814917564, 1.21109139919281, 0.23145294189453125, -0.26742181181907654, 0.5368718504905701, -0.17340438067913055, 0.14563581347465515, -0.1546313464641571, -0.09377152472734451, -0.20344151556491852, -0.29324692487716675, -0.1870967596769333, -0.6410135626792908, 0.3439747989177704]], "rec.bias_ih_l0": [-0.08969055861234665, -0.03359724208712578, 0.13943058252334595, -0.03704056516289711, 0.12571601569652557, -0.18088698387145996, 0.10226069390773773, 1.2179834842681885, 0.03495648875832558, -0.24881544709205627, 0.0149485282599926, -0.23443642258644104, -0.24153722822666168, -0.21837840974330902, -0.11704779416322708, -0.05779944732785225, -0.14204677939414978, -0.10553577542304993, 0.9122770428657532, 0.20913808047771454, -0.01804930530488491, 0.131480410695076, 0.4385372996330261, -0.233928844332695, -0.24925510585308075, -0.06627555191516876, -0.1366443783044815, -0.5337678790092468, 0.3465503752231598, 0.2036057412624359, -0.05229157954454422, -0.20442353188991547, -0.15646860003471375, -0.028426073491573334, 0.11780238896608353, 0.09399831295013428, 0.030950624495744705, -0.238094300031662, -0.35681480169296265, -0.4567416310310364, 0.1843162626028061, -0.001635159133002162, 0.016878332942724228, 0.011195625178515911, 0.15324288606643677, -0.04417876526713371, 0.04952540621161461, 0.12601646780967712, -0.07993943989276886, -0.09572537243366241, 0.1886865645647049, 0.08098191022872925, -0.006283266004174948, -0.044018328189849854, 0.1446136087179184, -0.014041407033801079, -0.18006499111652374, 0.15890850126743317, -0.012845206074416637, -0.1202220618724823, -0.0027040119748562574, 0.06707560271024704, 0.319975346326828, 0.07108426839113235, -0.023719394579529762, -0.06042783707380295, -0.14963555335998535, 1.0799516439437866, 0.20155638456344604, 0.12498391419649124, 0.22631889581680298, 0.10659907013177872, -0.2160899043083191, 0.08901708573102951, -0.18509450554847717, 0.1676923930644989, -0.14474965631961823, 0.14131268858909607, 0.27850890159606934, 0.3696034550666809], "rec.bias_hh_l0": [0.042549990117549896, 0.06811365485191345, -0.02243545837700367, -0.0542495995759964, 0.14487417042255402, 0.07791369408369064, 0.11790398508310318, 1.2002317905426025, -0.19643869996070862, -0.3443894386291504, -0.01790151745080948, 0.03647201508283615, -0.3806178867816925, -0.1791800558567047, 0.06363517045974731, 0.15315741300582886, -0.08699128031730652, -0.060164205729961395, 0.8559520244598389, 0.530157744884491, 0.04100509732961655, -0.07700968533754349, 0.601061999797821, -0.051984455436468124, -0.02557159774005413, 0.015939148142933846, -0.18177977204322815, -0.643639862537384, 0.3376769721508026, 0.10829279571771622, 0.1896084100008011, -0.21910913288593292, 0.1239633783698082, -0.03185039758682251, 0.07770614326000214, 0.22781428694725037, -0.20133575797080994, -0.32564133405685425, -0.35659879446029663, -0.3392322361469269, 0.12939754128456116, -0.01845821551978588, -0.009411743842065334, -0.044697582721710205, 0.08566638082265854, -0.12344464659690857, 0.07949009537696838, 0.016138117760419846, 0.07841295748949051, 0.10022535175085068, -0.1009780690073967, -0.15172836184501648, 0.01975693553686142, 0.07616279274225235, -0.18734575808048248, -0.15852436423301697, -0.1117435172200203, -0.1409093141555786, 0.0019963618833571672, -0.01652544178068638, -0.07953324913978577, 0.12954363226890564, 0.4550307095050812, -0.2162122279405594, -0.00816387590020895, 0.04034244641661644, -0.0815010741353035, 1.1783009767532349, 0.22576463222503662, -0.02383144572377205, 0.16951864957809448, -0.13136129081249237, -0.23125220835208893, -0.1600690335035324, 0.08978676050901413, 0.1701115220785141, -0.12460919469594955, -0.09696189314126968, 0.33759745955467224, 0.12944892048835754], "lin.weight": [[-0.2336864173412323, 0.02719748765230179, 0.19939611852169037, 0.05909610167145729, -0.08228564262390137, 0.23654364049434662, -0.07759159058332443, 0.34406107664108276, 0.26164573431015015, -0.0751107707619667, -0.17592163383960724, -0.1907014399766922, -0.025560224428772926, 0.26315781474113464, 0.053877100348472595, 0.30710479617118835, 0.07611548900604248, -0.30352962017059326, 1.2382482290267944, 0.18326996266841888]], "lin.bias": [0.1015026718378067]}}