{"model_data": {"model": "SimpleRNN", "input_size": 1, "skip": 1, "output_size": 1, "unit_type": "LSTM", "num_layers": 1, "hidden_size": 20, "bias_fl": true}, "state_dict": {"rec.weight_ih_l0": [[-0.7190209031105042], [-0.17096185684204102], [0.0704476609826088], [-0.19633550941944122], [-0.38933971524238586], [-0.20599275827407837], [0.1660161018371582], [0.0399773009121418], [-0.14955955743789673], [-0.3673763573169708], [-1.2243361473083496], [0.11750242114067078], [0.2495317906141281], [-0.11367782950401306], [0.10465045273303986], [-0.9754959344863892], [0.22413527965545654], [0.4178448021411896], [-2.5808300971984863], [-0.12135536223649979], [-0.2772250771522522], [-0.15041746199131012], [0.40742677450180054], [0.02826109156012535], [-0.40467873215675354], [-0.4276654124259949], [-0.16464091837406158], [-0.17740705609321594], [-0.030317818745970726], [-0.15009605884552002], [-0.5544599890708923], [0.12018010765314102], [0.18719230592250824], [0.05151547119021416], [-0.07991790026426315], [-0.4316495358943939], [-0.16830503940582275], [0.4074742794036865], [-0.5984272360801697], [-0.1819075644016266], [1.0989855527877808], [-0.11917291581630707], [0.11530298739671707], [1.4584472179412842], [0.9479009509086609], [-0.4200734496116638], [-0.6418650150299072], [0.8171302676200867], [0.019434932619333267], [0.029335498809814453], [-1.103320837020874], [0.012581400573253632], [0.3323163092136383], [-0.07124441117048264], [0.7996533513069153], [0.480556845664978], [-0.38680142164230347], [-0.4124792516231537], [-3.1127471923828125], [0.2557322680950165], [-0.5961441993713379], [-0.1681421995162964], [0.7113125324249268], [-0.04901599884033203], [-0.8324846029281616], [-0.5574485063552856], [-0.26287296414375305], [0.018337605521082878], [0.07507411390542984], [-0.5075514912605286], [-1.4259978532791138], [0.19328941404819489], [0.22866316139698029], [-0.0639844760298729], [-0.1596764475107193], [-1.1322453022003174], [-0.12183471024036407], [0.6580832004547119], [-4.404625415802002], [-0.03637823462486267]], "rec.weight_hh_l0": [[-0.2989894449710846, -0.21751411259174347, 0.03263663873076439, -0.005682389251887798, -0.18284735083580017, 0.10706016421318054, 0.2399592399597168, -0.09016186743974686, -0.005852223373949528, -0.15346993505954742, 0.4752955734729767, -0.15280550718307495, -0.10484012961387634, 0.08624137192964554, -0.1046019047498703, -0.014873314648866653, 0.30294808745384216, 0.0015584095381200314, 0.5903638601303101, -0.030233662575483322], [-0.0736408606171608, 0.21490898728370667, 0.1818101853132248, -0.03698241338133812, -0.17501145601272583, -0.05837597697973251, -0.07830680906772614, -0.07018697261810303, -0.13620275259017944, -0.12755416333675385, 0.04052043333649635, -0.016158662736415863, 0.05516282096505165, 0.1652778834104538, -0.15079404413700104, 0.09050840884447098, 0.1265384405851364, -0.2099454253911972, -0.03406384214758873, -0.012966961599886417], [0.18308039009571075, -0.044688574969768524, 0.2673579156398773, 0.0001552738540340215, 0.21659384667873383, -0.06478027254343033, -0.1181037649512291, 0.06852623075246811, 0.22724613547325134, 0.1427524834871292, -0.20401912927627563, -0.2556155025959015, 0.23063881695270538, -0.1157827377319336, -0.15821664035320282, 0.039570871740579605, -0.03868050128221512, 0.0016799620352685452, 0.007355987094342709, -0.08540374785661697], [-0.37947797775268555, -0.46139606833457947, -0.000917179393582046, -0.29613831639289856, -0.18121299147605896, 0.5190047025680542, 0.36946502327919006, -0.11664102971553802, -0.2786746919155121, -0.05463961884379387, 0.26911965012550354, -0.15296614170074463, -0.19721141457557678, 0.4572336673736572, -0.1389821320772171, -0.17341439425945282, 0.1362415999174118, 0.08083439618349075, 0.4722949266433716, 0.08636805415153503], [-0.35253629088401794, -0.14978107810020447, 0.25852105021476746, -0.07234947383403778, -0.012587356381118298, -0.03866944834589958, -0.03658439218997955, 0.01742642931640148, -0.15464282035827637, -0.09091754257678986, 0.02858150750398636, -0.1190655529499054, 0.013970030471682549, 0.13331061601638794, 0.20609059929847717, 0.05193864926695824, 0.018535491079092026, 0.17029991745948792, 0.18023467063903809, 0.1545482873916626], [-0.2768007814884186, -0.16309383511543274, 0.039498232305049896, 0.026670532301068306, -0.06528472900390625, -0.12973468005657196, -0.22837144136428833, 0.0026178087573498487, 0.211830735206604, 0.00783742219209671, -0.26201266050338745, -0.021943025290966034, 0.14344076812267303, -0.018903475254774094, 0.04568757861852646, -0.16178607940673828, -0.07904468476772308, 0.1870558261871338, 0.13415150344371796, 0.20097656548023224], [0.10983318835496902, 0.16084212064743042, 0.26145362854003906, -0.017456676810979843, 0.02689759060740471, -0.23252560198307037, 0.12634505331516266, 0.0034754101652652025, 0.34759995341300964, 0.03077857382595539, 0.11782938241958618, 0.09475123882293701, -0.1952521800994873, -0.1807389259338379, -0.029372520744800568, 0.2074354737997055, 0.1525658518075943, -0.12535569071769714, -0.268545538187027, 0.019089350476861], [-0.18682049214839935, 0.08893492072820663, 0.10601858794689178, 0.0236672330647707, -0.15702420473098755, 0.02388104982674122, 0.1849612444639206, -0.0826924741268158, 0.028016531839966774, -0.17006540298461914, 0.14984120428562164, -0.04471709951758385, -0.009578254073858261, -0.026301013305783272, -0.1080896332859993, 0.1481495201587677, 0.0898481085896492, -0.01040104404091835, 0.2640833258628845, 0.12473362684249878], [0.15314997732639313, 0.010212114080786705, 0.0983528420329094, -0.21564996242523193, 0.006802748888731003, -0.12812861800193787, -0.0700082778930664, 0.10761922597885132, -0.13696999847888947, 0.19022075831890106, 0.029072511941194534, -0.12124820053577423, 0.0906982570886612, 0.13827376067638397, 0.31719762086868286, -0.14860862493515015, 0.009553995914757252, -0.06806419789791107, -0.18556150794029236, -0.01785648986697197], [-0.20955203473567963, -0.08909730613231659, -0.031149331480264664, -0.10965792834758759, 0.03650617599487305, 0.17057327926158905, 0.015538720414042473, -0.050226811319589615, -0.0888838917016983, 0.10366398096084595, 0.1460263878107071, -0.001320475246757269, -0.17106088995933533, -0.035436805337667465, 0.12321555614471436, -0.2517779469490051, 0.05773097276687622, 0.07269378751516342, 0.47035840153694153, -0.10118474811315536], [-0.7974904775619507, -0.6915859580039978, 0.014239117503166199, -0.31170493364334106, -0.009855625219643116, 0.29421424865722656, 0.20414701104164124, -0.2536938488483429, -0.49860167503356934, 0.2304244041442871, 0.07870263606309891, -0.41055968403816223, -0.15052258968353271, 0.546383261680603, -0.043807752430438995, -0.6981719732284546, 0.18642738461494446, 0.4285914897918701, 0.5677743554115295, -0.14351730048656464], [-0.04752572253346443, -0.12186706066131592, 0.3479524552822113, -0.20944005250930786, -0.10023242235183716, -0.009594317525625229, 0.05115606635808945, 0.0040842085145413876, 0.16412343084812164, 0.026194928213953972, -0.2093810886144638, -0.11869637668132782, 0.2826087772846222, -0.06704698503017426, -0.07399094849824905, 0.0969906598329544, 0.02851034142076969, -0.14675480127334595, 0.17452412843704224, 0.12361548840999603], [0.14568839967250824, 0.10432625561952591, 0.3968665301799774, -0.09820655733346939, -0.06715111434459686, -0.15535040199756622, 0.11103270202875137, -0.0024430297780781984, 0.35999777913093567, 0.13549435138702393, 0.004861810710281134, -0.22737696766853333, 0.05879952386021614, 0.053237661719322205, -0.03438149765133858, 0.1620558351278305, 0.1368856430053711, -0.1721159964799881, -0.20857833325862885, 0.01659536361694336], [0.03866203874349594, 0.11968228220939636, 0.25200551748275757, -0.14409612119197845, -0.051557838916778564, -0.002348092617467046, -0.025755945593118668, 0.15266211330890656, -0.12735654413700104, -0.0005453117773868144, 0.08136924356222153, 0.01715240441262722, 0.08376754820346832, 0.10031250864267349, 0.2685030400753021, 0.1386447250843048, -0.019353095442056656, -0.029187096282839775, -0.2858390510082245, -0.02619793824851513], [-0.23427923023700714, -0.20919044315814972, 0.27645713090896606, -0.36966317892074585, -0.04469873011112213, 0.31709644198417664, -0.0070369127206504345, 0.010383452288806438, -0.19710905849933624, 0.11877504736185074, 0.34993037581443787, -0.09282779693603516, 0.0008710580295883119, 0.12136692553758621, 0.17386092245578766, -0.2961953580379486, -0.02777804061770439, 0.11154188215732574, 0.39622509479522705, -0.10670506954193115], [-0.18189723789691925, -0.29377350211143494, -0.04697049781680107, -0.30358976125717163, -0.10435516387224197, 0.13378477096557617, 0.15052512288093567, -0.0063672843389213085, -0.15412133932113647, 0.20130978524684906, 0.31082603335380554, -0.04358528554439545, 0.051120564341545105, 0.1061742901802063, 0.055713456124067307, -0.4257660210132599, 0.10297372937202454, 0.05184957757592201, 0.4482558071613312, -0.036546651273965836], [0.24457091093063354, 0.0875624567270279, 0.14005053043365479, -0.01928289793431759, 0.19186459481716156, -0.2805546522140503, 0.16782984137535095, 0.01738853193819523, 0.10965120047330856, 0.18739402294158936, 0.1779402792453766, -0.07729507982730865, 0.021999463438987732, -0.0006273457547649741, 0.1365264654159546, -0.11859646439552307, 0.2405688464641571, -0.09051596373319626, -0.3864738345146179, -0.020922686904668808], [0.14825856685638428, 0.24351857602596283, 0.001939341309480369, 0.11364796757698059, 0.16362665593624115, -0.26253119111061096, 0.034627318382263184, 0.03370945155620575, 0.034272316843271255, 0.12164153903722763, 0.05604153499007225, 0.158914253115654, -0.14554595947265625, -0.025988513603806496, 0.11105030030012131, 0.20617333054542542, 0.21136318147182465, -0.2511793076992035, 0.0123420599848032, 0.19465696811676025], [-0.591829240322113, -0.6097179651260376, -0.18677952885627747, -0.9036664366722107, -0.13586734235286713, 0.714255154132843, 0.5783637166023254, -0.11301074177026749, -0.2914681136608124, 0.09911257773637772, 0.3962990939617157, -0.10246673226356506, -0.3795035779476166, 0.5536790490150452, -0.11608516424894333, -0.5744995474815369, 0.11529657244682312, 0.06932120025157928, 0.8985711932182312, -0.05345877632498741], [-0.9361401796340942, -0.10888538509607315, 0.12733741104602814, -0.22661946713924408, 0.11026810109615326, 0.07722297310829163, -0.2135411649942398, -0.12327384948730469, 0.25301530957221985, 0.1546720713376999, 0.014591904357075691, -0.13630294799804688, 0.0059135593473911285, 0.17509698867797852, 0.09598027914762497, -0.261111319065094, -0.061672043055295944, 0.4464847147464752, 0.4751186668872833, -0.10974433273077011], [0.07766040414571762, -0.02060299552977085, 0.108651302754879, -0.13119573891162872, 0.18719325959682465, 0.24877804517745972, -0.2678942084312439, 0.04286090284585953, 0.2751680612564087, 0.025841888040304184, -0.09648242592811584, -0.0852893590927124, 0.049399085342884064, -0.12374796718358994, 0.22159910202026367, -0.09368930757045746, -0.09386395663022995, -0.023243503645062447, 0.19435001909732819, -0.4531254172325134], [0.022823242470622063, 0.04137621819972992, 0.26421818137168884, -0.029349245131015778, -0.24436433613300323, 0.014345144852995872, -0.012180358171463013, 0.04798251390457153, -0.0801716297864914, 0.1091153547167778, -0.12730026245117188, 0.03979796916246414, 0.22285152971744537, 0.06042208895087242, 0.030123362317681313, 0.31494712829589844, 0.15580932796001434, -0.19794879853725433, 0.05806273967027664, 0.35907140374183655], [-0.0252559594810009, -0.34701162576675415, 0.4861353933811188, 0.24620144069194794, -0.27495718002319336, 0.21300175786018372, -0.34140610694885254, 0.2524239420890808, -0.20249146223068237, -0.17939314246177673, -0.4636930823326111, -0.5008249878883362, 0.44175946712493896, 0.27803054451942444, 0.05592969059944153, -0.22381383180618286, -0.3185882568359375, 0.19365064799785614, -0.15483298897743225, -0.2822975516319275], [-0.135712668299675, 0.191986083984375, 0.05137867107987404, -0.043349526822566986, 0.042941149324178696, -0.26819053292274475, -0.18280617892742157, -0.04196624457836151, 0.15031908452510834, -0.0592656210064888, 0.08219490945339203, 0.016827033832669258, 0.06554224342107773, -0.2407107949256897, 0.11825989186763763, 0.11781015992164612, 0.012519177980720997, 0.1372184008359909, 0.022713450714945793, 0.014147463254630566], [-0.24675939977169037, -0.01006393600255251, 0.3702106475830078, -0.1523161232471466, 0.013135353103280067, -0.17635922133922577, -0.06021396815776825, 0.14658242464065552, -0.17654958367347717, -0.02107573300600052, -0.08023993670940399, -0.14576604962348938, 0.20807431638240814, 0.14070583879947662, 0.26794540882110596, 0.09837351739406586, -0.06603322178125381, 0.1948988437652588, 0.001337786321528256, 0.12400737404823303], [0.42081913352012634, 0.3471083343029022, -0.025305625051259995, -0.21753300726413727, -0.1308162659406662, -0.3764403760433197, 0.254880428314209, 0.11696678400039673, -0.22772115468978882, -0.15040163695812225, 0.10513679683208466, 0.23758703470230103, -0.028352951630949974, -0.08883695304393768, -0.12307047843933105, 0.4148070514202118, 0.1356722116470337, -0.4569746255874634, -0.26325350999832153, 0.45767077803611755], [0.24529899656772614, 0.12219950556755066, 0.006777909584343433, 0.2545001804828644, -0.1105077713727951, 0.015163278207182884, 0.3385355472564697, -0.11183072626590729, 0.09144975990056992, -0.12257467955350876, 0.34341534972190857, 0.2084251195192337, -0.3859456479549408, -0.041465748101472855, -0.17917291820049286, 0.10148656368255615, 0.38342130184173584, -0.2846260070800781, -0.22953973710536957, 0.2288714051246643], [-0.10792768746614456, -0.03586144000291824, 0.130550816655159, -0.16426648199558258, -0.056833114475011826, 0.03963380306959152, -0.14819680154323578, -0.04849227890372276, 0.036975108087062836, -0.006874913815408945, -0.11432259529829025, -0.1117044985294342, 0.09540607035160065, 0.013627924956381321, 0.0516507662832737, -0.08351227641105652, -0.10030661523342133, 0.15458859503269196, 0.024664824828505516, -0.06070780009031296], [0.5968304872512817, 0.17332948744297028, 0.08305050432682037, -0.27691924571990967, -0.13525430858135223, -0.24809686839580536, 0.1498221755027771, 0.12609398365020752, -0.20623911917209625, 0.08931627124547958, 0.1912316381931305, 0.08935479074716568, -0.011833918280899525, -0.0792766660451889, 0.17024096846580505, 0.20511995255947113, 0.28222012519836426, -0.5729944705963135, -0.4481171667575836, 0.10049931704998016], [-0.11747609823942184, -0.06361018121242523, -0.0799221619963646, -0.13286934792995453, -0.007952756248414516, -0.07755094766616821, 0.009036468341946602, -0.01776270754635334, -0.038116347044706345, 0.1547120064496994, 0.11907333880662918, -0.025089412927627563, -0.004187141079455614, -0.04721622169017792, 0.191026508808136, -0.13706834614276886, 0.04992290213704109, 0.1094508245587349, 0.11442491412162781, -0.04017672315239906], [-0.042680319398641586, 0.058457259088754654, -0.0036689992994070053, -0.20204168558120728, -0.2316974699497223, -0.41499000787734985, 0.3529243469238281, -0.18768079578876495, -0.6303001642227173, -0.10359188169240952, 0.5018497109413147, 0.17097817361354828, -0.4192870855331421, 0.08996879309415817, -0.24231842160224915, 0.30152538418769836, 0.5359430909156799, -0.18884281814098358, -0.12212332338094711, 0.2885249853134155], [-0.15767857432365417, -0.12812824547290802, 0.5194633603096008, -0.047970518469810486, -0.23808954656124115, -0.07043447345495224, -0.002322315238416195, -0.0410025417804718, -0.07639003545045853, -0.11364607512950897, -0.18334856629371643, -0.2894648015499115, 0.3345637321472168, 0.04533228650689125, 0.022310934960842133, 0.07267828285694122, -0.03686204552650452, -0.23138593137264252, 0.10783683508634567, -0.10631106793880463], [-0.0031414004042744637, -0.20130647718906403, 0.43361854553222656, 0.3299987316131592, -0.04488740861415863, 0.3890513479709625, 0.37997499108314514, -0.10182701051235199, -0.3423525094985962, -0.25623705983161926, 0.14153312146663666, -0.19754710793495178, -0.2196660190820694, 0.329074889421463, -0.2368043214082718, -0.0696500837802887, 0.37467560172080994, -0.18272198736667633, -0.32013413310050964, 0.29169347882270813], [0.15532080829143524, 0.030142612755298615, 0.34995973110198975, -0.18661253154277802, 0.018996495753526688, 0.013305171392858028, -0.025040363892912865, 0.19557493925094604, -0.047385960817337036, 0.12853780388832092, -0.08338712900876999, 0.022435903549194336, 0.11024925857782364, 0.024948731064796448, 0.2517033815383911, -0.06164756789803505, -0.008828319609165192, -0.09894292801618576, -0.43187257647514343, -0.04739794135093689], [-0.04333627223968506, -0.09685659408569336, 0.4910007119178772, -0.7664732336997986, 0.13391950726509094, 0.05411171540617943, -0.10195191949605942, 0.18263541162014008, -0.17344415187835693, 0.27445188164711, -0.1283656358718872, -0.25045663118362427, 0.005471745040267706, 0.10849490761756897, 0.42157256603240967, -0.2180308848619461, -0.09888006746768951, 0.2877345383167267, 0.014670316129922867, -0.2122988998889923], [0.17501221597194672, 0.00024766259593889117, -0.03353159502148628, -0.35800406336784363, -0.15257404744625092, -0.26695266366004944, 0.043442968279123306, 0.048571329563856125, 0.005791875533759594, 0.23028706014156342, 0.14478784799575806, -0.0681348517537117, -0.07102859020233154, -0.13772176206111908, -0.04879852011799812, 0.29210352897644043, -0.007204871624708176, -0.2446795105934143, -0.06196076050400734, 0.23257549107074738], [0.3270091712474823, 0.26875749230384827, -0.048293404281139374, 0.1484985500574112, -0.02229573018848896, -0.34795913100242615, 0.38291406631469727, -0.031018294394016266, -0.05403583496809006, 0.024958256632089615, 0.2917338013648987, 0.12906591594219208, -0.20077641308307648, -0.1867315024137497, -0.01864393800497055, 0.23828478157520294, 0.316750168800354, -0.3078264594078064, -0.05602208524942398, 0.27968111634254456], [0.4002176523208618, 0.23918850719928741, -0.05191485956311226, 0.19220785796642303, 0.22191372513771057, -0.3301409184932709, 0.2679370939731598, 0.12753912806510925, -0.18499764800071716, 0.10036266595125198, 0.05556708946824074, 0.22452415525913239, -0.10315939784049988, -0.23165810108184814, 0.23312757909297943, 0.3155996799468994, 0.17964507639408112, -0.2012670636177063, -0.05229925736784935, 0.20155420899391174], [-0.0770404040813446, -0.11230385303497314, -0.12175549566745758, 0.16691851615905762, -0.10590428858995438, 0.09727498143911362, -0.05524545907974243, -0.2567010819911957, 0.18450206518173218, -0.16004253923892975, -0.05058055743575096, -0.01914525218307972, 0.06613194197416306, -0.39453840255737305, -0.02211582660675049, 0.0826161801815033, 0.02449696883559227, 0.0544687919318676, 0.13589167594909668, -0.30532559752464294], [0.0798676386475563, 0.5028308629989624, 0.026206789538264275, -0.431957483291626, -0.2622881829738617, -0.9358195662498474, 0.22984205186367035, 0.01984432525932789, -0.45288747549057007, 0.026123864576220512, 0.45813649892807007, 0.12546896934509277, -0.3777313232421875, -0.24405229091644287, -0.09211767464876175, 0.3369746506214142, 0.4344315528869629, -0.3484840393066406, 0.38580408692359924, 0.4235306978225708], [-0.08435213565826416, 0.028106434270739555, -0.28087118268013, 0.24935832619667053, 0.2051713764667511, -0.2815127372741699, 0.049198001623153687, 0.016656287014484406, 0.04821300879120827, 0.0618019625544548, -0.2579805254936218, 0.21349318325519562, -0.42368412017822266, -0.192696213722229, -0.1979071944952011, 0.23824015259742737, 0.08034024387598038, -0.124214768409729, -0.16648274660110474, 0.2923150658607483], [-0.08017484843730927, 0.13824185729026794, -0.15206743776798248, -0.0957447811961174, -0.22643086314201355, 0.06313834339380264, 0.2213582843542099, 0.008611866272985935, -0.13044199347496033, -0.18224266171455383, 0.1550249308347702, 0.12900546193122864, -0.39187079668045044, -0.18177568912506104, -0.05126209184527397, -0.07524684071540833, 0.28657960891723633, -0.006214985623955727, 0.10704534500837326, -0.050856154412031174], [-0.18618448078632355, -0.06381179392337799, 0.027938632294535637, 0.016486383974552155, -0.1541322022676468, 0.08671656996011734, -0.18318042159080505, 0.06400151550769806, 0.18757392466068268, -0.12846249341964722, 0.060678817331790924, -0.22636346518993378, 0.35778334736824036, -0.1984768807888031, 0.010627638548612595, 0.03898903727531433, 0.039326202124357224, 0.030925825238227844, -0.14413374662399292, 0.02845040149986744], [-0.13537827134132385, 0.08768017590045929, -0.214087575674057, -1.220826268196106, -0.08335219323635101, 0.17646780610084534, 0.10033778101205826, -0.3641528785228729, 0.056361861526966095, -0.008444851264357567, 0.21451832354068756, 0.15332792699337006, 0.0030888868495821953, 0.08064814656972885, -0.002976163988932967, -0.37615910172462463, 0.21668404340744019, 0.14956451952457428, 0.40730157494544983, -0.09815297275781631], [-0.02796485461294651, -0.20940019190311432, -0.38678500056266785, -0.2842009365558624, -0.11304828524589539, 0.13267546892166138, -0.1789025515317917, -0.34470072388648987, 0.04316774755716324, 0.009690707549452782, 0.11736709624528885, 0.043286170810461044, -0.15041197836399078, -0.07138032466173172, -0.2101389765739441, -0.08459186553955078, 0.15652962028980255, -0.13977915048599243, 0.018990086391568184, -0.3650241196155548], [0.3039119839668274, -0.19977913796901703, -0.030878428369760513, -0.10222235321998596, 0.12171170115470886, -0.1259535700082779, 0.06812245398759842, -0.06466227024793625, 0.16511210799217224, 0.1548251211643219, -0.305280864238739, -0.1652766466140747, -0.09405965358018875, 0.18450719118118286, -0.24030359089374542, -0.005183708854019642, -0.1310107409954071, 0.17105770111083984, -0.24652044475078583, -0.22546157240867615], [0.0012029326753690839, -0.14123186469078064, -0.4172573685646057, 0.3037896454334259, -0.1306389570236206, -0.14159168303012848, 0.0881301686167717, 0.15195247530937195, -0.018081238493323326, -0.09347334504127502, 0.41346147656440735, 0.2718377709388733, -0.25222325325012207, -0.04608723893761635, 0.07117653638124466, -0.11612086743116379, 0.16106124222278595, -0.06494899094104767, -0.011377382092177868, 0.022523168474435806], [-0.23935732245445251, 0.15411628782749176, 0.28738805651664734, 0.07637187838554382, -0.013053568080067635, -0.08943157643079758, 0.023113133385777473, -0.31692957878112793, 0.22979016602039337, -0.05124594271183014, -0.10985225439071655, -0.10067646205425262, -0.1709069162607193, 0.0356912724673748, 0.0037986920215189457, -0.03340592607855797, 0.13146434724330902, -0.09992294758558273, -0.08472438156604767, 0.2706301510334015], [-0.40790891647338867, 0.12239130586385727, -0.0484713576734066, 0.2585296034812927, 0.18884603679180145, 0.24394915997982025, 0.25042349100112915, -0.22112616896629333, -0.05225730314850807, -0.08184242993593216, -0.004555394873023033, 0.01296193152666092, -0.329447865486145, -0.06672292202711105, 0.006895387079566717, -0.1328267753124237, -0.24486786127090454, 0.22022496163845062, 0.2543509602546692, -0.1291802078485489], [0.07574000209569931, 0.12290661036968231, -0.10644709318876266, 0.24019284546375275, 0.037935465574264526, 0.05655546486377716, -0.029838575050234795, -0.05188233032822609, 0.11852787435054779, -0.18106013536453247, -0.14622868597507477, 0.1562102884054184, 0.01547668594866991, -0.1890951693058014, -0.019386451691389084, 0.14398910105228424, -0.3811739683151245, 0.05778023228049278, -0.4370496869087219, 0.12282057106494904], [0.09273290634155273, -0.03646131977438927, 0.02768505923449993, -0.2904984652996063, 0.05391961708664894, 0.15373557806015015, 0.21515512466430664, 0.07472293823957443, 0.11939288675785065, 0.1316179633140564, -0.0408778116106987, -0.04602254182100296, -0.0764690712094307, -0.1425405889749527, 0.12063353508710861, -0.059662170708179474, 0.07989004254341125, -0.30045491456985474, 0.296880841255188, -0.14404527842998505], [0.1540886014699936, 0.15704026818275452, -0.3668668270111084, -0.13909749686717987, -0.1831616461277008, 0.16823914647102356, 0.26171910762786865, 0.2658967971801758, 0.08049969375133514, -0.11549394577741623, 0.1506493091583252, 0.07143183797597885, -0.38189876079559326, 0.1949564814567566, -0.02705233544111252, -0.24572132527828217, 0.30628177523612976, -0.18976086378097534, -0.027667373418807983, 0.10433364659547806], [-0.2903466522693634, -0.11516905575990677, 0.45289066433906555, 0.1729726940393448, 0.16154499351978302, -0.24489733576774597, -0.07928495854139328, 0.21872448921203613, 0.01655193604528904, -0.14449898898601532, -0.5105111002922058, -0.36519721150398254, 0.31051769852638245, 0.025336390361189842, -0.06005426496267319, 0.004309856332838535, -0.3116042912006378, 0.3604976534843445, -0.04445137083530426, 0.10699529200792313], [0.3016584813594818, -0.1117764487862587, 0.33240780234336853, -0.21302644908428192, -0.0430685430765152, -0.10547339171171188, -0.22795763611793518, 0.18502435088157654, 0.28023943305015564, -0.04646419733762741, -0.23088063299655914, -0.192918062210083, 0.032100968062877655, 0.0008629828225821257, 0.0916726291179657, -0.031690582633018494, -0.28876933455467224, -0.049136433750391006, -0.21532802283763885, 0.026415791362524033], [0.33406969904899597, 0.08969064801931381, 0.32889893651008606, 0.21121758222579956, 0.026028314605355263, -0.023539438843727112, -0.21060208976268768, -0.04675758257508278, 0.31380870938301086, -0.28421810269355774, -0.07980339229106903, -0.2466030716896057, 0.065711110830307, 0.07520101964473724, -0.15395565330982208, 0.23538167774677277, -0.19421468675136566, -0.4672495722770691, -0.33885517716407776, 0.1446818858385086], [-0.4888368546962738, 0.07540442794561386, 0.011529820039868355, -0.15535463392734528, 0.04314116761088371, -0.036816392093896866, 0.1115654930472374, -0.015145736746490002, -0.19291754066944122, -0.09345082193613052, 0.24121516942977905, 0.06512380391359329, -0.18579979240894318, 0.25908008217811584, 0.11621864140033722, -0.2525237500667572, 0.17046679556369781, 0.09800265729427338, 0.4209370017051697, 0.22261832654476166], [0.25910085439682007, 0.1639215499162674, -0.06348215043544769, -0.08348891884088516, 0.030924711376428604, -0.15272347629070282, 0.0402473583817482, 0.15301795303821564, 0.04021025076508522, -0.02873264066874981, 0.24195042252540588, 0.035818055272102356, -0.21639375388622284, 0.0038918580394238234, 0.20046314597129822, -0.18659080564975739, -0.09309099614620209, -0.07021170109510422, -0.20133963227272034, 0.07448168843984604], [-0.0956527516245842, -0.18651971220970154, 0.05421847850084305, -0.02607385627925396, -0.0071822949685156345, 0.1886918544769287, -0.15721078217029572, -0.0674019381403923, -0.21456779539585114, 0.22066600620746613, 0.2422044575214386, -0.03769196942448616, 0.2837218642234802, 0.09664731472730637, 0.026818104088306427, -0.19723783433437347, -0.11152894794940948, 0.07963427156209946, 0.08371845632791519, -0.2257896065711975], [-0.17386449873447418, -0.08740826696157455, -0.16727778315544128, -0.86602783203125, -0.3139452338218689, -0.03933907300233841, 0.16747643053531647, -0.14573469758033752, 0.03991621732711792, 0.06779748946428299, -0.04669244587421417, -0.23862476646900177, 0.1627732515335083, 0.13488556444644928, 0.019316406920552254, -0.26760873198509216, -0.02426348440349102, 0.28284138441085815, 0.3050205111503601, -0.3525596261024475], [-0.4135937988758087, 0.1576707810163498, -0.02697024680674076, -0.22769181430339813, 0.08464963734149933, -0.08010678738355637, -0.18291571736335754, -0.23224498331546783, -0.08084043115377426, 0.15574677288532257, 0.07271958142518997, 0.20425258576869965, -0.2918264865875244, 0.158165842294693, 0.14063550531864166, 0.04884011298418045, 0.025274494662880898, -0.03331218659877777, 0.34009045362472534, -0.1803809106349945], [-0.13859957456588745, 0.004949789959937334, -0.05761297047138214, -0.23122930526733398, 0.0008200855227187276, 0.37612056732177734, 0.320875346660614, -0.12090841680765152, -0.1274060755968094, 0.10264187306165695, 0.5316078662872314, -0.003606111044064164, -0.14637599885463715, 0.3028396666049957, 0.1436222493648529, -0.23865394294261932, 0.26070570945739746, -0.07103131711483002, 0.6609427332878113, -0.17776061594486237], [-0.15706174075603485, -0.11439482122659683, 0.11352982372045517, -0.20300868153572083, -0.061271362006664276, -0.1856478750705719, 0.19518889486789703, -0.066719651222229, -0.14350005984306335, -0.07695414125919342, 0.2866932153701782, 0.08825422823429108, 0.19636107981204987, -0.16264896094799042, -0.12589910626411438, 0.15834836661815643, 0.21927282214164734, -0.16512379050254822, 0.06756319850683212, 0.13515499234199524], [0.13347207009792328, -0.08520440012216568, 0.44584619998931885, 0.11721308529376984, 0.07633760571479797, -0.042637694627046585, -0.26990607380867004, 0.251616895198822, 0.1513824760913849, -0.005622933618724346, -0.35387659072875977, -0.3711760938167572, 0.40094664692878723, 0.1472344994544983, 0.24101531505584717, -0.057180631905794144, -0.19912287592887878, 0.07928607612848282, -0.28194931149482727, -0.17764924466609955], [-0.19812563061714172, -0.35725584626197815, -0.02306957170367241, -0.20185087621212006, -0.10086695849895477, 0.4023297429084778, 0.3481588363647461, -0.07565160095691681, -0.1919116973876953, -0.030384555459022522, 0.19861072301864624, -0.13276444375514984, -0.18224363029003143, 0.3545593321323395, -0.14626261591911316, -0.09020540118217468, 0.11207231879234314, 0.03230690583586693, 0.23645900189876556, 0.08705957233905792], [-0.3257668912410736, -0.07703983038663864, 0.2711935043334961, -0.1479068249464035, -0.050650157034397125, -0.13341574370861053, -0.0596616230905056, 0.08047536015510559, -0.13911238312721252, -0.11768263578414917, -0.00660416204482317, -0.09920982271432877, 0.04764808341860771, 0.24022632837295532, 0.08152180910110474, 0.12155134230852127, -0.07384561747312546, 0.14721690118312836, 0.09246920794248581, 0.16454553604125977], [0.19085966050624847, -0.04995807260274887, -0.022504158318042755, -0.1043807789683342, -0.22775009274482727, -0.23093527555465698, 0.237283855676651, 0.08366141468286514, -0.30369114875793457, 0.057427335530519485, 0.14547206461429596, 0.10137029737234116, -0.17348068952560425, -0.071754589676857, -0.027935996651649475, 0.13891181349754333, 0.20279568433761597, -0.25511327385902405, 0.23031224310398102, 0.28268924355506897], [0.10936342924833298, 0.004557002801448107, 0.06039322912693024, 0.0815141424536705, -0.06973285228013992, -0.23291096091270447, 0.2492123395204544, -0.10888450592756271, -0.158985435962677, -0.03950440138578415, 0.3162718415260315, 0.18303756415843964, -0.2986559271812439, 0.02981887198984623, -0.11515340209007263, 0.14318329095840454, 0.3220362663269043, -0.18913917243480682, -0.159986212849617, 0.23385024070739746], [-0.20925088226795197, 0.011041244491934776, 0.08654947578907013, -0.035606808960437775, -0.1785479485988617, 0.024556102231144905, 0.1620521992444992, -0.10227364301681519, 0.046622902154922485, -0.17154188454151154, 0.16673138737678528, -0.03865982964634895, -0.033247824758291245, -0.051843609660863876, -0.14510969817638397, 0.14566488564014435, 0.07186580449342728, 0.006107477471232414, 0.2734907269477844, 0.11039157956838608], [0.27575749158859253, 0.03940695524215698, 0.07887601107358932, -0.2486729472875595, -0.12664572894573212, -0.18269886076450348, 0.14468559622764587, 0.10926008969545364, -0.16940215229988098, 0.10354205965995789, 0.27028512954711914, 0.06725915521383286, -0.20299051702022552, 0.14696334302425385, 0.28505775332450867, -0.13097596168518066, 0.2239987850189209, -0.42157742381095886, 0.10487637668848038, 0.04976886138319969], [-0.1970054656267166, 0.06472494453191757, -0.006514136679470539, -0.20154252648353577, 0.12316583096981049, 0.0759933814406395, -0.0665518268942833, -0.06366289407014847, 0.04388655349612236, 0.13127538561820984, 0.20927724242210388, 0.09989667683839798, -0.005156313069164753, -0.028047921136021614, 0.16960923373699188, -0.2543221414089203, 0.09074055403470993, 0.18166126310825348, 0.4660424292087555, -0.023380307480692863], [-0.49523279070854187, -0.33257031440734863, -0.19554245471954346, -0.5820165872573853, -0.05289066955447197, 0.2932899296283722, 0.3596104681491852, -0.34778478741645813, -0.5730798840522766, 0.15434786677360535, 0.33746984601020813, -0.13671062886714935, -0.309284508228302, 0.4868333339691162, -0.03966112434864044, -0.5311183333396912, 0.4238283336162567, 0.1966640055179596, 0.5103102326393127, -0.010102192871272564], [-0.038378551602363586, 0.04361812770366669, 0.4799739122390747, -0.036216672509908676, -0.05843197554349899, 0.00030402143602259457, 0.003646858036518097, 0.02017793618142605, -0.08063609898090363, -0.06741499900817871, -0.08796822279691696, -0.2077711969614029, 0.2806743085384369, -0.13145741820335388, 0.06557874381542206, 0.18090984225273132, -0.045943886041641235, -0.23079730570316315, -0.10949193686246872, -0.08648552745580673], [-0.08169819414615631, 0.057400282472372055, 0.30423539876937866, -0.10449442267417908, -0.028048023581504822, -0.027013909071683884, 0.22861208021640778, 0.037650205194950104, -0.19026336073875427, 0.008110502734780312, 0.2102818787097931, -0.23913457989692688, -0.14069615304470062, 0.1556553691625595, -0.06976142525672913, -0.04707424342632294, 0.2760763168334961, -0.2094252109527588, 0.11598659306764603, 0.1390991061925888], [0.009656144306063652, -0.137496218085289, 0.30610063672065735, -0.21644029021263123, -0.00347600388340652, -0.008574683219194412, 0.07343772053718567, 0.1611265391111374, -0.006347548682242632, -0.014488794840872288, 0.1139662116765976, -0.20504608750343323, 0.1577943116426468, 0.18741688132286072, 0.23170819878578186, -0.16216731071472168, 0.05950764939188957, -0.15281999111175537, -0.11249332129955292, -0.052127398550510406], [-0.7434499263763428, -0.16551822423934937, 0.10974125564098358, -0.43917107582092285, -0.25385600328445435, 0.2841293513774872, 0.12124665081501007, -0.26976969838142395, -0.08066058903932571, -0.026675375178456306, 0.30553165078163147, -0.11692506819963455, -0.2515201270580292, 0.13140173256397247, -0.11367125064134598, 0.006700208410620689, 0.2257109135389328, 0.3009299635887146, 0.5798489451408386, 0.13211797177791595], [-0.13699935376644135, -0.0005761333741247654, -0.11081591248512268, -0.466411292552948, 0.010212789289653301, 0.1900869458913803, 0.259227454662323, 0.009551769122481346, -0.49691471457481384, 0.16652138531208038, 0.5728981494903564, 0.11629295349121094, -0.008911511860787868, 0.049425315111875534, -0.015573034062981606, -0.1739668995141983, 0.22071143984794617, -0.003442965680733323, 0.641937792301178, 0.04743092134594917], [0.23729346692562103, 0.2214796543121338, 0.031867243349552155, -0.08970082551240921, 0.2128700464963913, -0.24301955103874207, 0.21311506628990173, 0.056537579745054245, -0.3325556218624115, -0.005759082734584808, 0.3757493495941162, 0.004087038338184357, -0.1270735263824463, -0.07947953790426254, 0.001866646227426827, 0.08086401969194412, 0.2875874638557434, -0.2946324944496155, 0.08151201158761978, 0.05250557139515877], [0.33276402950286865, 0.2877701222896576, -0.024286683648824692, 0.18805035948753357, -0.015336348675191402, -0.36168932914733887, 0.12869811058044434, 0.04444407671689987, -0.30495378375053406, -0.14875993132591248, 0.07878658920526505, 0.1814541220664978, -0.26255902647972107, -0.0802072286605835, -0.011567422188818455, 0.13479743897914886, 0.2463660091161728, -0.1279079020023346, -0.11166226863861084, 0.3000957667827606], [-1.5759942531585693, -0.6287235021591187, -0.34757959842681885, -2.032167434692383, -0.2356487363576889, 1.1264314651489258, 0.3142331838607788, -0.40100547671318054, -0.3522232174873352, 0.36069971323013306, 0.8511581420898438, -0.05531556159257889, -0.20047233998775482, 0.46832510828971863, 0.06595879048109055, -1.3888905048370361, 0.21435478329658508, 0.5530530214309692, 1.53326416015625, -0.698891282081604], [-0.19766919314861298, 0.0954417735338211, 0.0015044569736346602, -0.2358112782239914, -0.07913298159837723, -0.39820170402526855, 0.22179514169692993, -0.0017047513974830508, -0.29212015867233276, -0.00805559754371643, 0.18224285542964935, 0.0614590160548687, -0.34016984701156616, 0.0037928996607661247, -0.06437616050243378, 0.13119401037693024, 0.28418102860450745, -0.1515836864709854, 0.47334760427474976, 0.39645761251449585]], "rec.bias_ih_l0": [0.37887606024742126, -0.1535598784685135, -0.1784094274044037, 0.9623130559921265, -0.016057394444942474, -0.19569295644760132, 0.02235642820596695, 0.0477849580347538, 0.008563544601202011, -0.184723898768425, 0.04767290875315666, -0.2585521638393402, -0.17932134866714478, -0.19541451334953308, 0.14922453463077545, 0.21510814130306244, -0.18682268261909485, 0.028039462864398956, 1.0267431735992432, -0.3204296827316284, -0.09545400738716125, 0.1962481290102005, 0.09710878133773804, -0.7829169034957886, -0.08100777119398117, 0.16141891479492188, 0.2532390356063843, 0.027856819331645966, 0.0662694126367569, -0.23586522042751312, 0.15683232247829437, 0.24690555036067963, 0.6378925442695618, 0.13701343536376953, -0.05379008874297142, -0.07981671392917633, 0.2067529857158661, 0.1710122972726822, -0.06974318623542786, 0.07094097137451172, -0.062113206833601, -0.14441068470478058, -0.04364928975701332, -0.013162410818040371, -0.04519302025437355, 0.2082369476556778, 0.011617123149335384, -0.09578824788331985, 0.0429127998650074, -0.0032268210779875517, -0.18418416380882263, -0.009321847930550575, -0.04536578804254532, 0.09406790882349014, -0.07212677597999573, 0.09400104731321335, 0.19245269894599915, -0.04976392164826393, -0.09444425255060196, -0.09091635048389435, 0.08344373106956482, -0.05278325080871582, -0.1702568382024765, 1.1366654634475708, -0.07125156372785568, -0.039042480289936066, -0.07597115635871887, 0.2782711386680603, 0.1908305287361145, -0.23253892362117767, 0.4091126024723053, 0.21638843417167664, -0.09781460464000702, -0.13419850170612335, 0.12558038532733917, -0.018582982942461967, 0.0018948271172121167, -0.09843325614929199, 0.34318843483924866, -0.17227889597415924], "rec.bias_hh_l0": [0.3613334596157074, 0.18927182257175446, -0.28587204217910767, 1.020262360572815, 0.08158666640520096, 0.03469797223806381, -0.029897145926952362, -0.016773445531725883, -0.06414414197206497, 0.08168932795524597, -0.04550870135426521, -0.02228577807545662, 0.052569661289453506, -0.006134082563221455, 0.013869819231331348, -0.09615722298622131, -0.24966272711753845, -0.0009634995367377996, 1.0230389833450317, -0.1681763231754303, 0.14073701202869415, -0.02961100824177265, 0.18097791075706482, -0.8129845857620239, -0.1666845977306366, 0.17928989231586456, 0.11793307960033417, -0.05204896628856659, -0.025618061423301697, -0.03540753945708275, 0.24683918058872223, 0.00420038029551506, 0.3657219707965851, -0.19914968311786652, -0.00011500159598654136, 0.041451871395111084, 0.23339156806468964, 0.12234862893819809, -0.08641867339611053, -0.00763706723228097, 0.09473473578691483, -0.14889855682849884, 0.004065181594341993, 0.029337165877223015, 0.029278671368956566, 0.060023993253707886, 0.07572928071022034, 0.10101624578237534, -0.14551717042922974, 0.0003666014818008989, 0.11888767033815384, -0.11300542205572128, -0.007975141517817974, 0.1695738136768341, 0.08454728126525879, -0.17404772341251373, -0.1959390789270401, 0.01592525839805603, 0.0075494167394936085, 0.08187726885080338, 0.37383347749710083, 0.11796256899833679, 0.07583333551883698, 1.086017370223999, 0.14367209374904633, 0.0384654700756073, 0.09108969569206238, -0.02301354706287384, 0.219682514667511, -0.08373051136732101, 0.1863182932138443, 0.026304133236408234, -0.09777083247900009, 0.20166650414466858, 0.19854098558425903, 0.3107030987739563, 0.0982709527015686, 0.041334766894578934, 0.4028768539428711, 0.037258971482515335], "lin.weight": [[-0.29942384362220764, 0.24079176783561707, -0.15269367396831512, -0.34008800983428955, -0.22401311993598938, -0.09317131340503693, 0.11462631076574326, -0.28034085035324097, 0.15790267288684845, -0.22301125526428223, -0.17635954916477203, 0.07481591403484344, -0.02986319363117218, -0.13587947189807892, -0.45942336320877075, 0.3534828722476959, 0.03859510272741318, 0.14659960567951202, -1.2175946235656738, 0.16999273002147675]], "lin.bias": [0.050847288221120834]}}