{"model_data": {"model": "SimpleRNN", "input_size": 1, "skip": 1, "output_size": 1, "unit_type": "LSTM", "num_layers": 1, "hidden_size": 20, "bias_fl": true}, "state_dict": {"rec.weight_ih_l0": [[-0.7809978723526001], [-0.15943217277526855], [0.06995770335197449], [-0.3772070109844208], [-0.4384121894836426], [-0.2562282979488373], [0.18929167091846466], [0.12425657361745834], [-0.21503525972366333], [-0.39595723152160645], [-1.2558506727218628], [0.11439768970012665], [0.26135140657424927], [-0.12263818085193634], [0.22077111899852753], [-1.0218273401260376], [0.21438054740428925], [0.42245516180992126], [-2.5898869037628174], [-0.09227307140827179], [-0.24589647352695465], [-0.15384632349014282], [0.3860953450202942], [0.19165709614753723], [-0.4371662139892578], [-0.476285457611084], [-0.16493867337703705], [-0.07495016604661942], [-0.06373956799507141], [-0.161028653383255], [-0.5544822812080383], [0.09999659657478333], [0.17012079060077667], [0.03322359547019005], [0.04233714938163757], [-0.4642166495323181], [-0.17347604036331177], [0.408690869808197], [-0.9104398488998413], [-0.18578706681728363], [1.0667724609375], [-0.11770246922969818], [0.12342964857816696], [1.3848235607147217], [0.9498770236968994], [-0.4217011034488678], [-0.651907205581665], [0.7732205390930176], [0.03370063379406929], [0.004582247231155634], [-1.1016298532485962], [0.007634799461811781], [0.33583351969718933], [-0.08029374480247498], [0.7472833395004272], [0.5042631030082703], [-0.391702264547348], [-0.4173911213874817], [-2.891087055206299], [0.26912829279899597], [-0.6021810173988342], [-0.14935356378555298], [0.7026655673980713], [-0.17311519384384155], [-0.9233337044715881], [-0.6578501462936401], [-0.2612147927284241], [0.14841832220554352], [0.09060780704021454], [-0.5056581497192383], [-1.4801146984100342], [0.1765897572040558], [0.21937359869480133], [-0.04509788006544113], [0.06797276437282562], [-1.1850866079330444], [-0.14234130084514618], [0.6682144403457642], [-4.232173919677734], [-0.019991762936115265]], "rec.weight_hh_l0": [[-0.2945728898048401, -0.23183028399944305, 0.03650979697704315, -0.0680989995598793, -0.19728176295757294, 0.10804538428783417, 0.2272314578294754, -0.046903837472200394, -0.022586006671190262, -0.1379370391368866, 0.45288941264152527, -0.16052304208278656, -0.10037434101104736, 0.09364092350006104, -0.0426798015832901, -0.06574027985334396, 0.3191194534301758, -0.007368027698248625, 0.5373507738113403, -0.06587549299001694], [-0.06864428520202637, 0.21295878291130066, 0.18653900921344757, -0.040187545120716095, -0.18344132602214813, -0.05509590730071068, -0.08239056169986725, -0.05033709108829498, -0.14114031195640564, -0.13421083986759186, 0.03299286216497421, -0.017509842291474342, 0.05618429183959961, 0.17291831970214844, -0.1404547393321991, 0.09150374680757523, 0.11831548810005188, -0.21457785367965698, -0.043761130422353745, -0.021906405687332153], [0.16380175948143005, -0.059060584753751755, 0.2828134298324585, -0.015625417232513428, 0.19714775681495667, -0.05400434508919716, -0.1318955421447754, 0.08242281526327133, 0.22537614405155182, 0.12228503823280334, -0.2119036763906479, -0.27275046706199646, 0.24463480710983276, -0.10678162425756454, -0.15440353751182556, 0.058262020349502563, -0.04951254650950432, 0.017871255055069923, 0.0128286462277174, -0.09047207236289978], [-0.5038902759552002, -0.5805607438087463, 0.03552829846739769, -0.21694724261760712, -0.2811117470264435, 0.679165244102478, 0.4502566456794739, -0.0933806300163269, -0.4842487871646881, -0.09331248700618744, 0.32786306738853455, -0.19555963575839996, -0.2440938949584961, 0.6436864733695984, -0.08948023617267609, -0.2734263241291046, 0.22657380998134613, 0.03050842136144638, 0.4957963228225708, 0.0840318575501442], [-0.35239988565444946, -0.15205971896648407, 0.2580052316188812, 0.006344928406178951, 0.0221643578261137, -0.06310521066188812, -0.026170697063207626, 0.06647622585296631, -0.21298129856586456, -0.10445298999547958, 0.02824026718735695, -0.10954006016254425, -0.00039764761459082365, 0.13269490003585815, 0.24029314517974854, 0.06694573909044266, 0.03125429525971413, 0.14824067056179047, 0.15127238631248474, 0.1801716536283493], [-0.24229729175567627, -0.15337520837783813, 0.05974385514855385, -0.048783060163259506, -0.077255479991436, -0.14010311663150787, -0.20147490501403809, 0.023786405101418495, 0.19286468625068665, -0.010676780715584755, -0.23336488008499146, -0.002985220169648528, 0.11523649096488953, -0.030472248792648315, 0.059549134224653244, -0.14777477085590363, -0.05861220136284828, 0.15381987392902374, 0.15268798172473907, 0.20322006940841675], [0.13336612284183502, 0.1530873030424118, 0.27387332916259766, -0.009957799687981606, 0.03603440150618553, -0.2356775850057602, 0.12296798080205917, 0.03150797262787819, 0.31467294692993164, 0.030865876004099846, 0.11074493825435638, 0.09255825728178024, -0.19206957519054413, -0.18122875690460205, -0.017870187759399414, 0.2082853764295578, 0.1611017882823944, -0.13390208780765533, -0.28161799907684326, 0.01160447858273983], [-0.08913539350032806, 0.09561636298894882, 0.105126291513443, 0.08316247165203094, -0.09201200306415558, 0.0160444937646389, 0.1328267902135849, -0.047330886125564575, 0.003118970664218068, -0.11805213242769241, 0.05078425630927086, -0.04189440608024597, 0.02892128936946392, -0.0333302766084671, -0.04188309237360954, 0.06807484477758408, 0.07444177567958832, -0.04197261482477188, 0.09768328070640564, 0.06045946106314659], [0.15672868490219116, 0.02798335626721382, 0.10605316609144211, -0.2478170096874237, 0.014264446683228016, -0.12247128784656525, -0.054668113589286804, 0.12444467097520828, -0.14202891290187836, 0.1962602734565735, 0.05267191678285599, -0.12151530385017395, 0.07850529998540878, 0.15328951179981232, 0.3398967981338501, -0.13210423290729523, 0.019556697458028793, -0.0783904492855072, -0.18283726274967194, -0.04196372255682945], [-0.23276057839393616, -0.09113312512636185, -0.03529686853289604, -0.13038288056850433, 0.027995480224490166, 0.17450445890426636, 0.021060312166810036, -0.055979806929826736, -0.13259010016918182, 0.11926020681858063, 0.16048097610473633, -0.0034209757577627897, -0.18653999269008636, -0.04659556970000267, 0.15303759276866913, -0.25540831685066223, 0.06746943295001984, 0.0612870492041111, 0.4853017330169678, -0.09658028930425644], [-0.8161629438400269, -0.6994010210037231, -0.021979430690407753, -0.3506869375705719, -0.007032895460724831, 0.3476963937282562, 0.23113232851028442, -0.2746100127696991, -0.547471284866333, 0.21970342099666595, 0.09248612821102142, -0.40051597356796265, -0.1770656704902649, 0.5594393014907837, -0.05363871157169342, -0.7186732292175293, 0.21263381838798523, 0.40674731135368347, 0.6115415692329407, -0.15954038500785828], [-0.0567425936460495, -0.1286621391773224, 0.3556859791278839, -0.22919277846813202, -0.1130332499742508, -0.0017097576055675745, 0.04150073602795601, 0.00806346908211708, 0.1693909466266632, 0.018748696893453598, -0.21576735377311707, -0.12421681731939316, 0.288433700799942, -0.06228169426321983, -0.06913603097200394, 0.09441716223955154, 0.018557623028755188, -0.1356217861175537, 0.15929803252220154, 0.1064220666885376], [0.15381363034248352, 0.0946129560470581, 0.39635196328163147, -0.10532792657613754, -0.07505513727664948, -0.14574390649795532, 0.10356920957565308, 0.009431319311261177, 0.3523188829421997, 0.1404014229774475, -0.005597382318228483, -0.22882595658302307, 0.05825032293796539, 0.06145480275154114, -0.02425200305879116, 0.1466684639453888, 0.13013632595539093, -0.16933584213256836, -0.21985314786434174, 0.007795317098498344], [0.027274522930383682, 0.11715485900640488, 0.2588908076286316, -0.15685917437076569, -0.04203977808356285, 0.01153962966054678, -0.02818993851542473, 0.1832672506570816, -0.1290941834449768, -0.005061544477939606, 0.07816191017627716, 0.020505039021372795, 0.09310027956962585, 0.1119188591837883, 0.29334816336631775, 0.14128240942955017, -0.03109901212155819, -0.014591110870242119, -0.2939126491546631, -0.07546235620975494], [-0.14170989394187927, -0.19118991494178772, 0.3068680763244629, -0.31167909502983093, -0.00806365255266428, 0.27307096123695374, -0.009399364702403545, 0.08768045157194138, -0.271179735660553, 0.15338711440563202, 0.3572624921798706, -0.08793347328901291, 0.003389736171811819, 0.11880601197481155, 0.21103744208812714, -0.2919323444366455, 0.0022218297235667706, 0.034880928695201874, 0.33588558435440063, -0.09185824543237686], [-0.203477680683136, -0.28985530138015747, -0.05499337241053581, -0.32775333523750305, -0.1263895034790039, 0.1468212604522705, 0.16993631422519684, -0.037995047867298126, -0.14956307411193848, 0.19894306361675262, 0.3362019658088684, -0.031410954892635345, 0.037098467350006104, 0.10091548413038254, 0.04557950794696808, -0.42099422216415405, 0.11534486711025238, 0.036724675446748734, 0.48387378454208374, -0.04727880284190178], [0.24887986481189728, 0.09142367541790009, 0.13695603609085083, -0.0643124207854271, 0.18299128115177155, -0.2697131037712097, 0.17871984839439392, 0.036622174084186554, 0.08355776220560074, 0.17743034660816193, 0.18768852949142456, -0.07365411520004272, 0.015204837545752525, 0.006573909893631935, 0.13937945663928986, -0.1098136231303215, 0.2497568279504776, -0.09880322962999344, -0.410347044467926, -0.016948847100138664], [0.14832529425621033, 0.23986437916755676, -0.007639172952622175, 0.0900229811668396, 0.1682817041873932, -0.24817205965518951, 0.03803757205605507, 0.05403568595647812, 0.0198233500123024, 0.12112728506326675, 0.05599598586559296, 0.16201911866664886, -0.14823095500469208, -0.012936984188854694, 0.12027742713689804, 0.2126697152853012, 0.21433238685131073, -0.2556139826774597, 0.00048141140723600984, 0.19450503587722778], [-0.8608542680740356, -0.6970716118812561, -0.1814940720796585, -0.9390149712562561, -0.28469306230545044, 0.8451822996139526, 0.7059855461120605, -0.20335327088832855, -0.5547184944152832, 0.06130298599600792, 0.5174418091773987, -0.1417921632528305, -0.3868931531906128, 0.6721870303153992, -0.11704375594854355, -0.7952969074249268, 0.27509576082229614, 0.08156769722700119, 1.1662702560424805, -0.08178309351205826], [-0.7851958274841309, -0.08694012463092804, 0.11053300648927689, -0.21570493280887604, 0.14096969366073608, 0.07013558596372604, -0.17507025599479675, -0.059120841324329376, 0.18130521476268768, 0.1648317575454712, 0.041408125311136246, -0.09776152670383453, -0.037850070744752884, 0.15897835791110992, 0.1175641193985939, -0.257943719625473, -0.02048446051776409, 0.38406670093536377, 0.4638543426990509, -0.11736797541379929], [0.07027798146009445, -0.026751818135380745, 0.12378036975860596, -0.13661223649978638, 0.17026588320732117, 0.25385451316833496, -0.2807062864303589, 0.07587435841560364, 0.2911185026168823, 0.01801985129714012, -0.09379784762859344, -0.09411618858575821, 0.05134566128253937, -0.12174458801746368, 0.2373095154762268, -0.081972137093544, -0.0987282320857048, -0.025146745145320892, 0.17468759417533875, -0.4778209328651428], [0.017780296504497528, 0.03484613448381424, 0.26926371455192566, -0.04307417571544647, -0.252063125371933, 0.024861538782715797, -0.021169058978557587, 0.05806654691696167, -0.07470394670963287, 0.11403777450323105, -0.1374330222606659, 0.037063080817461014, 0.2302372306585312, 0.06652489304542542, 0.03945290297269821, 0.3135857880115509, 0.14224161207675934, -0.19064469635486603, 0.06186790391802788, 0.3456302285194397], [-0.03508257120847702, -0.3478084206581116, 0.484683096408844, 0.23970289528369904, -0.28948521614074707, 0.21219314634799957, -0.3456956744194031, 0.2511081099510193, -0.19355802237987518, -0.20305673778057098, -0.4589846134185791, -0.503634512424469, 0.4437725245952606, 0.2726871967315674, 0.039315082132816315, -0.21092377603054047, -0.3230464458465576, 0.20098674297332764, -0.1245964840054512, -0.28416287899017334], [-0.0007634024950675666, 0.23845671117305756, 0.031600430607795715, -0.12113194912672043, 0.16852916777133942, -0.3425857126712799, -0.20614928007125854, 0.002187281148508191, 0.10107245296239853, 0.0721680149435997, 0.05594204366207123, 0.08140767365694046, 0.04360546916723251, -0.32457250356674194, 0.2502302825450897, 0.031939636915922165, 0.04594362899661064, 0.1090342178940773, -0.04828415811061859, -0.04330304265022278], [-0.2621174156665802, 0.003632047213613987, 0.3507090210914612, -0.1003262922167778, 0.05729548633098602, -0.20112565159797668, -0.045164454728364944, 0.17020004987716675, -0.18845489621162415, -0.029224857687950134, -0.07066695392131805, -0.12611781060695648, 0.1989351063966751, 0.12266119569540024, 0.257942259311676, 0.12066621333360672, -0.06891344487667084, 0.20008163154125214, 0.008277186192572117, 0.14676803350448608], [0.387538343667984, 0.3209533095359802, 0.018110191449522972, -0.3030429184436798, -0.12980282306671143, -0.35226374864578247, 0.21381120383739471, 0.048546407371759415, -0.2009364813566208, -0.14775556325912476, 0.07494781166315079, 0.20790918171405792, 0.01815674640238285, -0.06546207517385483, -0.1184285581111908, 0.4068797826766968, 0.08417912572622299, -0.42263102531433105, -0.2364441454410553, 0.42332252860069275], [0.23876921832561493, 0.11723295599222183, 0.018296020105481148, 0.24217601120471954, -0.12252657860517502, 0.007803003769367933, 0.32855695486068726, -0.11153018474578857, 0.037670284509658813, -0.12900809943675995, 0.3365097641944885, 0.19940048456192017, -0.37455007433891296, -0.04881100729107857, -0.1724032163619995, 0.0957583636045456, 0.3838520348072052, -0.27833613753318787, -0.2431548535823822, 0.22756017744541168], [-0.06756491959095001, -0.03690766915678978, 0.13203175365924835, -0.13581053912639618, -0.011334951035678387, 0.049132250249385834, -0.18229463696479797, -0.04917972534894943, 0.0238607469946146, 0.010487009771168232, -0.1454429179430008, -0.11704953759908676, 0.10048903524875641, 0.014470158144831657, 0.0750177726149559, -0.11257758736610413, -0.12389788031578064, 0.15725016593933105, -0.01951545849442482, -0.0916079729795456], [0.6166792511940002, 0.17234362661838531, 0.10245858877897263, -0.3838152289390564, -0.1477823555469513, -0.22427749633789062, 0.14799347519874573, 0.1364690214395523, -0.19907152652740479, 0.09298913180828094, 0.18855589628219604, 0.09157778322696686, -0.006003170274198055, -0.07766778767108917, 0.1759982407093048, 0.2167470008134842, 0.2774694859981537, -0.577346682548523, -0.4709472060203552, 0.06264068931341171], [-0.1576714664697647, -0.06992652267217636, -0.08406169712543488, -0.15896408259868622, -0.043276648968458176, -0.10566583275794983, 0.026075050234794617, -0.03132108971476555, -0.06731769442558289, 0.16292941570281982, 0.14549893140792847, -0.03736522048711777, -0.012787957675755024, -0.05130716413259506, 0.21146643161773682, -0.11944972723722458, 0.06447094678878784, 0.10490766167640686, 0.1398957222700119, -0.023190224543213844], [-0.024855023249983788, 0.04276254400610924, -0.023375676944851875, -0.20927757024765015, -0.20754601061344147, -0.36538657546043396, 0.34408438205718994, -0.17931275069713593, -0.6238089799880981, -0.08710479736328125, 0.48481839895248413, 0.17724238336086273, -0.41534623503685, 0.09931580722332001, -0.23210808634757996, 0.2703365981578827, 0.5249881148338318, -0.17368103563785553, -0.13035134971141815, 0.24692600965499878], [-0.16687671840190887, -0.12958228588104248, 0.5209249258041382, -0.06105488911271095, -0.2516983449459076, -0.0703536793589592, -0.009302272461354733, -0.05019224435091019, -0.0703648179769516, -0.12692375481128693, -0.18111766874790192, -0.29137635231018066, 0.33645492792129517, 0.044306084513664246, 0.012675960548222065, 0.08106234669685364, -0.04301832988858223, -0.2258264571428299, 0.11497804522514343, -0.11633191257715225], [-0.0062917363829910755, -0.19707636535167694, 0.43392348289489746, 0.31643739342689514, -0.06292519718408585, 0.37564611434936523, 0.3665129244327545, -0.1110226958990097, -0.34506699442863464, -0.26770806312561035, 0.14158689975738525, -0.19509758055210114, -0.2174779623746872, 0.32097795605659485, -0.24357256293296814, -0.06278038024902344, 0.36898717284202576, -0.17171023786067963, -0.29939204454421997, 0.3025936782360077], [0.15825670957565308, 0.021985335275530815, 0.36070725321769714, -0.24004749953746796, 0.044811759144067764, 0.030510058626532555, -0.029344337061047554, 0.23555563390254974, -0.030844928696751595, 0.16236482560634613, -0.09904186427593231, 0.02625453844666481, 0.12351814657449722, 0.02988860197365284, 0.261166512966156, -0.08694184571504593, -0.03181426599621773, -0.09150538593530655, -0.45192644000053406, -0.11663885414600372], [-0.05363437533378601, -0.07778875529766083, 0.5234740376472473, -0.7669334411621094, 0.1691659837961197, 0.013917454518377781, -0.08109240233898163, 0.23162314295768738, -0.18516694009304047, 0.2827722132205963, -0.10121596604585648, -0.26647812128067017, -0.009399302303791046, 0.1020585373044014, 0.424503892660141, -0.18010587990283966, -0.07796946167945862, 0.27060776948928833, 0.046089597046375275, -0.19449082016944885], [0.16828550398349762, -0.0023241955786943436, -0.03602435439825058, -0.3990970849990845, -0.15431424975395203, -0.23542773723602295, 0.052000854164361954, 0.0012814791407436132, 0.02997118979692459, 0.2301916480064392, 0.15612263977527618, -0.06571376323699951, -0.08209598064422607, -0.14149075746536255, -0.05953238159418106, 0.2985265851020813, -0.007874722592532635, -0.25121009349823, -0.033576272428035736, 0.2091762274503708], [0.3214990496635437, 0.25657323002815247, -0.04883667826652527, 0.10721968859434128, -0.030951812863349915, -0.32919764518737793, 0.37656736373901367, -0.015530023723840714, -0.057021744549274445, 0.037687260657548904, 0.281019002199173, 0.12338792532682419, -0.19328607618808746, -0.17224569618701935, -0.003489387221634388, 0.22123879194259644, 0.30562031269073486, -0.2960243821144104, -0.09361451119184494, 0.26657116413116455], [0.38871148228645325, 0.23138277232646942, -0.05079151317477226, 0.1535271555185318, 0.21294233202934265, -0.3232177197933197, 0.26258236169815063, 0.1415596753358841, -0.17974503338336945, 0.10285011678934097, 0.04765458032488823, 0.21959947049617767, -0.09561984986066818, -0.23542249202728271, 0.23997563123703003, 0.32364436984062195, 0.16801831126213074, -0.18824443221092224, -0.049679554998874664, 0.20063838362693787], [-0.007566928863525391, -0.13143467903137207, -0.12652139365673065, 0.15864335000514984, -0.0804055854678154, 0.1321585774421692, -0.03505026921629906, -0.1784510314464569, 0.19591552019119263, -0.15783317387104034, -0.07692422717809677, -0.030012670904397964, 0.07290910184383392, -0.36069566011428833, 0.020800238475203514, 0.08123673498630524, 0.021350502967834473, 0.07578283548355103, 0.15260176360607147, -0.29076510667800903], [0.04436453431844711, 0.4798373878002167, 0.023161595687270164, -0.4615958631038666, -0.24870406091213226, -0.876412034034729, 0.21546904742717743, -0.017208250239491463, -0.3872820734977722, 0.03780112415552139, 0.4476284384727478, 0.11623342335224152, -0.3688536286354065, -0.22091862559318542, -0.08849121630191803, 0.3187635540962219, 0.40237241983413696, -0.31777623295783997, 0.4066963493824005, 0.3789423406124115], [-0.08948078006505966, 0.025622207671403885, -0.2701403498649597, 0.2475115805864334, 0.20915192365646362, -0.27795296907424927, 0.035856254398822784, 0.01578555628657341, 0.056217603385448456, 0.06783685088157654, -0.2650536596775055, 0.20952168107032776, -0.41259655356407166, -0.19229966402053833, -0.19631259143352509, 0.22800284624099731, 0.07664822041988373, -0.10374090820550919, -0.1513524353504181, 0.26667243242263794], [-0.08433595299720764, 0.13988223671913147, -0.1543545126914978, -0.09727540612220764, -0.23084668815135956, 0.06498836725950241, 0.21932151913642883, -0.0038588829338550568, -0.11087954044342041, -0.1894683688879013, 0.156852588057518, 0.12922538816928864, -0.38817477226257324, -0.18698996305465698, -0.060170888900756836, -0.05930863320827484, 0.27494311332702637, 0.007265691179782152, 0.13302652537822723, -0.047760725021362305], [-0.18482238054275513, -0.06542837619781494, 0.030257822945713997, 0.02360059879720211, -0.1588265746831894, 0.08683799207210541, -0.1862097680568695, 0.08384036272764206, 0.18921992182731628, -0.1316857784986496, 0.05731611326336861, -0.22743678092956543, 0.35396865010261536, -0.19726616144180298, 0.018352774903178215, 0.034637682139873505, 0.03664855659008026, 0.025083601474761963, -0.15018615126609802, 0.021248888224363327], [-0.12865354120731354, 0.07766816020011902, -0.1789700835943222, -1.167205810546875, -0.0850830152630806, 0.18720132112503052, 0.09387339651584625, -0.352818101644516, 0.05671042948961258, 0.0032306343782693148, 0.22134751081466675, 0.14509107172489166, 0.0021789236925542355, 0.10105760395526886, 0.010909046977758408, -0.39535072445869446, 0.2187061905860901, 0.1425848752260208, 0.42683687806129456, -0.1126796081662178], [0.0009850204223766923, -0.2031048834323883, -0.36688196659088135, -0.3350266218185425, -0.10503800958395004, 0.12479409575462341, -0.18095751106739044, -0.3206378221511841, 0.07494097948074341, 0.03328029066324234, 0.12614542245864868, 0.04469599574804306, -0.16058343648910522, -0.07594644278287888, -0.19792695343494415, -0.10208451747894287, 0.16152341663837433, -0.14447417855262756, 0.01512087881565094, -0.39106285572052], [0.30515018105506897, -0.1979699432849884, -0.0071079847402870655, -0.06387099623680115, 0.1225895881652832, -0.13950957357883453, 0.07030241936445236, -0.07801245898008347, 0.16722078621387482, 0.15414324402809143, -0.3012911081314087, -0.16997280716896057, -0.0944984182715416, 0.18538156151771545, -0.24342037737369537, -0.005685432348400354, -0.12097812443971634, 0.1650911122560501, -0.2450590282678604, -0.2170686572790146], [-0.005719296168535948, -0.14567142724990845, -0.4216427803039551, 0.29459649324417114, -0.13482815027236938, -0.1398114264011383, 0.0801519975066185, 0.13709764182567596, -0.03571954742074013, -0.09715185314416885, 0.40746429562568665, 0.2660021483898163, -0.24027232825756073, -0.04396086931228638, 0.07684610038995743, -0.1143159493803978, 0.15943408012390137, -0.05560969188809395, -0.010954329743981361, 0.028127608820796013], [-0.241180881857872, 0.1471959799528122, 0.29576683044433594, 0.025086628273129463, -0.014245646074414253, -0.0809997022151947, 0.01870160549879074, -0.31009164452552795, 0.20711824297904968, -0.03910442814230919, -0.11686570197343826, -0.10662775486707687, -0.16602036356925964, 0.0435604602098465, 0.03081965073943138, -0.06253325939178467, 0.132475346326828, -0.10649751126766205, -0.05283183604478836, 0.2453434318304062], [-0.4099157452583313, 0.12526121735572815, -0.028643198311328888, 0.33689799904823303, 0.19398118555545807, 0.2239600121974945, 0.24762706458568573, -0.24066370725631714, -0.04923434928059578, -0.07880964130163193, -0.0035754672717303038, 0.006184461992233992, -0.326413094997406, -0.07342001795768738, 0.004185765981674194, -0.13319654762744904, -0.23915618658065796, 0.22149407863616943, 0.2211633175611496, -0.11787526309490204], [0.08441194891929626, 0.12770116329193115, -0.1065022349357605, 0.22625119984149933, 0.050840824842453, 0.05888193100690842, -0.027028769254684448, -0.05771084129810333, 0.11075084656476974, -0.1671368032693863, -0.14644812047481537, 0.16195404529571533, 0.012770031578838825, -0.19070366024971008, -0.00892135500907898, 0.12403128296136856, -0.3731098473072052, 0.04898761585354805, -0.4339960515499115, 0.10881230980157852], [0.10751751065254211, -0.0334414541721344, 0.021448587998747826, -0.29631203413009644, 0.05641182139515877, 0.15734834969043732, 0.2191879153251648, 0.08440021425485611, 0.11241026967763901, 0.1299820840358734, -0.036860398948192596, -0.0388922318816185, -0.07968689501285553, -0.1453118920326233, 0.12481821328401566, -0.056122418493032455, 0.08830246329307556, -0.31105539202690125, 0.3144564628601074, -0.14990250766277313], [0.1552666574716568, 0.15870313346385956, -0.36899125576019287, -0.14165432751178741, -0.18014878034591675, 0.16838130354881287, 0.26257023215293884, 0.2540375292301178, 0.08500593155622482, -0.11663336306810379, 0.15626931190490723, 0.07177521288394928, -0.37784865498542786, 0.1920642852783203, -0.03680064529180527, -0.23754091560840607, 0.3057645261287689, -0.18673871457576752, -0.003957511391490698, 0.10844512283802032], [-0.2918575406074524, -0.11451998353004456, 0.44731372594833374, 0.17782874405384064, 0.16316436231136322, -0.24758116900920868, -0.07840405404567719, 0.22927604615688324, 0.018685590475797653, -0.145876944065094, -0.5114368200302124, -0.36360037326812744, 0.3039715886116028, 0.025158196687698364, -0.06171463802456856, 0.0011012847535312176, -0.3142598569393158, 0.35951903462409973, -0.045096803456544876, 0.10487155616283417], [0.3066614866256714, -0.11858464032411575, 0.33907070755958557, -0.23056310415267944, -0.045085109770298004, -0.10551652312278748, -0.22353504598140717, 0.20569787919521332, 0.2595650851726532, -0.047435980290174484, -0.23894087970256805, -0.1992471069097519, 0.028671573847532272, 0.009921547025442123, 0.09990851581096649, -0.042258474975824356, -0.28530454635620117, -0.07207736372947693, -0.2048548310995102, 0.03628581389784813], [0.348758339881897, 0.08094369620084763, 0.33045488595962524, 0.102817602455616, 0.03497365117073059, -0.007649843581020832, -0.22118212282657623, -0.015569542534649372, 0.30787524580955505, -0.25309011340141296, -0.10392551869153976, -0.24867241084575653, 0.07060491293668747, 0.0865488275885582, -0.1179717406630516, 0.194750115275383, -0.20600607991218567, -0.46724623441696167, -0.3969888389110565, 0.11703461408615112], [-0.4843975305557251, 0.08032682538032532, 0.011253176257014275, -0.11702069640159607, 0.04106985777616501, -0.04499228671193123, 0.10939858108758926, -0.007178872358053923, -0.17873263359069824, -0.10374569892883301, 0.23969756066799164, 0.0662173479795456, -0.1840466856956482, 0.2522592842578888, 0.11503490805625916, -0.2315973937511444, 0.1618284434080124, 0.10097138583660126, 0.4066677689552307, 0.22622452676296234], [0.2631334066390991, 0.1625996232032776, -0.06394942104816437, -0.09521308541297913, 0.026461424306035042, -0.14876286685466766, 0.040363479405641556, 0.16406331956386566, 0.02911156788468361, -0.03366243094205856, 0.2431330531835556, 0.035192470997571945, -0.21483546495437622, 0.0029155893716961145, 0.203375443816185, -0.18446084856987, -0.0933079645037651, -0.06873403489589691, -0.20072147250175476, 0.07154949754476547], [-0.10331933945417404, -0.18241830170154572, 0.04861331731081009, -0.01999835856258869, -0.005476633086800575, 0.18432675302028656, -0.15547257661819458, -0.09470745176076889, -0.20745070278644562, 0.22090135514736176, 0.2477203607559204, -0.03475997596979141, 0.28117403388023376, 0.09510496258735657, 0.0176435187458992, -0.19549819827079773, -0.10819905251264572, 0.0787673071026802, 0.08546717464923859, -0.21862201392650604], [-0.17882175743579865, -0.08595240116119385, -0.1908685714006424, -0.8318297863006592, -0.29720520973205566, -0.045251693576574326, 0.17213000357151031, -0.14792588353157043, 0.035931650549173355, 0.0722397044301033, -0.06382941454648972, -0.23471704125404358, 0.1615866869688034, 0.13511548936367035, -0.000933878414798528, -0.2669340670108795, -0.0225694477558136, 0.3000350892543793, 0.30073919892311096, -0.29004403948783875], [-0.3931964039802551, 0.15575040876865387, -0.03454645723104477, -0.22141292691230774, 0.09056233614683151, -0.062391720712184906, -0.18107880651950836, -0.20607344806194305, -0.07547717541456223, 0.15531465411186218, 0.07347451895475388, 0.2095729559659958, -0.29538464546203613, 0.1548575758934021, 0.14646729826927185, 0.05251386761665344, 0.01775112748146057, -0.03459625318646431, 0.343557745218277, -0.1953222006559372], [-0.13593152165412903, -0.007089611608535051, -0.04601836949586868, -0.29509660601615906, -0.009922402910888195, 0.38089093565940857, 0.3063461482524872, -0.06352300941944122, -0.17216387391090393, 0.12997958064079285, 0.5036429166793823, -0.01526960451155901, -0.1351776272058487, 0.3198867738246918, 0.2236398458480835, -0.2918861210346222, 0.27287042140960693, -0.09174444526433945, 0.6135377883911133, -0.21311935782432556], [-0.16069483757019043, -0.12169411033391953, 0.11380644887685776, -0.21585378050804138, -0.055893100798130035, -0.177488312125206, 0.19021718204021454, -0.060748182237148285, -0.14082737267017365, -0.07897044718265533, 0.2802980840206146, 0.0863567367196083, 0.2026347666978836, -0.15947262942790985, -0.11778146028518677, 0.15221121907234192, 0.20949167013168335, -0.16205187141895294, 0.06633448600769043, 0.10982847958803177], [0.12456026673316956, -0.08857590705156326, 0.44618821144104004, 0.0997311919927597, 0.06829650700092316, -0.03956352919340134, -0.27417850494384766, 0.251935213804245, 0.1631171554327011, -0.024938832968473434, -0.3488713204860687, -0.37598279118537903, 0.40487736463546753, 0.1461266726255417, 0.2278381586074829, -0.045086756348609924, -0.20560981333255768, 0.08965373039245605, -0.24785387516021729, -0.17792797088623047], [-0.33049845695495605, -0.494773805141449, 0.016847580671310425, -0.13859853148460388, -0.19812390208244324, 0.5856899619102478, 0.43271762132644653, -0.05989348143339157, -0.3690396845340729, -0.05344067141413689, 0.25867563486099243, -0.20144972205162048, -0.21479426324367523, 0.569815456867218, -0.13326813280582428, -0.18345913290977478, 0.1873803287744522, -0.0022314584348350763, 0.2697497606277466, 0.08388074487447739], [-0.31104913353919983, -0.07007742673158646, 0.26227638125419617, 0.02848796173930168, -0.01173961628228426, -0.17147640883922577, -0.050690583884716034, 0.1588478833436966, -0.18324905633926392, -0.13518840074539185, -0.010215293616056442, -0.08227255940437317, 0.03273192048072815, 0.2474571019411087, 0.09319455176591873, 0.14283351600170135, -0.07154397666454315, 0.1210995689034462, 0.05363551899790764, 0.1901809275150299], [0.15860068798065186, -0.08752705901861191, 0.004662814550101757, -0.22854633629322052, -0.25765419006347656, -0.19004064798355103, 0.21535031497478485, 0.0541553758084774, -0.2677870988845825, 0.07921713590621948, 0.1345299631357193, 0.07962945848703384, -0.15191078186035156, -0.05928558483719826, -0.02115524746477604, 0.11867774277925491, 0.16454699635505676, -0.22216328978538513, 0.2994728982448578, 0.2280268520116806], [0.10955595225095749, -0.000561901368200779, 0.06754177808761597, 0.08928988128900528, -0.07508930563926697, -0.2255832701921463, 0.24888259172439575, -0.10601695626974106, -0.1813836395740509, -0.0498909056186676, 0.3151876926422119, 0.18264181911945343, -0.29709678888320923, 0.03636671230196953, -0.11355896294116974, 0.1436617225408554, 0.3254566788673401, -0.18702910840511322, -0.17066115140914917, 0.22933799028396606], [-0.11224997788667679, -0.002210472244769335, 0.08528870344161987, 0.056313496083021164, -0.12619571387767792, 0.0206857118755579, 0.11112009733915329, -0.08024980127811432, 0.013345886953175068, -0.13570493459701538, 0.07443396747112274, -0.035889286547899246, -0.0016046279342845082, -0.059633463621139526, -0.08986449241638184, 0.0676371306180954, 0.057525597512722015, -0.027403665706515312, 0.1263226568698883, 0.04754926636815071], [0.2821280360221863, 0.025327501818537712, 0.08399978280067444, -0.3239698112010956, -0.1341683268547058, -0.14877845346927643, 0.13711555302143097, 0.11047324538230896, -0.14777983725070953, 0.12372724711894989, 0.27690085768699646, 0.07021740823984146, -0.20135366916656494, 0.19392412900924683, 0.3290296792984009, -0.15547342598438263, 0.21557636559009552, -0.4239664673805237, 0.1331353783607483, -0.008657963946461678], [-0.21339648962020874, 0.07810316234827042, -0.0007942257798276842, -0.15937139093875885, 0.13484013080596924, 0.0467727854847908, -0.06562372297048569, -0.05303112417459488, 0.03629268705844879, 0.14048315584659576, 0.22582362592220306, 0.10498760640621185, -0.006602751091122627, -0.03796128183603287, 0.19764111936092377, -0.24032467603683472, 0.10512427985668182, 0.17915698885917664, 0.46098068356513977, 0.009799713268876076], [-0.5246363282203674, -0.3507682681083679, -0.23046836256980896, -0.6875578165054321, -0.04336557909846306, 0.3537450134754181, 0.35595372319221497, -0.4002692699432373, -0.573191225528717, 0.16362521052360535, 0.3297450840473175, -0.13885879516601562, -0.3085206151008606, 0.506464958190918, -0.03767014294862747, -0.5568504333496094, 0.41498786211013794, 0.21159449219703674, 0.5385327339172363, -0.04267573729157448], [-0.04806361719965935, 0.04072050377726555, 0.4777369201183319, -0.047276124358177185, -0.06458913534879684, 0.005325502250343561, -0.0022192467004060745, 0.006908358074724674, -0.07380101084709167, -0.08155820518732071, -0.08653195202350616, -0.20996303856372833, 0.2844001054763794, -0.13327465951442719, 0.05070130154490471, 0.19089838862419128, -0.05445673689246178, -0.22526375949382782, -0.10094942152500153, -0.10158040374517441], [-0.08890337496995926, 0.05400165170431137, 0.30077871680259705, -0.1229408010840416, -0.03544391691684723, -0.02181214839220047, 0.22304673492908478, 0.03436261788010597, -0.18494750559329987, -0.0018448976334184408, 0.2081754058599472, -0.2409849613904953, -0.1367167979478836, 0.1530989557504654, -0.07427151501178741, -0.048572197556495667, 0.2712108790874481, -0.2019149661064148, 0.12609747052192688, 0.12720635533332825], [-0.007680177688598633, -0.14957241714000702, 0.3086521327495575, -0.28390881419181824, 0.015354241244494915, 0.0035641349386423826, 0.08604654669761658, 0.17907311022281647, 0.021623386070132256, -0.02824196219444275, 0.12035053223371506, -0.21308419108390808, 0.17157156765460968, 0.1977786123752594, 0.23048177361488342, -0.1946306824684143, 0.056426241993904114, -0.1674555540084839, -0.08295803517103195, -0.1086445227265358], [-0.6794729232788086, -0.19504311680793762, 0.15476898849010468, -0.20284989476203918, -0.20981550216674805, 0.2901175916194916, 0.11570288240909576, -0.1979992687702179, -0.18349948525428772, -0.0011845330009236932, 0.29398947954177856, -0.15962159633636475, -0.24830882251262665, 0.1824796050786972, -0.054387811571359634, 0.022872213274240494, 0.2724379897117615, 0.23702844977378845, 0.49351146817207336, 0.1616819053888321], [-0.22993315756320953, -0.004104109946638346, -0.12194303423166275, -0.5073836445808411, 0.01457351166754961, 0.2429145723581314, 0.268216609954834, -0.04967324808239937, -0.5006824731826782, 0.1732603758573532, 0.6008044481277466, 0.12422119826078415, -0.008583484217524529, 0.04832391068339348, -0.041979964822530746, -0.1796504706144333, 0.2207929790019989, 0.0087617551907897, 0.7232528328895569, 0.018865158781409264], [0.23110802471637726, 0.21426743268966675, 0.030767247080802917, -0.15103581547737122, 0.22014036774635315, -0.2136981040239334, 0.2100447416305542, 0.06406798213720322, -0.33344313502311707, -0.009159981273114681, 0.37175649404525757, -0.0009758865926414728, -0.12228404730558395, -0.0678531602025032, 0.0074277957901358604, 0.07607143372297287, 0.2803841829299927, -0.2877298593521118, 0.06680149585008621, 0.02791948989033699], [0.32732003927230835, 0.2788700461387634, -0.028377722948789597, 0.16047830879688263, -0.02033897303044796, -0.3271861672401428, 0.1262810230255127, 0.04807107523083687, -0.3008582293987274, -0.16472525894641876, 0.07436662167310715, 0.17858895659446716, -0.25947579741477966, -0.06845700740814209, -0.00749093247577548, 0.130483940243721, 0.24037331342697144, -0.12056107074022293, -0.12123531848192215, 0.2769162356853485], [-1.7122633457183838, -0.6482742428779602, -0.38281145691871643, -2.297332763671875, -0.329568088054657, 1.1685442924499512, 0.4106568694114685, -0.4336148202419281, -0.5788861513137817, 0.44487351179122925, 0.8681138753890991, -0.06741694360971451, -0.19547322392463684, 0.5424095392227173, 0.1490352898836136, -1.5297602415084839, 0.3338675796985626, 0.5694348216056824, 1.7258645296096802, -0.6677793264389038], [-0.24238714575767517, 0.0720096081495285, -0.0014777948381379247, -0.277013897895813, -0.05575313791632652, -0.349016398191452, 0.2133817821741104, -0.023294620215892792, -0.2663804292678833, 0.003176807425916195, 0.17066115140914917, 0.057150501757860184, -0.3381907343864441, 0.03375311940908432, -0.05614672973752022, 0.10925563424825668, 0.27466273307800293, -0.1366250216960907, 0.484480619430542, 0.3604906499385834]], "rec.bias_ih_l0": [0.3798445463180542, -0.15138737857341766, -0.16533024609088898, 0.9393517971038818, -0.008512723259627819, -0.1724320948123932, 0.024611057713627815, 0.0018799910321831703, 0.027936268597841263, -0.1883198469877243, 0.07597027719020844, -0.25552624464035034, -0.1712765395641327, -0.1901194453239441, 0.14011676609516144, 0.22177113592624664, -0.17439885437488556, 0.040557462722063065, 0.9808648228645325, -0.27803799510002136, -0.0929252877831459, 0.19707350432872772, 0.09408384561538696, -0.8032864928245544, -0.071827732026577, 0.1350805163383484, 0.24430109560489655, 0.04970338195562363, 0.0689781904220581, -0.22126342356204987, 0.15130460262298584, 0.24549980461597443, 0.6221048831939697, 0.1462157517671585, -0.031198792159557343, -0.06427779048681259, 0.2020682394504547, 0.16865059733390808, -0.03407786041498184, 0.06742972880601883, -0.06307347118854523, -0.14434199035167694, -0.042529601603746414, -0.010231303982436657, -0.05988408252596855, 0.20981483161449432, 0.012524250894784927, -0.09647491574287415, 0.03834931179881096, -0.010235777124762535, -0.1826440989971161, -0.010060975328087807, -0.04651710018515587, 0.10001124441623688, -0.07314132153987885, 0.09386838972568512, 0.19440220296382904, -0.05174171179533005, -0.09481687843799591, -0.08589417487382889, 0.08437938988208771, -0.05090358480811119, -0.16719143092632294, 1.1316889524459839, -0.06749597191810608, -0.04596357047557831, -0.07518559694290161, 0.2515418231487274, 0.19022373855113983, -0.23421794176101685, 0.41153573989868164, 0.21818174421787262, -0.10048194974660873, -0.13041509687900543, 0.15307824313640594, -0.023561270907521248, 0.002280537271872163, -0.09428062289953232, 0.3344632685184479, -0.17893077433109283], "rec.bias_hh_l0": [0.3621746301651001, 0.19225476682186127, -0.2730792462825775, 1.0011816024780273, 0.09217219799757004, 0.06113316863775253, -0.027810189872980118, -0.06653322279453278, -0.046929266303777695, 0.0854579359292984, -0.01766367442905903, -0.018925553187727928, 0.06097295135259628, 0.0007151796016842127, 0.0009944943012669683, -0.09498847275972366, -0.23746585845947266, 0.011410675942897797, 0.9770076274871826, -0.12423260509967804, 0.14421314001083374, -0.02925422415137291, 0.17811225354671478, -0.8353489637374878, -0.16008010506629944, 0.15317028760910034, 0.10869954526424408, -0.0347190797328949, -0.02467089705169201, -0.015071161091327667, 0.24154707789421082, 0.0025123467203229666, 0.34964871406555176, -0.19291719794273376, 0.023716086521744728, 0.05816882476210594, 0.2287750393152237, 0.11983959376811981, -0.05098635330796242, -0.011720426380634308, 0.0937981903553009, -0.1488315463066101, 0.005190348718315363, 0.03230607882142067, 0.01477740053087473, 0.06144808605313301, 0.0766528770327568, 0.1007537916302681, -0.1503501534461975, -0.006636334583163261, 0.12046999484300613, -0.11376048624515533, -0.009123456664383411, 0.17561675608158112, 0.08382873982191086, -0.17439070343971252, -0.19407452642917633, 0.01396043412387371, 0.007211647462099791, 0.08699416369199753, 0.3763349950313568, 0.12018254399299622, 0.07966674864292145, 1.076611876487732, 0.15367114543914795, 0.03263456001877785, 0.09228000789880753, -0.06993518769741058, 0.22008781135082245, -0.08201078325510025, 0.18767467141151428, 0.027802221477031708, -0.10043814033269882, 0.20847611129283905, 0.22844862937927246, 0.31248295307159424, 0.09902729839086533, 0.04602894186973572, 0.395372211933136, 0.03369267284870148], "lin.weight": [[-0.24870100617408752, 0.23920534551143646, -0.15719708800315857, -0.3339856266975403, -0.21805357933044434, -0.09783213585615158, 0.11636698991060257, -0.2358473837375641, 0.1678124964237213, -0.2061574012041092, -0.20752310752868652, 0.07092928886413574, -0.019288547337055206, -0.14001654088497162, -0.4324682354927063, 0.35486096143722534, 0.029288288205862045, 0.14975376427173615, -1.1722028255462646, 0.17640887200832367]], "lin.bias": [0.05401325225830078]}}