{"model_data": {"model": "SimpleRNN", "input_size": 1, "skip": 1, "output_size": 1, "unit_type": "LSTM", "num_layers": 1, "hidden_size": 32, "bias_fl": true}, "state_dict": {"rec.weight_ih_l0": [[-0.06474249064922333], [-0.03399733081459999], [0.08926860243082047], [0.6260164380073547], [0.4709032475948334], [0.02885298617184162], [-0.5601837635040283], [0.2520662546157837], [-0.1992177963256836], [0.34350329637527466], [0.2361837476491928], [0.5097752809524536], [-0.20654122531414032], [0.15114447474479675], [0.07926374673843384], [-0.15237995982170105], [0.2877434492111206], [0.08002886921167374], [0.4373655915260315], [0.2639675438404083], [-0.025378895923495293], [-0.39570021629333496], [-0.12593379616737366], [0.664634108543396], [0.4934547543525696], [-0.4443613588809967], [-0.18730230629444122], [-0.08661246299743652], [0.5233686566352844], [0.4246765375137329], [0.22341285645961761], [0.5289984941482544], [0.13738693296909332], [-0.023654567077755928], [0.01812611147761345], [0.6176415681838989], [0.5163272619247437], [0.03659393638372421], [-0.740131139755249], [0.31376639008522034], [-0.05532292276620865], [0.4939870834350586], [0.5149470567703247], [0.46622225642204285], [-0.03960998356342316], [0.306936651468277], [0.07760373502969742], [-0.16440314054489136], [0.39809685945510864], [-0.0021680654026567936], [0.5746704936027527], [0.4025806486606598], [-0.13180755078792572], [-0.39163723587989807], [0.003852191148325801], [0.5583502054214478], [0.33380627632141113], [-0.49538910388946533], [-0.23403383791446686], [-0.04261958971619606], [0.6436832547187805], [0.32295069098472595], [0.24733048677444458], [0.5123220682144165], [0.7440085411071777], [-0.06479912251234055], [-0.5126289129257202], [-0.8465321063995361], [1.0672270059585571], [0.5692232251167297], [-0.6650233268737793], [-0.5006331205368042], [-0.39532551169395447], [0.5052499175071716], [0.5909294486045837], [0.8436768054962158], [0.8941183090209961], [-0.4315977692604065], [0.7438105344772339], [-0.8283654451370239], [0.4483083486557007], [-0.9986881017684937], [0.6689690351486206], [0.6867010593414307], [0.49185821413993835], [0.5477492809295654], [0.35971346497535706], [-0.9559940099716187], [-0.71700119972229], [-0.45495519042015076], [-0.3734585642814636], [0.5031400322914124], [-0.9610732197761536], [-0.5150367021560669], [-0.5752551555633545], [-1.086866021156311], [0.038561366498470306], [-0.03483002260327339], [0.1902923583984375], [0.608649492263794], [0.5311562418937683], [0.010313127189874649], [-0.6735228300094604], [0.2900564670562744], [-0.16721118986606598], [0.40353924036026], [0.41615909337997437], [0.4456341564655304], [0.13034097850322723], [0.10214933007955551], [0.060255732387304306], [-0.17366045713424683], [0.3203909993171692], [-0.12742014229297638], [0.6891289949417114], [0.31616276502609253], [0.11636456847190857], [-0.5287678241729736], [-0.09516441822052002], [0.7162882685661316], [0.4087188243865967], [-0.4332718849182129], [-0.17758655548095703], [0.01753082498908043], [0.5227118730545044], [0.32201752066612244], [0.2880096137523651], [0.5868229866027832]], "rec.weight_hh_l0": [[-0.10247060656547546, 0.04427409544587135, 0.00769761810079217, -0.04337853193283081, 0.011410837061703205, 0.04894408583641052, 0.026459747925400734, -0.05054764822125435, 0.04237382486462593, 0.04213538020849228, 0.07619161903858185, 0.07309278845787048, 0.09365076571702957, -0.04555999115109444, 0.06057099625468254, -0.10416420549154282, 0.0752522423863411, 0.08574634790420532, -0.08103225380182266, -0.11624006927013397, 0.19714002311229706, 0.0081594567745924, -0.11285828799009323, 0.04158870875835419, -0.011109295301139355, 0.03504325821995735, -0.018519937992095947, 0.1102699339389801, 0.047021809965372086, -0.08158575743436813, -0.08309789001941681, 0.0006475776899605989], [0.08039695024490356, -0.03566593676805496, -0.0071789962239563465, 0.08570241928100586, -0.10619310289621353, -0.03523491695523262, 0.09676458686590195, -0.022702302783727646, -0.1254962980747223, 0.04416576400399208, 0.0573713555932045, -0.0753960832953453, -0.06559260189533234, -0.1038154661655426, -0.02627699449658394, -0.05310584977269173, -0.12324849516153336, 0.12014531344175339, 0.04986951872706413, -0.058661237359046936, 0.0007798210717737675, 0.14724931120872498, 0.03328260779380798, 0.09329017251729965, 0.09794841706752777, 0.014497264288365841, -0.0056526148691773415, 0.04623747244477272, 0.16070346534252167, 0.06860320270061493, 0.01784599758684635, 0.15459008514881134], [-0.015068317763507366, 0.12562766671180725, 0.010511741042137146, 0.05077953636646271, -0.12723992764949799, 0.07199331372976303, 0.10969492793083191, 0.09552241116762161, -0.1470964103937149, 0.04107225313782692, 0.14062637090682983, -0.1021898090839386, -0.06507854908704758, -0.04662243276834488, -0.09876503795385361, 0.06256541609764099, -0.14337967336177826, -0.035393841564655304, -0.04726187139749527, -0.06661786139011383, 0.08579694479703903, 0.10577055811882019, 0.1850859671831131, 0.18640094995498657, 0.16878505051136017, -0.07266125082969666, -0.025177424773573875, 0.09593676775693893, 0.06655379384756088, 0.014699899591505527, 0.06171497702598572, 0.060718704015016556], [-0.07343316823244095, 0.033798765391111374, -0.08602362871170044, -0.06872817873954773, 0.0652589350938797, 0.16204692423343658, 0.0362682081758976, -0.011734657920897007, 0.0889110118150711, 0.11790785938501358, -0.15589284896850586, -0.06624744832515717, 0.014190871268510818, 0.0011194241233170033, 0.009556634351611137, -0.0013648190069943666, 0.07814686745405197, -0.22956927120685577, -0.08652882277965546, -0.05532514676451683, 0.1466103196144104, -0.10646943747997284, -0.005283491685986519, -0.06741317361593246, 0.04224134609103203, 0.0750674456357956, 0.04554106667637825, 0.059177424758672714, -0.14278046786785126, -0.09036093205213547, 0.12838684022426605, -0.10214856266975403], [-0.035205647349357605, -0.025506718084216118, 0.02986741065979004, 0.026267634704709053, -0.02525140903890133, 0.02878555841743946, -0.009877625852823257, -0.051642127335071564, 0.1432228833436966, 0.013951417990028858, -0.08675765991210938, 0.10023759305477142, 0.1001492291688919, -0.026080284267663956, 0.02885274961590767, -0.1658637672662735, 0.07824119180440903, -0.03786519542336464, -0.04763559252023697, 0.033863868564367294, -0.03507237136363983, -0.035814762115478516, -0.024065786972641945, -0.05117194727063179, -0.03424036130309105, -0.06994441896677017, 0.029021013528108597, -0.02147800475358963, -0.07841891050338745, -0.011399909853935242, -0.04507933184504509, -0.03465929627418518], [-0.06408841162919998, 0.0643869936466217, -0.010920756496489048, 0.049907438457012177, -0.11816421151161194, -0.07438498735427856, -0.022532371804118156, 0.10725298523902893, 0.0011637419229373336, -0.06738866865634918, -0.031235763803124428, -0.09194070845842361, -0.030585305765271187, 0.023792903870344162, -0.05908489227294922, 0.04244361072778702, -0.0646771565079689, 0.05193617567420006, -0.08804748952388763, -0.04571074992418289, 0.0028030506800860167, 0.011322151869535446, -0.039324644953012466, 0.14062714576721191, 0.12876607477664948, -0.06255820393562317, 0.017643030732870102, -0.04906480386853218, 0.11812523752450943, 0.05993590131402016, 0.010732406750321388, 0.11788078397512436], [0.3385986089706421, 0.06366909295320511, -0.20567592978477478, 0.215809166431427, -0.2150699347257614, -0.07674463093280792, 0.3865867555141449, 0.2385137975215912, -0.43845611810684204, 0.13190288841724396, 0.1636848747730255, -0.08024488389492035, -0.44360727071762085, -0.1910892277956009, -0.0991642102599144, 0.2908497750759125, -0.370915949344635, 0.2848045825958252, 0.10591859370470047, -0.3107532858848572, 0.17461372911930084, 0.19475533068180084, 0.40147480368614197, 0.19629870355129242, 0.19404157996177673, 0.12748458981513977, -0.17976292967796326, 0.342056542634964, 0.3721734285354614, -0.04807709902524948, 0.1175360381603241, 0.19720123708248138], [-0.14168789982795715, 0.011354895308613777, 0.001431525219231844, -0.12040933966636658, 0.09132471680641174, -0.0935458391904831, -0.06404772400856018, 0.00018542555335443467, 0.09092441201210022, 0.09615641832351685, -0.1513528972864151, -0.011447641998529434, 0.035357777029275894, 0.09590382128953934, 0.13510584831237793, -0.17167331278324127, 0.13096986711025238, -0.17964114248752594, -0.09988443553447723, 0.19319146871566772, 0.10584002733230591, -0.0344432108104229, -0.14125579595565796, -0.060968562960624695, -0.10793264210224152, -0.08651452511548996, 0.044500380754470825, -0.11848659068346024, -0.09217897802591324, 0.08009011298418045, -0.005571784917265177, -0.12859614193439484], [-0.09411982446908951, 0.0398809015750885, 0.12014473974704742, -0.014821108430624008, 0.03500145673751831, -0.007356652058660984, 0.09745592623949051, -0.1414622813463211, 0.134355828166008, -0.1499965637922287, -0.1464114636182785, -0.021204736083745956, 0.20871831476688385, 0.08272173255681992, -0.10305679589509964, -0.02333001233637333, 0.09394527971744537, 0.05986878275871277, -0.16293270885944366, 0.11084984242916107, -0.04581190645694733, -0.0799388438463211, -0.08542242646217346, -0.022392645478248596, 0.02854902483522892, 0.08049656450748444, -0.04333212971687317, -0.040305912494659424, -0.02988262288272381, 0.052424006164073944, 0.03241436183452606, -0.020011650398373604], [0.17517022788524628, 0.06811252236366272, -0.11668894439935684, 0.08182985335588455, 0.045433711260557175, 0.10962892323732376, 0.09757724404335022, 0.11189859360456467, -0.21120819449424744, -0.03904194012284279, 0.06238339841365814, 0.04758231341838837, -0.2837620675563812, -0.025943487882614136, -0.038968924432992935, 0.12542042136192322, 0.07030363380908966, 0.002994657726958394, -0.05295097082853317, -0.0945834144949913, 0.10729645937681198, -0.04111330583691597, -0.09759209305047989, 0.15282614529132843, 0.12860442698001862, -0.00951160304248333, -0.08533234894275665, 0.024881843477487564, 0.08838563412427902, -0.013181989081203938, 0.016275865957140923, 0.013200212270021439], [-0.04617118090391159, 0.08162447810173035, -0.1379653364419937, 0.07478348165750504, -0.012605364434421062, -0.07347005605697632, 0.05515269562602043, 0.04468005523085594, 0.07257968187332153, -0.0192149318754673, -0.16256967186927795, 0.13432401418685913, -0.033657342195510864, -0.0033841098193079233, 0.08987493067979813, -0.09497163444757462, -0.06597625464200974, 0.0632992684841156, -0.070308618247509, 0.09972953051328659, -0.007211172953248024, -0.0651581883430481, 0.01079208217561245, 0.13299696147441864, 0.06772686541080475, 0.1109495609998703, -0.0026722894981503487, -0.10964250564575195, -0.041950177401304245, -0.14208672940731049, -0.10239439457654953, -0.0034706913866102695], [0.11183249950408936, 0.05955369025468826, 0.0002961417194455862, 0.12861527502536774, -0.10807815194129944, 0.13136795163154602, 0.10700774937868118, 0.01437598280608654, 0.054346248507499695, -0.03746308013796806, -0.0518648624420166, -0.022319994866847992, 0.01711401529610157, -0.05210333317518234, -0.007803498767316341, 0.0016167500289157033, -8.309478289447725e-05, -0.05619477480649948, -0.012589775025844574, -0.004026780370622873, 0.13123564422130585, 0.119133360683918, -0.019123032689094543, -0.07455716282129288, 0.005299889482557774, -0.11410550773143768, -0.09179333597421646, 0.07781387865543365, 0.06628882884979248, -0.032003700733184814, -0.12110656499862671, 0.10062894970178604], [-0.06135309115052223, -0.028185749426484108, -0.09193708002567291, -0.09195875376462936, 0.13187427818775177, 0.012256858870387077, 0.25733083486557007, -0.025330422446131706, 0.2826553285121918, 0.12413109838962555, -0.08779630810022354, 0.07571181654930115, 0.276529461145401, -0.01782400719821453, 0.004442648962140083, 0.17374832928180695, 0.23783162236213684, 0.16216811537742615, -0.0666889026761055, 0.11123103648424149, -0.0048791817389428616, 0.03058726340532303, -0.009782999753952026, -0.1697055846452713, -0.12321671843528748, 0.15962615609169006, -0.039397187530994415, 0.08798202872276306, -0.061391688883304596, -0.10784170031547546, -0.11554184556007385, 0.0007429778343066573], [0.0337592251598835, -0.02865762636065483, -0.13751955330371857, -0.04331434145569801, 0.04955653101205826, 0.07322635501623154, 0.04242926090955734, -0.06571987271308899, 0.02133876085281372, -0.07377231866121292, -0.06821319460868835, -0.08525467664003372, 0.0009360547992400825, -0.07262367755174637, 0.07213234901428223, -0.10357795655727386, 0.047908466309309006, -0.1680007427930832, -0.06984215974807739, -0.01676742546260357, 0.10987727344036102, 0.1335003525018692, 0.019138570874929428, -0.026247775182127953, -0.06401525437831879, -0.042619094252586365, -0.08429437130689621, 0.07314792275428772, -0.013566873967647552, 0.005039670038968325, -0.002488574478775263, -0.10433415323495865], [0.08626866340637207, -0.002776806242763996, -0.0016369207296520472, -0.005438805092126131, -0.07048655301332474, -0.00026522911502979696, -0.036788225173950195, 0.15199795365333557, -0.007753747049719095, 0.013490177690982819, 0.11052407324314117, -0.013398809358477592, 0.1095791682600975, -0.09604234248399734, 0.01695561408996582, -0.03316500410437584, -0.02066902630031109, 0.022985441610217094, 0.13329428434371948, -0.02801494672894478, 0.006294177379459143, -0.025195201858878136, 0.03143155574798584, 0.0067751468159258366, 0.02184072881937027, -0.006395990960299969, 0.027452142909169197, 0.06581300497055054, 0.08825214207172394, 0.020354032516479492, -0.04692498594522476, 0.06768441200256348], [0.03540731221437454, -0.03485546633601189, 0.0052797384560108185, -0.03600868582725525, -0.019640356302261353, -0.039584930986166, 0.17834331095218658, -0.0010979933431372046, 0.035534780472517014, -0.013347960077226162, -0.050350774079561234, -0.02629109099507332, -0.13044899702072144, -0.03872540965676308, -0.004659323021769524, 0.003357093781232834, 0.008095267228782177, 0.13452382385730743, 0.051210176199674606, 0.06865343451499939, 0.019558897241950035, 0.0049174088053405285, -0.05634182319045067, 0.07433382421731949, 0.02748430334031582, 0.08032368123531342, 0.05648750066757202, 0.018459191545844078, 0.006590608973056078, 0.05666280910372734, 0.021633407101035118, 0.08102604746818542], [-0.062042880803346634, -0.0271636713296175, -0.009427432902157307, -0.017778625711798668, 0.036908455193042755, 0.02370169572532177, 0.07014627754688263, -0.13761702179908752, 0.080368272960186, -0.0651940330862999, -0.12044847756624222, -0.008336497470736504, 0.15450067818164825, -0.0019714327063411474, -0.004186695907264948, -0.024868112057447433, 0.08361663669347763, -0.08319849520921707, -0.015090449713170528, 0.10547184199094772, 0.019528215751051903, -0.03144773095846176, 0.0001630916231079027, 0.0014553613727912307, 0.004986797459423542, 0.04766160994768143, 0.0005982097354717553, -0.008765000849962234, -0.04059923067688942, 0.09896136820316315, 0.014368477277457714, -0.056972987949848175], [-0.20741045475006104, 0.11118143796920776, 0.2420964539051056, -0.08870969712734222, -0.15160229802131653, -0.2505725026130676, -0.374320387840271, 0.1149187758564949, 0.40319356322288513, 0.009716288186609745, 0.16812218725681305, 0.10797873884439468, 0.507957935333252, 0.08368586748838425, 0.07590553909540176, -0.13762302696704865, 0.1129041388630867, 0.18812954425811768, 0.02005234733223915, 0.08112069964408875, -0.0896352231502533, -0.22029605507850647, -0.23497067391872406, -0.11763796955347061, -0.006200152914971113, -0.15396535396575928, 0.19976076483726501, -0.15387170016765594, -0.06784925609827042, -0.07123338431119919, -0.2632484436035156, 0.15721485018730164], [0.1560303121805191, 0.10188598185777664, 0.0013911076821386814, -0.18906287848949432, 0.1874045580625534, 0.034144315868616104, 0.14051422476768494, 0.06944012641906738, -0.14519526064395905, 0.014848732389509678, -0.0035429084673523903, -0.06427662819623947, -0.047964438796043396, -0.08150003105401993, 0.11836466193199158, -0.04874003678560257, -0.018437020480632782, -0.1588599681854248, -0.043340105563402176, 0.09550207853317261, -0.023379173129796982, 0.1609501987695694, -0.10312066227197647, -0.09601756930351257, -0.024035386741161346, -0.003919452894479036, -0.03504577651619911, 0.18985077738761902, -0.01643477752804756, -0.12480036169290543, -0.0013711382634937763, -0.175682932138443], [0.03139868378639221, 0.005134953651577234, 0.016567660495638847, -0.05606860667467117, 0.030354652553796768, 0.027022983878850937, -0.007242088206112385, -0.002878312487155199, 0.12786553800106049, -0.11215060204267502, -0.19971933960914612, -0.09794645011425018, -0.04705262556672096, -0.05806726589798927, 0.005395619198679924, -0.15862509608268738, 0.10074102133512497, -0.10802320390939713, -0.06520508229732513, 0.08566688746213913, 0.021343577653169632, 0.073510080575943, 0.026170382276177406, 0.02303886227309704, -0.011810744181275368, 0.07605321705341339, -0.03799394518136978, 0.04417813941836357, -0.029268961399793625, 0.06367839127779007, 0.028879888355731964, -0.018550356850028038], [0.21874545514583588, 0.09941096603870392, -1.1943776598855038e-06, 0.20217612385749817, -0.17777320742607117, -0.058517709374427795, 0.28187182545661926, 0.08592487871646881, -0.21232035756111145, 0.18414869904518127, 0.09247160702943802, 0.0445246696472168, -0.20237845182418823, -0.07750007510185242, -0.14583022892475128, 0.2513869106769562, -0.09052511304616928, -0.1634860336780548, 0.1529337465763092, -0.12598752975463867, 0.04341043531894684, 0.16287767887115479, 0.1280519813299179, 0.13823170959949493, 0.16429293155670166, 0.08332761377096176, -0.09583403915166855, 0.0742417573928833, 0.09066112339496613, 0.018143929541110992, 0.10729160904884338, 0.10808547586202621], [0.04328111559152603, 0.0362793505191803, -0.013073141686618328, -0.0863739475607872, 0.03213229402899742, 0.043572526425123215, 0.02992376685142517, -0.025731606408953667, 0.04847355931997299, -0.03206073120236397, 0.02156209386885166, -0.18969997763633728, 0.08332638442516327, 0.08035669475793839, -0.04783693701028824, 0.07766491919755936, 0.054056618362665176, 0.07632207125425339, -0.06680141389369965, 0.048491932451725006, -0.04197394475340843, 0.05540667101740837, -0.07051995396614075, 0.10290971398353577, -0.038258109241724014, 0.004304949194192886, -0.08254560828208923, -0.003004706697538495, 0.04075531288981438, -0.011766097508370876, 0.10901856422424316, -0.047794196754693985], [-0.121396005153656, 0.07677686959505081, -0.005335473455488682, 0.15840467810630798, 0.058317020535469055, -0.025761358439922333, 0.14266277849674225, -0.07987206429243088, 0.0668875202536583, -0.06283237040042877, -0.06317875534296036, 0.026847893372178078, -0.09065259248018265, -0.0025332667864859104, -0.04110763967037201, 0.1420988291501999, 0.010999351739883423, 0.05652712285518646, -0.13478538393974304, -0.040722738951444626, -0.015310377813875675, -0.02050352282822132, -0.04002085328102112, 0.035293471068143845, -0.01320629008114338, 0.0638982430100441, -0.08340602368116379, -0.08287496119737625, -0.0031452435068786144, 0.09944048523902893, -0.026198232546448708, 0.011600692756474018], [-0.07271595299243927, 0.03854992985725403, -0.004657188430428505, -0.1465602070093155, 0.029308661818504333, 0.13954922556877136, 0.0023020401131361723, -0.19567520916461945, -0.025829149410128593, 0.060761258006095886, 0.06727444380521774, 0.10763470083475113, 0.11171214282512665, -0.07157283276319504, 0.01461123302578926, -0.054471857845783234, 0.04583587870001793, -0.2243899703025818, -0.062406089156866074, 0.011563190259039402, 0.15224209427833557, 0.03024766966700554, -0.08523233979940414, -0.14097945392131805, 0.07447250932455063, -0.052529871463775635, 0.027170946821570396, 0.021587597206234932, 0.06538616120815277, -0.15553395450115204, 0.015101291239261627, -0.07422354072332382], [-0.02222338318824768, -0.003371649421751499, -0.006150358822196722, -0.07276594638824463, 0.009825380519032478, 0.05065101012587547, 0.0014694774290546775, -0.08498717844486237, -0.026147035881876945, -0.08935701102018356, -0.06913616508245468, 0.031881943345069885, 0.12455002963542938, -0.038226619362831116, 0.006343553774058819, -0.03568929806351662, 0.06939316540956497, -0.08620503544807434, 0.07655224949121475, 0.014706283807754517, 0.058416660875082016, 0.062475208193063736, 0.10187198221683502, -0.025467347353696823, 0.05162866413593292, -0.056686460971832275, 0.027528122067451477, 0.03899631276726723, -0.0037948177196085453, -0.06564518809318542, 0.08862749487161636, -0.02106569893658161], [0.06934477388858795, 0.007943286560475826, 0.010251997970044613, 0.19931764900684357, -0.20638148486614227, -0.08857318013906479, 0.2253008931875229, 0.06683392822742462, -0.17279763519763947, 0.04379982128739357, -0.026255838572978973, -0.0868501216173172, -0.2418432980775833, -0.08364059776067734, -0.10264956951141357, 0.061158694326877594, -0.22586917877197266, 0.158432275056839, -0.03260740265250206, -0.15556178987026215, 0.022164080291986465, 0.08493364602327347, 0.13615523278713226, 0.2211659848690033, 0.18961946666240692, 0.13429830968379974, 0.00020174685050733387, 0.07355715334415436, 0.20812445878982544, 0.011259486898779869, 0.08935581892728806, 0.2455776035785675], [0.14044296741485596, 0.019933829084038734, -0.09722162038087845, 0.16445177793502808, -0.13641171157360077, -0.009250455535948277, 0.20869719982147217, 0.05925958231091499, -0.22136934101581573, 0.041465483605861664, 0.056287720799446106, -0.09780803322792053, -0.2254783660173416, -0.04301248490810394, -0.08621846139431, 0.16876494884490967, -0.17399682104587555, -0.11258285492658615, 0.047862377017736435, -0.1358937919139862, 0.0743774026632309, 0.15714164078235626, 0.19919613003730774, 0.12482471764087677, 0.1289307177066803, 0.008052638731896877, -0.08818506449460983, 0.1707976907491684, 0.17751601338386536, 0.02722923457622528, 0.06530541181564331, 0.08170519769191742], [-0.030947532504796982, 0.04778556525707245, -0.11449616402387619, -0.02219894714653492, 0.0434626042842865, 0.09510769695043564, 0.18218818306922913, -0.016276877373456955, 0.01506130676716566, 0.08844833821058273, -0.07593435049057007, -0.1110243946313858, -0.06904081255197525, -0.034659672528505325, -0.0536966547369957, 0.06035739183425903, -0.011067859828472137, -0.004082901868969202, -0.10300768166780472, -0.08728543668985367, -0.0423736646771431, -0.0005965052987448871, -0.09678338468074799, 0.20549634099006653, 0.0030816018115729094, 0.040268510580062866, -0.11382810771465302, -0.020452816039323807, 0.09169828146696091, 0.029823562130331993, -0.07540776580572128, 0.011419031769037247], [0.019842104986310005, -0.032030586153268814, 0.02446877583861351, -0.10527115315198898, 0.08266366273164749, 0.024288445711135864, 0.029667265713214874, -0.07207411527633667, 0.055745095014572144, 0.09721838682889938, -0.027218740433454514, 0.08325961977243423, 0.15175805985927582, -0.0222513135522604, 0.03141254186630249, -0.043714739382267, 0.09012759476900101, -0.11156360805034637, -0.011384084820747375, 0.08584806323051453, 0.001117719686590135, -0.05729581415653229, 0.061246346682310104, -0.023280758410692215, -0.04545537009835243, -0.0712108239531517, 0.009654478169977665, -0.008531722240149975, -0.003380756126716733, -0.08524290472269058, -0.025304019451141357, -0.09164261072874069], [0.15756119787693024, -0.06785747408866882, -0.08193505555391312, 0.14260941743850708, -0.13938122987747192, 0.1000996083021164, 0.031929679214954376, 0.14809802174568176, -0.1333015114068985, -0.11058393865823746, -0.010573462583124638, 0.11058373004198074, -0.13042019307613373, -0.06659440696239471, -0.0516800656914711, 0.03705450892448425, -0.11929842829704285, -0.08761391788721085, 0.11319024860858917, -0.010158557444810867, -0.0965024009346962, 0.07172780483961105, 0.15821729600429535, -0.08228974789381027, 0.034501511603593826, 0.0690460056066513, 0.049636360257864, 0.01780121400952339, -0.021172426640987396, 0.11572284251451492, -0.02214161865413189, 0.0614231638610363], [0.01782299019396305, -0.006012047175318003, 0.0669013038277626, 0.0014853120082989335, -0.040344804525375366, 0.022643886506557465, -0.009109287522733212, -0.03884512558579445, -0.05564407259225845, -0.03877394273877144, 0.08165965229272842, 0.0940195694565773, 0.007699063513427973, -0.05988861620426178, -0.01705971546471119, 0.06632602959871292, -0.06190522015094757, -0.12913647294044495, -0.1130569726228714, -0.05439627543091774, 0.053031958639621735, -0.01096122246235609, -0.0033980440348386765, -0.051370635628700256, 0.10019344836473465, -0.001994804944843054, -0.022221112623810768, 0.09334612637758255, 0.08700260519981384, -0.018745992332696915, 0.05959738790988922, 0.01828121766448021], [-0.00604953384026885, -0.021208906546235085, -0.07647662609815598, -0.03722591698169708, 0.07930824160575867, 0.06549625098705292, -0.06335575878620148, 0.02820805087685585, 0.12750515341758728, 0.08513908833265305, 0.034394990652799606, 0.18963848054409027, 0.21496137976646423, -0.00795339047908783, 0.07735776901245117, -0.05967409536242485, 0.11138743162155151, -0.20687514543533325, 0.049293819814920425, 0.08142025023698807, 0.05308160558342934, 0.07955587655305862, -0.009616661816835403, -0.11649037897586823, -0.06308655440807343, -0.06935187429189682, 0.015756649896502495, 0.04289530962705612, -0.1266394704580307, -0.08378531038761139, -0.06683742254972458, -0.04627804830670357], [0.07140946388244629, -0.029447296634316444, 0.056415289640426636, -0.13704104721546173, 0.12425607442855835, 0.1461925208568573, 0.09485450387001038, -0.13385173678398132, 0.13338062167167664, -0.1815151572227478, -0.14719653129577637, 0.12970991432666779, 0.15092802047729492, 0.012235254980623722, -0.009584455750882626, -0.09921558946371078, 0.1655328869819641, -0.01631818525493145, 0.00833234004676342, 0.16572163999080658, 0.05118589848279953, -0.19372576475143433, -0.023148106411099434, -0.09191373735666275, 0.012376584112644196, 0.10240206867456436, -0.1857929676771164, 0.07711516320705414, -0.044557537883520126, -0.06358560919761658, -0.0997781753540039, -0.12014500051736832], [0.08113250881433487, -0.047280631959438324, -0.006708147935569286, 0.06218615546822548, -0.09293002635240555, -0.02121042273938656, 0.045516159385442734, -0.03344404324889183, -0.09445206820964813, -0.010993034578859806, 0.0682513639330864, 0.013914419338107109, -0.09533146768808365, -0.06256843358278275, -0.025942480191588402, -0.02228914573788643, -0.0904126986861229, 0.09129481017589569, 0.002074576448649168, -0.024454224854707718, -0.0563407838344574, 0.06315863877534866, 0.02429133653640747, 0.07534050941467285, 0.07431242614984512, -0.02872096747159958, 0.037251971662044525, 0.03958524018526077, 0.11852448433637619, 0.07624933868646622, 0.018492845818400383, 0.09878634661436081], [0.07561180740594864, 0.13402225077152252, -0.057733021676540375, 0.11570167541503906, -0.15495215356349945, 0.04134581610560417, 0.17323803901672363, 0.11027348786592484, -0.11136665940284729, 0.08233560621738434, 0.11115065217018127, -0.043862875550985336, -0.16870859265327454, -0.02573425881564617, -0.1253378689289093, 0.06625387072563171, -0.05829848349094391, -0.022749295458197594, -0.032531093806028366, -0.15138666331768036, -0.0323331356048584, 0.03549209609627724, 0.13021589815616608, 0.18055576086044312, 0.1006009578704834, 0.00786004588007927, -0.049020737409591675, 0.032772667706012726, 0.025844359770417213, -0.03885626047849655, 0.11035138368606567, 0.035209935158491135], [-0.11638250946998596, 0.008430780842900276, 0.011696143075823784, -0.02810196951031685, -0.031660471111536026, 0.09133616834878922, -0.0984957367181778, -0.19183117151260376, 0.04112059623003006, 0.0757426768541336, -0.16173096001148224, 0.139162078499794, -0.008379599079489708, -0.061793290078639984, -0.07861056178808212, -0.10718442499637604, -0.02156037651002407, -0.006314793135970831, 0.16283980011940002, 0.06482691317796707, -0.11253981292247772, 0.07584648579359055, -0.13308396935462952, 0.07405640184879303, 0.03291120380163193, 0.07928892970085144, -0.08323367685079575, 0.11681398749351501, -0.15318173170089722, -0.03105735406279564, 0.018938589841127396, -0.059293150901794434], [-0.09758348017930984, -0.015444649383425713, 0.10468249768018723, 0.08330513536930084, 0.03417428955435753, 0.028214583173394203, -0.03154996782541275, -0.10338249802589417, 0.13475576043128967, -0.23238563537597656, -0.07950622588396072, 0.07520081847906113, 0.13152630627155304, 0.010221042670309544, -0.01877502351999283, -0.12536785006523132, 0.06110021844506264, 0.031045204028487206, -0.14951100945472717, 0.12307881563901901, -0.059155095368623734, -0.005594093818217516, -0.10415933281183243, 0.0005433529149740934, -0.00771353580057621, 0.022118212655186653, 0.02877577766776085, -0.06740372627973557, -0.058267585933208466, 0.07059355825185776, 0.03052983619272709, -0.009785168804228306], [-0.026921860873699188, 0.06749379634857178, 0.07548558712005615, 0.05682834982872009, -0.10948020219802856, -0.09683831036090851, -0.021894019097089767, 0.05513402074575424, -0.03420829400420189, -0.01987299695611, -0.015535244718194008, -0.07430610805749893, -0.01571790874004364, 0.04645668342709541, -0.050821155309677124, -0.028955798596143723, -0.06135525926947594, 0.06000484153628349, -0.013840488158166409, -0.04084504023194313, 0.013568226248025894, 0.010400575585663319, 0.009539257735013962, 0.1497986763715744, 0.0937720239162445, -0.07200313359498978, 0.02657565101981163, -0.043884243816137314, 0.05555085837841034, -0.013449889607727528, 0.022366810590028763, 0.09692706912755966], [0.334173321723938, 0.14068667590618134, -0.16384738683700562, 0.1551273763179779, -0.3098016083240509, -0.25029680132865906, 0.39610081911087036, 0.2822694480419159, -0.4008082449436188, 0.19016292691230774, 0.19980455935001373, 0.026405127719044685, -0.47306951880455017, -0.2220572829246521, -0.1692475974559784, 0.3203763961791992, -0.37461942434310913, 0.5198935270309448, 0.08050034195184708, -0.3710401952266693, 0.2737339735031128, 0.10614823549985886, 0.39377498626708984, 0.18996703624725342, 0.21902567148208618, 0.24730858206748962, -0.2135295420885086, 0.3241186738014221, 0.401557981967926, -0.1395791918039322, 0.17228014767169952, 0.3386692702770233], [-0.2639029026031494, -0.0383102223277092, -0.020158851519227028, -0.09127657860517502, 0.22806623578071594, -0.007865025661885738, -0.1581667959690094, -0.03588854521512985, 0.24896278977394104, -0.05666615441441536, -0.11322367191314697, 0.18274091184139252, 0.19194777309894562, 0.1635223627090454, 0.19164378941059113, -0.057589150965213776, 0.29473912715911865, -0.12685446441173553, -0.04475831240415573, 0.24016979336738586, 0.07319062948226929, -0.09613735973834991, -0.2300809770822525, -0.25819146633148193, -0.15374615788459778, -0.16569171845912933, 0.056870922446250916, -0.19360420107841492, -0.15791894495487213, -0.05408703535795212, -0.10290147364139557, -0.2602364718914032], [-0.12461504340171814, 0.057472411543130875, 0.06554200500249863, -0.15913912653923035, 0.19462329149246216, -0.026648221537470818, 0.036345742642879486, -0.17493529617786407, 0.19762440025806427, 0.03963677957653999, -0.14339326322078705, 0.17607666552066803, 0.3428611159324646, 0.09277508407831192, -0.006996121257543564, -0.019529161974787712, 0.19884172081947327, 0.016053305938839912, 0.025414908304810524, 0.21961356699466705, 0.04614356532692909, -0.14408519864082336, -0.1393352597951889, -0.15391109883785248, -0.06256406009197235, 0.06737581640481949, -0.05572551116347313, -0.08865582197904587, -0.12133423984050751, -0.08363153785467148, -0.0373363122344017, -0.18799583613872528], [-0.17071533203125, -0.03532728925347328, 0.08565739542245865, -0.21634095907211304, 0.3355177044868469, 0.16012156009674072, 0.21571220457553864, -0.03241747245192528, 0.1939319223165512, -0.10504783689975739, -0.10355383157730103, 0.0980009138584137, 0.16204403340816498, 0.1618678867816925, 0.012178043834865093, -0.13745926320552826, 0.14390335977077484, -0.20395372807979584, -0.2518126368522644, 0.2602294683456421, 0.1801103949546814, -0.027475612238049507, -0.015813879668712616, -0.014632913284003735, -0.13994243741035461, 0.1646495908498764, -0.11312542110681534, -0.08254184573888779, -0.11798596382141113, -0.10234329104423523, -0.07651814073324203, -0.2418329119682312], [-0.11897053569555283, -0.006386356893926859, 0.11841139942407608, -0.2478724867105484, 0.24230188131332397, 0.1280955970287323, 0.000276898848824203, -0.11534089595079422, 0.1325272172689438, -0.13750849664211273, -0.23102788627147675, -0.0014975048834457994, 0.1056470200419426, 0.07512309402227402, 0.09481538832187653, -0.18056808412075043, 0.04966380074620247, -0.0032945850398391485, 0.0428093858063221, 0.03706463426351547, 0.17704473435878754, -0.03440161049365997, -0.2520608901977539, -0.1570516973733902, -0.20603066682815552, 0.0926971584558487, -0.07089660316705704, -0.036274850368499756, -0.06743000447750092, -0.16239188611507416, -0.013162557035684586, -0.23059307038784027], [-0.06191730499267578, 0.014613994397222996, 0.06967312842607498, 0.11520607769489288, -0.02739879861474037, 0.07062283903360367, 0.008461426943540573, 0.0434311181306839, 0.011797367595136166, 0.09066002815961838, 0.10775325447320938, 0.09824443608522415, -0.021668212488293648, -0.10697591304779053, -0.01726079173386097, 0.043998122215270996, 0.0028944630175828934, 0.05632622167468071, -0.03978721424937248, -0.07971277087926865, -0.08515463024377823, 0.1312134861946106, -0.06314957141876221, 0.060309991240501404, 0.11549954116344452, -0.03092285431921482, 0.021895641461014748, -0.06655440479516983, -0.009050317108631134, 0.15146228671073914, 0.06466354429721832, 0.016726143658161163], [-0.12471774965524673, 0.17676346004009247, -0.3117690980434418, -0.4154852032661438, 0.26512494683265686, 0.09472974389791489, 0.26182693243026733, -0.07483846694231033, 0.46577078104019165, 0.29934120178222656, 0.09447616338729858, 0.3487022817134857, 0.36904793977737427, -0.0472814105451107, 0.1617288738489151, 0.15680190920829773, 0.4275040030479431, 0.052209410816431046, 0.2865740656852722, 0.22789914906024933, 0.3525870144367218, -0.13655361533164978, -0.10087789595127106, -0.40482309460639954, -0.3560872972011566, 0.2710196077823639, 0.04780180752277374, 0.17289386689662933, -0.28414589166641235, -0.33245036005973816, -0.2758476734161377, -0.22422046959400177], [0.0020233180839568377, -0.08524134010076523, -0.11332730203866959, -0.08204066753387451, 0.15458174049854279, 0.13184405863285065, -0.022174358367919922, -0.10579487681388855, 0.06638304144144058, -0.15620259940624237, -0.13145120441913605, -0.006084788590669632, 0.03489995002746582, -0.008621884509921074, 0.10288432985544205, -0.08898797631263733, 0.10432780534029007, -0.25258469581604004, -0.11377321183681488, 0.14186209440231323, 0.05066247656941414, 0.04079257696866989, -0.04704083502292633, -0.060505036264657974, -0.1265064775943756, -0.009999273344874382, -0.06883740425109863, 0.033614423125982285, -0.07787241786718369, -0.06201077625155449, -0.026313859969377518, -0.19998624920845032], [0.03498046472668648, 0.012118936516344547, 0.024143535643815994, 0.11924564838409424, -0.04184296354651451, -0.007762570399791002, -0.053730323910713196, 0.21083202958106995, -0.024899864569306374, 0.0537978820502758, 0.15157316625118256, -0.02976972982287407, 0.07787667959928513, -0.09064938873052597, -0.0017086623702198267, -0.009741602465510368, -0.030709637328982353, 0.039623890072107315, -0.030687199905514717, -0.007638223469257355, -0.08386467397212982, 0.08855456113815308, 0.01528188120573759, 0.03219252824783325, 0.04755469039082527, 0.026947781443595886, 0.02613690122961998, 0.03964873403310776, 0.033067457377910614, 0.027837883681058884, -0.008776958100497723, 0.0832180604338646], [-0.0031186039559543133, 0.06038818880915642, 0.016719141975045204, 0.11736591905355453, 0.060625992715358734, -0.03566565364599228, 0.16241419315338135, -0.09728865325450897, 0.048866499215364456, 0.023507174104452133, 0.08475780487060547, 0.007085398305207491, -0.08851832896471024, -0.019071968272328377, 0.010056775063276291, 0.12052618712186813, 0.02402571402490139, 0.13033875823020935, -0.0738094374537468, -0.04746051877737045, -0.0023659556172788143, 0.12702953815460205, -0.02414858341217041, 0.012922209687530994, -0.012706772424280643, 0.05995142459869385, -0.026993820443749428, -0.02161061018705368, -0.04483449086546898, -0.03566862270236015, 0.028543958440423012, -0.004226558841764927], [-0.1119614765048027, -0.03857400268316269, -0.005638296250253916, -0.041659384965896606, 0.13562412559986115, 0.08034055680036545, 0.0369851253926754, -0.1919102519750595, 0.13192902505397797, -0.03643900156021118, -0.15987300872802734, 0.11040231585502625, 0.223187655210495, 0.028010718524456024, 0.049286775290966034, -0.08911685645580292, 0.15468889474868774, -0.15076382458209991, -0.07382381707429886, 0.1861007809638977, 0.01840328611433506, -0.08550090342760086, -0.07545038312673569, -0.07803202420473099, -0.08674365282058716, 0.03846345096826553, -0.04092700034379959, -0.039831340312957764, -0.07424052804708481, 0.05959213897585869, -0.03252464532852173, -0.17048324644565582], [-0.2008950114250183, 0.17605073750019073, 0.28334182500839233, -0.1704137921333313, -0.0970294401049614, -0.2658778727054596, -0.46816810965538025, 0.07274222373962402, 0.39310333132743835, 0.06896814703941345, 0.008424135856330395, 0.1254720538854599, 0.5683543682098389, 0.11974335461854935, -0.05862828716635704, -0.12555906176567078, 0.14942927658557892, 0.3123566210269928, 0.054218143224716187, 0.11367027461528778, 0.047907765954732895, -0.3068305552005768, -0.268433153629303, -0.17057521641254425, 0.005265753250569105, -0.024428773671388626, 0.2334548532962799, -0.2182929664850235, -0.15991126000881195, -0.03149561956524849, -0.3108139634132385, 0.09076724946498871], [-0.04519331455230713, -0.14016684889793396, -0.017502930015325546, -0.2799687683582306, 0.2148272842168808, 0.20216049253940582, 0.025106288492679596, -0.05441420525312424, 0.006705571431666613, 0.0015810215845704079, -0.041660383343696594, 0.1125483363866806, 0.16360744833946228, 0.13330425322055817, 0.09514690935611725, 0.04276580736041069, 0.1349676549434662, -0.24294234812259674, -0.2344851791858673, 0.21911853551864624, 0.2084513157606125, -0.1539257913827896, -0.18159666657447815, -0.23221127688884735, -0.022136881947517395, 0.01082470640540123, -0.07515810430049896, -0.12910321354866028, -0.06323233246803284, -0.1122003123164177, -0.0745493546128273, -0.4032134711742401], [-0.14412549138069153, -0.0697282999753952, -0.06662384420633316, -0.15792225301265717, 0.0828142836689949, 0.08417761325836182, 0.01848641224205494, -0.21055324375629425, 0.23015978932380676, -0.08278346061706543, -0.2440534085035324, 0.1033322662115097, 0.07798819243907928, 0.008588212542235851, 0.06351374834775925, -0.03023516573011875, 0.2101837694644928, -0.1706797182559967, -0.22442275285720825, 0.13325539231300354, 0.10940667241811752, -0.0593731589615345, -0.1318802535533905, -0.10885123908519745, -0.13616147637367249, -0.013190972618758678, -0.10406164824962616, -0.0029584697913378477, -0.17905479669570923, 0.04296210780739784, -0.01616007648408413, -0.11770246177911758], [0.12265744060277939, 0.1098649650812149, -0.09922859072685242, 0.0576925203204155, -0.14973363280296326, -0.05591549351811409, 0.32997599244117737, 0.030475670471787453, -0.13664856553077698, 0.03884533420205116, 0.020290134474635124, 0.00952322967350483, -0.21959802508354187, -0.05649532005190849, -0.1337425261735916, 0.21387246251106262, -0.15137197077274323, -0.1252891719341278, -0.05980084463953972, -0.15922711789608002, 0.07014033198356628, 0.12538951635360718, 0.13703647255897522, 0.13455283641815186, 0.06486081331968307, 0.18560589849948883, -0.09693639725446701, 0.15773062407970428, 0.13734984397888184, 0.05162258446216583, 0.047978080809116364, 0.12831628322601318], [0.009532536379992962, -0.0015700898366048932, 0.09667691588401794, -0.08340311795473099, 0.13704775273799896, 0.01008287537842989, 0.005559693090617657, 0.04809082671999931, 0.1061803326010704, -0.0373731330037117, 0.03412168473005295, -0.10162254422903061, 0.041262734681367874, -0.04608410224318504, -0.05925533547997475, 0.0067296759225428104, 0.07956836372613907, 0.005389964673668146, -0.16232196986675262, 0.1444462090730667, -0.04714762046933174, 0.12144994735717773, 0.02667097933590412, 0.09668035060167313, 0.08521706610918045, 0.041187383234500885, -0.002479655435308814, 0.017436809837818146, -0.04653710871934891, 0.1553684026002884, -0.02341545931994915, 0.03258316591382027], [-0.03544467315077782, -0.030522510409355164, -0.08502933382987976, -0.019081301987171173, 0.1265624612569809, 0.15871450304985046, 0.04952365159988403, -0.0683509036898613, 0.08369371294975281, -0.25233471393585205, -0.05517396330833435, -0.05072099342942238, 0.110530786216259, 0.05937805026769638, 0.004858034662902355, 0.044344134628772736, 0.12474612146615982, -0.00038111882167868316, -0.24925744533538818, 0.1282774955034256, 0.1362239420413971, 0.036399517208337784, -0.05932241678237915, 0.09657295793294907, 0.008686544373631477, 0.0388212651014328, -0.13348709046840668, -0.029039373621344566, 0.05192950367927551, -0.13262929022312164, 0.10023302584886551, -0.09737861901521683], [0.08730945736169815, -0.022617550566792488, 0.0949256494641304, -0.05670744180679321, 0.03631717339158058, -0.006015370134264231, -0.034094296395778656, -0.08447261154651642, 0.05256609246134758, -0.07765932381153107, 0.1483248621225357, -0.1230289563536644, 0.031955111771821976, -0.07066787779331207, -0.012957907281816006, 0.00746331550180912, 0.01109192706644535, -0.010437019169330597, 0.06475972384214401, 0.0008081846754066646, -0.0030342901591211557, 0.047148581594228745, -0.03325316309928894, 0.027800198644399643, 0.1427694708108902, -0.06509845703840256, 0.048602089285850525, -0.01902226358652115, -0.04708988964557648, 0.106246717274189, 0.028717229142785072, 0.03335888311266899], [0.06565908342599869, 0.0276429932564497, -0.0519903190433979, 0.15667779743671417, -0.0039802188985049725, 0.022053362801671028, -0.017128461971879005, 0.019227350130677223, -0.0034447903744876385, 0.05488569661974907, 0.009536842815577984, 0.05378996953368187, 0.10270416736602783, -0.0469944104552269, -0.031017381697893143, 0.019691992551088333, 0.023124931380152702, 0.026930008083581924, 0.0907234400510788, 0.019987089559435844, -0.038765668869018555, 0.09260530024766922, -0.06255023926496506, 0.09360982477664948, 0.05487985536456108, -0.04610083997249603, 0.0014435771154239774, 0.002959246514365077, 0.03927338123321533, 0.03916759043931961, 0.06223306432366371, 0.023813772946596146], [0.09608437865972519, 0.024154286831617355, -0.004398546647280455, 0.18421180546283722, -0.1804385930299759, -0.09827955812215805, 0.207479327917099, 0.00020794328884221613, -0.15806017816066742, 0.00028845202177762985, 0.027861090376973152, -0.04534035176038742, -0.3019587993621826, -0.07809049636125565, -0.10755029320716858, 0.11187715083360672, -0.20064924657344818, 0.145517498254776, -0.05633588880300522, -0.17222553491592407, 0.06899045407772064, 0.04778319224715233, 0.12031643092632294, 0.18473847210407257, 0.1689666211605072, 0.10489632189273834, -0.01028422825038433, 0.09810227900743484, 0.2369454950094223, -0.0058142137713730335, 0.0938529521226883, 0.21986423432826996], [0.10433299094438553, 0.02058335393667221, -0.07153669744729996, 0.13910730183124542, -0.12236762046813965, -0.007813342846930027, 0.21645714342594147, 0.06671085208654404, -0.20315131545066833, 0.05252108722925186, 0.031417444348335266, -0.06653150171041489, -0.21601293981075287, -0.01874402165412903, -0.08647222071886063, 0.16000981628894806, -0.15508387982845306, -0.048584386706352234, 0.0404428131878376, -0.12047912925481796, 0.08116922527551651, 0.11265400797128677, 0.1758265644311905, 0.10774505138397217, 0.1120162159204483, 0.041688062250614166, -0.0881718099117279, 0.1404702365398407, 0.15944652259349823, 0.012582198716700077, 0.06463667750358582, 0.07206753641366959], [0.09293244034051895, 0.024144738912582397, 0.12133126705884933, 0.1069418340921402, 0.02213766612112522, 0.11001154780387878, 0.10194595158100128, 0.12307436019182205, -0.03464176878333092, -0.0681692436337471, -0.1383344531059265, -0.06955331563949585, -0.07130025327205658, 0.00946518313139677, -0.06418710201978683, 0.04956483468413353, -0.01068037934601307, 0.02848777361214161, -0.09238600730895996, 0.05339304357767105, 0.15213219821453094, -0.04337869584560394, 0.07123012095689774, 0.02050115168094635, -0.039101872593164444, 0.11072847992181778, -0.1362791806459427, 0.046017687767744064, -0.014384224079549313, 0.03467176482081413, 0.08991046994924545, -0.03898053243756294], [-0.1136309877038002, -0.038833409547805786, 0.08126989752054214, -0.012909329496324062, 0.09255866706371307, 0.14312542974948883, 0.00447586365044117, -0.24103794991970062, 0.03743638098239899, -0.00677831843495369, -0.12369414418935776, -0.05239853262901306, 0.14340226352214813, -0.01063572522252798, 0.01471853069961071, -0.012812779285013676, 0.1258287876844406, -0.09655430912971497, -0.010133984498679638, 0.10250277817249298, 0.011197365820407867, 0.011195951141417027, 0.04040030017495155, -0.04628700762987137, 0.04730132967233658, -0.0516388826072216, -0.034179311245679855, 0.0703137218952179, -0.1198161244392395, 0.0011098819086328149, -0.04873618111014366, -0.10105831921100616], [-0.01530064083635807, -0.036263108253479004, 0.06484240293502808, 0.13605643808841705, 0.0013745108153671026, 0.04787202924489975, 0.06060608848929405, -0.018766703084111214, -0.12800121307373047, -0.06855367869138718, -0.013721643947064877, 0.005829157307744026, -0.1520543247461319, -0.022084807977080345, -0.11797034740447998, -0.010108674876391888, 0.038459524512290955, -0.04284609854221344, 0.1597258299589157, -0.10972542315721512, -0.009005998261272907, 0.0027898873668164015, 0.08057919889688492, -0.016416138038039207, 0.05940466746687889, -0.07964225113391876, -0.05652067810297012, 0.06559097021818161, 0.15443627536296844, 0.03840002417564392, 0.07064985483884811, 0.10842394828796387], [0.033337224274873734, -0.025412507355213165, -0.09385734796524048, 0.02430078387260437, -0.06543856114149094, 0.019016867503523827, -0.025443678721785545, 0.06005728989839554, -0.013673047535121441, -0.05071239173412323, 0.04184029996395111, -0.09301810711622238, -0.0979531928896904, -0.06581461429595947, -0.019987311214208603, -0.06814847886562347, 0.018111182376742363, -0.07317798584699631, -0.03997718542814255, -0.038459960371255875, 0.07965096831321716, -0.018775606527924538, 0.013157114386558533, -0.01097144652158022, 0.031810931861400604, -0.029279761016368866, 0.03573833033442497, 0.06563117355108261, 0.14496983587741852, 0.14945563673973083, -0.06922605633735657, 0.028219984844326973], [-0.10940492898225784, 0.06003880500793457, 0.03562759980559349, -0.07521922886371613, 0.05771021172404289, 0.04142168536782265, -0.0829610675573349, -0.18110646307468414, 0.11645786464214325, -0.21748365461826324, -0.11255018413066864, 0.07172912359237671, 0.1692344695329666, 0.01800822652876377, -0.008930351585149765, -0.1642552614212036, 0.08670366555452347, -0.05472779646515846, -0.05704644322395325, 0.12887153029441833, 0.08840486407279968, -0.0874847024679184, -0.06058351323008537, -0.007623461540788412, -0.0227496437728405, -0.11701854318380356, -0.027903489768505096, -0.029514798894524574, -0.026199957355856895, -0.05161925405263901, -0.019358184188604355, -0.022477615624666214], [-0.04688625410199165, 0.14538225531578064, -0.0747375413775444, 0.06275452673435211, -0.06876607984304428, -0.02165508270263672, -0.021149542182683945, 0.15280821919441223, -0.08032168447971344, -0.05570212006568909, 0.2449769675731659, -0.06334058940410614, -0.33296647667884827, -0.21664020419120789, 0.06114654615521431, 0.10336597263813019, -0.05311032384634018, 0.11115378886461258, 0.12653309106826782, -0.15262316167354584, 0.21153780817985535, 0.03644917532801628, 0.1873931735754013, 0.05429233983159065, -0.1437012255191803, 0.03748536482453346, -0.04316387325525284, 0.09763576835393906, -0.03341282531619072, 0.10686355829238892, 0.12773001194000244, 0.09852693229913712], [-0.04916631430387497, -0.0563712902367115, -0.0074709029868245125, 0.1633613407611847, -0.0058797490783035755, 0.09354600310325623, 0.028783489018678665, -0.0026108170859515667, -0.1414373815059662, -0.16129568219184875, 0.03546438366174698, -0.04766257852315903, 0.023703698068857193, 0.017409756779670715, -0.05282430723309517, -0.0009181023924611509, -0.1330852210521698, -0.12540468573570251, -0.003285459242761135, -0.1413532793521881, -0.20171481370925903, 0.11385989189147949, -0.047114066779613495, -0.04548610746860504, 0.20167338848114014, -0.06332308799028397, -0.06198077276349068, -0.024965403601527214, 0.13149100542068481, -0.06396182626485825, 0.08213119953870773, 0.029645798727869987], [-0.06257764250040054, 0.036321789026260376, -0.13722161948680878, 0.13093101978302002, 0.05144134908914566, 0.13973410427570343, 0.0018284309189766645, 0.15641634166240692, 0.08637100458145142, -0.18916986882686615, 0.016494007781147957, -0.0597078762948513, 0.13055618107318878, 0.044246554374694824, 0.1599148064851761, -0.0353691428899765, 0.13883985579013824, 0.12868502736091614, 0.0028361056465655565, -0.05964932590723038, -0.18676966428756714, -0.053640563040971756, 0.020172078162431717, 0.19341227412223816, 0.08956359326839447, -0.03560040146112442, 0.14408741891384125, -0.04276587814092636, -0.09708783775568008, 0.13370907306671143, -0.10407119244337082, -0.08942455053329468], [0.11302696168422699, -0.04443102329969406, -0.019684944301843643, -0.14075380563735962, -0.11772792041301727, -0.2727675437927246, 0.0919375792145729, 0.0007816025172360241, 0.11664675921201706, -0.16220654547214508, 0.02649150788784027, -0.1970599889755249, -0.1821816861629486, 0.12055213749408722, 0.11765337735414505, 0.01644992269575596, 0.08668778091669083, -0.029835117980837822, 0.053588785231113434, 0.0469941645860672, -0.20673377811908722, -0.1729411631822586, 0.11316920071840286, -0.004748623818159103, 0.16670377552509308, 0.13807328045368195, 0.15777002274990082, -0.15339528024196625, 0.15726664662361145, 0.1607723832130432, -0.15204335749149323, -0.019364964216947556], [-0.06851103901863098, 0.0005199146689847112, -0.10893476754426956, 0.0767444521188736, 0.054860152304172516, 0.1037791520357132, 0.11730197072029114, -0.13926777243614197, 0.007476449478417635, 0.07446698844432831, -0.039295751601457596, -0.06529256701469421, 0.045758407562971115, 0.0823201835155487, 0.12613564729690552, -0.09920772165060043, 0.11368414014577866, -0.003701156936585903, -0.013378564268350601, -0.12950344383716583, 0.15059272944927216, 0.007254376541823149, -0.10674234479665756, -0.07893211394548416, -0.02209254913032055, -0.03975074738264084, -0.15848101675510406, 0.014237768948078156, -0.015830861404538155, -0.12331430613994598, -0.1089310497045517, -0.06799617409706116], [-0.10290837287902832, 0.04920162633061409, -0.1277610808610916, 0.03218574821949005, 0.1401406228542328, -0.1515635997056961, -0.027354512363672256, -0.22093762457370758, -0.19395151734352112, -0.1329832375049591, -0.1318640559911728, -0.09563948959112167, -0.16939924657344818, -0.05000194162130356, 0.04385552555322647, -0.14533403515815735, -0.0811302438378334, -0.00022115408501122147, 0.12528783082962036, 0.1885940283536911, 0.11978041380643845, 0.14741308987140656, -0.0844544991850853, 0.037392985075712204, 0.06545989215373993, 0.04268819838762283, 0.08333119750022888, -0.008446560241281986, 0.04587194323539734, 0.12456617504358292, -0.09935054928064346, -0.013396338559687138], [0.24806778132915497, 0.03919382393360138, 0.03437073156237602, 0.14336194097995758, -0.2144336998462677, 0.1202242523431778, 0.23897477984428406, -0.0896826982498169, -0.10532929003238678, 0.026599230244755745, 0.09582261741161346, -0.0008550999336875975, -0.18190234899520874, 0.17444734275341034, -0.18756084144115448, 0.11615102738142014, -0.15708385407924652, -0.1700689047574997, -0.1016392707824707, -0.09994958341121674, 0.07073888927698135, 0.1131778210401535, 0.2724630832672119, -0.01983252353966236, 0.14508916437625885, 0.05393890291452408, -0.1839413195848465, 0.20418493449687958, 0.09127338975667953, 0.07997631281614304, 0.013045430183410645, 0.11636489629745483], [0.0924767404794693, 0.05883558839559555, -0.0176099743694067, 0.19072848558425903, -0.28679248690605164, -0.06983315199613571, 0.1656382530927658, 0.08441723883152008, 0.004626607988029718, 0.1895471215248108, 0.2876230478286743, 0.021060530096292496, -0.16356919705867767, -0.2158355712890625, 0.0010559766087681055, 0.0724557489156723, -0.17656180262565613, 0.2679089903831482, 0.1238805428147316, 0.014478751458227634, -0.014523444697260857, -0.006664763204753399, 0.021787891164422035, 0.14462003111839294, 0.266774445772171, 0.2135789394378662, 0.09246299415826797, -0.10871050506830215, 0.23046331107616425, -0.06333912163972855, -0.10156876593828201, 0.30954477190971375], [-0.07575271278619766, -0.06859160214662552, -0.020318657159805298, -0.10080631077289581, 0.12747110426425934, 0.04882964491844177, 0.04724857583642006, -0.2595045566558838, 0.030809085816144943, -0.2385202795267105, -0.15389995276927948, 0.03694315627217293, 0.3737737238407135, 0.020483195781707764, -0.14091543853282928, -0.14115497469902039, -0.04057604819536209, 0.02549157477915287, 0.08792846649885178, 0.0943390429019928, -0.023056644946336746, -0.1310984045267105, -0.2320144772529602, -0.043004877865314484, 0.045834753662347794, 0.06792060285806656, -0.0951102152466774, -0.17466337978839874, 0.013350958935916424, 0.12228323519229889, -0.08661206066608429, 0.042262349277734756], [-0.03919598460197449, -0.10993266105651855, -0.19212549924850464, -0.09316501021385193, 0.07733681052923203, -0.1146935299038887, 0.18365967273712158, 0.11780399084091187, -0.07071992754936218, 0.07515310496091843, 0.06577634066343307, -0.08451780676841736, -0.21713484823703766, -0.1855889856815338, 0.06962979584932327, 0.003755823941901326, -0.07378391176462173, -0.07014096528291702, 0.10214114189147949, -0.20456506311893463, 0.1394188106060028, 0.10029866546392441, 0.07971782237291336, 0.026242565363645554, 0.005500050727277994, 0.12183335423469543, 0.020242085680365562, 0.15385863184928894, 0.12569017708301544, -0.1420694887638092, -0.024120762944221497, 0.12502141296863556], [0.13471722602844238, 0.15045011043548584, 0.06506428867578506, 0.16005177795886993, -0.038657158613204956, 0.19550968706607819, -0.043604329228401184, 0.14882376790046692, -0.11544077843427658, 0.12950348854064941, 0.09369166940450668, 0.1904369592666626, -0.15676049888134003, 0.07439759373664856, -0.09421858936548233, -0.07826761156320572, -0.02470351569354534, 0.02886168658733368, 0.11227457970380783, -0.22926899790763855, -0.11432243138551712, 0.0028019275050610304, -0.07298561185598373, 0.029014479368925095, 0.10248883813619614, 0.038828276097774506, 0.0016991543816402555, -0.032150931656360626, 0.1262005865573883, -0.13703887164592743, -0.0375959686934948, 0.16593819856643677], [0.20953157544136047, -0.14296430349349976, -0.09311454743146896, 0.19230684638023376, 0.038129545748233795, 0.021903108805418015, 0.06889268010854721, -0.12668468058109283, -0.20958508551120758, 0.07334000617265701, 0.1650889366865158, -0.017950208857655525, 0.039355501532554626, 0.017368819564580917, 0.045106563717126846, 0.08390472829341888, -0.011426964774727821, 0.12769770622253418, -0.05052837356925011, 0.07989616692066193, 0.029317881911993027, 0.08393393456935883, 0.0014117463724687696, -0.14327310025691986, 0.11046235263347626, 0.022668860852718353, -0.05303570255637169, -0.0740380510687828, 0.1462048590183258, 0.005430517718195915, 0.12848173081874847, 0.07877056300640106], [-0.14506277441978455, 0.15514850616455078, 0.05468489229679108, -0.25407281517982483, 0.07149555534124374, -0.05875006318092346, -0.16173496842384338, 0.04683123901486397, 0.2854630649089813, 0.12267560511827469, -0.055054619908332825, 0.10396189242601395, 0.4153115153312683, 0.09623955190181732, 0.09727032482624054, -0.04545949399471283, 0.34513282775878906, 0.08793815225362778, 0.2181079387664795, 0.23514626920223236, 0.17909401655197144, -0.006144196726381779, -0.13368210196495056, -0.3661419153213501, -0.25610166788101196, -0.06822673976421356, -0.06932973116636276, -0.06054156273603439, -0.36134088039398193, -0.028040334582328796, -0.06632259488105774, -0.24163185060024261], [-0.25179263949394226, 0.08183549344539642, 0.1462562084197998, -0.07173290848731995, -0.11320259422063828, 0.1069042980670929, -0.05967459827661514, -0.16296082735061646, -0.00226670503616333, -0.05042588710784912, -0.1480349749326706, 0.04078955203294754, 0.16167575120925903, 0.013246706686913967, -0.11129079759120941, -0.18898522853851318, 0.15742133557796478, -0.24036690592765808, 0.030100608244538307, 0.2206350415945053, -0.12440495938062668, 0.04927603900432587, -0.015398753806948662, -0.028246045112609863, 0.17382898926734924, 0.07299289107322693, -0.04359887167811394, 0.09549643844366074, 0.14772748947143555, -0.02816683240234852, 0.009515448473393917, -0.07535918802022934], [-0.031414151191711426, -0.010251673869788647, 0.07536734640598297, -0.15507282316684723, -0.09916695207357407, 0.13876782357692719, 0.0800723060965538, 0.048378005623817444, -0.08395522087812424, 0.11697402596473694, -0.10789334774017334, -0.0957324281334877, -0.034547895193099976, 0.10656580328941345, -0.13636787235736847, 0.08126798272132874, -0.07857201248407364, 0.2471134513616562, 0.023294324055314064, 0.12465447187423706, 0.09336797147989273, 0.0335717499256134, 0.09624584764242172, -0.15321366488933563, 0.1542394608259201, 0.020816883072257042, -0.10338989645242691, -0.08869300782680511, 0.12373244017362595, -0.08489185571670532, -0.0858645886182785, -0.08708562701940536], [-0.08542793989181519, 0.0010832648258656263, 0.09529628604650497, 0.013278658501803875, 0.1212761178612709, 0.15457864105701447, 0.1737724393606186, 0.03712526336312294, -0.026420390233397484, 0.01553337275981903, 0.08052805066108704, -0.10015124827623367, -0.02361082099378109, 0.1517627239227295, 0.01209823228418827, -0.09881331771612167, 0.045421335846185684, -0.10689949989318848, 0.08794167637825012, -0.13873079419136047, 0.06484796851873398, 0.04823445901274681, 0.1406828761100769, 0.14111167192459106, 0.05222179740667343, 0.008070774376392365, -0.06542893499135971, -0.04850781708955765, 0.05556227266788483, 0.19164372980594635, 0.10534732043743134, -0.0086502805352211], [-0.06261646002531052, 0.09989982843399048, -0.07273995876312256, -0.10187041014432907, 0.054865170270204544, -0.06884831190109253, 0.1951892375946045, -0.18513886630535126, -0.008132311515510082, -0.10217763483524323, 0.01554055418819189, 0.0632990226149559, 0.316421777009964, 0.051528092473745346, 0.08014074712991714, -0.1257939338684082, -0.08319368958473206, 0.07723866403102875, -0.18015208840370178, 0.04698113352060318, -0.11720587313175201, 0.15700781345367432, 0.15366269648075104, -0.16977787017822266, -0.13718567788600922, -0.056833263486623764, 0.1391466110944748, 0.1179683580994606, -0.08832673728466034, -0.06335524469614029, 0.16399258375167847, -0.01743614859879017], [0.04158715531229973, -0.10785596817731857, 0.14106838405132294, 0.1597447693347931, 0.08719704300165176, -0.019992651417851448, -0.024518253281712532, 0.11809741705656052, -0.11330930143594742, -0.2337402105331421, -0.12777554988861084, 0.06418049335479736, 0.08286385238170624, 0.030782286077737808, 0.0006711657624691725, -0.16214868426322937, 0.03506922349333763, 0.5374783873558044, -0.24637453258037567, -0.1639670580625534, -0.05753036588430405, -0.012443222105503082, -0.09559302031993866, 0.14501315355300903, 0.130568265914917, 0.05936221778392792, 0.04173192009329796, -0.08063063025474548, 0.08249372243881226, 0.07098200172185898, 0.09559733420610428, 0.17544540762901306], [0.1307864487171173, 0.13414429128170013, -0.18102382123470306, 0.021488672122359276, -0.1014825776219368, -0.04664939269423485, 0.07124229520559311, 0.006762390956282616, -0.1966809779405594, 0.16974465548992157, 0.15286146104335785, 0.15170933306217194, 0.01523398794233799, 0.11641792953014374, -0.07537105679512024, 0.018895061686635017, -0.15145647525787354, -0.2310025542974472, 0.18688081204891205, -0.18404367566108704, 0.17578114569187164, 0.08241087198257446, 0.026519695296883583, 0.08359266072511673, -0.02726457267999649, -0.06448926031589508, -0.12239282578229904, 0.1880379170179367, 0.12621153891086578, 0.021770896390080452, -0.11809082329273224, -0.02790672890841961], [0.16956432163715363, 0.14130131900310516, -0.08338891714811325, 0.1034315750002861, -0.06142684817314148, -0.032601937651634216, -0.11871202290058136, -0.05082281306385994, 0.10544338077306747, -0.04213560000061989, -0.10019022971391678, -0.06802692264318466, 0.23621483147144318, 0.005434290040284395, 0.09406270831823349, -0.09830135852098465, 0.17505043745040894, -0.17587430775165558, 0.0023899339139461517, -0.09617289155721664, -0.0983925461769104, 0.03466080501675606, -0.05614345520734787, -0.023089518770575523, -0.12262022495269775, -0.09497977048158646, 0.061650749295949936, 0.06674250215291977, -0.2062849998474121, -0.0009087341604754329, -0.11291532963514328, 0.08042971789836884], [0.028234858065843582, -0.13645851612091064, 0.10268222540616989, 0.08640804141759872, 0.023419922217726707, 0.1662084013223648, 0.2094879150390625, -0.1606762707233429, -0.199119433760643, 0.04661071300506592, 0.019747959449887276, 0.009561831131577492, -0.24137236177921295, 0.1099739670753479, -0.11895569413900375, 0.0007479976047761738, 0.09186908602714539, -0.03585709258913994, 0.04678095504641533, 0.06762195378541946, 0.1897314041852951, -0.09261742234230042, 0.18288442492485046, 0.08651202917098999, -0.031365327537059784, 0.15740881860256195, -0.16606645286083221, 0.20643477141857147, 0.09927377104759216, 0.15613152086734772, -0.09578099101781845, -0.04537801817059517], [0.2509502172470093, -0.10844004899263382, -0.20932236313819885, -0.11573775112628937, 0.005576961673796177, 0.0007741632871329784, 0.1192893460392952, -0.023810794577002525, -0.17064142227172852, -0.04384605586528778, 0.10584545880556107, 0.11123669147491455, -0.09076905995607376, -0.025102246552705765, -0.008330198936164379, 0.05073871463537216, -0.1508154273033142, -0.11812122166156769, 0.005289125721901655, -0.15515075623989105, 0.21291248500347137, -0.05552352964878082, 0.08248449862003326, 0.035413432866334915, -0.03698604181408882, 0.20552632212638855, 0.014857301488518715, 0.10780158638954163, 5.174865509616211e-05, -0.09929671883583069, 0.00528080016374588, -0.053676508367061615], [0.10447844862937927, 0.058721598237752914, -0.11460204422473907, 0.13804547488689423, -0.08979617804288864, -0.10468759387731552, 0.08291669934988022, 0.12648418545722961, -0.19415739178657532, -0.008661292493343353, 0.00795687921345234, 0.0004413130518514663, -0.24308878183364868, 0.10474210977554321, -0.17406395077705383, -0.02556043304502964, -0.05546727031469345, -0.037431858479976654, 0.18328221142292023, -0.0007862591883167624, -0.02137310802936554, 0.09657766669988632, 0.1486213654279709, -0.03183769807219505, 0.09696463495492935, 0.07586511224508286, -0.09415274858474731, 0.10583881288766861, 0.04897312447428703, 0.01505187526345253, -0.16210773587226868, -0.09071062505245209], [-0.22461530566215515, 0.1470942199230194, -0.032720860093832016, -0.09913124144077301, 0.11601648479700089, -0.08851061761379242, -0.12088115513324738, 0.2626950740814209, 0.07492479681968689, -0.20088744163513184, -0.19486214220523834, 0.005421051289886236, -0.08154767006635666, -0.07774028182029724, 0.10370180755853653, -0.07476414740085602, 0.012802799232304096, 0.024706481024622917, -0.11335747689008713, -0.06199132651090622, 0.0824168473482132, 0.12430933117866516, -0.06807459145784378, -0.021802594885230064, -0.11004630476236343, 0.0672784373164177, -0.10830692946910858, 0.041119758039712906, 0.1870371252298355, -0.01577349565923214, -0.13178502023220062, -0.185106560587883], [0.07013462483882904, 0.0950799509882927, -0.03626416623592377, -0.12749649584293365, -0.030516549944877625, 0.05569371581077576, -0.013998336158692837, 0.09421081095933914, 0.1355292797088623, 0.029153211042284966, -0.09297200292348862, 0.039700593799352646, -0.04952370002865791, 0.02809230051934719, -0.09364437311887741, 0.056230198591947556, -0.16076578199863434, -0.06339263916015625, -0.09293827414512634, 0.010795354843139648, 0.05146118253469467, -0.14946961402893066, -0.15836894512176514, 0.014234655536711216, -0.055193085223436356, -0.06783474236726761, 0.13593928515911102, 0.02633693628013134, 0.14858722686767578, 0.1642586588859558, -0.006214048247784376, 0.1333080679178238], [0.03494744747877121, 0.06814441084861755, 0.09819779545068741, 0.21092119812965393, 0.1344703882932663, 0.05847262963652611, 0.06196482107043266, -0.10813901573419571, -0.002378178993239999, 0.06803753226995468, -0.0916418507695198, -0.1129802018404007, -0.217769056558609, -0.07637153565883636, -0.08864876627922058, 0.08928263932466507, -0.1755479872226715, 0.07264181226491928, 0.07899235188961029, -0.059710629284381866, -0.08823622763156891, 0.0015256928745657206, -0.10837163031101227, -0.007653366308659315, -0.006443560589104891, 0.026021316647529602, -0.07463939487934113, -0.07609996199607849, 0.0501704141497612, 0.040796518325805664, -0.03072023205459118, -0.08592528849840164], [-0.032430943101644516, -0.05680469423532486, -0.08817640691995621, -0.07398426532745361, -0.02043205313384533, 0.13131333887577057, -0.31219086050987244, 0.1600266396999359, -0.0443481020629406, -0.00039577853749506176, -0.05848299711942673, 0.128264918923378, 0.24802783131599426, 0.012609060853719711, 0.06344987452030182, -0.029900718480348587, -0.02767319232225418, 0.12163231521844864, 0.10423658043146133, -0.11006619781255722, 0.016611428931355476, 0.06913047283887863, 0.01684192568063736, -0.01879880391061306, -0.07067054510116577, -0.046171993017196655, -0.15346263349056244, -0.007383657619357109, -0.1844274401664734, -0.07761070132255554, 0.06481520086526871, 0.06595961004495621], [0.2079651951789856, 0.1313350796699524, 0.02069583535194397, 0.12620653212070465, 0.05343543738126755, 0.021790480241179466, 0.18349823355674744, 0.039605047553777695, -0.0970054641366005, 0.014285245910286903, 0.09224110841751099, -0.06628517061471939, -0.1260528266429901, 0.028902467340230942, 0.002029153984040022, 0.004799641203135252, -0.10441295057535172, -0.09000689536333084, 0.101176418364048, -0.1941802203655243, 0.03837495297193527, -0.019301684573292732, 0.15298281610012054, -0.21360933780670166, 0.034693192690610886, 0.1829809844493866, 0.011840217746794224, 0.06147049367427826, -0.1261148303747177, -0.04507552459836006, 0.09640678018331528, -0.053879205137491226], [-0.031161418184638023, 0.11816689372062683, 0.15777957439422607, -0.09325302392244339, -0.17460736632347107, 0.02014685608446598, 0.05228960141539574, 0.03499864414334297, -0.16118665039539337, 0.12128427624702454, -0.06895998120307922, -0.09000987559556961, -0.06758827716112137, -0.030685409903526306, -0.04460291936993599, -0.10977452248334885, -0.2005692720413208, 0.10684605687856674, 0.028599152341485023, -0.11671354621648788, 0.030006857588887215, 0.053583621978759766, -0.1446138173341751, -0.04530498757958412, -0.1534920483827591, 0.002961766207590699, -0.11519446969032288, 0.00860452838242054, -0.12325089424848557, 0.018768686801195145, 0.02367471344769001, 0.1878703534603119], [-0.04120177775621414, 0.019483191892504692, 0.05767995864152908, 0.14437511563301086, 0.08043055981397629, 0.03847536817193031, -0.044813964515924454, 0.11140045523643494, -0.030850358307361603, 0.08248354494571686, -0.07511993497610092, -0.10794942080974579, 0.2560623288154602, 0.13894842565059662, -0.04289291426539421, -0.19717372953891754, 0.11176805943250656, 0.08228814601898193, 0.10180585086345673, -0.0870090201497078, -0.05943536385893822, 0.1111038401722908, -0.17676442861557007, 0.07754187285900116, -0.20332682132720947, 0.020642226561903954, -0.021834872663021088, 0.08647570013999939, 0.053439199924468994, 0.11090841144323349, 0.10620022565126419, -0.1346634179353714], [-0.10025850683450699, 0.12885241210460663, -0.10743540525436401, 0.07432512938976288, 0.11639756709337234, -0.017321014776825905, -0.02789081074297428, 0.0275889802724123, 0.0023896426428109407, 0.16314196586608887, 0.11776229739189148, -0.013469269499182701, 0.041001949459314346, -0.09851256757974625, 0.03557169809937477, -0.11893486231565475, 0.13861604034900665, 0.007463088259100914, -0.0790233388543129, 0.0323023796081543, 0.076197050511837, -0.06875696778297424, -0.04018568620085716, 0.03360164538025856, 0.0996074378490448, 0.08435416221618652, -0.09456232935190201, -0.1533835232257843, -0.11218751221895218, -0.14716017246246338, 0.024068256840109825, 0.057754214853048325], [-0.05563964322209358, 0.15054571628570557, 0.19959431886672974, 0.10745883733034134, -0.16419662535190582, -0.199480339884758, -0.08082771301269531, -0.06340743601322174, -0.052114877849817276, 0.07333724200725555, -0.05067698657512665, -0.011593099683523178, -0.09250366687774658, -0.08653073012828827, 0.06130215898156166, -0.022206028923392296, -0.039843302220106125, 0.19816766679286957, 0.026650628075003624, 0.08675098419189453, 0.0044838967733085155, -0.1466628909111023, -0.18244093656539917, 0.0131593719124794, 0.10947626829147339, 0.05599116161465645, 0.0578480064868927, -0.0283699631690979, 0.040040623396635056, -0.028476396575570107, -0.07232722640037537, -0.06135258078575134], [-0.011277060024440289, 0.11445192992687225, -0.000718486204277724, 0.024095693603157997, 0.045447587966918945, 0.1313510537147522, 0.13105247914791107, 0.10827352851629257, 0.11252215504646301, 0.0028424528427422047, -0.01901705004274845, 0.14940111339092255, 0.016573242843151093, 0.009948412887752056, 0.04347635433077812, -0.032745372503995895, 0.10359461605548859, -0.13404853641986847, -0.09143232554197311, -0.029642829671502113, 0.11099986732006073, -0.04129926860332489, 0.00943058356642723, 0.05898294597864151, 0.03375514969229698, 0.15735295414924622, -0.15695032477378845, 0.02456316351890564, -0.11186007410287857, -0.01850280910730362, -0.13309134542942047, -0.16531075537204742], [0.09458314627408981, 0.05458124354481697, -0.024005085229873657, 0.07592211663722992, -0.15139731764793396, -0.04494796320796013, 0.025623705238103867, 0.1283331662416458, -0.12990285456180573, 0.08959492295980453, 0.057921525090932846, -0.104787178337574, -0.05965143442153931, -0.10289093106985092, -0.02590041048824787, -0.04165542125701904, -0.12781774997711182, 0.12224006652832031, -0.015835247933864594, -0.0677146390080452, -0.08501337468624115, 0.027022819966077805, 0.0954613983631134, 0.1075892373919487, 0.1107775941491127, 0.054077159613370895, 0.03298128768801689, 0.05226651579141617, 0.1107620894908905, -0.022326916456222534, 0.011991573497653008, 0.14146827161312103], [0.1391681581735611, 0.10575071722269058, 0.07531612366437912, 0.022501274943351746, -0.03152245655655861, 0.0763777494430542, 0.18632954359054565, 0.22428683936595917, -0.1463879942893982, 0.041597288101911545, -0.02126154862344265, 0.06739004701375961, -0.139145627617836, -0.07706569135189056, -0.10047321021556854, 0.053767550736665726, -0.08359178900718689, -0.17770148813724518, -0.0759018287062645, -0.160766139626503, -0.03154582530260086, 0.051516640931367874, 0.011267327703535557, 0.062394220381975174, 0.10913868993520737, -0.06900087743997574, -0.03954425826668739, 0.00881142821162939, 0.05486727133393288, -0.11303531378507614, 0.08471859991550446, 0.03407770395278931], [0.12724235653877258, 0.031112903729081154, -0.14150096476078033, -0.03838802129030228, 0.012281734496355057, 0.18457424640655518, -0.04110442101955414, -0.055114563554525375, 0.06692445278167725, -0.03139713034033775, -0.046206921339035034, 0.055132362991571426, 0.10640747845172882, -0.07703983038663864, 0.06338803470134735, 0.007655731867998838, 0.040420472621917725, -0.006014259997755289, -0.060027215629816055, -0.04563874006271362, 0.13175785541534424, 0.13312913477420807, 0.013387122191488743, -0.12285016477108002, -0.07200153172016144, -0.09544815123081207, 0.00034308142494410276, 0.1696801632642746, 0.07827584445476532, -0.06868088245391846, -0.009702738374471664, -0.1437903791666031], [-0.01797025464475155, -0.00987814087420702, 0.027378791943192482, -0.11296646296977997, 0.007164042443037033, 0.04680659621953964, -0.02074863575398922, -0.04306744411587715, 0.14315691590309143, -0.01226696465164423, -0.03316914290189743, 0.04741140455007553, 0.12175475805997849, -0.02694481983780861, 0.0376574732363224, -0.07096568495035172, 0.07926280796527863, -0.011685156263411045, -0.12599916756153107, 0.11271915584802628, -0.039183929562568665, -0.034036099910736084, -0.03125074878334999, -0.04761771485209465, -0.03896159306168556, -0.024085938930511475, 0.02658909186720848, -0.010495588183403015, -0.05436030030250549, -0.03767405077815056, -0.025582097470760345, -0.022403452545404434], [-0.0038843462243676186, 0.07472454756498337, 0.06957592815160751, 0.145351380109787, -0.12061022222042084, -0.10326658934354782, 0.008961847983300686, 0.1772765815258026, -0.03778683394193649, -0.0368678979575634, -0.0038026124238967896, -0.10095475614070892, -0.038313303142786026, 0.029728572815656662, -0.0680975615978241, 0.03524891659617424, -0.07557330280542374, 0.05625210329890251, -0.16189789772033691, -0.05381210893392563, 0.006969996262341738, -0.008481789380311966, 0.0021112330723553896, 0.13175909221172333, 0.11987986415624619, -0.05724015086889267, 0.010486363433301449, -0.05539669096469879, 0.10127481818199158, 0.019788911566138268, -0.008430998772382736, 0.1232246458530426], [0.3391627073287964, 0.09080427139997482, -0.14656612277030945, 0.25551876425743103, -0.28980687260627747, -0.12257558852434158, 0.3660385012626648, 0.24615417420864105, -0.44580021500587463, 0.12309279292821884, 0.17244869470596313, -0.1375361829996109, -0.4667956233024597, -0.1954769343137741, -0.13339877128601074, 0.31422194838523865, -0.39813849329948425, 0.30738356709480286, 0.07694084197282791, -0.3813416659832001, 0.16602876782417297, 0.15620046854019165, 0.41098305583000183, 0.2346912920475006, 0.23580142855644226, 0.19926126301288605, -0.1664753258228302, 0.328354150056839, 0.4152826964855194, -0.009414146654307842, 0.14979517459869385, 0.26029887795448303], [-0.12490145117044449, -0.062436819076538086, -0.01968921720981598, 0.042136695235967636, 0.10798165947198868, -0.08668342232704163, -0.040029872208833694, -0.09506858885288239, 0.10545659810304642, -0.03181137517094612, -0.10778109729290009, -0.012781419791281223, 0.07260929048061371, 0.08198338001966476, 0.1303369700908661, -0.15500213205814362, 0.12170672416687012, -0.07265477627515793, -0.1734776794910431, 0.10466495901346207, -0.03727953881025314, -0.004674465861171484, -0.08015099912881851, -0.02207021974027157, -0.08015724271535873, -0.01993565633893013, 0.06579017639160156, -0.1411706507205963, -0.116313137114048, 0.00677412049844861, 0.019942933693528175, -0.11759103089570999], [-0.08369863033294678, 0.045404598116874695, 0.008658614940941334, 0.022505536675453186, 0.07831593602895737, -0.022025449201464653, 0.09072726219892502, -0.10144849121570587, 0.15788580477237701, -0.06462131440639496, -0.13612201809883118, 0.11585288494825363, 0.218173086643219, 0.08422798663377762, 0.01139103900641203, 0.01630297303199768, 0.1156107634305954, -0.0007087691337801516, -0.18616145849227905, 0.11801119148731232, 0.030051903799176216, -0.07920598983764648, -0.05683611333370209, 0.011428683996200562, -0.02782098576426506, 0.07170373946428299, -0.05583338066935539, -0.0009171100100502372, -0.0186452716588974, -0.0060061984695494175, 0.011050105094909668, -0.07441561669111252], [-0.027180058881640434, -0.020527595654129982, 0.08130468428134918, 0.0816594585776329, 0.22682815790176392, 0.16261187195777893, 0.045184794813394547, -0.11451160907745361, 0.03464337810873985, -0.17643746733665466, 0.050699055194854736, 0.10188838839530945, -0.014569916762411594, 0.008873770013451576, 0.026012277230620384, -0.08060577511787415, 0.06486155837774277, -0.15655504167079926, 0.07228852063417435, 0.052837081253528595, -0.07708459347486496, 0.1408643126487732, -0.06466175615787506, 0.08774738758802414, 0.051752734929323196, 0.16889478266239166, 0.020167741924524307, 0.1804811805486679, -0.005050439387559891, 0.06991422921419144, 0.039258308708667755, -0.24747593700885773], [0.049741823226213455, 0.0014065239811316133, -0.11263535916805267, 0.011345962062478065, 0.13886216282844543, 0.03172631561756134, -0.006528170313686132, -0.021847737953066826, 0.031252361834049225, -0.16433802247047424, -0.014878936111927032, 0.18287219107151031, -0.09528212994337082, 0.0677541196346283, 0.14523862302303314, 0.05451164022088051, 0.11409998685121536, -0.19138053059577942, -0.04816454276442528, 0.08431556820869446, 0.18431545794010162, -0.053476475179195404, -0.10105414688587189, -0.13234184682369232, -0.21782244741916656, -0.001933228108100593, -0.04585537686944008, 0.0816037580370903, -0.23988951742649078, -0.08749465644359589, -0.040102533996105194, -0.1517995148897171], [-0.022665327414870262, -0.08558430522680283, -0.06745908409357071, 0.08364834636449814, 0.06087547913193703, 0.08780768513679504, -0.007474082987755537, -0.1440366804599762, 0.0023586382158100605, -0.022682715207338333, -0.048294827342033386, 0.1500687301158905, -0.006062382832169533, -0.13877232372760773, 0.020509760826826096, -0.04199935495853424, 0.06699690222740173, -0.07605714350938797, 0.1509142816066742, 0.06106427311897278, 0.0444316640496254, -0.03195551782846451, 0.040571752935647964, 0.04613678529858589, 0.1234656423330307, 0.09030544012784958, -0.0933038517832756, 0.043197304010391235, -0.05901810899376869, -0.030859600752592087, -0.11318091303110123, -0.0033578849397599697], [-0.08327215909957886, -0.057557497173547745, -0.1521502435207367, -0.28062155842781067, 0.2283545285463333, 0.021064912900328636, 0.1642916202545166, -0.1433972865343094, 0.37438687682151794, 0.07089584320783615, -0.11085211485624313, 0.15888303518295288, 0.26847589015960693, -0.007821655832231045, 0.06728360056877136, 0.1268661618232727, 0.30382272601127625, -0.10961832851171494, 0.041370291262865067, 0.14283810555934906, 0.06083199009299278, -0.10703836381435394, -0.08247800171375275, -0.2611745595932007, -0.2317763864994049, 0.23604919016361237, -0.0865406021475792, 0.04640856385231018, -0.23188462853431702, -0.21656064689159393, -0.08839697390794754, -0.17539460957050323], [0.016537608578801155, -0.004240661393851042, -0.12365340441465378, 0.00792810507118702, 0.04580891877412796, 0.07615742832422256, -0.00826233346015215, -0.06204599142074585, 0.030008459463715553, 0.02691527083516121, -0.006755439564585686, 0.0016367064090445638, -0.015690797939896584, -0.057290542870759964, 0.07591947168111801, -0.10174021869897842, 0.04505133628845215, -0.15284514427185059, -0.0024064932949841022, 0.07015717029571533, 0.08126244693994522, 0.045501235872507095, 0.023819968104362488, -0.022664682939648628, -0.06011873483657837, -0.046153634786605835, -0.03106262907385826, 0.07613221555948257, -0.0214989073574543, -0.014837225899100304, 0.005648538004606962, -0.10569233447313309], [0.07121306657791138, 0.016920289024710655, -0.004509522579610348, 0.006016552913933992, -0.0565604642033577, -0.008347319439053535, -0.04445876181125641, 0.1854371726512909, -0.005570493172854185, 0.02587818168103695, 0.14554576575756073, -0.045325808227062225, 0.04776456207036972, -0.090421661734581, 0.02112317457795143, 0.02455664798617363, -0.02544562518596649, 0.019277997314929962, 0.04099192097783089, -0.046997666358947754, -0.007727164775133133, 0.041326072067022324, 0.0354989729821682, 0.00847390852868557, 0.03762669861316681, -0.02733195759356022, 0.03208557516336441, 0.05890386179089546, 0.055229075253009796, -0.009372317232191563, -0.04219984635710716, 0.07550893723964691], [0.0044481512159109116, -0.04999848082661629, -0.01991635002195835, 0.02118932083249092, -0.08359602838754654, -0.038775503635406494, 0.14754542708396912, -0.030694477260112762, 0.02960323728621006, -0.04204820469021797, 0.09008483588695526, -0.07207772135734558, -0.06808323413133621, -0.07581198960542679, -0.00017018253856804222, 0.026840003207325935, 0.0007661138079129159, 0.11109775304794312, -0.06817884743213654, -0.008178750984370708, -0.017524411901831627, 0.0025624947156757116, -0.05825183540582657, 0.08741431683301926, 0.013614754192531109, 0.0792849063873291, 0.04969555512070656, -0.014733848161995411, 0.07705359160900116, -0.02230890467762947, 0.013483564369380474, 0.05828491225838661], [-0.07216503471136093, -0.04590931534767151, -0.038009025156497955, -0.029368747025728226, 0.09028296917676926, 0.09211014956235886, 0.05920439213514328, -0.20123949646949768, 0.09943904727697372, -0.08170850574970245, -0.13410905003547668, -0.05382947996258736, 0.1789316087961197, 0.019907785579562187, 0.05500125139951706, -0.07906629890203476, 0.10232830047607422, -0.13529281318187714, -0.18501195311546326, 0.13197115063667297, 0.024179009720683098, -0.03833360597491264, -0.04941564425826073, -0.028596719726920128, -0.05100512504577637, 0.04222262650728226, -0.04073350876569748, -0.02253870479762554, -0.05913068726658821, 0.04571503400802612, 0.004098910838365555, -0.1200021356344223], [-0.0039134579710662365, 0.1978151500225067, 0.08167732506990433, 0.03941958025097847, -0.31050369143486023, -0.2926374673843384, -0.20173729956150055, 0.2676404118537903, 0.1719822883605957, 0.147960364818573, 0.22860077023506165, -0.009089631028473377, 0.2818002998828888, -0.06027884781360626, -0.09482341259717941, 0.18237091600894928, -0.09415266662836075, 0.18875055015087128, 0.10558930039405823, -0.1144973486661911, 0.07081576436758041, -0.15574058890342712, 0.044652070850133896, 0.10323293507099152, 0.22126661241054535, -0.11179876327514648, 0.13674712181091309, -0.06659039855003357, 0.1283695548772812, 0.05170296132564545, -0.18128575384616852, 0.2755017876625061], [0.002071239287033677, 0.051658645272254944, -0.1931695193052292, -0.10661409795284271, 0.14765813946723938, 0.2086021602153778, 0.11820106953382492, 0.02811957150697708, 0.10485515743494034, 0.005714173894375563, 0.03273827210068703, 0.1784341186285019, -0.04779304191470146, 0.04318049177527428, 0.009200063534080982, 0.07261999696493149, 0.17527471482753754, -0.09639532119035721, -0.13620536029338837, 0.20942823588848114, -0.06189849227666855, -0.03570983186364174, 0.028186539188027382, 0.10544415563344955, -0.03276390954852104, -0.00768751697614789, -0.1732703000307083, 0.0759940817952156, -0.023368854075670242, -0.10860404372215271, -0.09440723806619644, -0.2469572275876999], [-0.10066094994544983, 0.0319480299949646, -0.03828940540552139, -0.12468723952770233, 0.09946207702159882, 0.10923471301794052, 0.049212437123060226, -0.09832215309143066, 0.1715843379497528, -0.21212238073349, -0.11277260631322861, -0.0375596284866333, 0.0673733800649643, -0.011718983761966228, 0.085238978266716, -0.003600998315960169, 0.1466076821088791, -0.1659669578075409, -0.16327068209648132, 0.14563634991645813, -0.03347325325012207, -0.06575945764780045, -0.05009698495268822, -0.05347980186343193, -0.08863687515258789, 0.012763905338943005, -0.05669509619474411, 0.02407921850681305, -0.03571875020861626, 0.08411062508821487, -0.020860416814684868, -0.11680200695991516], [0.1857440024614334, 0.09443221241235733, -0.02395753562450409, 0.2101893424987793, -0.15167243778705597, -0.061596523970365524, 0.3164385259151459, 0.1314527839422226, -0.11451174318790436, 0.10588992387056351, 0.1452484279870987, 0.0672016367316246, -0.13945963978767395, -0.059870168566703796, -0.1538929045200348, 0.22675153613090515, -0.1289292871952057, -0.16378633677959442, -0.0069436198100447655, -0.15998287498950958, 0.09346163272857666, 0.011492598801851273, 0.07955031841993332, 0.061908699572086334, 0.17748907208442688, 0.1547304391860962, -0.12453272193670273, 0.1113044023513794, 0.05620294809341431, 0.018407855182886124, 0.12645748257637024, 0.12444020807743073], [0.08188581466674805, -0.07462230324745178, -0.06809316575527191, 0.16187907755374908, 0.07637102901935577, -0.015350623056292534, 0.0641293153166771, -0.10986924916505814, 0.056765116751194, 0.03820990025997162, -0.1356247365474701, -0.2138759344816208, -0.08413219451904297, 0.015297112986445427, 0.0056433225981891155, 0.02162691205739975, 0.04783875495195389, 0.03350133076310158, -0.03278851881623268, -0.0888318419456482, -0.0736607015132904, 0.1473962664604187, 0.1131502091884613, 0.08366088569164276, 0.03766186162829399, -0.1464490443468094, 0.004569361452013254, -0.007390916813164949, 0.0845053493976593, -0.008071606047451496, -0.059600580483675, -0.045570824295282364], [-0.05716918781399727, -0.03252401202917099, -0.028995072469115257, -0.12209957093000412, 0.06250044703483582, 0.0805354192852974, 0.17217803001403809, -0.01643357239663601, 0.02145235985517502, -0.11905544996261597, -0.12440158426761627, -0.14723002910614014, -0.07870253920555115, 0.016983799636363983, -0.010581042617559433, -0.030945926904678345, 0.03476209193468094, -0.04428515210747719, -0.055498525500297546, -0.06127256527543068, 0.11855123192071915, 0.07429913431406021, 0.01754516363143921, 0.1099620908498764, -0.01816130429506302, 0.11012616753578186, -0.10647480934858322, 0.029688773676753044, -0.08277077972888947, -0.02892840839922428, 0.09196997433900833, -0.04971814900636673], [0.014003783464431763, -0.020524710416793823, 0.0427929051220417, 0.015443429350852966, 0.0566462017595768, 0.003963255789130926, 0.006822171155363321, -0.15666311979293823, 0.05843094736337662, -0.07336573302745819, 0.18026581406593323, 0.1675344556570053, 0.06932483613491058, -0.08736206591129303, 0.05493604764342308, 0.07882683724164963, 0.028754381462931633, -0.14389514923095703, -0.05662209168076515, 0.03243192657828331, -0.013842805288732052, 0.03443995118141174, 0.11276324093341827, -0.034480173140764236, 0.04741966351866722, -0.10922722518444061, -0.01099994033575058, 0.06526856869459152, 0.016911111772060394, -0.05519062653183937, -0.06721276044845581, -0.02701377496123314], [-0.055320363491773605, -0.0003433402453083545, 0.0012831311905756593, 0.05093001946806908, 0.020925624296069145, -0.03728777915239334, -0.01643671840429306, -0.041830386966466904, 0.06717191636562347, -0.02153569459915161, 0.04387815296649933, 0.11728803813457489, 0.10499777644872665, -0.05673205107450485, 0.0011703521013259888, -0.04268050566315651, 0.05215105041861534, -0.035742856562137604, -0.023476004600524902, 0.044738736003637314, -0.10176736116409302, 0.02311992645263672, -0.004762150347232819, 0.06635674089193344, 0.018919045105576515, -0.05345695838332176, 0.009920831769704819, 0.1125342920422554, -0.030587347224354744, -0.02368105761706829, 0.030175957828760147, -0.011841258965432644], [0.11561969667673111, 0.010477962903678417, 0.01608298346400261, 0.20932650566101074, -0.17924368381500244, -0.09776698052883148, 0.25784462690353394, 0.05231454223394394, -0.17533405125141144, -0.06514530628919601, 0.012989169918000698, -0.054312869906425476, -0.26836803555488586, -0.09288227558135986, -0.10186757147312164, 0.15616829693317413, -0.2296205759048462, 0.16720740497112274, -0.10061252862215042, -0.12730373442173004, 0.04439054802060127, 0.05344594642519951, 0.11862262338399887, 0.21259087324142456, 0.19121426343917847, 0.10349412262439728, -0.041734784841537476, 0.0728687196969986, 0.2393510341644287, 0.04756025969982147, 0.09507902711629868, 0.2371368259191513], [0.12461807578802109, 0.01682322472333908, -0.09189951419830322, 0.15797863900661469, -0.12827752530574799, -0.003403306705877185, 0.20378775894641876, 0.05853483825922012, -0.21402347087860107, 0.0579700693488121, 0.04642220214009285, -0.10234721004962921, -0.2202363759279251, -0.03324560821056366, -0.08678759634494781, 0.14939631521701813, -0.16616229712963104, -0.1161763146519661, 0.025543201714754105, -0.12323418259620667, 0.0718223974108696, 0.14466501772403717, 0.19027484953403473, 0.12239724397659302, 0.1252773404121399, 0.008446098305284977, -0.08697792887687683, 0.16033577919006348, 0.15958529710769653, 0.02498132735490799, 0.06642961502075195, 0.07566268742084503], [0.05718930438160896, 0.048484548926353455, -0.005984338000416756, 0.06523369997739792, 0.00805813167244196, 0.013207608833909035, 0.15862460434436798, 0.04225687310099602, -0.055088311433792114, -0.06283770501613617, -0.07411649078130722, -0.17168743908405304, 0.013513161800801754, -0.060809068381786346, -0.03996535390615463, 0.009597751311957836, -0.030750641599297523, 0.003950731363147497, -0.04178212210536003, 0.002427249914035201, 0.07474289834499359, 0.09353655576705933, -0.08070814609527588, 0.16618962585926056, 0.036514803767204285, 0.03235899284482002, -0.07492087036371231, 0.12365446984767914, 0.11970072239637375, 0.04494898021221161, -0.0763462483882904, 0.01818220317363739], [0.0063434201292693615, 0.0005881034885533154, 0.018349885940551758, -0.03847644478082657, 0.08090674132108688, 0.07485945522785187, 0.04335179924964905, -0.15886107087135315, 0.03383895009756088, 0.07678348571062088, -0.06622310727834702, -0.06438833475112915, 0.1678125113248825, -0.04709513112902641, 0.02622431330382824, -0.11493092030286789, 0.08763968199491501, -0.02028624899685383, -0.11941246688365936, 0.05561341345310211, 0.012410593219101429, -0.05436171963810921, 0.024836808443069458, 0.004909901414066553, -0.033742185682058334, 0.0057636769488453865, -0.019147716462612152, 0.0242632944136858, -0.12096265703439713, 0.002831239951774478, 0.04875985160470009, -0.07395517081022263], [0.10424245148897171, 0.052887506783008575, -0.15599419176578522, 0.0652070939540863, 0.0073478748090565205, 0.00967121496796608, 0.061010923236608505, -0.05380937084555626, -0.05597463622689247, 0.06651105731725693, 0.1256828010082245, 0.025955824181437492, -0.10477699339389801, -0.08367708325386047, -0.02225283347070217, 0.134163498878479, -0.09105786681175232, -0.0016765694599598646, 0.14775539934635162, -0.14152508974075317, 0.06953172385692596, -0.04790640249848366, -0.038297999650239944, -0.09108247607946396, 0.050494804978370667, 0.005064111202955246, -0.00559419859200716, 0.04271688684821129, -0.0049966974183917046, -0.032904766499996185, -0.08912809938192368, -0.014820142649114132], [0.09244855493307114, 0.004451435524970293, -0.10741756111383438, 0.005830051843076944, -0.028379196301102638, 0.13411906361579895, -0.009727849625051022, 0.059300996363162994, -0.04380974918603897, 0.0335976704955101, -0.03123578429222107, 0.06561871618032455, 0.024026714265346527, -0.07668263465166092, 0.009462028741836548, -0.09551223367452621, -0.03461027890443802, -0.08124599605798721, -0.0012893958482891321, -0.029476312920451164, -0.09141934663057327, 0.13286224007606506, -0.022847751155495644, 0.04598599672317505, 0.04266965389251709, 0.01187292579561472, 0.01389756053686142, 0.09515032917261124, 0.14262902736663818, -0.038263533264398575, -0.01642889529466629, 0.021039845421910286], [-0.011130543425679207, -0.021154232323169708, -0.06184598430991173, -0.025603672489523888, 0.11986801028251648, 0.07301948219537735, -0.02619321085512638, -0.10918720066547394, 0.1266932189464569, -0.07682214677333832, 0.031207695603370667, -0.004204923752695322, 0.11589845269918442, -0.01599876768887043, 0.0790199488401413, -0.15469764173030853, 0.11903116106987, -0.1227991059422493, 0.05424872413277626, 0.01924826018512249, 0.05032087489962578, 0.04025548696517944, -0.03799347206950188, -0.08760707080364227, -0.07340386509895325, -0.014656387269496918, -0.03176606446504593, 0.04960978776216507, -0.060905955731868744, -0.0811939686536789, -0.05081235617399216, -0.08737563341856003]], "rec.bias_ih_l0": [0.01987670175731182, -0.11034402251243591, -0.13727547228336334, -0.02003559097647667, -0.06380214542150497, -0.19488517940044403, -0.04017321392893791, -0.12626995146274567, 0.1673487424850464, 0.018867559731006622, -0.06363607943058014, 0.01789182983338833, 0.00604470307007432, -0.19476160407066345, -0.08533146232366562, -0.05754490941762924, -0.12143576145172119, 0.14192022383213043, 0.004322558641433716, -0.10790794342756271, 0.011277995072305202, -0.09036622196435928, -0.0059860083274543285, 0.13608402013778687, -0.11065229773521423, -0.11472699046134949, -0.17455710470676422, -0.11316840350627899, 0.0056769950315356255, 0.024907516315579414, 0.049563147127628326, 0.11145293712615967, 0.007981186732649803, -0.23829634487628937, -0.06501185894012451, 0.1264478713274002, -0.09454599022865295, 0.00586314732208848, 0.005144680850207806, -0.07232885807752609, 0.0739963948726654, 0.24880273640155792, 0.07437242567539215, -0.14636394381523132, 0.34769898653030396, 0.007878950797021389, 0.07034595310688019, 0.053700435906648636, 0.0006246606353670359, 0.28981155157089233, -0.04257221519947052, 0.037976935505867004, -0.08443127572536469, -0.08091754466295242, -0.035309333354234695, -0.1001913994550705, -0.05936944857239723, -0.18339623510837555, -0.24523967504501343, 0.1456298679113388, 0.21173082292079926, -0.11947707086801529, -0.12004774063825607, -0.08593173325061798, 0.11176624149084091, 0.09385507553815842, 0.006844750139862299, -0.030263738706707954, -0.08159535378217697, -0.07729648053646088, -0.08445131778717041, 0.07210148125886917, -0.17903642356395721, 0.0745249018073082, -0.037292253226041794, 0.12022114545106888, -0.056942299008369446, 0.11727344989776611, -0.045361168682575226, 0.06928444653749466, 0.04028085246682167, 0.033085983246564865, 0.16324646770954132, -0.1103033646941185, 0.13533610105514526, -0.009669861756265163, 0.10590896755456924, 0.013139438815414906, -0.10009653121232986, 0.04886636510491371, -0.04900982603430748, -3.125907096546143e-05, -0.008807187899947166, -0.09561346471309662, 0.019479334354400635, -0.16712942719459534, 0.20437777042388916, -0.09575864672660828, 0.11352956295013428, -0.03807834908366203, 0.03968917205929756, -0.09614785760641098, -0.042847249656915665, -0.18537284433841705, 0.15775106847286224, 0.02511734701693058, 0.02460627630352974, 0.1215561181306839, 0.07097402215003967, 0.10272809118032455, -0.017790164798498154, 0.05215970426797867, -0.09363774210214615, 0.15370985865592957, 0.13966558873653412, 0.056113388389348984, -0.14386232197284698, 0.024367621168494225, 0.06696895509958267, -0.01583077199757099, -0.025916893035173416, -0.05660421401262283, -0.11938963830471039, -0.0036653229035437107, -0.029279645532369614, 0.08452833443880081, -0.08057618886232376, 0.2032601535320282], "rec.bias_hh_l0": [-0.0530349463224411, 0.047198712825775146, 0.11149124056100845, -0.028603915125131607, -0.02968246303498745, -0.03406225144863129, -0.09028870612382889, 0.12046942859888077, 0.15609095990657806, -0.11890187859535217, 0.013279185630381107, -0.061532825231552124, 0.02531028538942337, -0.19783304631710052, -0.14523543417453766, -0.006130028050392866, -0.009577999822795391, 0.05716828256845474, 0.1887063980102539, 0.0014280345058068633, -0.09787256270647049, 0.019984567537903786, -0.12991838157176971, 0.06852874159812927, -0.0775933787226677, 0.034810297191143036, -0.24344080686569214, -0.03684408590197563, 0.1759120672941208, 0.15611086785793304, 0.07372864335775375, 0.12626443803310394, 0.1436493992805481, -0.1337110996246338, 0.0299493707716465, 0.024858174845576286, 0.034233637154102325, -0.1981552541255951, -0.04284530133008957, 0.18792065978050232, 0.2816567122936249, 0.20398783683776855, 0.07181881368160248, -0.06290283799171448, 0.34284543991088867, 0.0789990946650505, -0.06459809839725494, 0.038534197956323624, 0.0014742333441972733, 0.2623254060745239, 0.20131361484527588, 0.008167022839188576, -0.14080959558486938, -0.0032956809736788273, 0.13720393180847168, 0.126115083694458, -0.15924608707427979, 0.11042153090238571, -0.1067066341638565, -0.006319137755781412, 0.09544148296117783, -0.036456286907196045, 0.07770843058824539, -0.14420270919799805, 0.036132022738456726, 0.0070425053127110004, -0.08399464935064316, -0.14875060319900513, 0.1269153356552124, 0.19237199425697327, 0.10009989142417908, 0.0490548238158226, 0.13658621907234192, 0.1942201554775238, 0.20870226621627808, 0.17546139657497406, 0.026103176176548004, -0.17020243406295776, 0.07707314938306808, -0.04601716995239258, -0.0054794372990727425, 0.08754202723503113, 0.07925503700971603, 0.0867253988981247, 0.08710315823554993, -0.04682079330086708, 0.01055586151778698, -0.16956788301467896, -0.013429518789052963, 0.09733740985393524, -0.09646936506032944, 0.10519672930240631, -0.09485194832086563, -0.08439859747886658, -0.1209353506565094, 0.09513426572084427, 0.17839308083057404, -0.1633273959159851, -0.03535008803009987, -0.01810000278055668, 0.07692829519510269, 0.008180506527423859, -0.22854429483413696, 0.07564658671617508, -0.04241127148270607, -0.12398505210876465, -0.0811731144785881, 0.08801290392875671, 0.022193914279341698, 0.07048078626394272, 0.14799591898918152, 0.10218389332294464, 0.11250901967287064, 0.10883186012506485, -0.03697853535413742, -0.12381087243556976, 0.03855374455451965, -0.1085447147488594, 0.07104040682315826, 0.0630171149969101, -0.07417409867048264, 0.04688478261232376, -0.04503115639090538, 0.10433082282543182, 0.10938826948404312, 0.11779975146055222, -0.16680727899074554, -0.039736002683639526], "lin.weight": [[-0.24338878691196442, 0.02754545584321022, 0.19999486207962036, 0.2117754966020584, -0.18619142472743988, -0.0625319555401802, 0.03218889981508255, 0.07213130593299866, 0.10875183343887329, -0.21159090101718903, -0.2431611716747284, -0.17811325192451477, -0.09774759411811829, 0.2165290117263794, -0.2445336878299713, 0.14584077894687653, -0.09326453506946564, 0.18003512918949127, -0.17288823425769806, -0.10523397475481033, -0.06266222149133682, -0.1365264356136322, -0.06022722274065018, 0.2877584993839264, 0.15898852050304413, 0.012170646339654922, 0.026748796924948692, -0.23491942882537842, 0.11767084896564484, 0.14684653282165527, 0.1314184069633484, 0.26564258337020874]], "lin.bias": [0.12828104197978973]}}